//Numpy array shape [128]
//Min -1.191925048828
//Max 1.065765380859
//Number of zeros 0

#ifndef B13_H_
#define B13_H_

#ifndef __SYNTHESIS__
bias13_t b13[128];
#else
bias13_t b13[128] = {-0.171768188476562, 0.127822875976562, 0.833419799804688, 0.234497070312500, 0.384536743164062, 0.386657714843750, 0.177001953125000, 0.027648925781250, 0.135757446289062, -0.526626586914062, -0.027923583984375, -0.091308593750000, 0.343383789062500, 0.086166381835938, -1.042785644531250, 0.088134765625000, -0.211227416992188, 0.155792236328125, 0.224319458007812, 0.467269897460938, 0.095046997070312, 0.543136596679688, -0.018768310546875, -0.072723388671875, -0.045593261718750, 0.878265380859375, 0.277008056640625, 0.135177612304688, -0.183593750000000, 0.414962768554688, -0.320678710937500, 0.358718872070312, 0.159881591796875, 0.202453613281250, 0.166687011718750, 0.034988403320312, -0.106460571289062, -0.428146362304688, 0.314498901367188, -0.133712768554688, 0.137710571289062, 0.275161743164062, -0.039123535156250, -0.104339599609375, 0.013870239257812, -0.212234497070312, 0.654296875000000, 0.057220458984375, -0.126556396484375, 0.049072265625000, 0.113311767578125, -0.730178833007812, 0.257202148437500, 1.065765380859375, 0.079238891601562, -0.007003784179688, -0.138473510742188, 0.128448486328125, 0.893859863281250, 0.241134643554688, -0.195983886718750, 0.438354492187500, 0.055877685546875, -0.129257202148438, -1.191925048828125, 0.378921508789062, 0.384460449218750, 0.227584838867188, 0.938415527343750, 0.052795410156250, 0.125854492187500, 0.353332519531250, 0.219909667968750, -0.156478881835938, 0.449691772460938, 0.337554931640625, 0.621551513671875, -0.124145507812500, 0.155426025390625, 0.229553222656250, 0.194610595703125, -0.098739624023438, 0.234252929687500, 0.276840209960938, 0.009140014648438, 0.575988769531250, 0.569335937500000, 0.170516967773438, -0.803161621093750, 0.138977050781250, 0.130691528320312, 0.098785400390625, 0.249740600585938, -0.133071899414062, 0.229827880859375, 0.012512207031250, 0.023437500000000, -0.224212646484375, 0.250000000000000, 0.456909179687500, 0.059738159179688, 0.568069458007812, -0.138793945312500, -0.524932861328125, 0.165832519531250, 0.130279541015625, 0.498443603515625, 0.101364135742188, 0.188949584960938, 0.524856567382812, 0.180740356445312, 0.115661621093750, -0.135101318359375, -0.070877075195312, 0.346603393554688, -0.153427124023438, 0.379562377929688, -0.035003662109375, 0.365112304687500, 0.428741455078125, -0.158340454101562, 0.224716186523438, 0.289459228515625, 0.346054077148438, -0.051956176757812, 0.061416625976562, 0.544021606445312, 0.164321899414062};
#endif

#endif
