//Numpy array shape [128]
//Min -2.000000000000
//Max 1.984375000000
//Number of zeros 0

#ifndef B13_H_
#define B13_H_

#ifndef __SYNTHESIS__
bias13_t b13[128];
#else
bias13_t b13[128] = {1.984375, -2.000000, -2.000000, -2.000000, -2.000000, 1.984375, -2.000000, 1.984375, -2.000000, 1.984375, 1.984375, -2.000000, 1.984375, -2.000000, 1.984375, 1.984375, -2.000000, 1.984375, 1.984375, 1.984375, -2.000000, 1.984375, 1.984375, 1.984375, 1.984375, -2.000000, 1.531250, -2.000000, -2.000000, 1.984375, 1.984375, -2.000000, -2.000000, 1.984375, 1.984375, 1.984375, -2.000000, 1.984375, 1.984375, -2.000000, 1.984375, 1.984375, 1.984375, 1.984375, 1.984375, -2.000000, 1.984375, -2.000000, 1.984375, 1.984375, 1.984375, 1.984375, -2.000000, 1.984375, 1.984375, -2.000000, 1.984375, 1.984375, 1.984375, 1.984375, 1.984375, -2.000000, 1.984375, 1.984375, 1.984375, -2.000000, 1.984375, -2.000000, 1.984375, -2.000000, -2.000000, 1.984375, 1.984375, 1.984375, -2.000000, 1.984375, -2.000000, 1.984375, -2.000000, -2.000000, -2.000000, 1.984375, 1.984375, 1.984375, 1.984375, 1.984375, -2.000000, 1.312500, 1.984375, -2.000000, 1.984375, -2.000000, -2.000000, 1.984375, 1.984375, -2.000000, 1.984375, -2.000000, -2.000000, -2.000000, 1.984375, -2.000000, 0.515625, 1.984375, -2.000000, -2.000000, -2.000000, -2.000000, 1.984375, -2.000000, 1.984375, 1.984375, 1.984375, 1.984375, 1.984375, 1.984375, -2.000000, -2.000000, -2.000000, 1.984375, -2.000000, -2.000000, -2.000000, -2.000000, 1.984375, 1.984375, -2.000000, 1.984375};
#endif

#endif
