//Numpy array shape [512]
//Min -1.793930053711
//Max 2.703506469727
//Number of zeros 0

#ifndef B18_H_
#define B18_H_

#ifndef __SYNTHESIS__
bias18_t b18[512];
#else
bias18_t b18[512] = {0.017852783203125, -0.047973632812500, -0.850189208984375, -1.400939941406250, 1.399078369140625, -0.710678100585938, 0.205520629882812, 0.002975463867188, 0.045074462890625, 0.189254760742188, -0.331466674804688, 0.060226440429688, -0.195068359375000, -0.913681030273438, -0.887710571289062, -0.040344238281250, 0.232162475585938, 0.281936645507812, -0.040985107421875, -0.989547729492188, 0.679885864257812, -1.782058715820312, 1.353668212890625, 0.341995239257812, 0.496582031250000, -0.094482421875000, -0.482849121093750, -0.608657836914062, -0.204940795898438, -0.727127075195312, -0.028640747070312, -0.327896118164062, -0.144409179687500, 0.137054443359375, -0.436141967773438, -0.275131225585938, -0.390686035156250, 0.015838623046875, 0.962524414062500, -0.919357299804688, 1.788833618164062, -0.063903808593750, 0.467514038085938, 0.689254760742188, 0.246459960937500, -0.913742065429688, -1.007827758789062, 0.619674682617188, 0.054016113281250, -1.537796020507812, 0.577072143554688, -0.223800659179688, -0.264022827148438, -0.520950317382812, 0.172454833984375, -0.596984863281250, -0.386657714843750, 0.230987548828125, 0.035537719726562, -0.081909179687500, 0.794998168945312, 0.063034057617188, 0.418441772460938, -0.445892333984375, -1.036544799804688, -0.572784423828125, 0.312622070312500, -0.138107299804688, 0.268096923828125, 0.420227050781250, 0.701934814453125, -0.740371704101562, -0.517852783203125, -0.027404785156250, -0.740814208984375, 0.097229003906250, 2.566864013671875, -0.489105224609375, 0.176437377929688, 1.396682739257812, 0.453460693359375, -0.094131469726562, 1.092590332031250, -0.058914184570312, 0.445999145507812, 0.656997680664062, -1.421875000000000, 0.095336914062500, -0.770370483398438, -0.255249023437500, -0.091262817382812, 0.482040405273438, 0.219665527343750, -1.184585571289062, 0.287994384765625, 0.310455322265625, -0.106826782226562, -1.443481445312500, 0.158035278320312, 0.150131225585938, -1.793930053710938, 1.233398437500000, -1.608078002929688, -0.069137573242188, -0.474136352539062, -0.184310913085938, -0.442611694335938, -0.444168090820312, -1.465423583984375, 1.459823608398438, -0.063217163085938, -0.200729370117188, 0.651504516601562, 0.156463623046875, 0.012924194335938, 0.609649658203125, 0.803375244140625, -0.323608398437500, 0.154693603515625, -0.075317382812500, -0.325119018554688, 1.007553100585938, 0.578277587890625, 1.544235229492188, 0.595764160156250, -0.671905517578125, 0.500411987304688, 1.584976196289062, -0.053955078125000, 0.503921508789062, 1.194641113281250, 0.087783813476562, 0.297164916992188, 0.046707153320312, 1.478271484375000, 0.407699584960938, 0.276290893554688, -0.920135498046875, -0.314682006835938, -0.788085937500000, -1.211761474609375, 0.522155761718750, 0.072158813476562, -0.431762695312500, 0.529785156250000, 0.756973266601562, -0.005889892578125, 0.530395507812500, -0.713577270507812, -0.051498413085938, 0.823608398437500, -1.681213378906250, 1.799804687500000, 1.307052612304688, 0.772125244140625, -0.647979736328125, -0.979049682617188, -0.173141479492188, -0.024093627929688, 0.711013793945312, -0.537445068359375, 0.167831420898438, -0.040420532226562, -0.081100463867188, -0.557006835937500, -0.413345336914062, -0.848876953125000, 0.492111206054688, -0.602462768554688, 0.611404418945312, 0.494094848632812, 0.510299682617188, -0.351623535156250, 1.342346191406250, 0.308074951171875, -0.128753662109375, 1.541290283203125, -0.568862915039062, 0.402160644531250, 2.188812255859375, -0.033874511718750, -0.338180541992188, 0.197601318359375, -0.219604492187500, -0.538604736328125, -0.232543945312500, 0.228195190429688, -0.586914062500000, 0.301330566406250, -0.145370483398438, 0.356689453125000, 0.445251464843750, 0.866806030273438, -1.196121215820312, 0.581542968750000, -0.368255615234375, 0.149078369140625, -1.012985229492188, 0.400695800781250, -0.483276367187500, 0.827102661132812, -1.677215576171875, -0.631591796875000, 0.021987915039062, 0.667022705078125, 0.052307128906250, 0.596801757812500, -0.573654174804688, 0.871795654296875, -0.572662353515625, -0.399414062500000, 0.731475830078125, 1.368713378906250, -0.264587402343750, 0.266494750976562, -0.226867675781250, -0.428146362304688, -0.083419799804688, 0.297378540039062, 0.077606201171875, 1.047836303710938, 0.293243408203125, -0.480270385742188, -0.486618041992188, 0.801391601562500, -0.974853515625000, 0.289260864257812, 0.228225708007812, -1.254226684570312, -0.449356079101562, -0.182983398437500, -0.552612304687500, 0.522796630859375, 0.793411254882812, -0.429306030273438, -0.999725341796875, 0.142044067382812, -0.654144287109375, -0.121032714843750, 0.101379394531250, 0.097000122070312, -0.005126953125000, -0.186767578125000, 2.290466308593750, -0.491958618164062, 1.183105468750000, -0.016464233398438, 0.026092529296875, 0.115402221679688, -1.782531738281250, -0.096679687500000, 0.718933105468750, 0.119110107421875, -0.611572265625000, 0.098602294921875, 0.021545410156250, -0.364120483398438, -0.177215576171875, 0.317718505859375, -0.996444702148438, 0.478118896484375, 0.386520385742188, -0.091506958007812, -0.400985717773438, -0.051849365234375, 1.430236816406250, 0.311981201171875, -0.180633544921875, 0.486923217773438, 0.134353637695312, -0.702499389648438, 1.734954833984375, -0.473190307617188, -1.046325683593750, -0.081268310546875, -0.156890869140625, 0.695083618164062, -0.001754760742188, 0.013427734375000, 1.063293457031250, 0.176422119140625, 1.010345458984375, 0.398925781250000, 0.092376708984375, 0.594207763671875, 0.542007446289062, -0.222351074218750, 1.026626586914062, -0.604324340820312, 0.596740722656250, -1.128845214843750, 0.089721679687500, -0.121749877929688, 0.414978027343750, 0.268264770507812, 0.191635131835938, 0.070785522460938, -0.375076293945312, -0.413925170898438, -0.527603149414062, -0.450439453125000, -0.348144531250000, 0.741577148437500, -0.676788330078125, 0.113769531250000, -0.284835815429688, 1.581420898437500, -0.721221923828125, -0.025329589843750, 0.177581787109375, 0.219512939453125, -0.318832397460938, -0.647369384765625, -0.110382080078125, 0.126113891601562, -0.131896972656250, -0.323303222656250, -0.150939941406250, -0.216125488281250, 0.395996093750000, -0.544555664062500, -0.565719604492188, 0.365814208984375, 0.216827392578125, 1.037872314453125, 0.780166625976562, 0.641662597656250, -0.396331787109375, -0.032226562500000, -0.896942138671875, -0.619888305664062, 0.680053710937500, 0.456558227539062, -0.299682617187500, -1.423355102539062, -0.160629272460938, -0.480270385742188, -0.366577148437500, 0.284393310546875, 0.089828491210938, 0.157730102539062, 0.071014404296875, 0.121475219726562, -0.190673828125000, 0.348724365234375, -1.490203857421875, 0.883178710937500, 1.532974243164062, -0.726882934570312, 1.238235473632812, -0.518096923828125, -0.517990112304688, -0.842025756835938, -0.389083862304688, 0.096405029296875, 0.773788452148438, -0.040969848632812, -0.279815673828125, -0.522933959960938, -0.005493164062500, -0.545654296875000, 0.418029785156250, 0.355194091796875, 1.281036376953125, -0.738830566406250, -0.677261352539062, 1.032791137695312, -0.140014648437500, -0.244277954101562, -0.795730590820312, 0.363830566406250, 0.550781250000000, -1.730529785156250, -0.859558105468750, -0.048614501953125, 0.848937988281250, 0.200180053710938, -0.450164794921875, -1.332382202148438, -0.289306640625000, -0.510208129882812, -0.645446777343750, 0.186569213867188, 1.219894409179688, 0.109069824218750, -0.396453857421875, -0.544967651367188, -0.112121582031250, 1.500778198242188, -0.320419311523438, 1.356414794921875, -0.047378540039062, -0.069808959960938, -0.104125976562500, 0.742996215820312, 0.313354492187500, -0.873168945312500, 1.852310180664062, -0.671157836914062, -0.282836914062500, -0.407897949218750, -1.697753906250000, -0.212829589843750, -0.370651245117188, 0.341415405273438, 0.014892578125000, -0.141921997070312, -0.378784179687500, -0.980438232421875, -0.288619995117188, 2.703506469726562, 0.361785888671875, -0.493515014648438, -0.774414062500000, 2.404541015625000, -0.105026245117188, -0.436767578125000, 0.441696166992188, 0.345550537109375, -0.158111572265625, -0.939392089843750, -0.172317504882812, 0.847702026367188, 0.271759033203125, -0.462997436523438, -0.993362426757812, 0.698577880859375, -0.366363525390625, -0.043380737304688, -0.860671997070312, 0.735809326171875, -0.005538940429688, -0.298019409179688, -0.029296875000000, 0.122833251953125, -0.408325195312500, -0.824630737304688, -0.131134033203125, 1.048843383789062, 0.064666748046875, -0.223175048828125, 0.130645751953125, 0.790817260742188, 2.144378662109375, 0.261840820312500, 0.505706787109375, 0.071563720703125, 0.012207031250000, -1.469787597656250, -0.297454833984375, -0.135604858398438, 0.288330078125000, -0.016845703125000, -0.169738769531250, 0.079193115234375, -0.393020629882812, 0.654556274414062, -0.323043823242188, 0.033081054687500, 0.365676879882812, 0.186370849609375, -0.805770874023438, 0.386535644531250, 0.293701171875000, -0.598571777343750, 0.271041870117188, 0.549987792968750, -0.002136230468750, -0.298294067382812, 0.760726928710938, -0.007843017578125, -0.708526611328125, 0.341979980468750, 1.172760009765625, 0.005050659179688, 0.362442016601562, -0.311737060546875, 0.354782104492188, -0.873458862304688, -0.160476684570312, -0.345321655273438, 0.199645996093750, -0.433395385742188, -0.135574340820312, -0.827468872070312, 0.092712402343750, -0.147644042968750, 0.471572875976562, -0.524749755859375, 0.663482666015625, 0.989517211914062, -0.999023437500000, -0.147247314453125, -0.926666259765625, -0.219253540039062, -0.298904418945312, -0.314254760742188, -0.424713134765625, -1.480255126953125, -0.873382568359375, -0.647766113281250, 0.743576049804688, 1.456344604492188, 0.181472778320312, -0.529159545898438, -0.174804687500000, 0.971740722656250, 0.569305419921875, -0.507949829101562, 1.242263793945312, 1.269088745117188, -0.141448974609375};
#endif

#endif
