//Numpy array shape [128]
//Min -0.797149658203
//Max 0.729354858398
//Number of zeros 0

#ifndef B1_3_H_
#define B1_3_H_

#ifndef __SYNTHESIS__
d_bias13_t b1_3[128];
#else
d_bias13_t b1_3[128] = {0.205032348632812, 0.321044921875000, -0.485610961914062, 0.406356811523438, 0.090484619140625, -0.031845092773438, 0.363311767578125, 0.270889282226562, -0.593795776367188, 0.271209716796875, -0.357330322265625, 0.190933227539062, -0.291305541992188, 0.012222290039062, 0.080657958984375, 0.018066406250000, 0.078231811523438, -0.012710571289062, 0.287551879882812, 0.059768676757812, 0.186096191406250, 0.729354858398438, 0.253250122070312, 0.054412841796875, -0.455627441406250, 0.093246459960938, 0.205368041992188, 0.119644165039062, -0.493743896484375, 0.072296142578125, -0.039367675781250, -0.051132202148438, -0.368408203125000, 0.170455932617188, 0.399322509765625, -0.481369018554688, 0.038635253906250, 0.154449462890625, -0.240982055664062, -0.040023803710938, -0.046310424804688, 0.122772216796875, 0.068191528320312, 0.113983154296875, 0.152328491210938, -0.139648437500000, 0.053192138671875, -0.074172973632812, 0.034500122070312, -0.032791137695312, 0.238052368164062, -0.199859619140625, -0.087860107421875, 0.025222778320312, -0.385421752929688, 0.033172607421875, 0.040863037109375, -0.066375732421875, 0.470153808593750, 0.084014892578125, 0.123260498046875, 0.064849853515625, 0.108489990234375, 0.078689575195312, -0.171890258789062, 0.486892700195312, -0.211166381835938, 0.138961791992188, -0.270019531250000, -0.028869628906250, -0.774765014648438, 0.079772949218750, 0.296463012695312, 0.394348144531250, 0.697463989257812, 0.281250000000000, -0.087387084960938, -0.017761230468750, 0.218338012695312, 0.071426391601562, 0.143508911132812, 0.458068847656250, 0.077407836914062, -0.620925903320312, 0.000915527343750, -0.581069946289062, 0.411499023437500, -0.670578002929688, -0.040603637695312, -0.030075073242188, 0.094696044921875, 0.564025878906250, -0.472137451171875, -0.028198242187500, -0.467453002929688, -0.490798950195312, 0.421813964843750, 0.072967529296875, -0.797149658203125, -0.550781250000000, 0.252212524414062, 0.280319213867188, 0.327423095703125, 0.531265258789062, -0.446121215820312, 0.024459838867188, 0.204956054687500, -0.321548461914062, 0.193344116210938, -0.119659423828125, 0.000427246093750, 0.277542114257812, 0.443145751953125, 0.105484008789062, -0.037521362304688, 0.036743164062500, 0.048095703125000, -0.202575683593750, 0.383209228515625, 0.070266723632812, -0.541641235351562, 0.324600219726562, -0.551834106445312, -0.489746093750000, -0.603271484375000, 0.098144531250000, 0.100418090820312, 0.050369262695312};
#endif

#endif
