//Numpy array shape [1024]
//Min -2.318847656250
//Max 2.546844482422
//Number of zeros 0

#ifndef B22_H_
#define B22_H_

#ifndef __SYNTHESIS__
bias22_t b22[1024];
#else
bias22_t b22[1024] = {1.321960449218750, -1.022827148437500, -0.164733886718750, 0.445785522460938, 0.276657104492188, 0.412368774414062, 0.589416503906250, -1.518020629882812, 0.395889282226562, 1.103073120117188, 0.512268066406250, 0.683837890625000, -0.666107177734375, 0.434967041015625, 0.359405517578125, -0.010223388671875, 0.050552368164062, -0.114944458007812, -0.410507202148438, -0.253433227539062, -0.908020019531250, 0.146621704101562, 0.253494262695312, 0.698791503906250, -1.236312866210938, -0.124313354492188, 0.308685302734375, 0.715255737304688, 0.013198852539062, -0.206985473632812, 0.781585693359375, -0.211334228515625, 0.198898315429688, 0.218032836914062, -0.056961059570312, 0.155792236328125, 1.100067138671875, 0.202346801757812, 0.279678344726562, -0.035049438476562, 0.097290039062500, -0.678329467773438, 0.529449462890625, -0.640975952148438, 1.069458007812500, -0.392929077148438, -0.111511230468750, 0.269714355468750, -0.053771972656250, 0.331588745117188, -0.915664672851562, -1.371200561523438, -0.063018798828125, -0.465286254882812, 0.666931152343750, 0.708160400390625, 0.024490356445312, 0.547225952148438, 0.711257934570312, 0.224227905273438, 0.265289306640625, 0.377304077148438, -0.126693725585938, -0.024978637695312, -0.390258789062500, 0.049102783203125, 0.041290283203125, 0.717208862304688, 0.380661010742188, 0.197540283203125, -0.665390014648438, 0.283554077148438, 1.698776245117188, 0.920074462890625, 0.714462280273438, 0.026626586914062, 0.070449829101562, 0.475265502929688, 0.108108520507812, -0.067214965820312, 0.290176391601562, -0.863525390625000, 0.322357177734375, 0.450164794921875, 0.186843872070312, 0.501022338867188, 0.706710815429688, 0.749511718750000, 1.288131713867188, -0.074813842773438, -0.664138793945312, 0.723876953125000, 0.109375000000000, 0.333648681640625, 0.378417968750000, 0.243194580078125, 0.022583007812500, 0.283966064453125, -1.835021972656250, 1.194335937500000, 0.008316040039062, -0.140274047851562, -0.569046020507812, 0.343688964843750, 0.280349731445312, 0.377258300781250, -0.639465332031250, -1.337600708007812, 0.435394287109375, 0.060653686523438, 0.233871459960938, 0.090423583984375, 0.306610107421875, 0.634613037109375, -0.239685058593750, 0.256195068359375, 0.324768066406250, 0.128204345703125, 0.160614013671875, 0.444351196289062, 0.072021484375000, 0.309295654296875, -1.551132202148438, 0.157119750976562, 0.237701416015625, -0.036972045898438, 0.005722045898438, 0.911758422851562, 0.013656616210938, 0.406814575195312, 0.735641479492188, 0.105209350585938, 0.341903686523438, 0.290283203125000, 0.122512817382812, -0.317749023437500, 0.358718872070312, 0.403945922851562, -0.501495361328125, 1.137496948242188, 0.396881103515625, -0.056304931640625, 0.363922119140625, 0.192047119140625, -0.956237792968750, 0.035659790039062, -0.035202026367188, -0.055023193359375, 0.505920410156250, 0.362106323242188, 0.421340942382812, 0.090133666992188, -0.093536376953125, 0.035217285156250, -1.344894409179688, 0.484603881835938, -0.371902465820312, 0.178009033203125, 0.080291748046875, 0.128326416015625, 0.349929809570312, 0.144683837890625, -0.560424804687500, -0.964874267578125, -0.414642333984375, 0.074371337890625, -0.045593261718750, 0.164840698242188, 0.355987548828125, -0.206436157226562, 0.159255981445312, 0.457717895507812, -0.454193115234375, 0.223831176757812, 0.176559448242188, -0.010543823242188, 1.735687255859375, -0.137039184570312, -0.125503540039062, -0.196029663085938, 0.653686523437500, 0.087539672851562, 1.038223266601562, 0.326416015625000, 0.066558837890625, 0.146347045898438, 0.540496826171875, 0.557922363281250, -1.032135009765625, 0.246017456054688, 0.150588989257812, 0.626693725585938, 0.378036499023438, 0.017761230468750, 0.055877685546875, -0.583068847656250, -0.116256713867188, 1.049484252929688, -0.129592895507812, -1.810287475585938, 0.140213012695312, 0.094940185546875, 0.095550537109375, -0.523834228515625, 1.092880249023438, 0.401092529296875, 0.836746215820312, 0.008285522460938, -0.221374511718750, -0.149612426757812, -0.379730224609375, -0.286636352539062, 0.421081542968750, 0.121505737304688, -0.016326904296875, -0.619827270507812, 0.169158935546875, 0.294570922851562, 0.365539550781250, 0.126358032226562, -0.081130981445312, 0.780593872070312, 1.010177612304688, 0.328598022460938, -0.498107910156250, 0.608779907226562, -0.209716796875000, 0.081314086914062, 0.098678588867188, 0.652420043945312, 0.215026855468750, -1.249465942382812, -0.096542358398438, 0.321075439453125, -0.264236450195312, 0.014678955078125, 0.104309082031250, 0.111846923828125, -0.135421752929688, -0.209411621093750, 1.114151000976562, 0.471740722656250, -0.289535522460938, 0.002807617187500, -0.776107788085938, -0.138259887695312, 0.006103515625000, 0.048980712890625, -0.141647338867188, 0.583877563476562, 0.242050170898438, 0.569610595703125, 0.170867919921875, -0.736953735351562, 0.074630737304688, 0.409606933593750, 0.496109008789062, 0.509033203125000, -0.038818359375000, 0.068740844726562, 0.142929077148438, -0.739166259765625, 0.027679443359375, 0.705718994140625, 0.221755981445312, 0.224151611328125, -0.614639282226562, -0.624816894531250, -1.413574218750000, 0.483337402343750, 0.070785522460938, 0.305068969726562, -1.481796264648438, -0.953201293945312, -2.012664794921875, -1.090988159179688, 0.358825683593750, -0.390258789062500, 0.164382934570312, 0.852310180664062, 0.661315917968750, 0.363281250000000, 0.164688110351562, 0.100006103515625, 0.512298583984375, -0.091629028320312, 0.339920043945312, -0.273422241210938, 0.024520874023438, -0.345489501953125, -0.127151489257812, -1.162139892578125, 0.116531372070312, 0.238540649414062, -0.091400146484375, -0.194396972656250, 0.556762695312500, 0.102111816406250, 0.120910644531250, 0.656555175781250, 0.588470458984375, 0.135528564453125, -0.217544555664062, 0.584228515625000, -0.827148437500000, -0.311355590820312, 0.826400756835938, 0.084197998046875, 0.778717041015625, 0.096252441406250, -0.116165161132812, 0.166488647460938, 0.131225585937500, -0.059005737304688, 0.407302856445312, 0.159255981445312, 0.226974487304688, 0.004714965820312, 0.015335083007812, 0.585021972656250, 0.253631591796875, -0.119659423828125, -0.033859252929688, 0.487655639648438, -0.071411132812500, 0.233139038085938, -0.142974853515625, 0.101821899414062, 0.277236938476562, 0.761474609375000, 0.811706542968750, 0.471450805664062, -0.005523681640625, 0.215927124023438, 0.457962036132812, 0.229888916015625, 0.539184570312500, 0.228424072265625, -0.213943481445312, -0.468048095703125, 0.623870849609375, 0.575592041015625, -0.033645629882812, 0.744796752929688, 0.149047851562500, 0.174896240234375, 0.337051391601562, -0.207077026367188, -0.210510253906250, 0.117523193359375, 0.050155639648438, -0.197753906250000, 0.053253173828125, -0.133911132812500, 0.790985107421875, 0.341278076171875, 0.208923339843750, -0.772521972656250, 0.753082275390625, 0.895797729492188, 2.546844482421875, -0.525695800781250, 0.585372924804688, -1.306549072265625, -0.127899169921875, 0.314453125000000, 0.512527465820312, 0.330764770507812, 0.732528686523438, -0.739868164062500, -0.356262207031250, -0.467697143554688, 0.630264282226562, 0.882385253906250, 1.116760253906250, -0.215896606445312, -0.166534423828125, -0.082458496093750, 0.457229614257812, -0.514953613281250, 0.369720458984375, -0.103363037109375, 0.362701416015625, -0.789642333984375, 0.437500000000000, -0.135498046875000, 0.353408813476562, 0.596267700195312, 0.206100463867188, 1.209365844726562, -1.250564575195312, -0.828567504882812, -0.454391479492188, -0.083358764648438, -0.562713623046875, 0.449539184570312, -0.755676269531250, 0.942367553710938, 1.079345703125000, 0.164520263671875, 0.224822998046875, 0.727523803710938, 0.433120727539062, 2.191925048828125, 0.254074096679688, 0.430587768554688, -0.111663818359375, -0.248535156250000, 0.196624755859375, -0.752685546875000, -0.258209228515625, -0.522399902343750, 0.891326904296875, -0.204910278320312, 0.139617919921875, 0.069961547851562, -0.316711425781250, 0.624374389648438, 0.167938232421875, 0.193466186523438, -0.006469726562500, 0.428802490234375, 0.317779541015625, -0.701644897460938, 0.767379760742188, 0.224822998046875, -0.165908813476562, -1.631546020507812, 1.377212524414062, -0.854721069335938, -0.851837158203125, -0.190322875976562, 0.077270507812500, 0.619537353515625, -0.159729003906250, -0.039154052734375, -0.103302001953125, 0.362167358398438, -1.247375488281250, 0.192382812500000, -0.129776000976562, 1.239089965820312, 0.119720458984375, -0.055847167968750, 0.117034912109375, -0.036285400390625, -0.470886230468750, -0.126754760742188, 0.630386352539062, -0.325546264648438, -0.925308227539062, 0.939300537109375, 0.023254394531250, 0.571929931640625, 0.933883666992188, 0.606140136718750, 0.295669555664062, 0.286712646484375, -0.007781982421875, -0.225326538085938, 0.461486816406250, 0.447875976562500, -0.255157470703125, 0.208648681640625, 0.902694702148438, 0.668716430664062, -0.744735717773438, -0.033828735351562, 0.537017822265625, -1.924041748046875, 0.265991210937500, 0.244949340820312, -0.085723876953125, 0.062210083007812, -0.505691528320312, -0.093124389648438, 0.098342895507812, -0.218353271484375, 0.468444824218750, -0.162796020507812, -0.281570434570312, 0.462203979492188, -0.102416992187500, 0.086441040039062, -0.303070068359375, 0.638977050781250, -0.217620849609375, -0.159240722656250, 0.622756958007812, -0.435028076171875, 0.066101074218750, -0.038558959960938, -0.293777465820312, 0.421081542968750, 0.847244262695312, 0.014770507812500, -0.155456542968750, 0.026519775390625, 0.076278686523438, -0.630279541015625, -1.237594604492188, 0.745773315429688, 0.674453735351562, 0.016860961914062, 0.335342407226562, -0.020416259765625, 0.730545043945312, 0.933395385742188, 0.054077148437500, 0.126510620117188, 0.364334106445312, 0.138610839843750, -0.051437377929688, 0.029708862304688, 0.415023803710938, 0.542419433593750, -0.538452148437500, -1.158020019531250, 0.265182495117188, -1.053207397460938, -0.028762817382812, 2.062850952148438, 0.107879638671875, 1.811813354492188, 0.478836059570312, -0.786651611328125, -0.134475708007812, 0.000106811523438, 0.531387329101562, -0.743606567382812, 0.299316406250000, 0.973510742187500, 0.623138427734375, 0.245758056640625, -0.550460815429688, 0.528533935546875, 0.020111083984375, -0.280685424804688, -0.010086059570312, 0.256729125976562, 0.811889648437500, 0.231216430664062, -0.026657104492188, -0.085220336914062, 0.829483032226562, 0.849777221679688, -0.866851806640625, -0.053939819335938, -0.712692260742188, -0.081100463867188, -0.593505859375000, 0.786178588867188, -0.323211669921875, -0.194274902343750, 0.624267578125000, -0.304748535156250, 0.003524780273438, -1.058898925781250, -0.006332397460938, 0.449584960937500, -0.222518920898438, 0.225021362304688, -0.439956665039062, 0.168746948242188, 0.790283203125000, 0.224960327148438, -0.441604614257812, -0.548980712890625, -0.018493652343750, -0.086380004882812, -0.122467041015625, 0.602218627929688, -0.313079833984375, -0.854919433593750, 1.238616943359375, 0.081176757812500, 0.321075439453125, 0.275558471679688, 1.096618652343750, -0.214859008789062, 0.158081054687500, 0.651748657226562, -1.292724609375000, 0.106353759765625, -0.200027465820312, 0.340637207031250, 0.929763793945312, 0.085754394531250, -0.117813110351562, 0.618011474609375, 0.194610595703125, -0.651428222656250, 0.245697021484375, -0.053253173828125, -0.223556518554688, 0.316574096679688, 0.362747192382812, 0.278488159179688, -0.111511230468750, 0.178497314453125, -1.311218261718750, 0.255538940429688, 0.361328125000000, 0.711212158203125, -0.106002807617188, -0.965347290039062, 0.842559814453125, 0.198059082031250, 0.363586425781250, 0.428329467773438, -1.650161743164062, 0.179122924804688, 0.299316406250000, 0.227981567382812, 0.177780151367188, 0.093704223632812, -0.738220214843750, 0.009429931640625, -0.117248535156250, -0.505691528320312, 0.065139770507812, 0.733963012695312, -0.091918945312500, 0.370422363281250, 0.106750488281250, -0.717453002929688, 0.738067626953125, 1.416442871093750, -0.306350708007812, 0.366302490234375, 0.540634155273438, 0.540847778320312, 0.488204956054688, -0.453689575195312, -0.129211425781250, 1.207992553710938, -0.041244506835938, -0.063751220703125, -0.267471313476562, 0.024322509765625, -0.009277343750000, 0.798782348632812, 0.275238037109375, 0.446853637695312, 0.550170898437500, -0.152206420898438, -0.832992553710938, 0.785980224609375, -0.026901245117188, -0.006149291992188, 0.594924926757812, 0.602645874023438, -2.318847656250000, 0.969451904296875, 0.556655883789062, 0.881774902343750, 0.031066894531250, 0.260589599609375, 0.337631225585938, 0.733642578125000, -0.623428344726562, 0.545593261718750, 0.149658203125000, 1.248321533203125, 0.249481201171875, 0.700363159179688, 0.478164672851562, -0.117416381835938, 0.299163818359375, 1.949569702148438, 0.336547851562500, 0.352615356445312, 0.309799194335938, -0.018249511718750, -0.973907470703125, -0.589843750000000, 0.275497436523438, -0.653961181640625, 0.801101684570312, -0.601791381835938, -0.263381958007812, 0.190551757812500, 0.036911010742188, 0.596572875976562, 1.135635375976562, 0.315338134765625, 0.304260253906250, 0.812194824218750, 0.500457763671875, -0.094757080078125, -0.300872802734375, 0.463668823242188, 0.009353637695312, 1.104217529296875, 0.472305297851562, 0.813949584960938, 0.103912353515625, 0.776412963867188, -0.057296752929688, 0.871795654296875, 0.705307006835938, 0.326400756835938, -1.324645996093750, 0.139038085937500, 0.290802001953125, 0.365249633789062, 0.200347900390625, -0.889205932617188, 0.399169921875000, 0.456924438476562, -0.262512207031250, 0.813629150390625, -0.683349609375000, -0.069168090820312, -0.242416381835938, 0.296279907226562, 0.305450439453125, -0.253738403320312, 0.214645385742188, 0.612548828125000, -0.372665405273438, 0.243850708007812, 0.037521362304688, 0.140640258789062, -0.237609863281250, 0.348495483398438, 0.101226806640625, -0.050369262695312, -0.114913940429688, 0.238906860351562, -0.057464599609375, 0.168319702148438, 0.608703613281250, 0.050659179687500, -0.207763671875000, 1.042098999023438, -0.369369506835938, 0.199645996093750, -0.052795410156250, -0.303588867187500, -0.460494995117188, 0.031936645507812, -0.147232055664062, 0.686233520507812, -0.037094116210938, 0.940429687500000, 0.235107421875000, 0.173797607421875, 0.411361694335938, -0.047851562500000, 0.543334960937500, -0.370651245117188, 0.808258056640625, -0.546127319335938, 1.231674194335938, -0.409515380859375, -0.699462890625000, -1.171829223632812, -0.345733642578125, 0.627944946289062, 0.054199218750000, -0.652313232421875, 0.436431884765625, -0.106903076171875, -0.015182495117188, 0.057571411132812, 0.483139038085938, 0.822631835937500, -0.231918334960938, -0.511154174804688, -0.846694946289062, -0.220077514648438, 0.377609252929688, -0.741073608398438, 0.211639404296875, 0.137802124023438, 0.254791259765625, 1.148895263671875, 0.546478271484375, 0.438812255859375, 0.115646362304688, 0.108261108398438, -0.180419921875000, 0.294998168945312, -0.261383056640625, -0.036026000976562, 0.569427490234375, -0.124633789062500, -1.509368896484375, -0.768707275390625, -0.091613769531250, 0.247207641601562, -0.220214843750000, 0.246948242187500, 0.434555053710938, -0.004394531250000, 0.269134521484375, -0.255050659179688, 0.121261596679688, -0.033081054687500, 0.570968627929688, -0.254226684570312, -0.985183715820312, 0.358154296875000, 0.142089843750000, -0.083831787109375, -0.381683349609375, 0.216140747070312, 0.339828491210938, 0.249023437500000, 0.441024780273438, 0.576873779296875, 0.205413818359375, 0.844009399414062, -0.128204345703125, -0.006973266601562, -1.080917358398438, 0.080017089843750, -0.098876953125000, 0.218994140625000, 0.922866821289062, 0.690734863281250, 0.057952880859375, 0.144424438476562, -0.086380004882812, 0.316101074218750, -0.324310302734375, 0.724548339843750, -0.250564575195312, -0.144409179687500, 0.115371704101562, 0.438323974609375, 0.496551513671875, 0.066925048828125, 1.262283325195312, 0.169784545898438, 1.186752319335938, 0.750335693359375, 0.581512451171875, 0.579498291015625, 0.149383544921875, -0.393524169921875, -0.554641723632812, -0.132980346679688, 0.108566284179688, -0.591018676757812, 0.126937866210938, -0.187820434570312, 0.689651489257812, -0.529190063476562, 0.500564575195312, 0.581283569335938, 0.835403442382812, 0.166275024414062, 0.327514648437500, 0.264770507812500, 0.886932373046875, 1.145736694335938, 0.007369995117188, 0.656112670898438, 0.065612792968750, -0.132858276367188, 0.208450317382812, 0.345901489257812, -0.080642700195312, -0.041885375976562, 0.288146972656250, -0.306396484375000, -0.143173217773438, 0.373413085937500, 0.647125244140625, 0.282180786132812, 0.516113281250000, -0.663131713867188, 0.254730224609375, 0.467895507812500, 0.719177246093750, 0.250228881835938, 1.683349609375000, -0.296478271484375, 0.385482788085938, 0.031646728515625, 0.395462036132812, -0.083358764648438, 0.197921752929688, -0.018005371093750, -1.042083740234375, 0.111358642578125, -0.332778930664062, 0.101043701171875, -0.280502319335938, 0.363937377929688, 0.062789916992188, -0.574874877929688, 1.012908935546875, 0.267684936523438, 0.488311767578125, 0.388031005859375, -0.480880737304688, -0.227920532226562, 0.482345581054688, 0.185455322265625, 0.470932006835938, -0.288558959960938, 0.139846801757812, 0.339721679687500, -0.058441162109375, 0.139007568359375, -0.107971191406250, -0.493835449218750, 0.184249877929688, 0.299530029296875, 0.038146972656250, 0.502410888671875, -0.023651123046875, 0.539596557617188, -0.496109008789062, -0.173156738281250, -0.026672363281250, 0.737106323242188, 0.491043090820312, 0.527999877929688, 0.649276733398438, 0.086853027343750, 0.169647216796875, 0.459991455078125, -0.206283569335938, 0.387771606445312, -0.907821655273438, 0.234451293945312, 0.544143676757812, 0.269454956054688, 0.112365722656250, 0.119857788085938, -0.949401855468750, 0.115447998046875, 0.420150756835938, -1.476501464843750, 0.523162841796875, 0.301834106445312, 0.325653076171875, 0.267257690429688, 0.170944213867188, 0.029342651367188, 0.063903808593750, -0.014678955078125, 0.717422485351562, 0.131958007812500, -1.208175659179688, 0.005294799804688, 0.340454101562500, -0.566345214843750, -0.171539306640625, -0.822784423828125, 0.293472290039062, 0.148895263671875, 0.672851562500000, 0.173843383789062, 0.640213012695312, -0.028091430664062, -0.089355468750000, 0.363037109375000, 0.160842895507812, -0.450210571289062, -0.039657592773438, 0.325759887695312, 0.063537597656250, 0.225723266601562, 0.055374145507812, 0.711456298828125, 0.816177368164062, 0.595184326171875, -0.103912353515625, 0.166076660156250, 0.266357421875000, 0.602859497070312, 0.169464111328125, 0.320602416992188, 0.304016113281250, 0.540588378906250, -0.043029785156250, 0.362152099609375, 1.138641357421875, 0.475708007812500, 0.126525878906250, 0.451370239257812, 0.028976440429688, 0.439849853515625, -1.188720703125000, 0.224975585937500, -1.202972412109375, 0.910110473632812, 0.138778686523438, 1.102142333984375, -0.244659423828125, -0.032897949218750, 0.207458496093750, 1.011199951171875, 1.034561157226562, -0.850402832031250, 0.149566650390625, -0.194808959960938, 1.204040527343750, 0.965225219726562, 0.016113281250000, -0.333740234375000, 0.609680175781250, 0.123291015625000, 0.713699340820312, 0.241821289062500, 0.079284667968750, 0.539306640625000, 0.390213012695312, 0.072463989257812, 0.005218505859375, 0.415252685546875, 0.128097534179688, 0.780654907226562, 0.441360473632812, 0.383499145507812, 0.379745483398438, 0.577972412109375, -0.273818969726562, 0.118652343750000};
#endif

#endif
