//Numpy array shape [992]
//Min -0.187500000000
//Max 0.062500000000
//Number of zeros 68

#ifndef B24_H_
#define B24_H_

#ifndef __SYNTHESIS__
bias24_t b24[992];
#else
bias24_t b24[992] = {-0.015625, 0.046875, -0.046875, -0.015625, -0.015625, -0.015625, -0.031250, -0.015625, 0.031250, -0.031250, 0.015625, -0.015625, 0.046875, -0.015625, -0.015625, 0.000000, -0.031250, 0.015625, -0.031250, -0.015625, 0.046875, 0.015625, -0.015625, -0.031250, -0.015625, -0.015625, 0.031250, 0.062500, -0.015625, -0.015625, -0.015625, 0.046875, 0.031250, -0.015625, 0.062500, -0.015625, -0.015625, -0.031250, 0.031250, 0.000000, -0.031250, 0.015625, -0.015625, 0.046875, -0.015625, -0.015625, 0.031250, -0.015625, -0.015625, -0.031250, -0.015625, -0.031250, -0.015625, -0.031250, -0.015625, 0.031250, 0.046875, 0.015625, -0.015625, 0.000000, -0.015625, 0.031250, -0.015625, 0.031250, 0.031250, -0.015625, 0.046875, -0.062500, -0.015625, 0.015625, 0.000000, -0.015625, 0.031250, -0.015625, -0.031250, -0.015625, -0.046875, -0.046875, -0.046875, 0.046875, 0.015625, -0.046875, -0.031250, -0.015625, -0.015625, -0.031250, -0.015625, -0.046875, -0.015625, 0.046875, -0.015625, -0.015625, -0.031250, -0.031250, -0.015625, 0.015625, -0.015625, -0.031250, 0.031250, 0.031250, 0.031250, -0.031250, -0.015625, -0.015625, 0.000000, 0.031250, 0.046875, -0.015625, 0.031250, 0.000000, -0.015625, -0.015625, -0.031250, -0.015625, 0.046875, 0.046875, -0.015625, 0.015625, 0.031250, -0.015625, -0.031250, -0.015625, -0.015625, 0.031250, 0.031250, -0.015625, 0.031250, -0.015625, 0.031250, -0.015625, 0.000000, -0.015625, -0.015625, -0.015625, -0.015625, 0.000000, 0.000000, 0.062500, -0.015625, -0.015625, -0.031250, 0.046875, 0.046875, 0.031250, -0.015625, 0.015625, -0.015625, -0.015625, -0.015625, -0.015625, -0.015625, -0.015625, -0.015625, 0.015625, -0.015625, 0.031250, -0.015625, 0.000000, -0.015625, -0.046875, 0.046875, -0.015625, -0.031250, -0.031250, 0.031250, 0.015625, -0.015625, -0.015625, -0.031250, -0.046875, -0.015625, -0.015625, 0.046875, 0.031250, -0.015625, -0.015625, -0.015625, -0.031250, 0.000000, 0.015625, 0.000000, -0.015625, 0.031250, -0.015625, -0.015625, -0.015625, -0.015625, -0.015625, 0.031250, 0.046875, 0.046875, -0.031250, 0.000000, -0.015625, 0.000000, -0.015625, -0.015625, -0.015625, 0.000000, 0.015625, -0.031250, 0.031250, 0.031250, -0.015625, -0.015625, -0.031250, 0.031250, 0.031250, 0.031250, 0.000000, -0.015625, -0.015625, -0.015625, -0.015625, -0.031250, -0.015625, -0.015625, -0.015625, 0.046875, 0.046875, -0.031250, 0.015625, 0.046875, -0.031250, 0.015625, 0.031250, -0.015625, 0.046875, -0.031250, 0.046875, -0.015625, -0.015625, 0.046875, -0.015625, 0.031250, -0.015625, -0.015625, 0.000000, -0.078125, -0.031250, 0.046875, -0.015625, -0.015625, -0.031250, -0.015625, -0.015625, -0.015625, 0.046875, 0.031250, 0.031250, 0.000000, -0.015625, -0.031250, -0.015625, 0.031250, 0.000000, 0.000000, 0.046875, -0.015625, -0.015625, 0.000000, -0.015625, -0.015625, 0.031250, -0.015625, -0.015625, -0.031250, -0.015625, -0.015625, 0.015625, 0.046875, 0.031250, 0.031250, -0.046875, -0.015625, -0.015625, -0.015625, -0.031250, -0.015625, 0.046875, 0.046875, -0.093750, 0.000000, 0.031250, 0.000000, -0.031250, 0.046875, -0.031250, 0.031250, -0.015625, 0.062500, -0.015625, -0.046875, -0.015625, -0.031250, -0.015625, 0.000000, -0.046875, -0.015625, 0.046875, 0.046875, 0.000000, -0.015625, -0.015625, 0.031250, -0.031250, -0.015625, 0.046875, 0.000000, -0.031250, -0.031250, -0.046875, 0.000000, -0.015625, -0.015625, 0.031250, 0.015625, -0.015625, 0.031250, -0.031250, 0.000000, 0.046875, -0.031250, -0.015625, 0.031250, -0.015625, -0.015625, 0.031250, -0.015625, -0.031250, -0.015625, -0.015625, -0.015625, 0.046875, 0.015625, -0.015625, -0.046875, -0.046875, 0.015625, -0.015625, 0.046875, -0.031250, 0.000000, -0.031250, -0.031250, -0.015625, 0.031250, 0.031250, -0.015625, 0.031250, 0.000000, -0.015625, 0.046875, 0.046875, 0.046875, -0.015625, -0.046875, -0.015625, -0.046875, -0.015625, -0.015625, -0.015625, -0.031250, 0.062500, -0.015625, -0.078125, -0.015625, -0.015625, -0.015625, 0.031250, 0.031250, -0.062500, -0.015625, -0.015625, 0.000000, -0.062500, -0.015625, -0.015625, -0.015625, -0.031250, -0.046875, 0.031250, 0.031250, -0.015625, -0.015625, 0.000000, -0.062500, -0.015625, 0.015625, 0.046875, -0.015625, -0.031250, -0.015625, 0.015625, -0.031250, 0.046875, -0.015625, -0.046875, 0.000000, -0.015625, -0.046875, -0.015625, -0.015625, 0.046875, 0.015625, -0.046875, -0.031250, -0.015625, -0.062500, -0.015625, 0.000000, -0.062500, -0.015625, -0.078125, -0.015625, -0.031250, 0.046875, -0.015625, 0.046875, -0.015625, -0.015625, 0.031250, -0.015625, -0.031250, -0.015625, -0.015625, -0.015625, 0.015625, -0.031250, -0.031250, -0.015625, -0.046875, 0.000000, -0.046875, -0.046875, -0.015625, 0.000000, -0.031250, -0.015625, -0.046875, -0.015625, 0.046875, -0.015625, -0.015625, -0.062500, -0.015625, 0.000000, -0.031250, -0.015625, -0.015625, -0.031250, -0.015625, -0.015625, -0.015625, -0.031250, -0.015625, -0.015625, 0.046875, -0.046875, -0.031250, -0.015625, -0.015625, -0.015625, -0.015625, -0.015625, -0.031250, -0.015625, -0.015625, -0.015625, -0.015625, -0.031250, -0.015625, -0.015625, -0.015625, -0.015625, -0.031250, -0.015625, -0.015625, -0.062500, -0.015625, -0.015625, -0.015625, -0.015625, 0.031250, 0.046875, 0.000000, 0.000000, 0.046875, 0.031250, -0.015625, 0.046875, -0.015625, -0.031250, -0.015625, -0.015625, -0.015625, -0.031250, -0.015625, -0.031250, -0.015625, -0.015625, -0.062500, 0.031250, -0.015625, -0.015625, -0.015625, -0.015625, -0.031250, -0.015625, -0.015625, -0.015625, -0.015625, -0.015625, -0.015625, -0.015625, -0.015625, -0.015625, 0.000000, -0.046875, -0.015625, -0.015625, -0.015625, -0.015625, 0.000000, -0.078125, -0.015625, -0.031250, -0.062500, 0.031250, -0.015625, -0.015625, -0.015625, 0.000000, 0.031250, 0.031250, -0.015625, -0.062500, 0.046875, -0.015625, -0.046875, 0.031250, -0.046875, -0.015625, 0.000000, -0.015625, -0.046875, -0.015625, -0.015625, -0.062500, -0.046875, -0.062500, -0.015625, -0.031250, -0.015625, -0.015625, -0.015625, -0.125000, -0.015625, -0.109375, -0.093750, 0.031250, -0.015625, -0.015625, -0.015625, -0.015625, -0.062500, -0.031250, 0.031250, 0.000000, -0.015625, -0.046875, -0.093750, -0.015625, 0.000000, -0.031250, -0.078125, -0.015625, -0.031250, -0.031250, -0.015625, -0.015625, -0.046875, -0.015625, -0.015625, 0.046875, 0.031250, -0.015625, -0.046875, -0.015625, -0.062500, -0.015625, -0.015625, -0.031250, 0.046875, 0.046875, -0.078125, -0.031250, 0.046875, -0.046875, -0.015625, 0.046875, -0.140625, 0.000000, -0.093750, 0.000000, -0.015625, -0.015625, -0.015625, -0.062500, -0.015625, -0.093750, -0.015625, -0.015625, -0.015625, -0.046875, -0.078125, -0.046875, -0.015625, -0.015625, -0.015625, -0.015625, 0.000000, -0.062500, -0.046875, -0.015625, -0.078125, 0.031250, -0.015625, -0.031250, -0.015625, 0.015625, -0.046875, 0.046875, -0.046875, -0.078125, -0.031250, -0.015625, -0.015625, -0.031250, -0.078125, -0.015625, -0.015625, 0.000000, -0.093750, 0.031250, 0.000000, -0.062500, -0.015625, 0.000000, -0.078125, 0.000000, -0.015625, 0.031250, -0.015625, -0.125000, 0.046875, -0.015625, -0.015625, -0.015625, -0.015625, -0.062500, -0.125000, 0.046875, 0.000000, -0.015625, -0.015625, -0.015625, 0.000000, -0.015625, -0.015625, -0.015625, 0.031250, -0.015625, 0.000000, -0.031250, -0.015625, -0.125000, -0.015625, -0.062500, -0.031250, -0.015625, -0.015625, -0.015625, 0.000000, -0.093750, -0.015625, -0.015625, -0.078125, -0.031250, -0.015625, -0.031250, -0.031250, -0.031250, 0.031250, -0.015625, 0.046875, 0.046875, -0.015625, -0.015625, -0.031250, -0.015625, -0.046875, -0.015625, -0.031250, -0.015625, -0.031250, -0.015625, -0.015625, 0.046875, -0.015625, -0.046875, 0.046875, -0.031250, -0.015625, -0.015625, -0.031250, -0.015625, 0.000000, 0.046875, 0.031250, -0.015625, 0.000000, -0.031250, -0.015625, -0.015625, 0.046875, -0.031250, 0.046875, 0.031250, 0.000000, -0.109375, -0.015625, -0.078125, -0.015625, -0.015625, -0.062500, -0.031250, -0.015625, -0.109375, -0.015625, -0.015625, -0.015625, -0.015625, 0.000000, -0.109375, -0.015625, -0.031250, 0.000000, -0.031250, -0.015625, -0.015625, -0.015625, -0.015625, -0.015625, -0.062500, 0.000000, -0.015625, -0.015625, -0.062500, -0.015625, -0.015625, -0.171875, -0.015625, -0.015625, -0.015625, -0.125000, -0.015625, -0.015625, -0.015625, -0.015625, -0.046875, -0.015625, -0.015625, 0.062500, -0.015625, -0.015625, -0.015625, -0.031250, -0.062500, -0.031250, -0.062500, -0.015625, -0.031250, -0.031250, -0.031250, -0.031250, -0.031250, -0.031250, -0.031250, -0.046875, -0.015625, -0.015625, -0.062500, -0.015625, 0.015625, -0.015625, -0.031250, -0.015625, -0.015625, -0.015625, -0.062500, -0.015625, -0.015625, -0.156250, -0.015625, -0.109375, -0.140625, -0.031250, -0.015625, -0.015625, -0.062500, -0.031250, -0.031250, -0.187500, -0.078125, -0.015625, -0.015625, -0.156250, -0.015625, -0.015625, -0.015625, -0.031250, -0.031250, 0.031250, -0.015625, -0.031250, -0.109375, -0.015625, -0.015625, -0.015625, -0.015625, -0.062500, -0.031250, -0.125000, 0.046875, -0.015625, -0.015625, -0.015625, -0.015625, -0.093750, 0.031250, -0.046875, -0.015625, -0.015625, 0.062500, -0.031250, -0.109375, -0.015625, -0.015625, -0.015625, -0.015625, -0.015625, -0.015625, -0.015625, -0.031250, -0.015625, -0.015625, -0.015625, -0.046875, -0.015625, -0.015625, -0.015625, 0.000000, -0.015625, -0.031250, 0.000000, -0.062500, -0.015625, -0.015625, -0.015625, -0.015625, -0.015625, -0.031250, -0.125000, -0.015625, -0.015625, -0.062500, -0.015625, -0.015625, 0.000000, -0.015625, -0.015625, -0.015625, -0.015625, -0.031250, -0.015625, -0.015625, -0.015625, -0.015625, -0.062500, -0.140625, 0.031250, -0.015625, -0.015625, -0.015625, -0.015625, -0.015625, -0.015625, -0.015625, -0.046875, -0.125000, -0.031250, -0.031250, -0.015625, -0.015625, -0.015625, -0.031250, -0.015625, 0.046875, 0.046875, -0.046875, -0.015625, -0.031250, -0.031250, -0.015625, -0.015625, -0.156250, -0.031250, -0.062500, -0.031250, -0.015625, 0.000000, -0.046875, -0.031250, -0.015625, -0.015625, 0.046875, -0.015625, -0.015625, -0.031250, 0.031250, -0.187500, -0.125000, -0.015625, 0.031250, -0.062500, -0.140625, -0.015625, -0.015625, -0.031250, -0.078125, -0.062500, -0.140625, -0.015625, -0.015625, -0.015625, -0.015625, -0.015625, -0.015625, -0.031250, 0.000000, -0.015625, -0.031250, -0.015625, -0.015625, -0.093750, -0.125000, -0.015625, -0.015625, -0.015625, -0.015625, -0.062500, -0.015625, -0.015625, -0.046875, -0.015625, -0.078125, -0.031250, -0.015625, -0.015625, -0.015625, -0.015625, -0.015625, -0.015625, 0.046875, -0.140625, -0.015625, -0.015625, -0.015625, -0.015625, -0.015625, -0.046875, -0.125000, -0.031250, 0.000000, -0.015625, -0.140625, -0.015625, -0.015625, -0.078125, -0.015625, -0.031250};
#endif

#endif
