//Numpy array shape [128]
//Min -1.021591186523
//Max 1.795028686523
//Number of zeros 0

#ifndef B2_3_H_
#define B2_3_H_

#ifndef __SYNTHESIS__
d_bias23_t b2_3[128];
#else
d_bias23_t b2_3[128] = {1.549484252929688, 0.371932983398438, -0.257080078125000, 0.800796508789062, 0.676010131835938, 0.775390625000000, 0.464035034179688, -0.250274658203125, 1.224502563476562, -0.056442260742188, -0.531753540039062, 0.082992553710938, -0.629882812500000, 1.211837768554688, 0.222213745117188, 1.166778564453125, -0.040008544921875, 0.537826538085938, 0.701858520507812, -0.011138916015625, -0.499511718750000, 0.270050048828125, 0.523696899414062, 0.199234008789062, -0.150955200195312, 1.578018188476562, 0.099288940429688, 1.198547363281250, 0.258605957031250, -0.392257690429688, -0.215377807617188, 0.759811401367188, 0.633483886718750, 0.145126342773438, 0.696945190429688, -0.066452026367188, 0.075576782226562, 0.832534790039062, 0.470275878906250, 0.822738647460938, 0.676208496093750, 0.716506958007812, -0.169387817382812, -0.498367309570312, 0.746856689453125, -0.628356933593750, 0.911743164062500, -0.108047485351562, -1.021591186523438, 0.693542480468750, -0.824829101562500, -0.037872314453125, -0.869964599609375, -0.301727294921875, 0.542007446289062, 0.409713745117188, 0.892425537109375, -0.165649414062500, -0.010177612304688, -0.087478637695312, -0.688949584960938, -0.029571533203125, -0.388381958007812, 0.798721313476562, -0.067367553710938, 0.231643676757812, 0.133880615234375, -0.170623779296875, 1.023834228515625, 0.645172119140625, -0.259002685546875, 0.716720581054688, 0.711944580078125, 0.410964965820312, -0.306701660156250, -0.033813476562500, -0.055023193359375, -0.610153198242188, 1.795028686523438, 0.760284423828125, 0.102890014648438, 0.375289916992188, 0.712554931640625, -0.136154174804688, 0.600341796875000, -0.637725830078125, 0.794647216796875, 0.278808593750000, 1.297027587890625, 0.516571044921875, 0.293640136718750, 0.448822021484375, -0.208236694335938, 0.452590942382812, -0.495635986328125, -0.690536499023438, 0.365493774414062, 1.120559692382812, 0.110946655273438, 0.742172241210938, -0.532791137695312, 0.904449462890625, 0.417495727539062, 0.053894042968750, 0.129135131835938, 1.493286132812500, -0.420547485351562, -0.577041625976562, -0.084823608398438, 0.304122924804688, 1.086074829101562, -0.191177368164062, -0.411544799804688, 0.392410278320312, 0.607849121093750, 0.409362792968750, 0.382934570312500, 0.431137084960938, 0.260711669921875, 0.334503173828125, 0.336608886718750, 0.153198242187500, 0.202346801757812, -0.322891235351562, 0.480590820312500, -0.172103881835938, 0.630691528320312, 0.515975952148438};
#endif

#endif
