//Numpy array shape [128]
//Min -0.046875000000
//Max 0.046875000000
//Number of zeros 75

#ifndef B59_H_
#define B59_H_

#ifndef __SYNTHESIS__
bias59_t b59[128];
#else
bias59_t b59[128] = {-0.921875, -2.000000, -1.109375, 1.468750, 0.718750, 1.000000, 1.515625, 1.328125, -0.500000, -0.421875, 1.796875, 1.765625, -0.125000, -0.406250, 0.546875, -0.078125, 1.984375, 0.890625, -0.593750, 0.265625, 0.015625, 0.234375, -1.093750, 1.984375, -0.203125, 0.312500, -0.375000, 0.750000, -0.515625, 0.156250, 1.046875, 1.187500, 0.359375, -0.281250, 0.140625, 0.015625, 1.312500, 1.984375, -0.750000, -0.500000, 0.281250, -1.312500, 0.062500, 0.218750, -0.609375, -0.031250, -0.718750, 0.265625, 0.390625, -0.906250, 0.171875, 1.156250, 0.906250, -0.437500, -1.000000, 1.343750, -0.500000, -0.671875, -0.921875, -0.234375, 0.859375, -1.593750, -0.265625, -1.921875, 0.515625, 0.093750, -1.562500, -0.812500, 0.140625, -1.078125, 0.109375, -1.296875, 0.515625, 0.078125, -0.421875, 0.078125, 1.984375, 1.437500, 0.921875, -0.265625, -0.640625, -0.609375, 0.812500, 0.703125, 0.531250, -0.140625, -0.343750, 1.343750, 0.078125, 0.656250, -1.328125, -0.453125, 1.984375, 0.187500, -0.015625, -0.015625, 0.406250, -1.078125, -0.843750, -0.765625, 0.250000, -1.250000, -0.687500, -0.906250, 1.015625, 0.125000, 0.359375, -1.156250, -1.640625, 0.218750, 0.125000, -0.859375, 0.937500, -0.328125, -0.937500, -0.906250, -0.421875, -0.296875, -1.031250, 0.671875, -1.250000, 1.937500, 0.093750, 0.984375, 0.031250, 0.312500, 0.453125, -0.359375};
#endif

#endif
