//Numpy array shape [128]
//Min -0.011398315430
//Max 0.019104003906
//Number of zeros 3

#ifndef B59_H_
#define B59_H_

#ifndef __SYNTHESIS__
bias59_t b59[128];
#else
bias59_t b59[128] = {-1.819580078125000, -1.178558349609375, 0.613311767578125, -1.402572631835938, 1.295486450195312, -0.639404296875000, -0.506027221679688, 2.115249633789062, -1.237823486328125, 1.401245117187500, 0.026641845703125, -1.103042602539062, -1.440643310546875, -0.204803466796875, 0.346771240234375, 1.680358886718750, -1.369033813476562, -0.448623657226562, 0.474182128906250, -1.019805908203125, -2.037063598632812, -0.573043823242188, 1.374496459960938, -1.199554443359375, 1.668609619140625, -1.023956298828125, 1.683380126953125, 0.909347534179688, 1.128097534179688, -1.079467773437500, 1.906875610351562, 1.966842651367188, -0.943572998046875, 0.795944213867188, 0.119216918945312, 2.139389038085938, -0.047592163085938, 2.245269775390625, 1.663024902343750, -0.271667480468750, -0.113876342773438, 1.485488891601562, 1.127075195312500, 0.902572631835938, -1.040130615234375, -0.768066406250000, -1.212799072265625, -0.977859497070312, 1.541198730468750, -1.947052001953125, -0.528823852539062, -0.311691284179688, 1.932037353515625, 1.806716918945312, -0.083114624023438, 1.676986694335938, -0.992538452148438, 1.904052734375000, 1.808013916015625, 1.826004028320312, 1.503921508789062, -0.098754882812500, -1.442047119140625, -1.279541015625000, 1.775115966796875, -1.665481567382812, -0.275421142578125, -1.537353515625000, 1.372177124023438, 1.742385864257812, -0.723678588867188, 1.864883422851562, 0.381958007812500, 1.151779174804688, 1.666671752929688, -0.342147827148438, -0.212020874023438, -0.381347656250000, -0.037063598632812, -1.156448364257812, -1.159591674804688, -0.671005249023438, -0.310119628906250, -1.365615844726562, 2.037094116210938, -0.474166870117188, -0.203903198242188, 1.555496215820312, 0.726425170898438, 0.066604614257812, -1.655578613281250, 1.701278686523438, 1.927398681640625, 1.578689575195312, 1.709350585937500, -1.705734252929688, 0.051361083984375, 1.831222534179688, -1.845382690429688, -0.856094360351562, -1.366210937500000, -0.021270751953125, 0.800949096679688, 1.844604492187500, -0.833435058593750, 1.966003417968750, -0.017410278320312, 1.290603637695312, -0.809982299804688, 0.538833618164062, -1.257659912109375, 1.018463134765625, -1.869705200195312, 1.732513427734375, -0.998001098632812, 1.497497558593750, -0.697891235351562, 1.287567138671875, -0.646697998046875, -1.173995971679688, -0.333740234375000, 0.236465454101562, 1.603424072265625, 0.739501953125000, 0.536972045898438, 0.046981811523438, 1.581817626953125, -2.229049682617188};
#endif

#endif
