//Numpy array shape [128]
//Min -0.001602172852
//Max 0.000778198242
//Number of zeros 12

#ifndef B66_H_
#define B66_H_

#ifndef __SYNTHESIS__
bias66_t b66[128];
#else
bias66_t b66[128] = {0.863388061523438, -0.113830566406250, 0.516326904296875, 1.280914306640625, -0.094924926757812, 0.097579956054688, 0.403213500976562, 0.518920898437500, -0.060379028320312, -0.123977661132812, 0.886581420898438, -0.585144042968750, 0.765884399414062, 0.123687744140625, 1.096862792968750, 1.382766723632812, -1.240234375000000, -0.032562255859375, 0.071182250976562, 0.217147827148438, 0.723205566406250, 0.832534790039062, 0.537948608398438, -0.173126220703125, 0.365890502929688, 1.298171997070312, 0.390121459960938, 2.496261596679688, -0.104934692382812, 0.712585449218750, 1.388488769531250, -0.054199218750000, 0.871490478515625, -0.023193359375000, -0.035614013671875, 0.351089477539062, 0.030960083007812, -0.090637207031250, 0.196731567382812, -0.326675415039062, -0.417999267578125, 0.783432006835938, -0.057067871093750, 0.061737060546875, -0.093353271484375, 0.709167480468750, 0.026275634765625, 1.434051513671875, 1.383026123046875, 1.472793579101562, 0.481307983398438, 0.198928833007812, 0.722854614257812, 0.020584106445312, -0.029022216796875, 0.354339599609375, 0.411499023437500, 0.967803955078125, -0.788391113281250, 0.503753662109375, 0.385879516601562, 0.925781250000000, 0.188125610351562, 0.004150390625000, -0.025268554687500, -0.088607788085938, 0.605667114257812, 0.051452636718750, 0.645492553710938, 0.336120605468750, 0.549255371093750, 1.166610717773438, 0.638076782226562, -0.256393432617188, 0.254898071289062, 1.543060302734375, -0.540206909179688, 0.022476196289062, 0.855682373046875, 1.307113647460938, 0.783020019531250, 0.228668212890625, -0.272399902343750, -0.024490356445312, 0.029205322265625, 0.384506225585938, 1.055068969726562, 1.076019287109375, 1.556961059570312, 0.511215209960938, 1.112121582031250, -0.073196411132812, 0.773376464843750, 0.415817260742188, 0.303161621093750, 0.024291992187500, 0.972061157226562, -0.855667114257812, -0.206588745117188, -0.014968872070312, 0.353713989257812, 0.628845214843750, 0.530944824218750, 1.332489013671875, 1.440872192382812, 0.973052978515625, 2.635818481445312, 0.849563598632812, -0.004684448242188, 0.744125366210938, 0.066360473632812, 0.553482055664062, 0.537750244140625, 1.133148193359375, -0.437866210937500, -0.167007446289062, 1.332870483398438, -0.025756835937500, 0.033660888671875, 1.155410766601562, 0.384414672851562, 0.605606079101562, -0.289062500000000, 0.333053588867188, 1.210861206054688, -0.161987304687500, 0.723098754882812, 0.034545898437500};
#endif

#endif
