//Numpy array shape [128]
//Min -2.000000000000
//Max 1.984375000000
//Number of zeros 0

#ifndef B7_H_
#define B7_H_

#ifndef __SYNTHESIS__
bias7_t b7[128];
#else
bias7_t b7[128] = {1.984375, 1.984375, -2.000000, 1.984375, -2.000000, 1.984375, 1.984375, -2.000000, 1.984375, 1.984375, -2.000000, 1.984375, -2.000000, -2.000000, 1.984375, -2.000000, 1.984375, 1.984375, 1.984375, -2.000000, 1.984375, 1.984375, -2.000000, 1.984375, -2.000000, 1.984375, 1.984375, -2.000000, 1.984375, 1.984375, 1.984375, -2.000000, -2.000000, 1.984375, 1.984375, -2.000000, 1.984375, -2.000000, 1.984375, 1.984375, -2.000000, -2.000000, 1.984375, 1.984375, -2.000000, 1.984375, -2.000000, -2.000000, -2.000000, -2.000000, 1.984375, 1.984375, 1.984375, -2.000000, -2.000000, 1.984375, -2.000000, 1.984375, 1.984375, 1.984375, 1.984375, -2.000000, 1.984375, 1.984375, 1.984375, 1.984375, -2.000000, 1.984375, 1.984375, 1.984375, 1.984375, -2.000000, -2.000000, -2.000000, 1.984375, 1.984375, 1.984375, -2.000000, -2.000000, 1.984375, 1.984375, 1.984375, -2.000000, 1.984375, -2.000000, 1.984375, 1.984375, 1.984375, 1.984375, -2.000000, -2.000000, 1.984375, 1.984375, -2.000000, 1.984375, 1.984375, 1.984375, -2.000000, 1.984375, -2.000000, -2.000000, 1.984375, 1.984375, -2.000000, 1.984375, 1.984375, 1.984375, -2.000000, 1.984375, -2.000000, 1.984375, 1.984375, 1.984375, 1.984375, 1.984375, 1.984375, 1.984375, -2.000000, 1.984375, 1.984375, 1.984375, 1.984375, -0.015625, 1.984375, -2.000000, -2.000000, -2.000000, 1.984375};
#endif

#endif
