//Numpy array shape [128]
//Min -12.581481933594
//Max 12.905349731445
//Number of zeros 0

#ifndef B7_H_
#define B7_H_

#ifndef __SYNTHESIS__
bias7_t b7[128];
#else
bias7_t b7[128] = {3.879486083984375, -2.163101196289062, 7.634719848632812, -3.412002563476562, 7.804809570312500, 7.137786865234375, -4.060226440429688, 1.590591430664062, 1.551834106445312, 2.091720581054688, 1.291992187500000, 2.102584838867188, -8.246414184570312, 5.828155517578125, -0.122833251953125, 3.635284423828125, -2.851257324218750, 1.572097778320312, -5.802169799804688, -0.901626586914062, -6.907257080078125, 0.656005859375000, -7.130630493164062, 0.180358886718750, -0.966537475585938, 7.765579223632812, -4.154174804687500, -8.589050292968750, -1.027633666992188, -0.286285400390625, -6.153106689453125, 2.434875488281250, 0.643951416015625, -2.046478271484375, 2.379150390625000, 1.262435913085938, 0.882461547851562, -5.186737060546875, -2.795074462890625, -2.999847412109375, -1.824264526367188, -8.675003051757812, -0.397903442382812, 6.347763061523438, 1.775177001953125, 3.911163330078125, -6.567871093750000, 5.479949951171875, 3.397476196289062, 2.906967163085938, 0.280471801757812, 5.385498046875000, 1.069107055664062, 8.985870361328125, 3.743423461914062, -0.769378662109375, -1.517166137695312, 0.594299316406250, 0.160034179687500, 0.465011596679688, -3.059143066406250, -1.298477172851562, -0.617706298828125, 6.830902099609375, -0.066894531250000, 0.247802734375000, 5.714157104492188, -0.816360473632812, -5.535430908203125, 1.932693481445312, -0.483093261718750, 3.132186889648438, -1.566589355468750, -2.603088378906250, 9.353973388671875, 2.292022705078125, -1.180007934570312, -2.089981079101562, 2.879486083984375, -1.214294433593750, 4.584457397460938, -3.134704589843750, -0.470367431640625, 6.652297973632812, 1.849075317382812, 6.028808593750000, 0.891326904296875, 2.905059814453125, 5.502731323242188, -2.954254150390625, -7.729522705078125, -3.957778930664062, 1.050552368164062, -2.297164916992188, 4.373733520507812, 5.455337524414062, -0.792236328125000, -0.826873779296875, -6.922744750976562, 0.394592285156250, 5.293334960937500, 0.182846069335938, 12.905349731445312, -12.581481933593750, 6.289108276367188, 0.575881958007812, -9.883300781250000, 3.761352539062500, -4.688980102539062, 0.446609497070312, 0.593490600585938, -4.112808227539062, 9.236099243164062, -1.523040771484375, 4.494812011718750, 0.758926391601562, 0.052383422851562, -2.362640380859375, 5.318572998046875, 1.810043334960938, -0.327682495117188, 2.795440673828125, -4.921295166015625, -7.899795532226562, 6.878967285156250, 0.610015869140625, 3.690521240234375, -4.177536010742188};
#endif

#endif
