//Numpy array shape [256]
//Min -0.023132324219
//Max 0.005935668945
//Number of zeros 5

#ifndef B70_H_
#define B70_H_

#ifndef __SYNTHESIS__
bias70_t b70[256];
#else
bias70_t b70[256] = {-0.645019531250000, 0.038116455078125, 1.731124877929688, 1.393783569335938, 2.193511962890625, 1.303192138671875, 0.220809936523438, -0.892379760742188, 3.516342163085938, 0.235336303710938, 0.457015991210938, -0.719772338867188, 0.127487182617188, 1.744003295898438, 1.926925659179688, 3.103027343750000, 0.297485351562500, 0.218551635742188, 2.692611694335938, 1.864425659179688, 0.698776245117188, 1.383483886718750, -0.923004150390625, 2.753509521484375, 2.871597290039062, -0.290161132812500, 0.575500488281250, 0.228317260742188, 1.597564697265625, 1.488906860351562, -0.449066162109375, 1.282653808593750, -1.274505615234375, 1.469924926757812, 0.011886596679688, -0.393753051757812, 1.227188110351562, 0.898300170898438, 0.390670776367188, -0.077072143554688, 0.568191528320312, 0.187698364257812, 1.240325927734375, 0.067474365234375, 1.357727050781250, -0.427795410156250, 0.149841308593750, -0.667388916015625, 0.917678833007812, -1.753967285156250, 1.251647949218750, 1.116592407226562, 1.013381958007812, 0.111129760742188, 0.289245605468750, 1.800491333007812, -2.031906127929688, -0.275329589843750, -0.384445190429688, 0.628906250000000, 2.184371948242188, 0.322723388671875, -1.728988647460938, 0.212585449218750, -1.148101806640625, -0.755325317382812, 1.425003051757812, 0.258422851562500, 0.644470214843750, 1.592391967773438, 0.130905151367188, 3.085006713867188, 1.545440673828125, 1.225799560546875, -0.123245239257812, 0.189254760742188, -0.550674438476562, 1.529220581054688, 0.512420654296875, 2.700439453125000, -0.576599121093750, 1.454483032226562, 0.387954711914062, 0.444290161132812, 1.329406738281250, -0.252578735351562, 1.711929321289062, 2.217208862304688, 0.643478393554688, 0.063751220703125, 0.465545654296875, 1.085296630859375, -0.159744262695312, -0.006103515625000, 0.073989868164062, 0.124954223632812, -1.201263427734375, 0.132522583007812, 0.342147827148438, 1.477325439453125, 0.851119995117188, -0.960693359375000, 0.064849853515625, 0.918014526367188, 2.208557128906250, 1.478866577148438, 1.321258544921875, 0.698974609375000, -0.603469848632812, 0.663314819335938, -0.426818847656250, -0.433563232421875, 1.206756591796875, -1.194290161132812, 1.516967773437500, -0.119812011718750, 0.757980346679688, 0.432632446289062, 1.302413940429688, -0.706146240234375, 0.307815551757812, -1.725967407226562, 0.085464477539062, 1.221511840820312, 0.823120117187500, 1.647842407226562, 0.477188110351562, -0.342819213867188, -0.223220825195312, -0.079574584960938, 0.940124511718750, 2.875534057617188, -0.081268310546875, 0.775299072265625, 0.984008789062500, -1.240142822265625, 0.422119140625000, -0.606552124023438, 0.833343505859375, 1.013320922851562, -0.070602416992188, 0.354202270507812, 1.780914306640625, -0.859252929687500, 1.640289306640625, 1.083847045898438, -0.273956298828125, 0.967651367187500, 0.742965698242188, 1.187973022460938, 0.506240844726562, -0.403762817382812, -0.855407714843750, 0.415176391601562, -0.676132202148438, 1.149475097656250, -0.545028686523438, 0.257278442382812, 0.819351196289062, 0.602081298828125, -0.304641723632812, -0.045455932617188, 0.333953857421875, 1.047882080078125, 1.691223144531250, 0.676834106445312, 0.465942382812500, -0.474731445312500, -1.206680297851562, -0.249908447265625, 0.228805541992188, 0.251113891601562, 0.759002685546875, 1.683761596679688, 1.819747924804688, -0.260879516601562, -0.272552490234375, 2.200012207031250, 1.530319213867188, 1.110031127929688, -0.095581054687500, -0.564010620117188, 0.473266601562500, -0.722717285156250, -0.260803222656250, 3.433029174804688, -0.981292724609375, 0.950973510742188, -0.555725097656250, 1.285537719726562, 0.315017700195312, 2.138488769531250, 0.595993041992188, 1.021591186523438, -0.504852294921875, 0.973251342773438, 0.266708374023438, 1.833816528320312, 1.791702270507812, -0.064682006835938, -0.098632812500000, 1.597930908203125, 2.506256103515625, 1.206130981445312, -1.791900634765625, 0.397598266601562, -0.969528198242188, -0.463958740234375, 1.068542480468750, -0.041641235351562, -0.735961914062500, 0.525711059570312, 2.116653442382812, 0.011032104492188, 1.974594116210938, 0.829101562500000, 0.881195068359375, 0.554809570312500, 0.546813964843750, -0.452804565429688, -0.769638061523438, 0.580047607421875, -0.973419189453125, 0.576599121093750, -0.034805297851562, 1.687652587890625, 0.013595581054688, 0.053665161132812, 1.107543945312500, 0.248306274414062, 0.598144531250000, 0.226577758789062, -1.482009887695312, -1.849166870117188, 0.157928466796875, 0.523254394531250, 2.231307983398438, 1.503219604492188, -0.698974609375000, 0.578689575195312, 1.837905883789062, 0.818847656250000, 0.289596557617188, -2.350494384765625, -0.005157470703125, -2.649642944335938, 2.536712646484375, 0.284393310546875, 0.986587524414062, -0.628829956054688, 0.073348999023438, 3.081497192382812, 0.693359375000000, -1.333129882812500, -0.354797363281250, -1.924255371093750};
#endif

#endif
