//Numpy array shape [256]
//Min -0.003356933594
//Max 0.002822875977
//Number of zeros 7

#ifndef B76_H_
#define B76_H_

#ifndef __SYNTHESIS__
bias76_t b76[256];
#else
bias76_t b76[256] = {0.013656616210938, 0.197677612304688, 0.348175048828125, 0.494308471679688, -0.079452514648438, 0.647613525390625, 0.220321655273438, -0.046005249023438, -0.308441162109375, 0.173202514648438, 0.350128173828125, 0.636917114257812, 0.175003051757812, 0.732803344726562, 0.203643798828125, 0.157653808593750, 0.394531250000000, 1.008819580078125, 0.450027465820312, -1.030700683593750, 0.405975341796875, 0.433120727539062, 0.185317993164062, 0.062759399414062, 0.155456542968750, 0.646575927734375, 0.188613891601562, 0.676651000976562, 1.278701782226562, 0.655853271484375, 0.322006225585938, -0.392395019531250, 0.152053833007812, 0.185592651367188, 0.020217895507812, 0.238723754882812, 0.131042480468750, 0.495285034179688, 0.161148071289062, -1.234359741210938, 0.783203125000000, -0.397949218750000, -0.105545043945312, 0.352264404296875, 0.460708618164062, 0.835952758789062, -0.919570922851562, 0.722244262695312, 0.498672485351562, 1.026336669921875, 0.551986694335938, -0.995986938476562, 0.893981933593750, 0.300170898437500, 1.113235473632812, -0.034545898437500, 0.043365478515625, 0.073471069335938, -0.009140014648438, 0.102600097656250, 0.429855346679688, -0.831939697265625, 0.091293334960938, 0.458206176757812, 0.275283813476562, 0.413116455078125, -0.896881103515625, 0.474578857421875, -0.056396484375000, 1.018798828125000, 0.571289062500000, -0.340393066406250, -1.821716308593750, -0.098678588867188, 0.384613037109375, 0.517532348632812, 0.324615478515625, -0.131759643554688, -0.481063842773438, -0.056701660156250, 0.105407714843750, -0.218002319335938, 0.115615844726562, -0.183273315429688, -0.300765991210938, 0.661346435546875, 0.424865722656250, 0.048065185546875, -0.302795410156250, 0.080001831054688, 0.867370605468750, 0.586410522460938, 0.230041503906250, 0.795242309570312, 0.470687866210938, 0.175003051757812, 0.332839965820312, 0.586624145507812, 0.057342529296875, 0.710479736328125, -1.025100708007812, 0.265701293945312, 0.482116699218750, 0.117218017578125, 0.679214477539062, -0.064025878906250, 0.367248535156250, 0.344726562500000, 0.454086303710938, 0.400421142578125, 0.463150024414062, 0.432907104492188, 0.457504272460938, 0.543441772460938, 0.442901611328125, 0.436706542968750, 0.236053466796875, 0.587554931640625, 0.172897338867188, 0.331863403320312, -1.999176025390625, -0.476486206054688, 0.667785644531250, 0.161834716796875, 0.396545410156250, 0.290878295898438, 0.494583129882812, 0.454360961914062, 0.542739868164062, -0.073745727539062, 0.420181274414062, 0.092315673828125, 0.807189941406250, 0.205429077148438, 0.228103637695312, 0.297561645507812, 0.472122192382812, -0.259109497070312, 0.095138549804688, 0.381271362304688, 0.251174926757812, 0.943771362304688, 0.881607055664062, -0.168273925781250, 0.370223999023438, 0.528350830078125, 0.506774902343750, 0.064117431640625, 0.489089965820312, 1.066116333007812, 0.676803588867188, 0.002593994140625, 0.131546020507812, 0.379730224609375, 0.591201782226562, 1.493530273437500, 0.609832763671875, 0.326019287109375, 0.708953857421875, -0.165252685546875, 0.758178710937500, 0.210037231445312, 0.152145385742188, 0.399688720703125, 0.432510375976562, 0.094360351562500, -0.119598388671875, 0.690277099609375, 0.558822631835938, 0.400314331054688, 0.089904785156250, 0.121780395507812, 0.763931274414062, 0.718383789062500, 0.305526733398438, 0.829330444335938, 0.688125610351562, -0.151840209960938, 0.550720214843750, 0.802337646484375, -0.016250610351562, 0.054351806640625, -1.496276855468750, 0.736160278320312, 0.138702392578125, 0.761352539062500, 0.214080810546875, -0.329315185546875, 0.668365478515625, 0.636337280273438, 0.475479125976562, 0.578399658203125, 0.557189941406250, 0.367355346679688, 0.173599243164062, -0.460617065429688, 0.445663452148438, 0.682540893554688, -0.502029418945312, -0.224075317382812, -0.310302734375000, 0.354660034179688, 0.643890380859375, 0.665267944335938, 0.493789672851562, 0.713775634765625, 0.071029663085938, 0.090621948242188, 0.527984619140625, 0.647064208984375, 0.089355468750000, 0.586883544921875, 0.192077636718750, 0.309783935546875, 0.694686889648438, 0.562026977539062, 0.830200195312500, 0.236968994140625, 0.487487792968750, -0.223464965820312, 0.234878540039062, 0.405685424804688, 0.666091918945312, -0.327102661132812, -1.058685302734375, 0.665084838867188, 0.051528930664062, 0.232727050781250, 0.752105712890625, -1.329727172851562, -0.112045288085938, 0.672729492187500, 0.114242553710938, 0.286651611328125, 0.364562988281250, 0.097991943359375, 0.681945800781250, -0.129547119140625, -1.569732666015625, 0.161987304687500, 0.112457275390625, 0.880798339843750, 0.510925292968750, -0.018524169921875, 0.633407592773438, 0.231872558593750, -0.597778320312500, -0.125564575195312, -0.024841308593750, 0.368316650390625, -0.649902343750000, 0.187789916992188, 0.679260253906250, 0.781112670898438, 0.298934936523438, 0.691390991210938};
#endif

#endif
