//Numpy array shape [256]
//Min -1.763931274414
//Max 2.395065307617
//Number of zeros 0

#ifndef B80_H_
#define B80_H_

#ifndef __SYNTHESIS__
bias80_t b80[256];
#else
bias80_t b80[256] = {0.741821289062500, 0.400115966796875, 0.876296997070312, 1.258514404296875, 0.129699707031250, 0.836822509765625, 0.683700561523438, 1.544357299804688, -0.066070556640625, 0.512466430664062, 0.982040405273438, 0.550155639648438, 0.335479736328125, 0.506118774414062, 1.034729003906250, -0.096176147460938, 0.535522460937500, 0.017135620117188, 0.364196777343750, 0.485183715820312, -0.405181884765625, 0.658645629882812, 0.416381835937500, 0.329193115234375, -0.507995605468750, -0.253753662109375, 0.278030395507812, -0.446136474609375, 0.719894409179688, 0.383132934570312, 0.876846313476562, 0.114471435546875, 0.093704223632812, 0.004669189453125, 0.259643554687500, 0.850540161132812, -0.383468627929688, 1.486312866210938, -0.549758911132812, 0.668899536132812, 0.330963134765625, -0.184982299804688, 1.016906738281250, -0.164306640625000, -1.363372802734375, 1.559692382812500, 0.317047119140625, 0.606887817382812, -0.607376098632812, 0.362289428710938, 0.891799926757812, 1.016448974609375, 0.121368408203125, 0.252304077148438, 0.397537231445312, 0.526367187500000, 0.623779296875000, 0.994445800781250, 0.072418212890625, 0.559646606445312, 0.066284179687500, 0.613906860351562, -0.077041625976562, 0.605651855468750, 1.587722778320312, -0.521499633789062, 0.986694335937500, -0.590011596679688, 0.481521606445312, 0.612121582031250, -1.712936401367188, 0.117965698242188, -0.338073730468750, -0.257080078125000, 0.376861572265625, 1.080703735351562, 0.422836303710938, -0.437835693359375, 0.142944335937500, 0.443069458007812, 0.022888183593750, 2.395065307617188, 0.630157470703125, 0.570022583007812, 1.131423950195312, 0.569168090820312, -0.156799316406250, 0.666900634765625, -0.050094604492188, 1.301818847656250, 0.462371826171875, -0.384902954101562, 0.717773437500000, 0.782318115234375, 0.552917480468750, -0.842529296875000, 1.096908569335938, -0.023071289062500, 0.556625366210938, 0.579208374023438, -0.088699340820312, 0.886169433593750, 0.568374633789062, 0.640960693359375, 0.509353637695312, 0.122756958007812, -0.161972045898438, 1.069061279296875, -0.541244506835938, 0.695877075195312, 0.172576904296875, -0.697784423828125, 0.317214965820312, 0.427322387695312, 1.101562500000000, 0.488845825195312, 0.383666992187500, 0.960067749023438, 0.327301025390625, 0.115829467773438, 0.454986572265625, -0.126022338867188, 0.020278930664062, -0.480987548828125, 1.049270629882812, 0.273864746093750, 0.500686645507812, -0.322204589843750, -0.093124389648438, 0.848007202148438, -0.217559814453125, -0.403579711914062, -0.100280761718750, -0.408020019531250, 1.188644409179688, 0.716308593750000, 0.533081054687500, 0.641937255859375, -0.792129516601562, -0.649261474609375, 0.380737304687500, -0.639923095703125, 0.326065063476562, 1.207626342773438, 0.550216674804688, 0.580627441406250, 0.892181396484375, 0.710952758789062, 0.916427612304688, 0.180526733398438, 0.213653564453125, -0.157363891601562, 1.433258056640625, 0.942367553710938, -1.763931274414062, -0.417541503906250, -0.175003051757812, 0.962799072265625, 0.548721313476562, -0.231216430664062, 0.672943115234375, 0.573043823242188, 1.091064453125000, 1.011245727539062, 1.253143310546875, 0.849212646484375, -0.264266967773438, 1.062438964843750, 1.045471191406250, 0.292922973632812, 0.057189941406250, 1.382904052734375, 1.144546508789062, 0.166366577148438, 1.575195312500000, 1.115264892578125, 0.628814697265625, 0.966903686523438, 1.336914062500000, 0.580154418945312, -0.142181396484375, 0.271453857421875, 1.299148559570312, -0.081436157226562, -0.969848632812500, 0.173950195312500, 0.050720214843750, -0.264282226562500, 0.126541137695312, -0.225128173828125, -0.254470825195312, 0.259002685546875, -0.180404663085938, 0.452590942382812, 0.844070434570312, 0.043014526367188, 0.972457885742188, 0.716598510742188, 0.697509765625000, 0.652557373046875, -0.532226562500000, 0.323837280273438, -0.586318969726562, 0.908279418945312, 0.593490600585938, 1.353149414062500, 0.563903808593750, 1.075897216796875, 0.651580810546875, 0.082778930664062, 0.906387329101562, 1.033065795898438, 0.478973388671875, 0.091659545898438, 0.706863403320312, 0.525695800781250, -0.670898437500000, 0.340133666992188, 1.156463623046875, 0.601135253906250, 0.465118408203125, 0.871932983398438, -0.856475830078125, 0.755905151367188, 1.049377441406250, 0.275146484375000, 0.154052734375000, -0.734710693359375, -0.409698486328125, 0.653411865234375, 0.384292602539062, -0.122680664062500, -0.431350708007812, 1.249862670898438, 0.402938842773438, 0.406036376953125, 0.199478149414062, 0.567092895507812, 0.821289062500000, 0.793823242187500, 0.380905151367188, 0.720932006835938, 0.443420410156250, 0.908401489257812, 0.912048339843750, 0.628677368164062, 0.600936889648438, 0.135833740234375, 0.080368041992188, 0.221801757812500, 0.669418334960938, 0.578918457031250, -0.176101684570312, -0.286148071289062, 0.438323974609375, -0.194000244140625};
#endif

#endif
