//Numpy array shape [512, 1024]
//Min -0.640625000000
//Max 1.031250000000
//Number of zeros 30431

#ifndef W23_H_
#define W23_H_

#ifndef __SYNTHESIS__
weight22_t w23[262144];
#else
weight22_t w23[262144] = {0.000000,  0.000000,  0.000000,  -0.015625,  0.000000,  -0.015625,  0.000000,  0.000000,  0.000000,  0.000000,  0.000000,  -0.015625,  0.000000,  0.000000,  0.000000,  0.000000,  0.000000,  0.000000,  0.000000,  0.000000,  -0.015625,  0.000000,  0.000000,  -0.015625,  0.000000,  0.000000,  0.000000,  -0.015625,  0.000000,  0.000000,  0.000000,  0.000000,  -0.015625,  0.000000,  -0.015625,  0.015625,  0.000000,  0.000000,  -0.015625,  0.000000,  -0.015625,  0.000000,  0.000000,  0.015625,  0.000000,  -0.015625,  0.000000,  -0.015625,  0.000000,  0.000000,  0.000000,  -0.015625,  0.000000,  0.000000,  0.000000,  0.000000,  0.000000,  0.000000,  0.000000,  0.000000,  -0.015625,  -0.015625,  0.015625,  0.000000,  0.000000,  0.000000,  0.000000,  0.000000,  -0.015625,  -0.015625,  -0.015625,  -0.015625,  -0.015625,  0.000000,  0.000000,  0.000000,  0.000000,  0.000000,  0.000000,  0.000000,  0.000000,  -0.015625,  -0.015625,  0.000000,  -0.015625,  0.000000,  0.000000,  0.000000,  0.000000,  0.000000,  0.000000,  0.000000,  0.015625,  -0.015625,  0.000000,  0.000000,  0.000000,  0.015625,  -0.015625,  0.000000,  0.000000,  -0.015625,  0.000000,  0.015625,  0.000000,  0.000000,  0.015625,  -0.015625,  0.000000,  0.000000,  0.015625,  0.000000,  0.000000,  0.000000,  -0.015625,  0.000000,  0.000000,  0.000000,  0.000000,  0.000000,  0.000000,  0.000000,  0.000000,  0.000000,  0.000000,  0.000000,  -0.015625,  0.000000,  0.000000,  -0.015625,  0.000000,  0.000000,  0.000000,  0.000000,  -0.015625,  0.000000,  0.000000,  0.000000,  -0.015625,  -0.015625,  0.000000,  0.000000,  0.000000,  0.000000,  -0.015625,  0.000000,  0.000000,  0.000000,  -0.015625,  0.000000,  -0.015625,  0.000000,  0.000000,  -0.015625,  0.015625,  0.000000,  0.000000,  0.000000,  -0.015625,  -0.015625,  -0.015625,  0.000000,  -0.015625,  0.000000,  0.000000,  0.015625,  -0.015625,  -0.015625,  0.000000,  0.000000,  0.000000,  -0.015625,  0.000000,  0.000000,  0.000000,  0.015625,  -0.015625,  -0.015625,  -0.015625,  -0.015625,  -0.015625,  0.015625,  -0.015625,  0.015625,  0.015625,  -0.015625,  0.015625,  0.000000,  0.000000,  0.000000,  0.015625,  -0.015625,  -0.015625,  0.000000,  0.000000,  0.015625,  0.000000,  -0.015625,  0.000000,  0.015625,  0.015625,  -0.015625,  -0.015625,  0.000000,  0.000000,  -0.015625,  0.000000,  0.000000,  0.000000,  0.000000,  0.000000,  0.000000,  0.000000,  0.000000,  -0.015625,  0.000000,  -0.015625,  -0.015625,  -0.015625,  -0.015625,  0.000000,  -0.015625,  0.000000,  0.000000,  0.000000,  0.000000,  -0.015625,  0.000000,  0.000000,  0.000000,  0.000000,  0.000000,  0.000000,  -0.015625,  0.000000,  -0.015625,  -0.015625,  -0.015625,  0.015625,  -0.015625,  -0.015625,  0.000000,  0.000000,  -0.015625,  -0.015625,  0.000000,  0.000000,  0.000000,  0.000000,  0.000000,  -0.015625,  0.015625,  0.000000,  -0.015625,  0.015625,  0.000000,  0.000000,  0.000000,  0.000000,  -0.015625,  0.000000,  0.000000,  0.000000,  0.000000,  0.000000,  0.000000,  0.000000,  -0.015625,  -0.015625,  0.000000,  -0.015625,  0.000000,  0.000000,  -0.015625,  -0.015625,  0.000000,  0.000000,  -0.015625,  0.000000,  0.000000,  -0.015625,  0.000000,  -0.015625,  0.000000,  0.000000,  0.015625,  0.000000,  0.000000,  0.015625,  0.000000,  0.000000,  0.000000,  -0.015625,  -0.015625,  -0.015625,  0.000000,  -0.015625,  0.000000,  0.000000,  0.015625,  -0.015625,  0.015625,  0.000000,  0.000000,  0.000000,  0.000000,  -0.015625,  0.000000,  -0.015625,  0.000000,  0.000000,  -0.015625,  0.000000,  0.000000,  0.000000,  -0.015625,  0.000000,  0.000000,  0.000000,  0.015625,  0.000000,  0.000000,  -0.015625,  0.000000,  0.000000,  0.000000,  -0.015625,  0.015625,  0.000000,  -0.015625,  0.000000,  0.000000,  0.015625,  -0.015625,  0.000000,  0.000000,  0.000000,  0.000000,  0.000000,  0.000000,  -0.015625,  -0.015625,  0.000000,  0.015625,  0.000000,  0.000000,  -0.015625,  0.000000,  -0.015625,  -0.015625,  0.000000,  -0.015625,  0.000000,  0.000000,  0.000000,  0.000000,  0.000000,  0.000000,  0.000000,  0.015625,  0.000000,  -0.015625,  0.000000,  0.000000,  0.000000,  0.000000,  -0.015625,  0.000000,  0.000000,  0.015625,  0.000000,  0.000000,  0.000000,  0.000000,  0.000000,  0.000000,  0.000000,  0.000000,  -0.015625,  0.000000,  0.000000,  0.000000,  0.000000,  0.000000,  0.000000,  0.000000,  0.000000,  0.000000,  0.015625,  0.000000,  0.000000,  0.000000,  0.000000,  0.000000,  0.000000,  0.000000,  -0.015625,  0.000000,  0.015625,  0.000000,  0.000000,  0.000000,  0.000000,  0.000000,  -0.015625,  0.000000,  0.015625,  0.000000,  0.000000,  -0.015625,  0.000000,  0.015625,  -0.015625,  0.000000,  0.000000,  0.000000,  0.000000,  -0.015625,  -0.015625,  0.000000,  0.000000,  -0.015625,  -0.015625,  0.000000,  0.000000,  0.015625,  0.000000,  0.000000,  0.000000,  0.000000,  0.000000,  0.000000,  0.000000,  0.000000,  0.000000,  -0.015625,  0.000000,  0.000000,  0.000000,  0.000000,  -0.015625,  0.000000,  0.015625,  0.015625,  0.000000,  0.000000,  0.000000,  -0.015625,  -0.015625,  0.000000,  0.000000,  0.000000,  0.015625,  0.000000,  0.015625,  0.015625,  -0.015625,  -0.015625,  -0.015625,  -0.015625,  -0.015625,  0.000000,  0.000000,  -0.015625,  0.015625,  -0.015625,  0.000000,  0.000000,  -0.015625,  0.015625,  -0.015625,  0.000000,  0.000000,  0.000000,  0.000000,  0.000000,  0.000000,  0.000000,  -0.015625,  -0.015625,  0.000000,  -0.015625,  0.000000,  0.000000,  0.000000,  0.000000,  0.000000,  0.000000,  0.000000,  0.000000,  0.000000,  0.000000,  0.000000,  0.015625,  0.015625,  0.000000,  0.015625,  0.000000,  0.015625,  0.015625,  -0.015625,  0.015625,  0.015625,  -0.015625,  0.000000,  0.015625,  -0.015625,  0.000000,  -0.015625,  0.000000,  -0.015625,  -0.015625,  0.000000,  0.000000,  0.000000,  0.000000,  0.000000,  0.000000,  -0.015625,  0.015625,  0.000000,  0.000000,  0.000000,  -0.015625,  0.000000,  0.000000,  0.000000,  0.000000,  0.000000,  0.000000,  0.000000,  0.000000,  -0.015625,  0.000000,  0.015625,  0.000000,  0.000000,  0.000000,  0.000000,  0.000000,  0.000000,  -0.015625,  -0.015625,  0.015625,  -0.015625,  0.000000,  0.000000,  0.000000,  0.000000,  0.000000,  -0.015625,  0.000000,  -0.015625,  0.000000,  0.000000,  0.000000,  0.000000,  0.000000,  -0.015625,  0.000000,  0.000000,  -0.015625,  0.000000,  -0.015625,  0.000000,  0.000000,  0.000000,  0.000000,  0.000000,  0.000000,  0.000000,  0.015625,  -0.015625,  -0.015625,  0.000000,  0.000000,  0.000000,  0.000000,  -0.015625,  -0.015625,  0.000000,  0.000000,  -0.015625,  -0.015625,  0.000000,  0.000000,  0.000000,  0.000000,  0.000000,  0.000000,  0.000000,  0.015625,  0.000000,  0.000000,  -0.015625,  -0.015625,  0.000000,  0.000000,  0.015625,  0.015625,  0.000000,  0.000000,  0.000000,  0.000000,  0.000000,  0.000000,  0.000000,  0.000000,  0.000000,  0.015625,  0.000000,  0.000000,  0.000000,  0.000000,  0.015625,  0.000000,  0.000000,  0.000000,  0.000000,  -0.015625,  0.015625,  0.000000,  0.000000,  -0.015625,  0.000000,  0.000000,  0.000000,  0.000000,  0.000000,  0.015625,  0.000000,  -0.015625,  0.015625,  -0.015625,  0.000000,  0.000000,  0.000000,  0.000000,  0.000000,  0.015625,  0.000000,  -0.015625,  0.000000,  0.000000,  0.000000,  0.000000,  -0.015625,  0.015625,  0.000000,  0.000000,  0.000000,  -0.015625,  0.000000,  0.000000,  0.000000,  0.000000,  -0.015625,  0.000000,  0.015625,  0.000000,  -0.015625,  0.000000,  -0.015625,  0.000000,  0.000000,  -0.015625,  0.000000,  0.000000,  0.000000,  0.015625,  0.000000,  0.000000,  -0.015625,  0.000000,  -0.015625,  0.000000,  0.000000,  0.000000,  0.000000,  0.000000,  0.000000,  0.015625,  0.000000,  -0.015625,  0.000000,  0.000000,  -0.015625,  0.000000,  -0.015625,  0.000000,  -0.015625,  -0.015625,  0.000000,  0.000000,  -0.015625,  0.015625,  0.015625,  -0.015625,  0.000000,  0.015625,  0.000000,  0.000000,  0.015625,  -0.015625,  -0.015625,  0.000000,  -0.015625,  0.015625,  0.000000,  -0.015625,  0.000000,  0.000000,  0.000000,  0.000000,  0.000000,  0.000000,  -0.015625,  0.000000,  0.000000,  0.015625,  0.000000,  0.015625,  0.015625,  0.015625,  0.000000,  0.000000,  0.000000,  0.000000,  0.000000,  0.000000,  -0.015625,  0.000000,  0.015625,  -0.015625,  0.015625,  0.000000,  0.000000,  0.015625,  0.000000,  0.015625,  0.000000,  0.000000,  0.015625,  0.000000,  0.000000,  -0.015625,  0.000000,  -0.015625,  -0.015625,  -0.015625,  0.015625,  -0.015625,  0.000000,  0.000000,  0.000000,  -0.015625,  -0.015625,  0.000000,  0.000000,  0.000000,  0.000000,  0.000000,  -0.015625,  0.000000,  0.000000,  -0.015625,  0.000000,  0.000000,  0.000000,  0.000000,  0.000000,  -0.015625,  0.000000,  0.000000,  0.015625,  -0.015625,  0.000000,  0.000000,  0.000000,  0.000000,  0.000000,  0.000000,  0.000000,  0.015625,  0.000000,  -0.015625,  -0.015625,  0.000000,  0.015625,  0.000000,  0.000000,  0.000000,  -0.015625,  0.000000,  0.000000,  -0.015625,  0.000000,  0.000000,  0.000000,  0.015625,  0.000000,  0.000000,  0.000000,  0.000000,  -0.015625,  0.000000,  -0.015625,  0.000000,  0.000000,  0.000000,  0.000000,  0.000000,  0.000000,  0.000000,  0.000000,  0.000000,  0.000000,  0.000000,  -0.015625,  0.000000,  0.000000,  0.000000,  0.000000,  0.000000,  0.000000,  0.000000,  0.015625,  0.000000,  0.000000,  0.000000,  0.000000,  0.000000,  0.000000,  0.000000,  0.000000,  0.000000,  0.015625,  0.000000,  0.000000,  0.000000,  0.000000,  -0.015625,  0.015625,  0.015625,  0.000000,  -0.015625,  0.000000,  0.000000,  0.000000,  0.015625,  0.000000,  -0.015625,  0.000000,  -0.015625,  0.000000,  0.015625,  0.000000,  0.000000,  -0.015625,  0.000000,  0.000000,  -0.015625,  0.000000,  -0.015625,  0.000000,  0.000000,  0.000000,  0.000000,  0.015625,  0.000000,  0.000000,  0.015625,  0.000000,  -0.015625,  0.015625,  0.000000,  0.000000,  -0.015625,  -0.015625,  0.000000,  0.000000,  0.000000,  -0.015625,  0.000000,  -0.015625,  -0.015625,  0.000000,  0.000000,  0.000000,  0.000000,  -0.015625,  0.000000,  0.000000,  0.015625,  0.000000,  0.000000,  0.000000,  -0.015625,  0.000000,  0.015625,  0.000000,  0.000000,  0.000000,  0.015625,  0.000000,  0.000000,  0.000000,  0.015625,  -0.015625,  0.015625,  0.000000,  0.000000,  0.015625,  0.000000,  -0.015625,  -0.015625,  0.000000,  0.000000,  0.000000,  0.015625,  0.000000,  0.000000,  0.000000,  0.015625,  0.000000,  0.000000,  0.015625,  0.000000,  0.000000,  -0.015625,  -0.015625,  -0.015625,  0.000000,  0.015625,  0.000000,  0.000000,  0.000000,  0.000000,  0.000000,  0.000000,  0.000000,  0.000000,  0.000000,  0.000000,  0.000000,  0.000000,  0.000000,  -0.015625,  0.015625,  0.015625,  0.000000,  0.000000,  0.000000,  0.000000,  0.000000,  0.000000,  0.000000,  0.000000,  0.000000,  -0.015625,  0.000000,  0.015625,  0.000000,  0.015625,  0.000000,  0.000000,  0.000000,  0.000000,  0.000000,  -0.015625,  -0.015625,  -0.015625,  0.000000,  0.000000,  0.000000,  0.000000,  0.015625,  -0.015625,  0.000000,  0.000000,  0.000000,  0.000000,  -0.015625,  0.000000,  0.000000,  0.000000,  0.000000,  0.015625,  0.000000,  0.015625,  0.000000,  0.015625,  0.000000,  0.000000,  0.000000,  0.000000,  0.000000,  0.000000,  0.000000,  0.000000,  0.000000,  0.000000,  0.000000,  -0.015625,  0.000000,  0.000000,  0.000000,  0.000000,  0.015625,  0.000000,  0.000000,  0.000000,  -0.015625,  0.000000,  0.000000,  -0.015625,  0.000000,  0.015625,  0.000000,  0.000000,  -0.015625,  -0.015625,  0.000000,  0.015625,  -0.015625,  0.000000,  0.000000,  0.000000,  0.000000,  0.000000,  0.000000,  -0.015625,  -0.015625,  -0.015625,  -0.015625,  0.000000,  0.000000,  0.000000,  0.015625,  0.000000,  0.000000,  0.000000,  0.000000,  0.000000,  0.000000,  0.000000,  0.000000,  0.000000,  0.000000,  0.000000,  0.000000,  0.000000,  0.000000,  0.000000,  0.000000,  0.000000,  0.000000,  0.000000,  0.015625,  0.000000,  -0.015625,  0.000000,  0.000000,  -0.015625,  0.000000,  0.000000,  0.000000,  0.000000,  0.000000,  -0.015625,  -0.015625,  0.000000,  -0.015625,  0.000000,  -0.015625,  0.000000,  0.000000,  0.000000,  0.000000,  -0.015625,  -0.015625,  -0.015625,  0.000000,  0.015625,  -0.015625,  0.000000,  0.000000,  0.000000,  0.000000,  0.000000,  0.000000,  0.000000,  0.000000,  0.000000,  0.000000,  0.000000,  0.000000,  -0.015625,  -0.015625,  0.000000,  -0.015625,  0.000000,  -0.015625,  0.000000,  0.000000,  0.000000,  -0.015625,  0.000000,  0.000000,  0.000000,  0.000000,  -0.015625,  0.000000,  0.000000,  0.000000,  -0.015625,  0.000000,  0.000000,  0.000000,  0.000000,  0.000000,  -0.015625,  0.015625,  0.000000,  0.000000,  0.015625,  -0.015625,  -0.015625,  0.015625,  0.000000,  -0.015625,  0.000000,  -0.015625,  -0.015625,  0.000000,  0.000000,  0.000000,  0.000000,  0.000000,  0.000000,  -0.015625,  -0.015625,  0.000000,  0.000000,  -0.015625,  -0.015625,  0.000000,  0.000000,  0.000000,  0.000000,  0.000000,  0.000000,  -0.015625,  -0.015625,  0.000000,  0.000000,  0.000000,  -0.015625,  0.000000,  -0.015625,  -0.015625,  0.000000,  0.015625,  0.000000,  -0.015625,  0.000000,  0.000000,  -0.015625,  -0.015625,  0.000000,  0.000000,  0.000000,  0.000000,  0.000000,  0.000000,  -0.015625,  -0.015625,  0.000000,  0.000000,  -0.015625,  0.000000,  -0.015625,  -0.015625,  0.000000,  0.000000,  0.000000,  0.000000,  0.000000,  0.000000,  0.000000,  0.000000,  0.000000,  -0.015625,  0.000000,  -0.015625,  0.000000,  0.000000,  -0.015625,  0.000000,  0.000000,  0.000000,  0.000000,  0.000000,  0.000000,  0.000000,  0.000000,  0.000000,  -0.015625,  0.000000,  -0.015625,  0.000000,  0.000000,  0.000000,  0.000000,  -0.015625,  0.000000,  0.000000,  -0.015625,  0.000000,  0.000000,  0.000000,  0.000000,  0.000000,  0.000000,  -0.015625,  0.000000,  0.000000,  0.000000,  -0.015625,  0.000000,  0.000000,  -0.015625,  -0.015625,  0.000000,  -0.015625,  -0.015625,  -0.015625,  -0.015625,  -0.015625,  0.000000,  0.000000,  0.000000,  0.000000,  0.000000,  0.000000,  0.000000,  -0.015625,  0.000000,  0.015625,  -0.015625,  0.000000,  -0.015625,  -0.015625,  0.000000,  0.000000,  -0.015625,  0.000000,  0.000000,  0.000000,  0.000000,  0.000000,  0.000000,  0.000000,  0.015625,  -0.015625,  -0.015625,  -0.015625,  0.000000,  0.015625,  -0.015625,  0.000000,  -0.015625,  0.000000,  0.000000,  0.015625,  0.000000,  0.000000,  0.000000,  0.000000,  0.000000,  -0.015625,  -0.015625,  0.000000,  0.000000,  0.000000,  0.000000,  -0.015625,  0.000000,  0.000000,  -0.015625,  0.000000,  0.015625,  -0.015625,  0.000000,  -0.015625,  0.000000,  0.000000,  0.000000,  0.000000,  0.000000,  0.000000,  0.000000,  0.000000,  0.000000,  0.000000,  0.000000,  -0.015625,  0.000000,  -0.015625,  0.000000,  0.000000,  -0.015625,  0.000000,  0.000000,  0.000000,  0.000000,  0.000000,  0.000000,  -0.015625,  0.000000,  0.015625,  -0.015625,  0.000000,  -0.015625,  0.000000,  0.015625,  0.000000,  0.000000,  0.000000,  0.015625,  0.000000,  0.000000,  0.000000,  0.000000,  -0.015625,  0.000000,  0.000000,  0.000000,  -0.015625,  0.000000,  -0.015625,  0.000000,  0.000000,  0.000000,  0.000000,  -0.015625,  -0.015625,  0.000000,  -0.015625,  0.000000,  0.000000,  -0.015625,  -0.015625,  0.000000,  0.000000,  -0.015625,  0.000000,  0.000000,  0.000000,  0.000000,  0.000000,  0.000000,  0.000000,  0.000000,  -0.015625,  0.000000,  0.000000,  0.000000,  -0.015625,  -0.015625,  0.000000,  -0.015625,  0.000000,  0.000000,  -0.015625,  0.000000,  0.000000,  0.000000,  0.000000,  0.000000,  0.000000,  0.000000,  -0.015625,  0.000000,  0.000000,  -0.015625,  0.000000,  0.000000,  0.000000,  -0.015625,  0.000000,  -0.015625,  0.000000,  0.000000,  -0.015625,  -0.015625,  -0.015625,  0.000000,  -0.015625,  0.000000,  0.000000,  0.000000,  -0.015625,  -0.015625,  0.000000,  -0.015625,  -0.015625,  0.000000,  0.000000,  0.000000,  0.015625,  0.000000,  0.000000,  0.000000,  0.000000,  -0.015625,  0.015625,  0.000000,  0.000000,  -0.015625,  0.000000,  0.000000,  0.000000,  -0.015625,  0.000000,  -0.015625,  0.000000,  -0.015625,  0.000000,  0.015625,  -0.015625,  -0.015625,  0.000000,  0.000000,  0.000000,  -0.015625,  0.015625,  0.000000,  0.000000,  0.000000,  0.000000,  0.000000,  0.000000,  0.000000,  -0.015625,  -0.015625,  -0.015625,  -0.015625,  -0.015625,  -0.015625,  0.000000,  0.000000,  -0.015625,  0.000000,  -0.015625,  -0.015625,  0.000000,  0.000000,  0.000000,  0.000000,  0.000000,  0.000000,  -0.015625,  -0.015625,  -0.015625,  -0.015625,  -0.015625,  0.000000,  0.000000,  -0.015625,  0.000000,  0.000000,  -0.015625,  0.000000,  -0.015625,  0.000000,  0.000000,  0.000000,  -0.015625,  0.000000,  -0.015625,  0.000000,  0.000000,  0.000000,  0.000000,  0.000000,  0.000000,  0.000000,  0.000000,  0.000000,  0.000000,  0.000000,  0.000000,  0.000000,  0.000000,  0.000000,  0.000000,  -0.015625,  0.000000,  0.000000,  0.000000,  -0.015625,  -0.015625,  0.000000,  -0.015625,  0.000000,  -0.015625,  0.000000,  0.000000,  0.000000,  0.000000,  0.000000,  0.000000,  0.015625,  0.000000,  -0.015625,  -0.015625,  -0.015625,  0.000000,  0.000000,  0.000000,  0.015625,  0.000000,  -0.015625,  0.000000,  0.000000,  0.000000,  -0.015625,  -0.015625,  0.000000,  0.000000,  0.000000,  0.000000,  -0.015625,  0.000000,  0.000000,  0.031250,  0.000000,  0.046875,  0.015625,  0.000000,  0.015625,  0.015625,  0.000000,  0.015625,  0.000000,  0.000000,  0.031250,  0.015625,  0.000000,  0.031250,  0.031250,  0.031250,  0.000000,  0.000000,  0.000000,  0.031250,  0.000000,  0.000000,  0.031250,  0.015625,  -0.015625,  0.000000,  0.015625,  -0.015625,  0.015625,  0.000000,  0.000000,  0.031250,  0.000000,  -0.031250,  0.000000,  0.015625,  0.031250,  0.015625,  0.015625,  0.015625,  0.000000,  0.000000,  0.015625,  0.015625,  0.000000,  0.015625,  0.000000,  0.000000,  0.000000,  -0.015625,  0.000000,  0.000000,  0.015625,  0.000000,  -0.015625,  0.000000,  -0.015625,  -0.015625,  0.000000,  0.015625,  0.000000,  0.015625,  -0.015625,  -0.031250,  0.015625,  0.000000,  -0.031250,  0.031250,  0.015625,  0.015625,  0.015625,  0.015625,  -0.015625,  0.015625,  0.000000,  0.031250,  -0.015625,  0.015625,  0.031250,  -0.015625,  0.031250,  0.000000,  0.015625,  0.015625,  0.015625,  0.000000,  0.031250,  0.031250,  0.000000,  0.015625,  0.000000,  -0.015625,  0.015625,  0.000000,  0.000000,  0.000000,  0.015625,  0.015625,  -0.015625,  0.015625,  0.000000,  0.015625,  0.031250,  -0.015625,  0.031250,  0.000000,  0.000000,  0.031250,  -0.046875,  0.000000,  0.000000,  0.000000,  0.000000,  -0.015625,  0.015625,  -0.015625,  0.015625,  0.000000,  0.000000,  -0.031250,  -0.031250,  0.015625,  0.015625,  0.015625,  0.000000,  0.015625,  0.000000,  0.000000,  0.000000,  0.015625,  0.000000,  0.000000,  0.031250,  0.000000,  0.000000,  0.015625,  0.000000,  0.015625,  0.000000,  0.000000,  -0.015625,  0.015625,  0.015625,  0.000000,  0.000000,  -0.015625,  0.031250,  0.015625,  0.000000,  0.000000,  -0.015625,  0.000000,  0.015625,  0.015625,  0.015625,  0.000000,  0.015625,  0.000000,  0.015625,  0.031250,  0.031250,  0.000000,  0.015625,  -0.015625,  0.000000,  0.015625,  0.015625,  0.000000,  0.015625,  0.031250,  0.031250,  0.000000,  0.015625,  0.000000,  0.015625,  0.015625,  0.015625,  -0.031250,  0.015625,  0.000000,  0.000000,  0.015625,  0.000000,  0.031250,  0.000000,  0.000000,  0.000000,  -0.015625,  0.000000,  0.015625,  0.015625,  0.000000,  -0.015625,  -0.031250,  -0.015625,  0.000000,  0.015625,  0.015625,  0.015625,  0.000000,  -0.015625,  -0.015625,  0.000000,  0.000000,  0.031250,  0.000000,  0.000000,  0.000000,  0.000000,  0.015625,  0.015625,  0.015625,  0.015625,  0.000000,  -0.015625,  0.000000,  -0.015625,  0.015625,  0.015625,  -0.015625,  0.015625,  0.000000,  0.015625,  -0.015625,  0.015625,  0.015625,  0.031250,  0.000000,  0.031250,  0.000000,  0.015625,  0.015625,  0.015625,  -0.015625,  0.031250,  -0.015625,  -0.015625,  0.000000,  -0.015625,  -0.015625,  0.015625,  0.015625,  0.015625,  0.015625,  0.015625,  0.015625,  -0.015625,  0.015625,  0.031250,  0.031250,  0.000000,  0.015625,  0.000000,  0.000000,  0.015625,  0.000000,  0.000000,  0.015625,  0.031250,  0.000000,  0.015625,  0.031250,  0.000000,  0.015625,  0.015625,  0.015625,  0.015625,  0.015625,  -0.015625,  0.000000,  0.000000,  0.015625,  0.015625,  0.015625,  0.015625,  0.000000,  0.015625,  0.000000,  0.000000,  0.031250,  -0.015625,  0.000000,  -0.015625,  0.015625,  0.000000,  0.015625,  -0.015625,  0.000000,  0.000000,  0.015625,  0.015625,  0.000000,  0.015625,  0.000000,  0.015625,  0.000000,  0.031250,  0.000000,  0.015625,  0.000000,  0.000000,  0.015625,  0.000000,  0.015625,  0.015625,  0.015625,  0.015625,  0.015625,  0.015625,  0.015625,  0.015625,  0.000000,  0.015625,  0.015625,  0.031250,  0.015625,  0.015625,  0.000000,  0.000000,  0.031250,  0.015625,  0.031250,  0.015625,  0.031250,  0.015625,  -0.015625,  0.000000,  -0.015625,  0.015625,  -0.015625,  0.015625,  0.015625,  0.015625,  0.015625,  0.000000,  0.000000,  0.015625,  0.000000,  0.000000,  0.000000,  0.000000,  0.015625,  0.000000,  0.000000,  0.015625,  0.015625,  0.000000,  0.015625,  0.000000,  0.015625,  0.031250,  0.000000,  0.000000,  -0.015625,  0.015625,  0.031250,  0.015625,  0.015625,  0.015625,  0.000000,  0.000000,  0.000000,  0.000000,  0.000000,  0.000000,  0.015625,  0.015625,  0.015625,  0.000000,  0.015625,  0.000000,  0.000000,  0.000000,  0.031250,  0.015625,  0.000000,  0.000000,  0.000000,  0.000000,  -0.015625,  0.015625,  0.015625,  0.000000,  -0.015625,  -0.015625,  0.015625,  0.000000,  0.000000,  0.015625,  0.015625,  0.000000,  0.015625,  0.000000,  0.015625,  0.031250,  0.015625,  0.015625,  0.015625,  0.000000,  0.015625,  -0.015625,  0.031250,  0.031250,  0.000000,  0.000000,  0.000000,  0.031250,  0.000000,  0.015625,  0.000000,  0.015625,  0.015625,  -0.015625,  -0.031250,  0.015625,  0.000000,  0.000000,  -0.031250,  0.015625,  0.015625,  0.031250,  0.031250,  0.015625,  0.031250,  0.000000,  0.015625,  0.015625,  0.000000,  0.031250,  0.000000,  0.000000,  0.000000,  0.000000,  0.000000,  0.031250,  -0.015625,  -0.015625,  0.000000,  0.015625,  0.031250,  -0.015625,  -0.015625,  -0.015625,  0.015625,  0.031250,  0.015625,  0.000000,  0.000000,  0.031250,  0.000000,  0.015625,  0.000000,  -0.015625,  0.000000,  0.000000,  0.000000,  0.015625,  0.015625,  -0.015625,  0.015625,  0.000000,  0.000000,  0.031250,  0.000000,  0.015625,  0.000000,  -0.015625,  0.031250,  0.015625,  0.015625,  0.015625,  0.015625,  0.000000,  -0.015625,  -0.031250,  0.000000,  0.015625,  0.015625,  0.015625,  0.000000,  0.015625,  0.015625,  0.000000,  0.015625,  0.000000,  0.000000,  0.000000,  0.015625,  -0.015625,  -0.015625,  0.000000,  0.015625,  0.015625,  0.015625,  0.015625,  0.000000,  -0.031250,  0.000000,  0.000000,  0.031250,  -0.015625,  0.015625,  0.015625,  0.000000,  0.000000,  0.015625,  0.000000,  0.000000,  0.015625,  0.015625,  0.015625,  0.000000,  0.015625,  -0.015625,  -0.015625,  0.015625,  -0.015625,  -0.015625,  0.000000,  -0.015625,  0.000000,  -0.031250,  -0.031250,  0.000000,  0.000000,  -0.031250,  0.000000,  -0.015625,  0.000000,  0.015625,  0.000000,  -0.015625,  0.000000,  0.015625,  -0.031250,  0.000000,  0.000000,  0.000000,  -0.015625,  0.015625,  0.000000,  -0.015625,  0.000000,  -0.015625,  0.015625,  -0.015625,  0.000000,  0.015625,  0.000000,  -0.015625,  -0.015625,  -0.015625,  0.015625,  0.000000,  0.046875,  0.015625,  -0.015625,  0.000000,  -0.031250,  0.000000,  0.000000,  0.015625,  -0.015625,  0.000000,  0.015625,  -0.015625,  0.000000,  0.015625,  0.046875,  0.000000,  0.031250,  -0.046875,  -0.046875,  0.015625,  -0.015625,  0.015625,  0.000000,  -0.015625,  0.000000,  -0.031250,  -0.015625,  -0.031250,  -0.015625,  -0.031250,  -0.015625,  -0.031250,  0.015625,  -0.015625,  0.000000,  -0.015625,  -0.015625,  0.000000,  -0.015625,  -0.015625,  0.000000,  -0.031250,  0.000000,  0.000000,  0.000000,  -0.015625,  0.000000,  0.000000,  0.000000,  0.000000,  -0.031250,  -0.031250,  0.000000,  0.015625,  0.000000,  -0.031250,  0.000000,  0.000000,  -0.031250,  -0.015625,  0.000000,  0.000000,  -0.031250,  0.031250,  -0.015625,  0.000000,  0.000000,  0.000000,  -0.031250,  -0.031250,  0.000000,  -0.015625,  0.000000,  0.000000,  0.000000,  0.000000,  0.000000,  0.000000,  0.000000,  -0.031250,  0.015625,  0.015625,  0.015625,  -0.031250,  0.000000,  -0.031250,  -0.031250,  0.000000,  0.000000,  0.000000,  -0.062500,  -0.015625,  -0.015625,  -0.015625,  0.015625,  -0.031250,  0.000000,  0.015625,  -0.031250,  -0.031250,  0.000000,  -0.015625,  0.015625,  0.000000,  0.015625,  -0.015625,  0.000000,  0.000000,  0.000000,  0.000000,  -0.015625,  0.000000,  -0.015625,  0.000000,  -0.015625,  -0.031250,  -0.015625,  -0.015625,  -0.031250,  0.000000,  0.000000,  0.000000,  0.015625,  -0.015625,  -0.015625,  -0.015625,  -0.015625,  -0.031250,  -0.015625,  0.000000,  0.000000,  -0.015625,  0.015625,  -0.015625,  0.000000,  -0.015625,  -0.015625,  -0.031250,  0.000000,  -0.046875,  0.000000,  -0.015625,  -0.015625,  0.015625,  0.000000,  0.015625,  0.000000,  0.000000,  -0.015625,  -0.015625,  -0.015625,  -0.015625,  0.031250,  -0.015625,  -0.015625,  0.000000,  0.000000,  0.000000,  0.000000,  -0.031250,  0.031250,  0.000000,  -0.015625,  0.000000,  -0.015625,  -0.031250,  0.000000,  0.000000,  -0.015625,  -0.015625,  0.015625,  0.000000,  0.015625,  -0.015625,  -0.015625,  0.000000,  0.000000,  -0.015625,  0.000000,  -0.015625,  -0.015625,  -0.031250,  0.000000,  -0.015625,  -0.015625,  -0.015625,  -0.015625,  0.000000,  -0.015625,  0.000000,  -0.015625,  0.000000,  -0.031250,  -0.031250,  -0.015625,  0.000000,  -0.015625,  -0.046875,  0.000000,  -0.015625,  -0.015625,  -0.015625,  -0.031250,  -0.031250,  -0.015625,  0.015625,  -0.015625,  -0.015625,  0.046875,  -0.015625,  -0.031250,  0.015625,  -0.015625,  0.000000,  -0.015625,  0.000000,  0.000000,  0.000000,  0.000000,  -0.015625,  -0.015625,  0.000000,  -0.015625,  0.015625,  -0.031250,  -0.015625,  0.015625,  -0.031250,  0.015625,  0.000000,  -0.015625,  -0.015625,  -0.015625,  0.000000,  -0.015625,  0.015625,  0.015625,  -0.015625,  0.015625,  -0.015625,  0.000000,  0.000000,  0.000000,  0.000000,  0.015625,  0.015625,  0.000000,  0.000000,  0.015625,  -0.031250,  -0.031250,  -0.046875,  0.000000,  -0.015625,  0.000000,  0.000000,  0.000000,  0.000000,  0.000000,  0.000000,  0.000000,  0.000000,  -0.031250,  -0.031250,  -0.015625,  -0.015625,  0.015625,  -0.015625,  -0.031250,  -0.031250,  0.015625,  0.000000,  -0.031250,  -0.015625,  -0.015625,  -0.015625,  0.000000,  0.000000,  -0.015625,  0.000000,  0.000000,  0.000000,  -0.031250,  -0.046875,  0.000000,  0.000000,  -0.015625,  0.000000,  -0.015625,  0.015625,  -0.031250,  0.015625,  0.000000,  0.015625,  -0.015625,  0.000000,  -0.015625,  -0.046875,  -0.031250,  -0.015625,  0.031250,  -0.015625,  0.000000,  -0.015625,  0.000000,  -0.031250,  -0.015625,  0.000000,  0.000000,  0.015625,  0.015625,  -0.015625,  0.000000,  0.000000,  0.000000,  -0.015625,  0.000000,  0.000000,  -0.031250,  0.000000,  0.000000,  0.000000,  -0.031250,  -0.031250,  -0.015625,  0.015625,  0.015625,  0.000000,  0.000000,  -0.015625,  -0.015625,  -0.031250,  -0.015625,  -0.015625,  -0.031250,  -0.046875,  0.000000,  0.000000,  0.015625,  0.000000,  0.000000,  0.015625,  0.000000,  0.015625,  0.015625,  0.015625,  0.000000,  0.000000,  0.000000,  -0.031250,  0.015625,  -0.031250,  -0.015625,  -0.031250,  0.000000,  0.031250,  0.000000,  0.000000,  0.015625,  0.000000,  -0.015625,  0.000000,  -0.015625,  0.015625,  0.000000,  0.015625,  0.000000,  0.015625,  0.015625,  -0.015625,  0.000000,  -0.046875,  0.015625,  0.015625,  -0.031250,  -0.015625,  -0.031250,  0.015625,  -0.015625,  -0.031250,  0.000000,  0.000000,  0.015625,  -0.015625,  0.000000,  0.015625,  -0.031250,  -0.015625,  -0.015625,  -0.015625,  0.015625,  -0.031250,  0.000000,  -0.015625,  0.015625,  0.000000,  -0.015625,  0.000000,  0.015625,  0.015625,  0.015625,  0.000000,  -0.015625,  0.000000,  0.000000,  -0.031250,  0.000000,  0.000000,  -0.015625,  0.015625,  0.000000,  -0.015625,  0.000000,  0.000000,  0.000000,  -0.015625,  -0.031250,  -0.046875,  0.015625,  0.015625,  -0.015625,  0.000000,  -0.015625,  -0.015625,  0.000000,  -0.015625,  0.000000,  0.000000,  -0.031250,  0.000000,  -0.015625,  0.015625,  0.000000,  -0.015625,  0.000000,  -0.015625,  -0.015625,  0.000000,  -0.031250,  -0.015625,  -0.015625,  0.000000,  -0.015625,  0.000000,  0.000000,  0.000000,  0.000000,  -0.031250,  -0.015625,  0.015625,  -0.015625,  0.000000,  0.000000,  0.015625,  -0.031250,  0.015625,  0.015625,  -0.015625,  0.015625,  0.015625,  0.000000,  0.000000,  0.015625,  0.015625,  0.015625,  0.000000,  0.015625,  -0.031250,  0.000000,  0.015625,  0.000000,  0.000000,  0.000000,  0.000000,  -0.015625,  0.000000,  0.015625,  0.000000,  0.000000,  0.000000,  -0.015625,  0.000000,  -0.015625,  0.000000,  0.000000,  0.031250,  -0.015625,  0.000000,  -0.015625,  -0.015625,  0.000000,  0.000000,  0.000000,  0.000000,  -0.015625,  0.015625,  -0.015625,  0.015625,  -0.015625,  -0.015625,  0.015625,  -0.015625,  -0.015625,  0.000000,  0.000000,  0.015625,  0.000000,  0.000000,  0.000000,  0.000000,  0.000000,  0.000000,  -0.015625,  -0.015625,  0.015625,  0.000000,  0.000000,  0.000000,  0.015625,  -0.015625,  -0.015625,  0.000000,  0.000000,  0.000000,  0.000000,  0.000000,  0.000000,  0.000000,  0.000000,  0.000000,  0.000000,  0.000000,  0.000000,  0.000000,  0.015625,  0.000000,  -0.015625,  0.000000,  0.000000,  0.000000,  0.000000,  -0.015625,  -0.031250,  0.015625,  0.000000,  0.000000,  -0.031250,  0.015625,  0.015625,  0.015625,  0.000000,  -0.015625,  0.015625,  0.000000,  0.000000,  0.015625,  0.000000,  0.000000,  0.000000,  0.000000,  0.015625,  0.000000,  0.000000,  0.000000,  -0.015625,  0.000000,  0.015625,  0.015625,  0.000000,  0.000000,  0.000000,  0.015625,  0.000000,  0.015625,  -0.015625,  0.000000,  -0.015625,  0.015625,  -0.015625,  0.000000,  0.000000,  -0.031250,  0.000000,  0.000000,  0.000000,  0.000000,  0.000000,  0.000000,  -0.015625,  0.000000,  -0.015625,  0.015625,  0.000000,  -0.015625,  0.000000,  0.000000,  0.000000,  0.015625,  -0.015625,  0.015625,  0.000000,  0.000000,  0.000000,  0.000000,  0.015625,  0.015625,  0.000000,  0.000000,  -0.015625,  0.015625,  0.000000,  0.000000,  0.015625,  0.000000,  0.015625,  0.015625,  0.000000,  0.000000,  0.000000,  -0.015625,  0.000000,  0.000000,  0.000000,  0.000000,  0.000000,  0.015625,  0.015625,  0.000000,  0.000000,  -0.015625,  0.000000,  -0.015625,  0.000000,  0.000000,  0.000000,  -0.015625,  -0.015625,  0.000000,  0.015625,  0.000000,  0.000000,  0.000000,  0.000000,  0.000000,  -0.015625,  -0.015625,  -0.015625,  0.000000,  -0.015625,  -0.015625,  0.000000,  0.000000,  0.000000,  0.000000,  0.000000,  0.000000,  0.015625,  0.000000,  0.000000,  0.015625,  0.000000,  -0.015625,  -0.015625,  -0.031250,  0.000000,  0.000000,  -0.015625,  0.000000,  0.000000,  0.000000,  0.000000,  -0.015625,  -0.015625,  -0.015625,  0.015625,  0.000000,  0.000000,  0.000000,  0.000000,  0.015625,  0.015625,  0.015625,  0.000000,  -0.015625,  -0.031250,  0.000000,  0.000000,  -0.015625,  0.000000,  0.015625,  -0.015625,  0.015625,  0.000000,  0.000000,  0.015625,  -0.015625,  0.031250,  0.000000,  0.000000,  0.015625,  0.000000,  0.000000,  -0.015625,  0.000000,  0.000000,  0.000000,  0.000000,  0.000000,  0.000000,  0.000000,  0.000000,  0.000000,  -0.015625,  0.000000,  0.015625,  0.000000,  0.000000,  -0.015625,  -0.015625,  0.000000,  0.000000,  -0.015625,  0.000000,  0.015625,  0.000000,  0.000000,  0.000000,  0.000000,  -0.015625,  0.000000,  0.000000,  0.031250,  -0.015625,  -0.015625,  0.015625,  -0.015625,  0.000000,  -0.015625,  0.000000,  0.015625,  0.015625,  0.000000,  0.000000,  0.000000,  -0.015625,  0.000000,  0.000000,  0.000000,  0.000000,  0.000000,  0.000000,  0.000000,  0.000000,  0.000000,  0.000000,  0.000000,  0.000000,  0.000000,  0.000000,  0.000000,  0.000000,  -0.015625,  0.015625,  -0.015625,  -0.015625,  0.000000,  0.015625,  -0.015625,  0.015625,  0.000000,  0.000000,  0.000000,  0.000000,  0.015625,  -0.015625,  0.000000,  -0.015625,  -0.015625,  0.000000,  0.015625,  0.000000,  0.000000,  -0.015625,  0.015625,  -0.015625,  0.015625,  0.000000,  -0.015625,  0.000000,  0.031250,  0.015625,  0.000000,  0.000000,  0.015625,  0.000000,  0.000000,  0.000000,  0.000000,  0.000000,  0.000000,  0.031250,  0.000000,  0.000000,  -0.015625,  0.000000,  0.000000,  0.015625,  0.015625,  -0.015625,  0.000000,  0.000000,  -0.015625,  0.000000,  -0.015625,  0.015625,  0.000000,  0.000000,  0.000000,  0.031250,  0.000000,  0.000000,  0.000000,  0.000000,  -0.015625,  0.000000,  0.015625,  0.000000,  0.000000,  0.015625,  0.015625,  0.000000,  0.015625,  0.000000,  0.000000,  0.000000,  0.000000,  0.000000,  0.000000,  0.000000,  -0.015625,  0.000000,  0.000000,  0.015625,  0.015625,  -0.015625,  0.000000,  0.000000,  0.000000,  0.015625,  0.000000,  0.000000,  0.015625,  0.000000,  0.000000,  -0.015625,  0.000000,  0.000000,  0.000000,  0.000000,  0.000000,  0.015625,  0.000000,  0.000000,  0.015625,  0.015625,  0.000000,  0.015625,  0.000000,  0.000000,  0.000000,  0.015625,  0.000000,  0.015625,  -0.015625,  0.000000,  0.000000,  0.031250,  0.015625,  -0.015625,  0.015625,  0.000000,  -0.015625,  -0.015625,  0.000000,  0.000000,  0.000000,  0.000000,  -0.015625,  0.000000,  0.000000,  0.031250,  0.015625,  0.000000,  0.000000,  0.000000,  0.015625,  0.000000,  -0.015625,  0.031250,  0.000000,  0.015625,  -0.015625,  -0.015625,  0.000000,  -0.015625,  0.015625,  0.015625,  0.000000,  0.000000,  0.000000,  0.015625,  0.000000,  0.000000,  0.000000,  0.015625,  0.000000,  0.000000,  0.015625,  0.015625,  0.031250,  0.031250,  0.000000,  -0.031250,  -0.015625,  0.000000,  0.000000,  -0.015625,  0.000000,  -0.031250,  -0.015625,  -0.015625,  -0.015625,  0.015625,  0.015625,  -0.015625,  -0.015625,  -0.015625,  0.000000,  0.000000,  0.000000,  0.000000,  -0.015625,  0.015625,  0.000000,  0.015625,  0.000000,  0.015625,  0.015625,  0.015625,  0.000000,  -0.015625,  0.015625,  0.000000,  0.000000,  -0.015625,  0.000000,  -0.015625,  0.015625,  0.000000,  0.000000,  0.000000,  0.000000,  0.000000,  0.000000,  0.000000,  0.000000,  0.000000,  0.015625,  0.000000,  -0.015625,  0.000000,  0.000000,  0.000000,  0.015625,  0.000000,  -0.015625,  0.000000,  -0.015625,  0.000000,  0.000000,  0.015625,  -0.015625,  0.000000,  0.000000,  0.015625,  0.000000,  0.000000,  0.000000,  0.000000,  0.000000,  -0.015625,  0.015625,  0.015625,  0.000000,  0.000000,  0.000000,  -0.015625,  -0.015625,  0.000000,  0.000000,  0.000000,  0.015625,  0.000000,  0.000000,  0.015625,  0.000000,  0.000000,  -0.015625,  0.000000,  0.000000,  0.000000,  0.015625,  -0.015625,  0.015625,  0.000000,  0.015625,  -0.015625,  0.000000,  0.000000,  0.000000,  0.000000,  0.000000,  -0.015625,  -0.015625,  -0.015625,  0.000000,  0.000000,  0.000000,  0.000000,  0.015625,  0.000000,  0.000000,  0.000000,  0.000000,  -0.015625,  0.000000,  0.015625,  0.000000,  0.000000,  0.000000,  0.000000,  0.000000,  0.000000,  -0.015625,  0.000000,  0.015625,  0.000000,  0.000000,  0.000000,  0.000000,  0.000000,  0.015625,  0.000000,  0.000000,  0.015625,  0.000000,  0.000000,  0.000000,  0.015625,  0.000000,  -0.015625,  0.000000,  0.000000,  0.015625,  0.000000,  0.000000,  0.000000,  0.000000,  0.000000,  0.000000,  0.000000,  -0.015625,  0.015625,  0.015625,  0.000000,  0.000000,  0.000000,  0.000000,  -0.015625,  0.000000,  0.000000,  0.000000,  0.000000,  -0.015625,  0.000000,  0.000000,  0.000000,  0.000000,  0.015625,  0.000000,  0.000000,  0.000000,  0.000000,  0.031250,  0.015625,  0.000000,  -0.015625,  -0.015625,  -0.015625,  0.015625,  0.000000,  0.000000,  0.000000,  0.000000,  0.000000,  -0.015625,  0.000000,  0.015625,  -0.015625,  0.015625,  0.031250,  0.000000,  0.000000,  -0.015625,  0.015625,  -0.015625,  -0.015625,  -0.015625,  0.000000,  0.000000,  0.015625,  0.000000,  0.000000,  0.000000,  -0.015625,  0.015625,  0.000000,  0.015625,  0.000000,  0.015625,  -0.015625,  0.000000,  0.000000,  -0.015625,  0.000000,  -0.015625,  0.000000,  0.000000,  -0.015625,  0.000000,  0.000000,  0.000000,  0.000000,  0.015625,  -0.015625,  0.000000,  -0.015625,  0.015625,  0.015625,  0.000000,  -0.015625,  0.000000,  0.015625,  0.000000,  0.000000,  0.000000,  0.000000,  0.015625,  0.000000,  0.015625,  0.015625,  0.015625,  0.000000,  0.000000,  0.000000,  -0.015625,  0.015625,  -0.015625,  -0.015625,  0.015625,  0.000000,  0.000000,  0.000000,  0.015625,  0.000000,  0.015625,  0.015625,  0.000000,  0.015625,  -0.015625,  0.000000,  -0.015625,  0.000000,  0.015625,  0.000000,  0.015625,  -0.015625,  0.000000,  0.000000,  0.000000,  0.000000,  0.000000,  -0.015625,  0.015625,  0.000000,  0.000000,  0.000000,  0.000000,  0.000000,  0.000000,  0.000000,  0.000000,  0.000000,  -0.015625,  0.000000,  -0.015625,  -0.015625,  0.015625,  -0.015625,  -0.015625,  0.000000,  0.000000,  0.000000,  0.000000,  0.000000,  0.000000,  0.015625,  0.000000,  0.015625,  0.000000,  0.000000,  0.000000,  -0.015625,  0.015625,  0.000000,  -0.015625,  0.000000,  0.000000,  0.000000,  0.015625,  0.000000,  0.000000,  0.000000,  0.000000,  0.015625,  0.000000,  0.000000,  0.000000,  0.000000,  -0.015625,  0.000000,  0.000000,  0.000000,  -0.015625,  0.015625,  -0.015625,  0.000000,  -0.015625,  0.000000,  0.000000,  0.000000,  0.000000,  0.000000,  0.000000,  0.015625,  0.000000,  0.000000,  0.000000,  0.000000,  0.000000,  0.000000,  0.015625,  0.000000,  0.000000,  0.000000,  -0.015625,  0.000000,  0.015625,  -0.015625,  0.000000,  0.000000,  0.000000,  0.000000,  0.031250,  -0.015625,  0.000000,  0.000000,  -0.015625,  -0.015625,  0.000000,  0.015625,  0.000000,  0.000000,  0.000000,  0.000000,  -0.015625,  0.000000,  0.015625,  0.000000,  0.000000,  -0.015625,  0.000000,  0.000000,  0.015625,  0.000000,  -0.015625,  0.000000,  0.000000,  0.000000,  0.000000,  0.000000,  -0.015625,  0.000000,  0.000000,  0.000000,  -0.015625,  0.000000,  0.000000,  -0.015625,  -0.015625,  0.000000,  0.000000,  -0.015625,  0.000000,  0.000000,  0.000000,  0.000000,  -0.015625,  0.000000,  -0.015625,  0.015625,  0.000000,  0.000000,  0.015625,  0.000000,  0.000000,  -0.015625,  0.015625,  -0.015625,  0.000000,  0.000000,  0.000000,  0.000000,  0.000000,  0.000000,  0.000000,  0.000000,  -0.015625,  0.000000,  -0.015625,  -0.015625,  0.000000,  0.000000,  0.000000,  0.000000,  0.015625,  0.000000,  0.000000,  0.000000,  0.000000,  0.000000,  0.015625,  -0.015625,  0.000000,  0.000000,  0.000000,  0.000000,  0.000000,  0.000000,  0.031250,  0.000000,  0.000000,  0.000000,  0.000000,  0.015625,  0.015625,  0.015625,  0.000000,  0.000000,  -0.015625,  -0.015625,  0.000000,  0.000000,  -0.015625,  0.000000,  0.000000,  -0.015625,  0.015625,  -0.015625,  0.000000,  0.000000,  -0.015625,  -0.015625,  0.000000,  0.000000,  0.000000,  0.000000,  0.000000,  -0.015625,  -0.015625,  0.000000,  0.000000,  -0.015625,  -0.015625,  0.015625,  0.015625,  0.000000,  -0.015625,  0.031250,  0.015625,  0.015625,  0.000000,  -0.015625,  0.000000,  0.000000,  0.000000,  -0.015625,  -0.015625,  0.000000,  0.000000,  -0.015625,  0.000000,  0.000000,  0.000000,  0.000000,  0.000000,  0.000000,  -0.015625,  0.000000,  0.000000,  -0.015625,  0.000000,  -0.015625,  0.000000,  -0.015625,  0.000000,  0.000000,  0.000000,  0.015625,  0.000000,  -0.015625,  -0.015625,  -0.015625,  0.000000,  0.000000,  0.000000,  -0.015625,  0.000000,  0.015625,  0.015625,  0.015625,  0.000000,  0.000000,  0.000000,  -0.015625,  -0.015625,  0.000000,  0.000000,  0.000000,  0.000000,  0.000000,  0.000000,  0.015625,  0.000000,  0.000000,  0.000000,  0.000000,  0.000000,  -0.015625,  0.000000,  0.000000,  0.000000,  0.000000,  0.000000,  0.015625,  0.000000,  0.000000,  0.000000,  0.000000,  0.000000,  0.000000,  0.000000,  0.000000,  -0.015625,  -0.015625,  -0.015625,  0.000000,  0.000000,  0.000000,  -0.015625,  0.000000,  0.015625,  -0.015625,  0.000000,  0.000000,  0.000000,  0.000000,  0.000000,  0.000000,  0.015625,  0.000000,  0.000000,  0.000000,  0.000000,  -0.015625,  0.000000,  0.000000,  -0.015625,  0.000000,  0.015625,  -0.015625,  0.000000,  0.000000,  0.000000,  0.000000,  0.000000,  -0.015625,  0.015625,  0.000000,  -0.015625,  0.000000,  -0.015625,  0.015625,  0.000000,  0.000000,  -0.015625,  -0.015625,  0.000000,  -0.031250,  0.000000,  0.000000,  -0.015625,  0.000000,  -0.015625,  -0.015625,  -0.015625,  0.000000,  -0.015625,  -0.015625,  0.000000,  0.000000,  0.015625,  0.000000,  0.000000,  -0.015625,  0.000000,  0.000000,  -0.015625,  0.000000,  0.000000,  -0.015625,  0.000000,  -0.015625,  0.015625,  0.000000,  0.000000,  -0.015625,  -0.015625,  0.000000,  0.000000,  -0.015625,  -0.015625,  -0.015625,  0.000000,  0.000000,  0.000000,  0.000000,  -0.015625,  -0.015625,  0.015625,  -0.015625,  0.000000,  0.000000,  0.000000,  0.015625,  0.000000,  0.000000,  0.000000,  -0.015625,  -0.015625,  0.000000,  0.000000,  0.000000,  -0.015625,  0.000000,  0.000000,  0.000000,  0.000000,  -0.015625,  0.000000,  0.000000,  0.000000,  -0.015625,  0.000000,  0.000000,  0.000000,  0.015625,  0.000000,  0.000000,  -0.015625,  0.000000,  -0.015625,  0.000000,  -0.015625,  0.015625,  0.000000,  0.000000,  0.000000,  0.000000,  0.000000,  0.000000,  0.000000,  -0.015625,  -0.015625,  -0.015625,  -0.015625,  -0.015625,  -0.015625,  0.015625,  0.000000,  -0.015625,  0.000000,  0.000000,  0.000000,  -0.015625,  0.000000,  0.015625,  0.000000,  -0.015625,  -0.015625,  -0.015625,  0.000000,  0.000000,  -0.015625,  0.015625,  0.015625,  0.015625,  0.000000,  -0.015625,  0.000000,  -0.015625,  0.000000,  -0.015625,  0.000000,  0.015625,  -0.015625,  -0.015625,  0.000000,  0.000000,  0.000000,  -0.015625,  -0.015625,  -0.015625,  -0.015625,  0.000000,  0.000000,  -0.015625,  0.000000,  0.015625,  0.000000,  -0.015625,  0.015625,  0.000000,  0.015625,  0.000000,  0.000000,  0.000000,  -0.031250,  0.000000,  0.000000,  0.000000,  0.000000,  0.000000,  0.000000,  0.000000,  0.000000,  0.015625,  0.015625,  0.000000,  0.000000,  0.015625,  -0.015625,  0.000000,  -0.015625,  -0.015625,  0.015625,  -0.015625,  -0.015625,  0.000000,  0.000000,  -0.015625,  -0.031250,  -0.031250,  0.000000,  0.000000,  0.000000,  0.015625,  -0.015625,  -0.015625,  -0.015625,  0.000000,  -0.015625,  0.000000,  0.000000,  -0.031250,  0.000000,  0.000000,  0.000000,  0.000000,  0.000000,  0.015625,  0.031250,  0.000000,  0.000000,  0.000000,  0.000000,  -0.015625,  0.031250,  0.000000,  0.000000,  -0.015625,  0.000000,  0.015625,  0.000000,  0.000000,  0.000000,  0.000000,  0.015625,  0.000000,  -0.015625,  0.000000,  0.015625,  0.000000,  -0.015625,  -0.015625,  0.000000,  0.000000,  0.000000,  0.000000,  0.000000,  -0.015625,  -0.015625,  -0.015625,  0.000000,  0.000000,  0.000000,  0.000000,  0.000000,  0.000000,  0.015625,  -0.015625,  0.000000,  0.000000,  0.015625,  -0.015625,  -0.015625,  0.000000,  -0.015625,  -0.015625,  0.000000,  0.000000,  -0.015625,  0.000000,  -0.015625,  -0.015625,  0.000000,  0.000000,  -0.015625,  0.015625,  -0.015625,  0.015625,  -0.015625,  0.000000,  0.000000,  0.000000,  -0.015625,  0.015625,  0.000000,  0.000000,  -0.015625,  0.000000,  0.000000,  -0.015625,  0.000000,  -0.015625,  0.015625,  0.015625,  0.000000,  0.000000,  -0.015625,  0.000000,  0.015625,  -0.015625,  -0.015625,  -0.015625,  0.000000,  0.000000,  0.000000,  -0.015625,  0.000000,  -0.015625,  -0.015625,  0.000000,  0.015625,  0.000000,  -0.015625,  -0.015625,  -0.015625,  0.015625,  0.015625,  0.000000,  0.000000,  -0.015625,  0.000000,  0.000000,  0.015625,  0.000000,  0.000000,  0.015625,  -0.015625,  0.000000,  0.000000,  0.000000,  0.000000,  -0.015625,  0.000000,  0.000000,  -0.015625,  0.000000,  0.015625,  -0.015625,  0.000000,  -0.015625,  0.000000,  -0.015625,  0.000000,  0.000000,  0.015625,  -0.015625,  0.000000,  0.000000,  -0.015625,  0.000000,  0.000000,  0.000000,  0.000000,  0.000000,  0.000000,  0.000000,  -0.015625,  0.000000,  0.000000,  0.000000,  -0.015625,  0.000000,  0.000000,  0.000000,  -0.015625,  0.000000,  -0.015625,  0.000000,  -0.015625,  -0.015625,  -0.015625,  0.000000,  0.000000,  0.015625,  -0.015625,  0.015625,  0.000000,  0.000000,  0.000000,  0.000000,  0.000000,  -0.015625,  0.015625,  -0.015625,  0.000000,  0.000000,  0.000000,  -0.015625,  0.000000,  -0.015625,  0.000000,  0.000000,  -0.015625,  0.015625,  -0.015625,  0.000000,  -0.015625,  0.000000,  0.000000,  -0.015625,  0.000000,  -0.015625,  0.000000,  -0.015625,  -0.015625,  0.000000,  0.015625,  -0.031250,  0.000000,  0.000000,  -0.015625,  0.000000,  -0.015625,  0.000000,  0.000000,  0.000000,  -0.015625,  0.000000,  -0.015625,  0.000000,  -0.015625,  0.000000,  0.000000,  -0.015625,  0.015625,  0.000000,  -0.015625,  0.000000,  -0.015625,  0.000000,  -0.015625,  0.000000,  0.000000,  -0.015625,  -0.015625,  0.000000,  -0.015625,  0.000000,  0.000000,  0.000000,  -0.015625,  -0.015625,  0.000000,  -0.015625,  0.031250,  0.000000,  -0.015625,  -0.015625,  -0.015625,  0.000000,  0.000000,  0.000000,  0.000000,  -0.015625,  0.000000,  -0.015625,  0.015625,  0.000000,  -0.015625,  0.000000,  0.000000,  -0.015625,  0.000000,  0.015625,  -0.015625,  0.000000,  0.015625,  0.000000,  0.000000,  0.000000,  0.015625,  0.000000,  0.000000,  0.000000,  0.000000,  0.000000,  0.015625,  0.000000,  0.015625,  0.000000,  -0.015625,  0.015625,  0.000000,  -0.015625,  -0.015625,  -0.015625,  0.000000,  0.000000,  0.015625,  0.000000,  0.000000,  0.000000,  -0.015625,  -0.015625,  -0.015625,  0.000000,  -0.015625,  0.000000,  0.000000,  0.000000,  0.015625,  0.000000,  -0.015625,  0.000000,  -0.015625,  -0.015625,  0.000000,  0.000000,  0.000000,  0.000000,  0.000000,  -0.015625,  0.000000,  0.031250,  -0.015625,  -0.015625,  -0.015625,  -0.015625,  0.015625,  -0.015625,  -0.015625,  0.000000,  0.000000,  0.015625,  0.000000,  -0.015625,  0.000000,  0.015625,  0.000000,  0.000000,  -0.015625,  0.015625,  0.000000,  0.015625,  0.000000,  0.015625,  0.015625,  0.015625,  0.015625,  0.015625,  0.015625,  0.000000,  0.015625,  0.000000,  0.015625,  0.000000,  0.000000,  0.015625,  0.000000,  0.000000,  0.015625,  0.015625,  0.015625,  0.000000,  0.000000,  0.000000,  0.000000,  0.015625,  0.000000,  0.015625,  0.000000,  -0.015625,  0.000000,  0.000000,  0.015625,  0.000000,  0.000000,  -0.015625,  -0.015625,  0.000000,  0.000000,  -0.015625,  0.015625,  0.015625,  0.031250,  0.000000,  0.000000,  0.000000,  0.015625,  0.000000,  0.015625,  0.015625,  0.000000,  0.000000,  0.000000,  0.000000,  0.000000,  0.015625,  0.000000,  0.000000,  0.015625,  0.015625,  0.000000,  0.000000,  0.000000,  0.000000,  0.000000,  0.000000,  0.015625,  0.000000,  0.000000,  0.000000,  0.000000,  0.015625,  -0.015625,  -0.015625,  0.015625,  0.015625,  0.015625,  0.015625,  0.015625,  0.000000,  0.000000,  -0.015625,  0.000000,  0.000000,  0.000000,  0.000000,  0.000000,  0.000000,  0.000000,  0.015625,  0.015625,  0.015625,  0.015625,  0.015625,  0.000000,  0.015625,  0.015625,  0.000000,  0.000000,  -0.015625,  0.000000,  0.015625,  -0.015625,  0.000000,  0.000000,  0.015625,  0.015625,  0.000000,  0.000000,  0.000000,  0.000000,  -0.015625,  -0.015625,  0.015625,  0.015625,  0.015625,  0.000000,  0.015625,  0.000000,  0.000000,  0.000000,  0.015625,  0.000000,  0.015625,  0.000000,  0.000000,  0.015625,  0.015625,  0.000000,  -0.015625,  0.000000,  -0.015625,  0.000000,  0.000000,  0.000000,  0.015625,  0.015625,  0.015625,  0.000000,  0.000000,  0.000000,  0.015625,  0.000000,  0.015625,  0.015625,  0.000000,  0.000000,  0.000000,  0.000000,  0.000000,  0.015625,  0.000000,  0.000000,  0.000000,  -0.015625,  0.015625,  0.015625,  0.000000,  0.000000,  0.015625,  0.000000,  0.000000,  0.000000,  0.000000,  0.000000,  0.015625,  0.000000,  0.000000,  0.000000,  0.000000,  0.000000,  0.000000,  0.000000,  0.015625,  0.015625,  0.015625,  0.000000,  0.015625,  -0.015625,  0.015625,  0.000000,  0.015625,  -0.015625,  0.000000,  0.000000,  0.000000,  0.000000,  0.000000,  0.015625,  0.000000,  0.000000,  0.000000,  -0.015625,  0.015625,  0.000000,  0.031250,  0.000000,  0.000000,  0.000000,  0.000000,  0.000000,  0.000000,  0.000000,  0.000000,  0.000000,  0.000000,  0.000000,  0.000000,  0.000000,  0.000000,  0.015625,  0.000000,  0.015625,  0.015625,  0.000000,  0.000000,  0.000000,  0.000000,  0.000000,  0.015625,  0.000000,  -0.031250,  0.015625,  0.015625,  0.015625,  0.000000,  0.000000,  -0.015625,  0.015625,  0.000000,  0.000000,  0.015625,  -0.015625,  0.000000,  0.015625,  0.000000,  0.000000,  0.000000,  0.000000,  0.015625,  -0.015625,  0.015625,  0.015625,  0.000000,  0.015625,  0.015625,  -0.015625,  -0.015625,  0.015625,  0.000000,  0.000000,  0.000000,  0.000000,  0.000000,  0.015625,  0.000000,  0.000000,  0.015625,  0.015625,  0.015625,  0.000000,  0.000000,  0.000000,  0.000000,  0.015625,  0.000000,  0.015625,  0.015625,  0.015625,  0.000000,  0.000000,  0.000000,  -0.015625,  0.000000,  0.015625,  -0.015625,  0.000000,  0.015625,  0.000000,  0.015625,  0.000000,  0.015625,  0.000000,  0.000000,  0.000000,  0.000000,  0.015625,  0.015625,  0.000000,  0.000000,  0.000000,  0.000000,  0.000000,  0.000000,  0.015625,  0.015625,  0.000000,  0.000000,  0.000000,  0.015625,  0.000000,  0.000000,  0.000000,  0.015625,  0.000000,  0.000000,  0.015625,  0.015625,  0.000000,  0.031250,  0.000000,  0.000000,  0.000000,  0.015625,  0.000000,  0.000000,  0.000000,  0.000000,  0.000000,  0.000000,  0.000000,  0.000000,  0.000000,  0.000000,  0.000000,  0.015625,  0.000000,  0.015625,  0.015625,  -0.015625,  0.000000,  0.000000,  0.000000,  0.000000,  0.000000,  0.000000,  -0.015625,  0.015625,  0.000000,  0.000000,  -0.015625,  0.000000,  0.015625,  0.015625,  0.000000,  0.015625,  0.015625,  0.000000,  0.015625,  0.000000,  0.000000,  0.000000,  0.000000,  0.015625,  -0.015625,  0.000000,  0.000000,  0.000000,  0.015625,  0.000000,  0.015625,  0.015625,  0.000000,  0.000000,  0.000000,  0.000000,  0.015625,  0.015625,  0.000000,  0.000000,  0.000000,  0.015625,  0.000000,  0.000000,  0.000000,  0.000000,  -0.015625,  0.015625,  0.000000,  0.015625,  0.015625,  0.000000,  0.015625,  0.000000,  0.000000,  0.015625,  0.000000,  0.015625,  0.015625,  -0.015625,  0.000000,  0.000000,  0.015625,  0.015625,  0.015625,  0.015625,  -0.015625,  0.000000,  0.000000,  0.015625,  0.015625,  0.015625,  0.000000,  0.015625,  0.000000,  0.000000,  0.000000,  -0.015625,  0.031250,  0.000000,  -0.015625,  0.015625,  -0.015625,  -0.015625,  0.000000,  0.015625,  0.000000,  0.015625,  0.015625,  0.015625,  -0.015625,  0.000000,  0.000000,  0.015625,  0.015625,  0.015625,  0.015625,  0.015625,  0.000000,  -0.015625,  0.015625,  0.000000,  0.015625,  0.015625,  0.015625,  0.015625,  0.000000,  0.000000,  -0.015625,  0.000000,  0.000000,  0.000000,  0.015625,  0.000000,  0.000000,  0.015625,  0.015625,  0.015625,  0.000000,  0.000000,  0.015625,  0.015625,  0.015625,  -0.015625,  0.000000,  0.000000,  0.000000,  0.000000,  0.015625,  0.015625,  0.015625,  0.000000,  0.015625,  0.015625,  0.000000,  0.015625,  0.000000,  0.015625,  0.000000,  0.015625,  0.015625,  0.000000,  -0.015625,  0.000000,  0.000000,  0.000000,  0.000000,  0.015625,  0.015625,  0.015625,  0.015625,  -0.015625,  0.000000,  0.015625,  0.000000,  0.000000,  0.000000,  0.015625,  0.015625,  0.015625,  0.000000,  0.015625,  0.015625,  0.000000,  0.000000,  0.000000,  0.000000,  0.000000,  0.015625,  -0.015625,  0.015625,  0.000000,  0.000000,  0.000000,  -0.015625,  0.000000,  0.000000,  -0.015625,  -0.015625,  -0.015625,  0.000000,  -0.015625,  -0.015625,  -0.031250,  0.000000,  0.000000,  -0.015625,  0.000000,  -0.015625,  0.000000,  -0.015625,  0.000000,  -0.031250,  0.031250,  -0.015625,  -0.031250,  0.000000,  0.000000,  -0.015625,  -0.015625,  0.000000,  0.000000,  -0.015625,  -0.015625,  -0.015625,  -0.015625,  -0.015625,  0.000000,  0.015625,  -0.015625,  -0.031250,  -0.015625,  -0.015625,  0.000000,  0.015625,  0.015625,  0.000000,  -0.031250,  -0.015625,  0.000000,  -0.015625,  -0.015625,  0.000000,  0.000000,  0.000000,  -0.015625,  -0.015625,  0.000000,  0.000000,  -0.015625,  -0.015625,  -0.015625,  0.000000,  0.000000,  0.000000,  0.000000,  -0.015625,  0.000000,  0.000000,  0.015625,  -0.015625,  0.000000,  -0.015625,  -0.031250,  -0.031250,  -0.031250,  -0.015625,  -0.015625,  -0.015625,  0.000000,  -0.015625,  -0.015625,  0.000000,  0.015625,  -0.015625,  -0.015625,  -0.015625,  -0.031250,  0.000000,  -0.015625,  -0.015625,  0.015625,  0.000000,  0.031250,  0.000000,  -0.031250,  -0.015625,  0.000000,  -0.015625,  -0.015625,  0.000000,  -0.031250,  0.000000,  -0.015625,  -0.015625,  -0.015625,  0.015625,  -0.031250,  0.000000,  -0.031250,  0.000000,  0.000000,  0.000000,  0.000000,  -0.015625,  0.000000,  0.000000,  -0.015625,  0.000000,  -0.015625,  -0.031250,  0.000000,  0.000000,  0.015625,  0.000000,  0.000000,  0.000000,  0.015625,  0.000000,  0.000000,  -0.015625,  -0.015625,  0.000000,  -0.015625,  0.000000,  -0.015625,  -0.015625,  0.000000,  0.000000,  0.000000,  -0.015625,  -0.031250,  -0.015625,  0.015625,  0.015625,  -0.015625,  -0.015625,  -0.015625,  -0.015625,  0.000000,  -0.015625,  0.000000,  0.000000,  -0.015625,  0.000000,  0.000000,  0.000000,  0.000000,  -0.031250,  -0.015625,  -0.015625,  -0.015625,  0.000000,  -0.031250,  -0.031250,  0.000000,  0.015625,  0.000000,  -0.015625,  -0.031250,  0.015625,  -0.015625,  -0.031250,  -0.015625,  0.015625,  0.000000,  0.000000,  0.000000,  -0.031250,  -0.031250,  0.000000,  -0.031250,  -0.015625,  -0.015625,  -0.015625,  -0.015625,  -0.015625,  -0.015625,  0.015625,  -0.015625,  0.000000,  -0.015625,  -0.015625,  0.000000,  -0.031250,  -0.015625,  0.015625,  -0.015625,  0.000000,  0.000000,  0.000000,  -0.015625,  0.000000,  0.000000,  0.015625,  0.015625,  -0.015625,  -0.015625,  0.000000,  -0.015625,  -0.015625,  -0.031250,  -0.015625,  -0.031250,  -0.015625,  0.000000,  -0.015625,  0.000000,  0.000000,  -0.015625,  0.031250,  -0.015625,  0.000000,  -0.031250,  -0.015625,  0.000000,  0.015625,  -0.015625,  -0.015625,  0.000000,  0.000000,  -0.015625,  -0.015625,  -0.015625,  0.000000,  0.000000,  -0.015625,  -0.031250,  0.000000,  -0.015625,  0.000000,  0.000000,  -0.015625,  0.015625,  -0.031250,  -0.015625,  0.000000,  0.000000,  -0.015625,  0.000000,  0.000000,  0.000000,  0.000000,  0.000000,  -0.015625,  -0.015625,  0.000000,  -0.015625,  -0.031250,  -0.015625,  0.000000,  -0.015625,  0.000000,  -0.015625,  -0.031250,  -0.015625,  -0.015625,  -0.015625,  0.000000,  -0.015625,  -0.031250,  -0.015625,  -0.015625,  -0.015625,  0.000000,  -0.031250,  0.015625,  0.015625,  -0.015625,  -0.031250,  0.015625,  0.000000,  -0.031250,  -0.015625,  -0.015625,  0.015625,  0.000000,  0.015625,  0.000000,  0.000000,  0.000000,  0.000000,  -0.015625,  0.000000,  -0.031250,  0.000000,  0.000000,  0.000000,  0.015625,  -0.015625,  0.015625,  -0.031250,  -0.015625,  0.015625,  0.015625,  -0.015625,  0.000000,  -0.031250,  -0.015625,  -0.015625,  0.015625,  0.000000,  -0.031250,  -0.015625,  0.000000,  0.015625,  -0.015625,  -0.015625,  -0.031250,  -0.046875,  -0.015625,  0.000000,  -0.015625,  -0.031250,  -0.015625,  0.000000,  -0.015625,  -0.015625,  0.000000,  0.000000,  0.000000,  -0.015625,  -0.015625,  -0.015625,  0.000000,  -0.015625,  0.015625,  0.000000,  0.000000,  -0.015625,  0.000000,  0.000000,  0.000000,  -0.015625,  0.015625,  0.000000,  -0.015625,  -0.015625,  -0.015625,  0.015625,  0.000000,  -0.015625,  0.015625,  -0.031250,  0.000000,  -0.015625,  0.015625,  -0.015625,  -0.031250,  0.000000,  0.000000,  -0.015625,  0.000000,  -0.031250,  -0.015625,  0.000000,  -0.015625,  0.000000,  0.000000,  -0.015625,  0.000000,  -0.015625,  -0.015625,  0.000000,  -0.015625,  0.000000,  -0.031250,  -0.031250,  -0.046875,  0.000000,  -0.015625,  0.000000,  0.015625,  -0.015625,  -0.031250,  0.000000,  0.000000,  -0.015625,  0.015625,  0.000000,  0.000000,  -0.031250,  0.015625,  -0.015625,  0.000000,  0.000000,  -0.046875,  -0.015625,  -0.031250,  -0.015625,  0.000000,  0.015625,  0.000000,  0.000000,  -0.015625,  -0.015625,  -0.031250,  -0.015625,  0.000000,  0.000000,  -0.015625,  -0.031250,  0.000000,  -0.015625,  0.000000,  0.000000,  0.000000,  0.015625,  0.000000,  -0.015625,  0.000000,  -0.015625,  -0.015625,  -0.031250,  0.000000,  0.000000,  0.015625,  -0.015625,  -0.015625,  0.000000,  0.000000,  -0.015625,  0.015625,  -0.015625,  -0.015625,  0.015625,  -0.015625,  0.000000,  0.000000,  0.000000,  -0.015625,  0.000000,  -0.015625,  -0.015625,  0.000000,  -0.015625,  0.000000,  -0.031250,  0.015625,  -0.015625,  0.000000,  -0.015625,  -0.015625,  -0.015625,  0.000000,  0.000000,  -0.015625,  -0.015625,  -0.031250,  -0.031250,  -0.015625,  -0.015625,  -0.015625,  0.000000,  0.000000,  0.000000,  0.000000,  -0.031250,  0.000000,  0.000000,  -0.015625,  -0.015625,  0.000000,  -0.015625,  0.000000,  -0.031250,  0.000000,  0.000000,  -0.015625,  -0.015625,  -0.015625,  -0.031250,  -0.015625,  -0.015625,  -0.015625,  0.000000,  0.000000,  -0.015625,  0.000000,  0.015625,  -0.015625,  -0.015625,  -0.015625,  0.000000,  0.000000,  -0.015625,  -0.015625,  -0.015625,  -0.015625,  0.000000,  0.000000,  0.000000,  -0.031250,  0.000000,  0.000000,  -0.015625,  -0.015625,  0.000000,  -0.015625,  0.015625,  0.000000,  0.000000,  0.000000,  -0.015625,  -0.015625,  0.000000,  0.000000,  0.000000,  0.000000,  0.000000,  0.015625,  0.000000,  -0.015625,  0.000000,  0.000000,  0.000000,  0.000000,  -0.015625,  0.015625,  -0.015625,  -0.015625,  -0.015625,  0.000000,  0.000000,  -0.015625,  0.000000,  0.000000,  0.000000,  0.000000,  -0.015625,  0.000000,  0.000000,  0.000000,  0.000000,  -0.015625,  -0.015625,  0.000000,  -0.015625,  0.000000,  0.000000,  0.000000,  0.000000,  0.000000,  0.000000,  0.000000,  0.000000,  0.000000,  -0.015625,  -0.015625,  -0.015625,  -0.015625,  0.000000,  -0.015625,  -0.015625,  0.000000,  0.000000,  0.000000,  0.000000,  -0.015625,  0.000000,  0.000000,  -0.031250,  0.000000,  0.000000,  0.000000,  0.000000,  -0.015625,  0.000000,  -0.015625,  0.000000,  0.000000,  -0.015625,  0.000000,  0.000000,  0.000000,  0.000000,  0.000000,  0.000000,  -0.015625,  0.000000,  0.000000,  0.000000,  0.000000,  -0.015625,  0.000000,  0.015625,  0.000000,  0.000000,  0.000000,  -0.015625,  0.000000,  -0.015625,  0.000000,  -0.015625,  0.000000,  0.000000,  -0.015625,  0.000000,  0.000000,  0.015625,  0.000000,  -0.015625,  0.000000,  -0.015625,  0.000000,  0.015625,  -0.015625,  -0.015625,  0.000000,  -0.015625,  -0.015625,  0.000000,  0.000000,  0.000000,  0.000000,  0.015625,  0.000000,  -0.015625,  0.000000,  0.000000,  0.000000,  -0.015625,  0.015625,  0.000000,  0.000000,  0.000000,  0.000000,  0.015625,  -0.015625,  -0.015625,  0.000000,  0.000000,  -0.015625,  0.000000,  0.000000,  0.000000,  0.000000,  0.000000,  0.000000,  0.000000,  0.000000,  0.000000,  0.000000,  0.000000,  -0.015625,  0.000000,  0.000000,  0.000000,  0.000000,  -0.015625,  0.000000,  0.000000,  -0.015625,  0.000000,  0.000000,  0.000000,  -0.015625,  0.000000,  0.000000,  0.000000,  0.000000,  0.000000,  -0.015625,  0.000000,  0.000000,  0.000000,  0.000000,  0.000000,  0.000000,  0.000000,  0.000000,  0.000000,  0.000000,  0.000000,  -0.015625,  0.000000,  0.000000,  0.000000,  0.000000,  -0.015625,  -0.015625,  0.000000,  0.000000,  0.000000,  0.000000,  0.000000,  0.000000,  0.000000,  -0.015625,  0.000000,  0.000000,  0.000000,  0.000000,  0.000000,  0.000000,  0.015625,  0.000000,  0.000000,  0.000000,  0.000000,  0.000000,  0.000000,  -0.015625,  -0.015625,  0.000000,  0.000000,  0.000000,  0.000000,  0.000000,  0.000000,  -0.015625,  0.000000,  0.000000,  0.000000,  0.000000,  -0.015625,  0.000000,  0.000000,  0.000000,  0.000000,  0.000000,  0.000000,  0.000000,  0.000000,  0.000000,  0.000000,  0.000000,  0.000000,  0.015625,  -0.015625,  0.000000,  -0.015625,  0.000000,  0.000000,  0.000000,  0.000000,  -0.015625,  0.000000,  0.000000,  0.000000,  0.000000,  0.000000,  0.000000,  0.000000,  -0.015625,  -0.015625,  -0.015625,  0.000000,  0.015625,  -0.015625,  0.000000,  0.000000,  0.000000,  0.000000,  0.015625,  0.000000,  0.000000,  0.000000,  0.000000,  -0.015625,  0.000000,  -0.015625,  0.000000,  0.000000,  0.000000,  0.000000,  -0.015625,  0.000000,  0.000000,  0.000000,  0.000000,  0.000000,  -0.015625,  0.000000,  0.000000,  -0.015625,  0.000000,  0.000000,  0.000000,  0.000000,  0.000000,  0.000000,  0.000000,  0.000000,  0.000000,  0.000000,  0.000000,  0.000000,  -0.015625,  -0.015625,  0.000000,  0.000000,  0.000000,  0.000000,  0.000000,  0.000000,  0.000000,  0.000000,  0.000000,  0.000000,  0.000000,  0.000000,  -0.015625,  -0.015625,  0.000000,  0.000000,  -0.015625,  -0.015625,  0.000000,  0.015625,  0.000000,  0.000000,  0.000000,  0.000000,  -0.015625,  0.000000,  0.000000,  0.000000,  -0.015625,  0.015625,  -0.031250,  -0.015625,  0.000000,  0.000000,  -0.015625,  -0.015625,  0.000000,  0.000000,  -0.015625,  0.000000,  0.000000,  0.000000,  -0.015625,  0.000000,  0.000000,  -0.015625,  0.000000,  0.000000,  -0.015625,  0.000000,  0.000000,  -0.015625,  0.000000,  0.000000,  0.015625,  0.000000,  0.000000,  0.000000,  0.000000,  -0.015625,  0.000000,  -0.015625,  0.015625,  -0.015625,  -0.015625,  -0.015625,  0.000000,  0.000000,  0.000000,  0.000000,  0.000000,  -0.015625,  -0.015625,  -0.015625,  0.000000,  -0.015625,  -0.015625,  0.000000,  0.000000,  -0.015625,  0.000000,  0.000000,  -0.015625,  -0.015625,  0.000000,  0.000000,  0.000000,  -0.015625,  -0.015625,  0.000000,  0.000000,  0.000000,  0.000000,  0.000000,  0.000000,  -0.015625,  0.000000,  0.000000,  0.000000,  -0.015625,  0.000000,  0.000000,  0.000000,  -0.015625,  0.000000,  -0.015625,  0.015625,  -0.015625,  0.000000,  0.000000,  0.000000,  -0.015625,  0.000000,  -0.015625,  0.000000,  0.000000,  0.000000,  0.000000,  0.000000,  0.000000,  0.000000,  0.000000,  -0.015625,  -0.015625,  0.000000,  0.000000,  0.000000,  -0.015625,  0.000000,  0.000000,  0.000000,  0.000000,  0.000000,  0.000000,  -0.015625,  -0.015625,  0.000000,  0.000000,  0.000000,  0.000000,  0.000000,  0.000000,  0.000000,  -0.015625,  -0.015625,  0.000000,  -0.015625,  0.000000,  0.015625,  0.000000,  0.000000,  0.000000,  0.000000,  -0.015625,  0.000000,  0.000000,  0.000000,  -0.015625,  0.000000,  -0.015625,  0.000000,  0.000000,  0.000000,  -0.015625,  -0.015625,  -0.015625,  0.000000,  0.000000,  -0.015625,  -0.015625,  0.000000,  0.000000,  0.000000,  0.000000,  0.015625,  -0.015625,  0.000000,  -0.015625,  0.000000,  0.015625,  0.000000,  0.000000,  0.000000,  0.000000,  -0.015625,  0.000000,  -0.015625,  -0.015625,  0.000000,  0.000000,  0.000000,  -0.015625,  0.000000,  0.000000,  0.000000,  0.015625,  -0.015625,  0.000000,  0.000000,  0.000000,  0.000000,  0.000000,  0.000000,  0.000000,  0.015625,  0.000000,  0.000000,  0.000000,  0.000000,  0.000000,  -0.015625,  0.015625,  -0.015625,  -0.015625,  0.000000,  -0.015625,  -0.015625,  0.000000,  -0.015625,  0.000000,  0.000000,  0.000000,  0.000000,  -0.015625,  0.000000,  0.000000,  0.000000,  0.000000,  0.015625,  0.000000,  0.000000,  0.000000,  -0.015625,  0.000000,  0.000000,  0.000000,  0.000000,  0.000000,  0.000000,  0.000000,  0.000000,  0.031250,  0.000000,  0.000000,  0.000000,  -0.015625,  0.000000,  0.000000,  0.000000,  0.000000,  0.000000,  0.015625,  0.000000,  0.000000,  0.015625,  0.015625,  0.000000,  0.000000,  0.000000,  0.015625,  0.000000,  0.000000,  0.000000,  0.015625,  0.000000,  -0.015625,  -0.015625,  0.015625,  0.015625,  0.000000,  0.000000,  0.000000,  0.000000,  -0.015625,  0.000000,  -0.015625,  0.000000,  0.000000,  0.000000,  0.000000,  0.015625,  0.000000,  0.015625,  0.031250,  0.000000,  0.000000,  -0.015625,  0.000000,  0.015625,  0.000000,  0.000000,  0.000000,  -0.031250,  0.000000,  0.000000,  0.000000,  0.000000,  -0.015625,  -0.015625,  0.000000,  0.015625,  0.015625,  0.015625,  0.000000,  0.015625,  0.000000,  0.000000,  0.000000,  0.000000,  -0.015625,  0.015625,  0.015625,  0.015625,  0.015625,  0.000000,  0.000000,  0.000000,  0.000000,  -0.015625,  0.000000,  0.000000,  -0.015625,  0.015625,  0.000000,  0.015625,  0.000000,  0.000000,  0.000000,  0.000000,  0.015625,  0.000000,  0.015625,  0.000000,  0.000000,  0.015625,  -0.015625,  0.000000,  -0.015625,  0.000000,  0.000000,  0.000000,  0.000000,  0.000000,  0.000000,  0.015625,  0.000000,  0.000000,  0.000000,  -0.015625,  -0.015625,  0.015625,  0.000000,  0.000000,  0.000000,  0.000000,  0.000000,  0.000000,  0.000000,  0.000000,  0.000000,  0.000000,  0.000000,  0.000000,  0.000000,  -0.015625,  0.000000,  0.000000,  0.000000,  0.000000,  0.000000,  0.000000,  0.015625,  0.015625,  0.015625,  0.000000,  0.000000,  0.000000,  0.000000,  0.000000,  0.000000,  0.000000,  0.000000,  0.015625,  0.000000,  0.000000,  0.000000,  -0.015625,  0.015625,  0.000000,  0.000000,  0.000000,  0.000000,  0.000000,  0.000000,  -0.015625,  0.000000,  0.015625,  0.000000,  0.000000,  0.015625,  0.000000,  0.000000,  0.000000,  -0.015625,  0.000000,  0.000000,  0.000000,  0.015625,  0.000000,  0.015625,  0.000000,  -0.015625,  0.000000,  0.000000,  0.000000,  0.015625,  0.000000,  -0.015625,  0.015625,  -0.015625,  0.000000,  0.000000,  0.000000,  0.000000,  0.015625,  0.000000,  0.000000,  0.000000,  0.000000,  0.000000,  0.000000,  0.000000,  0.000000,  0.000000,  -0.015625,  0.000000,  0.015625,  0.015625,  0.000000,  0.000000,  0.000000,  -0.015625,  -0.015625,  0.015625,  0.000000,  0.015625,  0.000000,  0.000000,  0.015625,  0.000000,  0.000000,  0.000000,  0.000000,  0.000000,  0.000000,  0.015625,  0.000000,  0.000000,  0.000000,  0.000000,  0.015625,  0.000000,  -0.015625,  0.000000,  0.015625,  0.015625,  0.000000,  0.000000,  0.000000,  0.000000,  -0.015625,  0.000000,  -0.015625,  -0.015625,  0.000000,  0.015625,  -0.015625,  0.000000,  0.000000,  0.000000,  0.000000,  0.015625,  0.015625,  0.015625,  0.000000,  0.015625,  0.000000,  0.015625,  0.015625,  0.000000,  0.031250,  0.000000,  0.015625,  0.000000,  0.015625,  0.000000,  0.000000,  0.000000,  0.000000,  0.000000,  0.000000,  -0.015625,  0.000000,  0.000000,  0.000000,  0.000000,  0.015625,  0.000000,  -0.015625,  -0.015625,  0.000000,  0.000000,  0.000000,  0.000000,  -0.015625,  0.015625,  0.000000,  0.015625,  0.000000,  0.000000,  -0.015625,  0.000000,  0.000000,  0.000000,  0.000000,  0.000000,  0.000000,  0.000000,  0.000000,  0.015625,  0.000000,  -0.015625,  0.000000,  -0.015625,  0.000000,  0.000000,  -0.015625,  0.000000,  0.000000,  0.000000,  0.000000,  -0.015625,  0.015625,  0.015625,  -0.015625,  0.015625,  0.000000,  0.015625,  0.000000,  0.000000,  0.000000,  0.000000,  0.000000,  0.000000,  0.000000,  0.000000,  0.000000,  0.000000,  0.000000,  0.000000,  0.000000,  0.000000,  0.000000,  0.000000,  0.000000,  0.000000,  -0.015625,  -0.015625,  0.015625,  0.000000,  -0.015625,  0.000000,  0.000000,  0.000000,  -0.015625,  0.000000,  0.000000,  0.000000,  0.015625,  0.015625,  0.000000,  0.000000,  0.000000,  0.000000,  0.000000,  0.000000,  0.000000,  0.015625,  0.000000,  -0.015625,  -0.015625,  -0.015625,  0.015625,  0.000000,  0.000000,  0.000000,  0.000000,  0.000000,  -0.015625,  0.015625,  0.015625,  0.031250,  0.000000,  0.000000,  0.000000,  0.015625,  0.000000,  0.000000,  0.000000,  -0.015625,  0.000000,  0.000000,  0.000000,  0.015625,  0.000000,  0.015625,  0.000000,  0.000000,  0.000000,  0.000000,  0.000000,  0.000000,  0.000000,  0.015625,  0.000000,  0.000000,  0.015625,  0.000000,  -0.015625,  0.015625,  0.015625,  0.015625,  0.000000,  0.015625,  0.000000,  0.015625,  0.000000,  0.015625,  -0.015625,  0.000000,  -0.015625,  0.000000,  -0.015625,  0.000000,  0.015625,  -0.015625,  0.000000,  0.000000,  -0.015625,  0.000000,  0.000000,  0.000000,  0.000000,  0.000000,  0.000000,  0.000000,  0.000000,  0.000000,  0.000000,  0.000000,  -0.015625,  0.000000,  0.015625,  0.015625,  0.015625,  0.000000,  0.015625,  0.000000,  0.015625,  0.015625,  0.000000,  0.015625,  0.000000,  0.000000,  0.000000,  0.000000,  0.000000,  0.000000,  0.000000,  -0.015625,  0.000000,  0.000000,  -0.015625,  0.000000,  0.000000,  0.000000,  0.000000,  0.000000,  0.015625,  0.000000,  0.000000,  -0.015625,  -0.015625,  -0.015625,  0.000000,  0.000000,  0.000000,  0.000000,  0.015625,  0.015625,  0.000000,  0.015625,  0.000000,  0.000000,  0.000000,  0.000000,  0.031250,  -0.015625,  0.015625,  0.000000,  0.000000,  -0.015625,  0.000000,  0.000000,  0.000000,  0.000000,  0.015625,  0.000000,  0.000000,  0.000000,  0.000000,  0.015625,  0.015625,  -0.015625,  0.000000,  0.000000,  0.000000,  0.000000,  0.000000,  0.000000,  0.000000,  0.000000,  0.015625,  0.000000,  0.000000,  0.015625,  0.000000,  0.000000,  0.000000,  0.000000,  0.000000,  0.000000,  0.000000,  0.000000,  0.000000,  0.000000,  0.000000,  0.000000,  -0.015625,  0.000000,  0.000000,  -0.015625,  0.000000,  0.000000,  -0.015625,  -0.015625,  0.000000,  0.000000,  0.000000,  0.000000,  0.000000,  0.000000,  -0.015625,  -0.015625,  0.000000,  0.000000,  -0.015625,  -0.015625,  -0.015625,  -0.015625,  0.000000,  -0.015625,  -0.015625,  -0.015625,  0.000000,  0.000000,  0.000000,  0.000000,  -0.015625,  0.000000,  0.000000,  -0.015625,  -0.015625,  0.000000,  0.000000,  0.000000,  0.000000,  0.000000,  0.000000,  -0.015625,  -0.015625,  0.000000,  0.000000,  -0.015625,  -0.015625,  0.000000,  0.000000,  -0.015625,  0.015625,  0.000000,  -0.015625,  0.015625,  0.000000,  -0.015625,  0.000000,  0.000000,  0.000000,  0.000000,  -0.015625,  0.015625,  0.000000,  0.000000,  -0.015625,  0.000000,  -0.015625,  -0.015625,  -0.015625,  0.000000,  0.000000,  0.000000,  -0.015625,  0.000000,  0.000000,  0.000000,  -0.015625,  -0.015625,  0.000000,  -0.015625,  -0.015625,  0.015625,  0.000000,  0.000000,  0.000000,  0.000000,  -0.015625,  0.000000,  0.000000,  0.000000,  -0.015625,  0.000000,  0.000000,  -0.015625,  0.000000,  -0.015625,  -0.015625,  -0.015625,  -0.015625,  0.000000,  -0.015625,  0.000000,  -0.015625,  -0.015625,  0.000000,  0.000000,  0.000000,  0.000000,  0.000000,  0.000000,  0.000000,  0.000000,  0.000000,  0.000000,  -0.015625,  -0.015625,  -0.015625,  -0.015625,  0.000000,  0.000000,  -0.015625,  0.000000,  0.000000,  0.000000,  0.015625,  0.000000,  0.000000,  0.000000,  0.000000,  0.000000,  -0.015625,  0.015625,  -0.015625,  -0.015625,  -0.015625,  0.000000,  0.000000,  0.000000,  0.000000,  -0.015625,  0.000000,  0.000000,  0.000000,  -0.015625,  -0.015625,  0.000000,  0.000000,  0.000000,  0.000000,  -0.015625,  -0.015625,  0.000000,  0.000000,  0.000000,  -0.015625,  -0.015625,  -0.015625,  0.000000,  0.000000,  0.000000,  0.000000,  -0.015625,  0.000000,  -0.015625,  0.000000,  0.000000,  -0.015625,  0.000000,  0.000000,  -0.015625,  0.000000,  0.000000,  0.000000,  -0.015625,  0.000000,  0.015625,  -0.015625,  -0.015625,  -0.015625,  -0.015625,  0.000000,  0.000000,  0.000000,  -0.015625,  0.000000,  0.000000,  -0.015625,  -0.015625,  -0.015625,  0.000000,  0.000000,  -0.015625,  0.000000,  -0.015625,  -0.015625,  -0.015625,  -0.015625,  0.000000,  0.000000,  0.000000,  0.000000,  0.000000,  0.000000,  0.000000,  0.000000,  -0.015625,  0.000000,  -0.015625,  0.000000,  0.000000,  -0.015625,  0.000000,  -0.015625,  -0.015625,  0.000000,  0.000000,  0.000000,  0.000000,  0.000000,  0.000000,  -0.015625,  0.000000,  -0.015625,  -0.015625,  -0.015625,  -0.015625,  0.000000,  0.000000,  -0.015625,  0.000000,  0.000000,  -0.015625,  0.000000,  -0.015625,  0.000000,  0.000000,  0.000000,  0.000000,  0.000000,  0.000000,  0.000000,  0.000000,  0.000000,  0.000000,  0.000000,  -0.015625,  0.000000,  0.000000,  -0.015625,  0.000000,  -0.015625,  -0.015625,  -0.015625,  -0.015625,  0.000000,  0.000000,  -0.015625,  0.000000,  0.000000,  -0.015625,  0.000000,  -0.015625,  -0.015625,  0.000000,  0.000000,  0.000000,  -0.015625,  0.000000,  0.000000,  0.000000,  0.000000,  0.000000,  0.000000,  -0.015625,  0.000000,  0.000000,  0.000000,  0.000000,  0.000000,  -0.015625,  0.000000,  -0.015625,  0.000000,  0.000000,  0.000000,  -0.015625,  0.000000,  0.000000,  -0.015625,  0.000000,  0.000000,  -0.015625,  -0.015625,  -0.015625,  -0.015625,  0.015625,  0.000000,  -0.015625,  -0.015625,  -0.015625,  0.000000,  0.000000,  0.000000,  -0.015625,  0.000000,  0.000000,  0.000000,  0.000000,  0.000000,  -0.015625,  0.000000,  0.000000,  0.000000,  -0.015625,  0.000000,  0.000000,  0.000000,  0.000000,  0.000000,  -0.015625,  0.000000,  -0.015625,  -0.015625,  0.000000,  0.000000,  0.000000,  0.000000,  -0.015625,  -0.015625,  0.000000,  0.000000,  -0.015625,  0.000000,  0.000000,  -0.015625,  0.000000,  -0.015625,  -0.015625,  0.000000,  0.000000,  0.000000,  0.015625,  -0.015625,  -0.015625,  0.000000,  0.000000,  0.000000,  -0.015625,  -0.015625,  -0.015625,  0.000000,  -0.015625,  0.000000,  0.000000,  -0.015625,  0.015625,  0.000000,  -0.015625,  0.000000,  -0.015625,  -0.015625,  -0.015625,  0.000000,  0.000000,  0.000000,  -0.015625,  0.000000,  0.000000,  0.000000,  0.000000,  0.000000,  0.000000,  0.000000,  -0.015625,  0.000000,  -0.015625,  0.000000,  0.000000,  0.000000,  -0.015625,  -0.015625,  0.000000,  0.000000,  0.000000,  0.000000,  0.000000,  -0.015625,  0.000000,  -0.015625,  0.000000,  -0.015625,  0.000000,  0.000000,  0.000000,  0.015625,  -0.015625,  0.000000,  0.000000,  -0.015625,  -0.015625,  0.000000,  0.000000,  0.000000,  -0.015625,  0.000000,  0.000000,  -0.015625,  0.000000,  -0.015625,  0.000000,  0.000000,  0.000000,  0.000000,  0.000000,  0.000000,  -0.015625,  -0.015625,  -0.015625,  0.000000,  -0.015625,  0.000000,  0.000000,  -0.015625,  -0.015625,  0.015625,  -0.015625,  -0.015625,  0.000000,  0.000000,  0.015625,  0.000000,  0.000000,  0.000000,  -0.015625,  -0.015625,  0.000000,  0.000000,  0.000000,  0.000000,  0.000000,  0.000000,  -0.015625,  0.000000,  -0.015625,  -0.015625,  -0.015625,  0.000000,  0.000000,  0.000000,  -0.015625,  0.000000,  -0.015625,  -0.015625,  0.000000,  -0.015625,  0.000000,  0.000000,  0.000000,  0.000000,  0.000000,  -0.015625,  0.000000,  -0.015625,  0.000000,  0.000000,  -0.015625,  -0.031250,  0.000000,  0.000000,  -0.015625,  -0.015625,  0.000000,  0.000000,  -0.015625,  0.000000,  0.000000,  -0.015625,  -0.015625,  0.000000,  -0.015625,  0.000000,  0.000000,  -0.015625,  0.000000,  -0.015625,  -0.015625,  0.000000,  0.000000,  -0.015625,  0.000000,  0.000000,  -0.015625,  0.000000,  0.015625,  -0.015625,  -0.015625,  0.000000,  -0.015625,  -0.015625,  0.000000,  0.000000,  0.000000,  -0.015625,  0.015625,  0.015625,  0.000000,  0.015625,  0.015625,  -0.015625,  0.000000,  0.000000,  0.000000,  0.015625,  0.000000,  0.000000,  0.031250,  -0.015625,  0.000000,  0.000000,  0.015625,  0.015625,  0.000000,  0.031250,  0.015625,  0.015625,  0.015625,  0.000000,  0.031250,  -0.031250,  -0.015625,  0.031250,  0.031250,  0.000000,  -0.015625,  0.000000,  0.000000,  0.031250,  0.015625,  -0.015625,  0.000000,  0.015625,  0.000000,  0.015625,  0.015625,  0.015625,  0.015625,  0.000000,  -0.031250,  0.015625,  0.015625,  -0.015625,  -0.015625,  0.015625,  0.031250,  0.015625,  0.015625,  0.000000,  0.046875,  0.000000,  -0.015625,  0.000000,  0.031250,  -0.031250,  -0.015625,  0.000000,  0.015625,  0.031250,  0.000000,  0.000000,  0.031250,  0.000000,  0.015625,  0.031250,  -0.031250,  0.000000,  0.015625,  0.000000,  0.031250,  0.031250,  0.031250,  0.015625,  -0.031250,  0.015625,  0.000000,  0.015625,  0.015625,  0.015625,  0.000000,  0.000000,  0.000000,  0.015625,  0.015625,  0.031250,  -0.015625,  0.015625,  0.000000,  -0.015625,  0.031250,  0.031250,  -0.015625,  0.000000,  -0.031250,  0.031250,  0.000000,  -0.031250,  0.015625,  0.015625,  0.000000,  0.000000,  0.015625,  0.000000,  0.000000,  0.015625,  -0.015625,  0.031250,  0.000000,  0.000000,  0.000000,  -0.015625,  -0.015625,  0.000000,  0.000000,  -0.015625,  0.000000,  -0.046875,  0.015625,  0.000000,  0.000000,  0.031250,  0.000000,  0.031250,  0.000000,  0.000000,  0.000000,  -0.031250,  0.000000,  -0.015625,  0.000000,  0.000000,  0.000000,  -0.015625,  0.015625,  0.046875,  -0.031250,  0.015625,  0.000000,  0.062500,  0.015625,  0.000000,  0.031250,  0.015625,  0.015625,  0.000000,  0.000000,  -0.015625,  0.000000,  -0.015625,  0.000000,  0.000000,  -0.031250,  -0.031250,  0.031250,  0.015625,  0.000000,  0.000000,  -0.015625,  -0.015625,  0.000000,  0.015625,  -0.015625,  0.000000,  -0.015625,  0.000000,  0.015625,  0.015625,  0.015625,  -0.031250,  0.000000,  0.000000,  0.000000,  0.015625,  0.015625,  0.015625,  0.000000,  -0.015625,  0.000000,  -0.015625,  -0.031250,  0.015625,  0.000000,  0.015625,  0.015625,  0.000000,  0.000000,  0.015625,  0.015625,  0.015625,  0.000000,  0.031250,  0.015625,  0.015625,  -0.031250,  -0.015625,  0.031250,  0.000000,  0.031250,  0.046875,  0.000000,  0.015625,  -0.031250,  -0.015625,  -0.015625,  0.000000,  -0.015625,  -0.015625,  0.000000,  -0.015625,  0.015625,  -0.015625,  0.015625,  0.000000,  0.015625,  0.015625,  0.015625,  0.000000,  0.015625,  -0.015625,  -0.015625,  0.031250,  -0.015625,  -0.015625,  0.015625,  0.015625,  -0.031250,  0.000000,  0.031250,  0.046875,  0.015625,  -0.015625,  0.031250,  0.015625,  0.031250,  -0.031250,  0.000000,  -0.031250,  0.046875,  0.015625,  0.000000,  0.000000,  0.000000,  0.015625,  0.015625,  -0.015625,  0.015625,  0.015625,  0.031250,  0.015625,  0.031250,  0.015625,  -0.031250,  0.015625,  0.015625,  0.031250,  0.000000,  0.000000,  0.000000,  0.015625,  -0.046875,  0.031250,  0.000000,  0.015625,  0.015625,  -0.031250,  0.000000,  0.015625,  0.015625,  0.000000,  0.000000,  0.015625,  0.031250,  0.015625,  0.000000,  0.000000,  0.015625,  -0.015625,  0.046875,  0.000000,  0.000000,  0.000000,  0.000000,  0.015625,  0.000000,  0.015625,  0.015625,  0.046875,  -0.015625,  0.015625,  0.015625,  0.000000,  0.000000,  0.015625,  -0.031250,  0.000000,  0.015625,  0.015625,  0.000000,  0.000000,  -0.015625,  -0.015625,  0.015625,  0.015625,  0.000000,  0.000000,  -0.031250,  -0.015625,  0.015625,  -0.015625,  0.000000,  0.015625,  0.015625,  0.015625,  0.000000,  -0.015625,  -0.015625,  0.015625,  0.015625,  -0.015625,  0.015625,  -0.015625,  -0.015625,  -0.015625,  0.046875,  0.000000,  -0.031250,  0.015625,  0.031250,  -0.015625,  0.031250,  0.000000,  0.015625,  0.000000,  0.015625,  0.000000,  0.031250,  0.000000,  0.000000,  0.015625,  -0.015625,  0.031250,  0.015625,  -0.015625,  -0.015625,  -0.015625,  0.015625,  0.031250,  0.031250,  0.000000,  0.000000,  -0.015625,  0.000000,  0.000000,  -0.015625,  0.000000,  0.031250,  -0.015625,  0.000000,  0.031250,  -0.031250,  0.015625,  0.000000,  0.015625,  0.015625,  0.015625,  0.015625,  -0.015625,  0.000000,  0.015625,  0.015625,  0.031250,  -0.015625,  0.015625,  -0.015625,  0.015625,  -0.015625,  0.000000,  0.015625,  0.031250,  0.031250,  0.000000,  0.000000,  -0.015625,  0.015625,  0.031250,  -0.031250,  0.000000,  0.000000,  0.000000,  0.000000,  0.015625,  0.000000,  0.000000,  0.015625,  0.000000,  -0.015625,  0.000000,  0.015625,  0.031250,  0.046875,  0.000000,  -0.015625,  0.000000,  0.015625,  0.015625,  0.000000,  0.000000,  0.015625,  0.015625,  0.000000,  0.000000,  0.031250,  0.015625,  0.000000,  0.000000,  -0.031250,  -0.046875,  0.000000,  0.015625,  0.000000,  0.000000,  0.015625,  0.015625,  0.000000,  0.015625,  -0.015625,  0.000000,  0.031250,  -0.015625,  0.000000,  0.015625,  0.000000,  0.015625,  -0.046875,  0.015625,  0.000000,  0.000000,  0.015625,  0.031250,  0.015625,  0.015625,  0.031250,  -0.046875,  -0.015625,  -0.031250,  -0.031250,  0.015625,  0.015625,  0.015625,  0.000000,  0.000000,  0.015625,  0.000000,  0.031250,  0.000000,  0.015625,  0.031250,  -0.031250,  0.000000,  0.015625,  -0.031250,  0.000000,  0.015625,  0.000000,  0.046875,  0.015625,  0.015625,  0.031250,  0.015625,  0.000000,  0.031250,  -0.015625,  0.015625,  0.015625,  0.031250,  0.015625,  -0.031250,  0.015625,  0.000000,  0.000000,  0.015625,  0.015625,  0.000000,  0.031250,  0.000000,  -0.031250,  0.000000,  -0.015625,  0.015625,  0.015625,  0.015625,  -0.015625,  0.000000,  -0.015625,  0.015625,  0.000000,  0.000000,  -0.031250,  0.000000,  0.015625,  0.015625,  0.015625,  0.062500,  0.015625,  0.015625,  0.000000,  -0.015625,  0.000000,  0.000000,  0.000000,  0.000000,  0.000000,  0.000000,  0.000000,  0.000000,  -0.015625,  0.000000,  -0.015625,  0.000000,  -0.015625,  -0.015625,  0.000000,  0.000000,  -0.015625,  0.000000,  0.000000,  0.000000,  -0.015625,  0.000000,  0.000000,  0.000000,  0.000000,  0.000000,  -0.015625,  0.015625,  0.000000,  0.000000,  0.000000,  0.000000,  -0.015625,  0.000000,  -0.015625,  0.000000,  0.000000,  0.000000,  0.000000,  0.000000,  0.000000,  -0.015625,  0.000000,  -0.015625,  0.000000,  0.000000,  0.015625,  0.000000,  0.000000,  -0.015625,  -0.015625,  0.000000,  0.000000,  0.000000,  0.000000,  0.000000,  0.031250,  0.000000,  -0.015625,  0.015625,  0.000000,  0.000000,  0.015625,  0.015625,  0.000000,  0.015625,  0.000000,  -0.015625,  0.000000,  0.000000,  0.000000,  0.000000,  0.000000,  -0.015625,  0.000000,  0.015625,  0.000000,  0.000000,  0.000000,  0.000000,  0.000000,  0.000000,  0.000000,  0.000000,  0.015625,  0.000000,  0.000000,  -0.015625,  -0.015625,  -0.015625,  0.000000,  0.015625,  -0.015625,  0.000000,  0.015625,  -0.015625,  0.000000,  -0.015625,  0.015625,  -0.015625,  -0.015625,  -0.015625,  0.000000,  -0.015625,  0.000000,  -0.015625,  0.000000,  0.000000,  0.015625,  0.000000,  0.015625,  0.000000,  0.000000,  0.015625,  -0.015625,  -0.015625,  0.000000,  0.000000,  -0.015625,  0.000000,  0.000000,  0.000000,  0.000000,  0.000000,  0.000000,  0.000000,  0.000000,  0.000000,  0.000000,  0.000000,  -0.015625,  -0.015625,  -0.015625,  0.000000,  0.000000,  0.000000,  0.000000,  0.000000,  0.000000,  0.015625,  0.000000,  0.000000,  0.000000,  0.000000,  0.000000,  0.000000,  0.000000,  0.000000,  0.000000,  0.000000,  -0.015625,  -0.015625,  0.000000,  0.000000,  0.015625,  0.000000,  0.000000,  0.000000,  0.000000,  -0.015625,  0.015625,  0.000000,  0.000000,  0.000000,  -0.015625,  0.000000,  0.000000,  0.015625,  0.000000,  0.015625,  0.000000,  -0.015625,  0.000000,  0.015625,  0.000000,  0.000000,  0.000000,  -0.015625,  0.000000,  0.000000,  0.000000,  0.000000,  0.000000,  -0.015625,  -0.015625,  0.000000,  0.000000,  0.015625,  0.000000,  -0.015625,  -0.015625,  0.015625,  0.000000,  0.000000,  0.015625,  0.000000,  0.000000,  0.000000,  0.000000,  -0.015625,  0.000000,  0.000000,  0.000000,  0.000000,  -0.015625,  -0.015625,  0.000000,  -0.015625,  -0.015625,  0.000000,  0.000000,  0.000000,  0.000000,  0.000000,  0.000000,  -0.015625,  0.000000,  0.000000,  0.000000,  0.000000,  0.000000,  0.000000,  -0.015625,  -0.015625,  -0.015625,  0.000000,  -0.015625,  0.000000,  0.000000,  0.000000,  0.000000,  0.000000,  -0.015625,  -0.015625,  0.000000,  0.000000,  0.000000,  0.000000,  -0.015625,  0.000000,  -0.015625,  0.000000,  0.000000,  -0.015625,  0.000000,  -0.015625,  0.000000,  0.000000,  0.000000,  0.000000,  0.000000,  0.000000,  0.000000,  0.000000,  0.000000,  0.015625,  0.000000,  0.000000,  0.000000,  0.000000,  0.000000,  0.000000,  0.000000,  0.000000,  0.000000,  0.000000,  0.000000,  0.000000,  -0.015625,  0.000000,  0.000000,  0.000000,  0.000000,  -0.015625,  0.000000,  0.000000,  0.000000,  -0.015625,  0.000000,  0.015625,  0.000000,  0.000000,  -0.015625,  0.000000,  -0.015625,  0.000000,  -0.015625,  -0.015625,  0.000000,  0.000000,  0.000000,  0.000000,  -0.015625,  0.000000,  0.000000,  -0.015625,  0.000000,  -0.015625,  0.000000,  -0.015625,  -0.015625,  0.000000,  0.000000,  0.000000,  -0.015625,  -0.015625,  0.000000,  0.000000,  -0.015625,  0.000000,  -0.015625,  0.000000,  -0.015625,  0.000000,  0.000000,  0.015625,  0.000000,  0.000000,  -0.015625,  -0.015625,  0.015625,  0.000000,  0.000000,  0.000000,  0.000000,  0.000000,  0.000000,  0.000000,  0.015625,  0.000000,  -0.015625,  -0.015625,  0.000000,  0.000000,  -0.015625,  0.000000,  0.000000,  0.000000,  0.000000,  0.015625,  0.000000,  0.000000,  -0.015625,  0.000000,  -0.015625,  0.000000,  -0.015625,  0.000000,  0.000000,  0.015625,  0.000000,  -0.015625,  0.000000,  0.000000,  0.000000,  -0.015625,  0.000000,  0.000000,  -0.015625,  0.000000,  0.000000,  0.000000,  -0.015625,  0.015625,  0.000000,  0.000000,  -0.015625,  -0.015625,  0.000000,  -0.015625,  0.000000,  0.000000,  0.000000,  0.000000,  0.000000,  -0.015625,  0.000000,  0.000000,  -0.015625,  0.000000,  -0.015625,  0.000000,  0.015625,  0.000000,  0.000000,  0.000000,  -0.015625,  -0.015625,  0.015625,  -0.015625,  0.000000,  -0.015625,  0.000000,  -0.015625,  -0.015625,  0.000000,  0.000000,  0.000000,  0.000000,  0.000000,  0.000000,  -0.015625,  0.000000,  0.015625,  0.000000,  -0.015625,  0.000000,  -0.015625,  0.015625,  0.000000,  -0.015625,  0.000000,  -0.015625,  0.000000,  0.000000,  -0.015625,  0.000000,  0.000000,  -0.015625,  0.000000,  -0.015625,  0.000000,  0.000000,  0.000000,  0.000000,  0.000000,  -0.015625,  -0.015625,  0.000000,  0.000000,  0.000000,  -0.015625,  0.000000,  -0.015625,  -0.015625,  0.000000,  0.000000,  0.000000,  0.000000,  0.000000,  0.000000,  0.000000,  0.000000,  -0.015625,  0.015625,  0.000000,  0.000000,  0.000000,  0.000000,  0.000000,  -0.015625,  -0.015625,  0.000000,  -0.015625,  -0.015625,  -0.015625,  0.000000,  0.000000,  0.000000,  0.000000,  -0.015625,  0.000000,  -0.015625,  0.000000,  0.000000,  0.000000,  0.000000,  -0.015625,  -0.015625,  0.000000,  0.000000,  -0.015625,  0.000000,  -0.015625,  0.000000,  0.000000,  0.000000,  0.015625,  0.000000,  0.000000,  -0.015625,  0.000000,  0.000000,  0.000000,  0.000000,  -0.015625,  -0.015625,  0.000000,  -0.015625,  0.000000,  0.000000,  0.000000,  -0.015625,  0.000000,  0.000000,  -0.015625,  0.000000,  -0.015625,  -0.015625,  0.000000,  -0.015625,  -0.015625,  -0.015625,  0.000000,  0.000000,  0.000000,  0.000000,  0.000000,  0.000000,  -0.015625,  0.000000,  0.000000,  0.015625,  0.000000,  0.015625,  0.000000,  0.000000,  -0.015625,  0.000000,  0.015625,  0.000000,  0.015625,  -0.015625,  0.000000,  0.015625,  -0.031250,  0.000000,  0.000000,  0.000000,  0.015625,  0.000000,  -0.015625,  0.015625,  0.015625,  -0.015625,  0.000000,  0.000000,  0.015625,  -0.031250,  0.031250,  0.000000,  0.015625,  0.000000,  0.000000,  0.000000,  0.000000,  0.000000,  0.015625,  -0.031250,  -0.015625,  -0.015625,  -0.015625,  0.015625,  0.000000,  0.000000,  0.015625,  0.000000,  0.000000,  -0.015625,  0.000000,  0.015625,  0.000000,  0.000000,  0.000000,  0.015625,  0.015625,  0.000000,  0.000000,  0.015625,  0.015625,  0.031250,  0.000000,  0.015625,  0.000000,  0.000000,  0.000000,  0.015625,  0.000000,  0.000000,  0.000000,  -0.015625,  0.000000,  -0.031250,  -0.031250,  0.015625,  0.000000,  0.015625,  0.000000,  0.000000,  0.000000,  -0.015625,  0.015625,  -0.015625,  0.000000,  -0.015625,  0.000000,  0.000000,  0.000000,  0.000000,  -0.015625,  0.015625,  0.000000,  0.015625,  0.015625,  0.000000,  0.000000,  -0.015625,  0.031250,  0.000000,  0.000000,  0.000000,  0.015625,  -0.015625,  0.000000,  -0.015625,  0.015625,  -0.015625,  0.000000,  0.000000,  0.000000,  0.015625,  0.015625,  0.000000,  0.000000,  0.015625,  0.000000,  0.000000,  0.000000,  0.000000,  0.015625,  0.000000,  0.015625,  0.015625,  0.015625,  0.000000,  0.000000,  0.015625,  -0.015625,  0.015625,  0.015625,  0.000000,  0.000000,  0.000000,  0.000000,  -0.015625,  0.000000,  0.000000,  0.000000,  0.031250,  -0.015625,  -0.015625,  0.000000,  0.000000,  -0.015625,  0.000000,  0.000000,  -0.015625,  0.000000,  -0.015625,  -0.015625,  0.000000,  0.000000,  0.000000,  0.015625,  0.000000,  0.000000,  0.015625,  0.000000,  0.000000,  0.000000,  0.000000,  0.000000,  -0.015625,  0.000000,  0.015625,  0.000000,  0.000000,  -0.015625,  -0.015625,  0.000000,  0.000000,  0.000000,  0.000000,  0.015625,  0.015625,  0.000000,  0.015625,  -0.015625,  -0.015625,  0.015625,  0.000000,  0.000000,  0.015625,  -0.015625,  0.015625,  0.000000,  0.000000,  0.000000,  0.000000,  0.015625,  0.015625,  -0.015625,  -0.015625,  0.000000,  0.000000,  0.015625,  0.015625,  -0.015625,  -0.015625,  0.000000,  0.000000,  0.000000,  0.000000,  0.000000,  0.015625,  0.000000,  -0.015625,  0.015625,  0.000000,  -0.015625,  0.000000,  -0.015625,  0.000000,  0.000000,  0.000000,  0.015625,  0.000000,  0.015625,  0.000000,  0.000000,  -0.015625,  0.015625,  -0.015625,  0.000000,  0.000000,  0.015625,  0.000000,  0.000000,  0.000000,  -0.015625,  -0.015625,  0.015625,  0.000000,  0.000000,  0.000000,  0.015625,  -0.015625,  0.000000,  0.000000,  0.015625,  0.000000,  0.000000,  0.000000,  0.000000,  0.000000,  -0.015625,  0.000000,  0.000000,  0.000000,  0.015625,  0.000000,  -0.015625,  0.015625,  0.015625,  0.000000,  0.015625,  -0.015625,  0.000000,  0.000000,  0.000000,  0.000000,  0.000000,  -0.015625,  0.000000,  -0.015625,  -0.015625,  0.000000,  0.000000,  -0.015625,  0.000000,  0.015625,  0.000000,  0.000000,  0.015625,  -0.015625,  -0.015625,  0.000000,  0.015625,  -0.015625,  0.015625,  0.015625,  -0.015625,  0.015625,  0.000000,  0.015625,  0.000000,  0.000000,  0.000000,  0.015625,  0.015625,  0.015625,  0.015625,  0.015625,  0.000000,  0.000000,  0.000000,  0.015625,  0.000000,  0.000000,  0.031250,  0.000000,  0.015625,  0.000000,  0.015625,  0.000000,  0.015625,  -0.031250,  -0.015625,  -0.015625,  0.000000,  0.015625,  -0.015625,  0.000000,  0.000000,  0.015625,  0.000000,  -0.015625,  0.000000,  0.000000,  0.000000,  0.000000,  0.000000,  0.000000,  -0.015625,  0.015625,  0.000000,  -0.015625,  0.015625,  0.015625,  0.015625,  0.000000,  0.000000,  0.000000,  0.015625,  -0.015625,  0.015625,  0.015625,  0.015625,  0.000000,  0.000000,  0.000000,  0.000000,  -0.015625,  0.000000,  0.015625,  0.015625,  0.000000,  0.000000,  0.015625,  -0.015625,  0.000000,  0.000000,  0.000000,  0.015625,  -0.015625,  0.000000,  0.000000,  0.000000,  0.000000,  0.015625,  0.000000,  0.000000,  -0.015625,  0.000000,  0.000000,  -0.015625,  0.000000,  0.000000,  0.015625,  0.000000,  0.015625,  0.015625,  0.015625,  0.000000,  0.000000,  0.000000,  -0.015625,  0.015625,  0.000000,  0.000000,  0.015625,  0.000000,  0.000000,  0.000000,  -0.015625,  0.015625,  0.000000,  0.015625,  0.000000,  0.015625,  0.000000,  0.000000,  0.000000,  0.000000,  0.015625,  0.000000,  -0.015625,  0.000000,  0.015625,  0.015625,  0.015625,  0.000000,  0.000000,  -0.015625,  -0.015625,  -0.015625,  0.000000,  0.015625,  0.000000,  0.000000,  0.000000,  0.015625,  0.000000,  -0.031250,  0.015625,  0.000000,  0.015625,  0.015625,  0.000000,  0.000000,  -0.015625,  0.000000,  0.000000,  0.000000,  0.015625,  -0.015625,  0.000000,  0.015625,  0.000000,  0.000000,  -0.015625,  0.015625,  0.000000,  0.015625,  0.015625,  -0.015625,  -0.015625,  0.015625,  0.015625,  0.000000,  0.000000,  -0.015625,  0.015625,  0.000000,  0.000000,  0.015625,  0.000000,  0.000000,  0.000000,  0.015625,  0.000000,  0.000000,  -0.015625,  0.000000,  0.000000,  0.000000,  0.000000,  -0.015625,  -0.015625,  0.000000,  0.000000,  -0.031250,  0.000000,  0.000000,  0.000000,  0.000000,  -0.015625,  -0.015625,  0.000000,  -0.015625,  0.000000,  0.000000,  0.000000,  0.000000,  -0.015625,  0.015625,  0.015625,  0.000000,  0.000000,  0.000000,  0.000000,  -0.015625,  -0.015625,  0.000000,  0.000000,  0.015625,  0.000000,  0.015625,  0.015625,  0.000000,  0.000000,  -0.015625,  0.000000,  0.015625,  0.000000,  0.000000,  -0.015625,  0.000000,  -0.015625,  0.000000,  0.000000,  0.000000,  0.000000,  0.015625,  0.000000,  0.000000,  0.015625,  -0.015625,  0.015625,  0.000000,  0.000000,  0.000000,  0.000000,  0.000000,  0.000000,  0.000000,  -0.015625,  -0.015625,  0.000000,  -0.015625,  0.000000,  -0.015625,  0.000000,  -0.015625,  0.000000,  0.000000,  0.000000,  -0.015625,  0.015625,  0.031250,  0.000000,  0.000000,  -0.015625,  0.000000,  0.000000,  0.000000,  0.000000,  0.015625,  0.000000,  0.000000,  -0.015625,  0.015625,  0.000000,  0.000000,  0.015625,  0.000000,  0.000000,  0.000000,  0.000000,  0.000000,  0.015625,  0.015625,  -0.015625,  -0.015625,  0.000000,  0.015625,  0.015625,  0.000000,  0.000000,  0.000000,  0.000000,  0.000000,  -0.015625,  -0.015625,  0.000000,  0.000000,  0.015625,  0.015625,  -0.015625,  0.015625,  0.015625,  0.000000,  0.000000,  -0.015625,  -0.015625,  0.000000,  -0.015625,  -0.015625,  0.000000,  -0.015625,  0.000000,  0.015625,  0.000000,  -0.015625,  0.000000,  -0.015625,  -0.015625,  0.015625,  0.000000,  0.015625,  -0.031250,  0.000000,  0.015625,  0.015625,  0.000000,  -0.015625,  -0.015625,  0.000000,  0.000000,  0.015625,  0.000000,  0.000000,  0.000000,  0.000000,  -0.015625,  -0.015625,  0.000000,  0.015625,  -0.015625,  0.000000,  0.000000,  0.015625,  0.000000,  0.000000,  0.015625,  0.000000,  0.015625,  0.000000,  0.015625,  0.000000,  -0.015625,  0.015625,  0.000000,  0.000000,  0.000000,  -0.031250,  0.000000,  -0.015625,  0.000000,  0.000000,  0.000000,  -0.015625,  0.000000,  0.015625,  -0.031250,  0.000000,  0.000000,  0.000000,  0.000000,  -0.015625,  0.000000,  0.000000,  -0.015625,  0.015625,  0.000000,  0.015625,  0.000000,  0.000000,  0.015625,  0.015625,  0.015625,  0.000000,  -0.015625,  0.000000,  -0.015625,  -0.015625,  0.000000,  -0.031250,  0.015625,  0.000000,  0.031250,  -0.015625,  0.000000,  0.015625,  0.000000,  0.015625,  0.000000,  0.000000,  -0.031250,  0.015625,  0.000000,  0.000000,  -0.015625,  0.000000,  0.015625,  -0.015625,  0.000000,  0.000000,  0.000000,  0.000000,  0.000000,  -0.015625,  0.015625,  0.015625,  0.000000,  0.000000,  0.000000,  0.015625,  -0.015625,  0.000000,  0.000000,  -0.031250,  0.000000,  -0.015625,  0.000000,  0.000000,  0.000000,  0.000000,  -0.015625,  0.000000,  0.000000,  -0.031250,  0.000000,  0.015625,  0.000000,  0.000000,  -0.015625,  -0.031250,  0.015625,  0.000000,  0.000000,  0.000000,  -0.015625,  0.000000,  -0.015625,  -0.031250,  0.000000,  -0.031250,  0.031250,  -0.015625,  0.000000,  -0.031250,  0.000000,  0.015625,  0.000000,  -0.015625,  0.000000,  -0.015625,  -0.015625,  -0.015625,  0.000000,  -0.015625,  0.015625,  0.015625,  0.000000,  0.015625,  0.000000,  0.000000,  0.000000,  -0.015625,  0.015625,  0.000000,  0.031250,  0.015625,  0.000000,  0.000000,  0.000000,  0.000000,  0.000000,  0.000000,  0.000000,  0.000000,  0.000000,  0.000000,  0.000000,  0.000000,  -0.015625,  0.000000,  0.000000,  -0.015625,  -0.031250,  0.000000,  0.000000,  0.000000,  0.000000,  0.015625,  -0.015625,  0.000000,  0.015625,  0.015625,  0.000000,  0.000000,  0.015625,  0.000000,  0.000000,  0.015625,  0.000000,  0.015625,  0.015625,  0.015625,  0.015625,  0.015625,  0.000000,  0.000000,  0.015625,  0.000000,  0.000000,  0.015625,  0.000000,  0.015625,  0.000000,  0.015625,  0.015625,  0.000000,  0.000000,  -0.015625,  -0.015625,  0.000000,  -0.015625,  0.015625,  0.000000,  -0.015625,  0.000000,  0.000000,  0.000000,  0.000000,  0.000000,  -0.031250,  0.000000,  0.015625,  0.015625,  0.000000,  0.000000,  0.000000,  0.000000,  0.000000,  0.015625,  0.015625,  0.000000,  -0.015625,  0.000000,  -0.015625,  0.000000,  -0.015625,  0.015625,  -0.015625,  0.000000,  0.000000,  -0.015625,  0.015625,  0.015625,  0.000000,  0.000000,  0.000000,  0.000000,  0.000000,  0.000000,  0.015625,  -0.015625,  -0.015625,  0.000000,  0.000000,  0.000000,  0.000000,  0.015625,  0.000000,  -0.015625,  -0.015625,  -0.015625,  0.000000,  0.015625,  0.000000,  -0.031250,  -0.015625,  -0.015625,  0.000000,  0.000000,  -0.015625,  0.000000,  -0.015625,  0.015625,  0.000000,  0.015625,  0.000000,  0.000000,  0.000000,  0.000000,  -0.015625,  0.000000,  0.015625,  0.000000,  0.000000,  0.015625,  0.000000,  0.015625,  0.000000,  -0.015625,  -0.015625,  -0.015625,  0.000000,  -0.015625,  0.000000,  0.000000,  0.000000,  0.000000,  0.000000,  0.015625,  0.015625,  0.015625,  -0.015625,  0.000000,  -0.015625,  0.000000,  -0.015625,  0.000000,  0.000000,  -0.015625,  0.000000,  -0.015625,  0.000000,  0.000000,  0.000000,  0.015625,  0.000000,  -0.015625,  0.015625,  0.000000,  0.015625,  0.000000,  0.000000,  0.015625,  0.000000,  -0.015625,  0.000000,  0.000000,  0.000000,  0.015625,  0.000000,  0.015625,  0.000000,  0.000000,  0.000000,  0.015625,  0.000000,  0.000000,  0.000000,  0.000000,  -0.031250,  -0.015625,  0.015625,  -0.015625,  0.000000,  0.000000,  0.000000,  0.015625,  0.000000,  0.000000,  0.015625,  0.000000,  0.015625,  0.000000,  0.000000,  0.031250,  -0.015625,  0.000000,  -0.015625,  0.000000,  -0.015625,  0.000000,  0.000000,  0.000000,  0.015625,  0.000000,  0.015625,  0.000000,  0.000000,  0.015625,  0.000000,  0.015625,  0.000000,  0.000000,  0.000000,  0.000000,  0.000000,  0.015625,  0.000000,  -0.015625,  -0.015625,  0.000000,  0.000000,  0.000000,  0.000000,  -0.015625,  0.000000,  0.000000,  0.000000,  0.000000,  0.000000,  -0.015625,  -0.015625,  -0.015625,  0.015625,  0.000000,  0.000000,  0.015625,  0.000000,  0.031250,  0.000000,  0.000000,  0.000000,  0.015625,  -0.015625,  0.015625,  0.015625,  0.000000,  0.000000,  -0.015625,  0.000000,  -0.015625,  0.000000,  0.000000,  0.000000,  0.000000,  0.000000,  -0.015625,  0.000000,  0.000000,  0.000000,  0.015625,  0.000000,  0.000000,  0.000000,  0.000000,  0.000000,  0.015625,  0.000000,  -0.015625,  0.015625,  0.000000,  0.000000,  0.000000,  -0.015625,  0.000000,  0.000000,  0.015625,  0.031250,  -0.031250,  -0.062500,  -0.062500,  0.015625,  0.000000,  -0.015625,  0.015625,  -0.015625,  0.015625,  -0.015625,  -0.031250,  0.015625,  0.000000,  -0.015625,  -0.015625,  -0.031250,  0.015625,  -0.031250,  0.015625,  -0.015625,  0.031250,  -0.015625,  -0.015625,  -0.015625,  0.046875,  0.046875,  0.015625,  -0.031250,  -0.031250,  0.015625,  0.000000,  -0.015625,  0.000000,  -0.015625,  0.031250,  -0.015625,  -0.078125,  -0.015625,  0.000000,  0.015625,  0.000000,  -0.015625,  0.046875,  -0.015625,  0.046875,  0.000000,  -0.015625,  0.015625,  0.031250,  0.031250,  0.000000,  0.015625,  0.000000,  0.000000,  0.015625,  0.015625,  0.015625,  -0.015625,  -0.015625,  0.015625,  0.062500,  0.000000,  0.031250,  0.000000,  -0.015625,  0.015625,  0.031250,  -0.031250,  -0.015625,  -0.015625,  -0.015625,  0.000000,  0.015625,  0.000000,  0.000000,  -0.046875,  0.015625,  -0.015625,  -0.015625,  0.015625,  0.000000,  0.000000,  -0.046875,  -0.062500,  -0.031250,  -0.015625,  0.015625,  -0.015625,  0.015625,  0.015625,  0.031250,  0.109375,  0.000000,  -0.015625,  0.015625,  -0.031250,  0.031250,  -0.015625,  0.000000,  0.000000,  -0.031250,  0.015625,  0.015625,  -0.015625,  -0.062500,  0.031250,  0.000000,  0.015625,  0.109375,  0.015625,  0.000000,  0.000000,  -0.015625,  0.031250,  0.000000,  0.015625,  0.000000,  -0.015625,  0.031250,  0.000000,  0.031250,  0.015625,  -0.031250,  0.015625,  -0.015625,  0.000000,  -0.015625,  -0.015625,  0.015625,  -0.031250,  0.031250,  0.015625,  -0.031250,  -0.031250,  -0.031250,  0.000000,  -0.015625,  0.015625,  0.000000,  0.015625,  0.046875,  0.062500,  0.015625,  -0.015625,  -0.031250,  0.000000,  0.000000,  0.015625,  0.000000,  0.000000,  0.015625,  0.031250,  -0.015625,  0.015625,  0.015625,  -0.015625,  0.015625,  0.015625,  0.000000,