//Numpy array shape [128, 128]
//Min -0.914764404297
//Max 0.695816040039
//Number of zeros 2

#ifndef W2_3_new_H_
#define W2_3_new_H_

#ifndef __SYNTHESIS__
d_weight23_t w2_3_new[128][128];
#else
d_weight23_t w2_3_new[128][128] = {
{0.063858032226562, 0.023025512695312, -0.024185180664062, -0.073196411132812, -0.178619384765625, -0.123519897460938, -0.098480224609375, -0.011367797851562, -0.094009399414062, -0.017868041992188, -0.019683837890625, -0.002517700195312, -0.001800537109375, 0.015365600585938, -0.039123535156250, 0.075164794921875, -0.030670166015625, -0.043182373046875, 0.008895874023438, -0.020492553710938, 0.002899169921875, -0.046035766601562, 0.057159423828125, -0.136764526367188, 0.093475341796875, -0.055572509765625, -0.050354003906250, 0.018264770507812, -0.083221435546875, -0.036621093750000, -0.024276733398438, -0.052474975585938, -0.006896972656250, 0.025756835937500, -0.032440185546875, -0.035934448242188, -0.041412353515625, -0.105331420898438, 0.001968383789062, -0.023284912109375, -0.051818847656250, 0.029632568359375, 0.030151367187500, -0.033111572265625, 0.060348510742188, -0.006286621093750, -0.047760009765625, -0.012664794921875, 0.015884399414062, -0.038085937500000, -0.008834838867188, -0.027633666992188, 0.006439208984375, -0.042800903320312, -0.067520141601562, -0.043914794921875, 0.036483764648438, -0.005050659179688, -0.066314697265625, -0.013626098632812, -0.026992797851562, -0.081680297851562, -0.014099121093750, -0.038223266601562, -0.048950195312500, 0.010223388671875, -0.092071533203125, 0.004470825195312, -0.105255126953125, -0.031936645507812, 0.009017944335938, 0.069137573242188, -0.018127441406250, -0.057266235351562, -0.013412475585938, -0.032089233398438, -0.026473999023438, -0.020919799804688, 0.062347412109375, 0.054565429687500, -0.100387573242188, -0.063873291015625, -0.026855468750000, -0.045837402343750, 0.022094726562500, -0.008514404296875, 0.082473754882812, -0.005935668945312, -0.065155029296875, -0.013793945312500, -0.028915405273438, -0.088562011718750, 0.077529907226562, -0.067230224609375, -0.007034301757812, -0.026245117187500, -0.076110839843750, 0.023071289062500, -0.062927246093750, -0.048187255859375, 0.001205444335938, -0.176666259765625, -0.099670410156250, -0.038970947265625, -0.041076660156250, -0.126281738281250, -0.084747314453125, 0.004516601562500, -0.017486572265625, 0.114440917968750, -0.037139892578125, -0.047225952148438, -0.009521484375000, -0.002136230468750, -0.006195068359375, -0.102081298828125, -0.006942749023438, -0.064147949218750, -0.067535400390625, -0.028350830078125, 0.024871826171875, -0.027023315429688, -0.032897949218750, -0.015396118164062, -0.007629394531250, 0.030838012695312, -0.055541992187500, 0.005599975585938}, 
{-0.196960449218750, -0.067764282226562, -0.004882812500000, 0.000350952148438, -0.068389892578125, -0.206024169921875, -0.029678344726562, 0.035995483398438, -0.049224853515625, 0.042938232421875, 0.033203125000000, -0.002120971679688, 0.022094726562500, -0.080276489257812, 0.002685546875000, -0.332382202148438, 0.033126831054688, -0.008178710937500, -0.016540527343750, 0.001663208007812, 0.015151977539062, 0.001525878906250, -0.147338867187500, -0.118377685546875, -0.020401000976562, -0.105239868164062, 0.044723510742188, -0.033630371093750, -0.019897460937500, 0.045425415039062, 0.080886840820312, 0.013061523437500, -0.152084350585938, -0.041793823242188, 0.050109863281250, 0.045623779296875, -0.001281738281250, -0.097473144531250, -0.024810791015625, -0.095932006835938, -0.024841308593750, 0.060546875000000, -0.116531372070312, 0.017135620117188, 0.003829956054688, 0.032531738281250, -0.101364135742188, 0.008026123046875, 0.032958984375000, -0.005538940429688, 0.001464843750000, -0.021469116210938, -0.005523681640625, -0.051116943359375, -0.003967285156250, -0.017410278320312, -0.174804687500000, -0.010269165039062, -0.003112792968750, 0.042266845703125, -0.000854492187500, -0.001190185546875, -0.043380737304688, -0.060943603515625, 0.007766723632812, -0.040756225585938, -0.214309692382812, 0.034698486328125, -0.322235107421875, -0.027938842773438, 0.023239135742188, -0.027008056640625, -0.082565307617188, -0.048599243164062, 0.019699096679688, 0.004364013671875, -0.007278442382812, 0.007690429687500, -0.695877075195312, -0.056228637695312, -0.033401489257812, 0.014999389648438, -0.179244995117188, 0.031661987304688, -0.007324218750000, 0.021087646484375, -0.057708740234375, 0.049026489257812, -0.032333374023438, 0.007690429687500, -0.029418945312500, 0.140945434570312, 0.041320800781250, -0.049743652343750, 0.036849975585938, 0.010406494140625, 0.009017944335938, 0.105361938476562, 0.018585205078125, -0.094696044921875, 0.034744262695312, -0.209213256835938, -0.075714111328125, 0.000518798828125, 0.139450073242188, -0.195449829101562, 0.025924682617188, 0.009765625000000, 0.040237426757812, -0.082870483398438, -0.155838012695312, -0.009857177734375, 0.015380859375000, -0.091278076171875, -0.092727661132812, 0.006561279296875, 0.033187866210938, -0.004547119140625, 0.018371582031250, 0.007232666015625, 0.068801879882812, -0.015396118164062, -0.016799926757812, -0.009674072265625, -0.017761230468750, -0.014434814453125, 0.030548095703125, -0.022705078125000}, 
{0.171249389648438, 0.028671264648438, 0.028991699218750, 0.007492065429688, 0.022613525390625, -0.032379150390625, -0.000137329101562, 0.003494262695312, 0.189346313476562, 0.042037963867188, 0.005386352539062, -0.038330078125000, 0.041244506835938, 0.099258422851562, -0.039031982421875, -0.019348144531250, 0.012298583984375, -0.007369995117188, 0.006958007812500, 0.045074462890625, 0.046081542968750, 0.001037597656250, -0.072814941406250, 0.066772460937500, -0.005966186523438, -0.038116455078125, 0.084091186523438, -0.159759521484375, 0.024856567382812, 0.024368286132812, 0.000900268554688, 0.083404541015625, -0.027328491210938, -0.056854248046875, -0.021148681640625, 0.014297485351562, 0.019592285156250, -0.069564819335938, -0.002258300781250, -0.116363525390625, 0.001052856445312, 0.083709716796875, -0.018035888671875, 0.058364868164062, 0.077789306640625, 0.027038574218750, 0.016555786132812, 0.045776367187500, 0.027664184570312, 0.085144042968750, -0.008956909179688, 0.000076293945312, 0.075576782226562, 0.085464477539062, 0.007675170898438, -0.021987915039062, -0.150115966796875, -0.005493164062500, 0.017898559570312, 0.050064086914062, 0.004333496093750, 0.027465820312500, 0.040588378906250, 0.063461303710938, 0.022796630859375, 0.025131225585938, 0.039276123046875, 0.008529663085938, 0.095123291015625, 0.012374877929688, 0.020736694335938, 0.074569702148438, -0.079986572265625, 0.001174926757812, 0.026718139648438, -0.013122558593750, 0.023742675781250, 0.011566162109375, -0.101837158203125, 0.039428710937500, -0.039947509765625, -0.008209228515625, 0.032409667968750, -0.064697265625000, -0.024917602539062, 0.020904541015625, 0.031082153320312, -0.034149169921875, 0.082397460937500, -0.054748535156250, 0.063156127929688, -0.114532470703125, -0.060150146484375, 0.038681030273438, -0.002197265625000, -0.000076293945312, 0.018768310546875, -0.215469360351562, -0.043197631835938, 0.054779052734375, 0.014694213867188, 0.109756469726562, -0.027664184570312, 0.011566162109375, -0.002746582031250, 0.014312744140625, 0.070846557617188, 0.031433105468750, 0.009704589843750, 0.036392211914062, -0.023605346679688, 0.044738769531250, 0.011337280273438, 0.053283691406250, 0.093856811523438, -0.005508422851562, 0.096374511718750, 0.034652709960938, -0.010269165039062, 0.012619018554688, 0.001739501953125, -0.000381469726562, -0.075744628906250, 0.008911132812500, -0.003570556640625, -0.033859252929688, 0.018722534179688, 0.037261962890625}, 
{0.175582885742188, 0.040634155273438, 0.000930786132812, -0.017608642578125, -0.007156372070312, 0.000625610351562, -0.086349487304688, -0.038085937500000, 0.233947753906250, -0.030700683593750, 0.000259399414062, -0.081375122070312, -0.003814697265625, -0.016891479492188, -0.050079345703125, -0.030029296875000, -0.008346557617188, -0.049957275390625, -0.016891479492188, 0.008865356445312, -0.001464843750000, -0.034286499023438, 0.095916748046875, -0.045883178710938, -0.042495727539062, 0.128158569335938, -0.047103881835938, -0.016433715820312, -0.033721923828125, -0.022598266601562, -0.093353271484375, -0.069198608398438, 0.027969360351562, -0.016830444335938, 0.042984008789062, -0.042770385742188, -0.048416137695312, 0.071746826171875, -0.029327392578125, 0.039733886718750, -0.043731689453125, 0.110412597656250, -0.017044067382812, -0.011856079101562, -0.008728027343750, -0.013122558593750, -0.029876708984375, 0.014892578125000, -0.026962280273438, -0.058914184570312, 0.001800537109375, -0.023254394531250, 0.007003784179688, -0.013854980468750, -0.033966064453125, -0.009872436523438, 0.124374389648438, -0.042755126953125, -0.061431884765625, 0.003463745117188, 0.014389038085938, -0.036163330078125, 0.026123046875000, -0.070678710937500, -0.013931274414062, 0.041290283203125, 0.057861328125000, -0.024291992187500, 0.180511474609375, -0.132125854492188, -0.076858520507812, -0.056015014648438, -0.083724975585938, 0.004394531250000, -0.031845092773438, -0.039718627929688, -0.011840820312500, 0.001251220703125, 0.165267944335938, 0.061050415039062, 0.005676269531250, -0.043975830078125, 0.076278686523438, -0.024154663085938, 0.010742187500000, 0.012817382812500, 0.006912231445312, -0.047775268554688, -0.034133911132812, -0.057205200195312, -0.025772094726562, -0.030563354492188, 0.067810058593750, -0.031875610351562, -0.001251220703125, 0.008102416992188, -0.008239746093750, 0.068695068359375, -0.056137084960938, 0.084762573242188, -0.001937866210938, -0.015945434570312, -0.021041870117188, -0.033294677734375, 0.039688110351562, 0.242126464843750, -0.077987670898438, -0.008255004882812, -0.037292480468750, -0.028976440429688, 0.037857055664062, -0.003784179687500, 0.003082275390625, 0.047576904296875, -0.124908447265625, 0.051483154296875, -0.017944335937500, 0.048736572265625, -0.039138793945312, -0.016876220703125, -0.017547607421875, -0.014297485351562, -0.078552246093750, -0.018478393554688, -0.072113037109375, 0.007247924804688, 0.014495849609375, -0.027954101562500}, 
{-0.170211791992188, -0.012878417968750, -0.017181396484375, -0.013702392578125, -0.035736083984375, -0.118225097656250, -0.035140991210938, -0.036849975585938, 0.032531738281250, -0.022659301757812, -0.032653808593750, 0.030166625976562, 0.009445190429688, -0.142181396484375, -0.061981201171875, 0.086013793945312, -0.051498413085938, -0.060440063476562, -0.023895263671875, -0.022399902343750, 0.014862060546875, -0.010131835937500, 0.071701049804688, -0.046279907226562, 0.118667602539062, 0.037277221679688, -0.056808471679688, 0.010101318359375, -0.055328369140625, -0.062942504882812, -0.085571289062500, 0.084365844726562, 0.013015747070312, -0.016998291015625, -0.034530639648438, -0.018463134765625, -0.047927856445312, -0.018478393554688, 0.003768920898438, 0.012573242187500, -0.018951416015625, -0.003585815429688, -0.042861938476562, -0.021789550781250, 0.060958862304688, -0.013992309570312, -0.079971313476562, -0.051635742187500, 0.078475952148438, 0.024658203125000, 0.018447875976562, -0.026489257812500, -0.028472900390625, -0.031311035156250, -0.047042846679688, -0.011077880859375, 0.044876098632812, -0.015731811523438, -0.027770996093750, -0.000930786132812, 0.018661499023438, -0.037216186523438, -0.000457763671875, -0.028411865234375, -0.026321411132812, -0.050109863281250, -0.071411132812500, 0.011917114257812, -0.074874877929688, -0.016784667968750, -0.050094604492188, 0.060180664062500, -0.044418334960938, -0.026550292968750, -0.044464111328125, -0.032043457031250, -0.017486572265625, 0.011459350585938, -0.090896606445312, 0.102035522460938, -0.067123413085938, -0.023834228515625, -0.008026123046875, 0.039367675781250, -0.001602172851562, 0.014175415039062, 0.006515502929688, -0.076400756835938, -0.029464721679688, -0.028335571289062, 0.027023315429688, -0.059448242187500, 0.075836181640625, 0.021743774414062, -0.021316528320312, -0.033279418945312, -0.059097290039062, 0.033172607421875, -0.055480957031250, -0.002609252929688, -0.009323120117188, 0.011993408203125, -0.006683349609375, -0.021255493164062, 0.068054199218750, -0.038177490234375, -0.089141845703125, -0.022766113281250, -0.031616210937500, 0.010787963867188, -0.080017089843750, -0.035202026367188, -0.009643554687500, 0.024765014648438, 0.026000976562500, -0.117797851562500, 0.024642944335938, -0.131637573242188, -0.041427612304688, -0.061935424804688, 0.011856079101562, -0.024932861328125, -0.070327758789062, -0.034774780273438, -0.017837524414062, -0.068695068359375, -0.082977294921875, -0.043151855468750}, 
{-0.014907836914062, 0.017898559570312, 0.043807983398438, -0.000976562500000, 0.001403808593750, 0.002075195312500, 0.028976440429688, -0.019607543945312, 0.098876953125000, 0.019104003906250, 0.034393310546875, 0.017028808593750, 0.042770385742188, 0.031692504882812, -0.015350341796875, 0.080581665039062, 0.025863647460938, 0.032989501953125, 0.008377075195312, 0.037597656250000, 0.036865234375000, 0.015136718750000, 0.071868896484375, 0.074844360351562, -0.043518066406250, -0.001922607421875, 0.075820922851562, -0.098220825195312, -0.024795532226562, -0.054824829101562, -0.016998291015625, -0.130218505859375, -0.048400878906250, -0.040618896484375, 0.050476074218750, 0.016952514648438, -0.005477905273438, 0.054275512695312, -0.024749755859375, 0.025177001953125, -0.033081054687500, -0.249496459960938, 0.071319580078125, 0.004898071289062, -0.013229370117188, 0.035003662109375, 0.074218750000000, 0.009307861328125, -0.080612182617188, -0.006149291992188, 0.087570190429688, 0.006286621093750, 0.078063964843750, -0.059921264648438, -0.008392333984375, -0.120956420898438, 0.070632934570312, -0.029769897460938, -0.037139892578125, 0.010604858398438, -0.013534545898438, 0.069900512695312, -0.003479003906250, -0.001266479492188, -0.012786865234375, -0.045532226562500, 0.063064575195312, 0.004440307617188, 0.108840942382812, 0.016418457031250, -0.000122070312500, -0.176345825195312, 0.014160156250000, -0.023559570312500, -0.013824462890625, 0.028778076171875, -0.008468627929688, 0.016632080078125, 0.305130004882812, -0.041442871093750, 0.055267333984375, 0.018081665039062, -0.016082763671875, -0.061050415039062, -0.052352905273438, 0.031677246093750, -0.083572387695312, -0.045516967773438, -0.005783081054688, 0.008651733398438, 0.019454956054688, 0.042312622070312, -0.026840209960938, -0.082229614257812, 0.032470703125000, -0.125213623046875, 0.013854980468750, 0.115295410156250, 0.047546386718750, -0.130950927734375, 0.001510620117188, 0.020858764648438, 0.050308227539062, -0.020553588867188, -0.041503906250000, -0.011642456054688, -0.074111938476562, 0.038589477539062, -0.036041259765625, -0.057769775390625, 0.000411987304688, 0.010803222656250, 0.031784057617188, -0.021697998046875, 0.036880493164062, 0.007278442382812, 0.081237792968750, -0.038696289062500, -0.028991699218750, 0.007217407226562, -0.080429077148438, -0.008636474609375, 0.031753540039062, 0.010559082031250, -0.048721313476562, 0.040985107421875, 0.007537841796875, -0.030166625976562}, 
{-0.122879028320312, 0.019485473632812, -0.040893554687500, -0.152130126953125, -0.170043945312500, -0.110427856445312, -0.120315551757812, -0.020126342773438, 0.042922973632812, -0.032272338867188, -0.000366210937500, -0.068023681640625, -0.021026611328125, -0.107116699218750, -0.074066162109375, -0.107131958007812, -0.034591674804688, -0.060287475585938, 0.054046630859375, -0.086029052734375, 0.004211425781250, -0.028839111328125, -0.056457519531250, 0.017242431640625, 0.017028808593750, -0.093688964843750, -0.087951660156250, -0.005722045898438, -0.022949218750000, 0.013336181640625, 0.084793090820312, -0.004364013671875, -0.134277343750000, 0.050277709960938, -0.077789306640625, -0.010833740234375, -0.056701660156250, -0.094070434570312, 0.005996704101562, -0.168746948242188, -0.021224975585938, -0.091003417968750, 0.029983520507812, -0.028808593750000, 0.003936767578125, -0.026580810546875, -0.023361206054688, -0.059326171875000, 0.012954711914062, -0.092620849609375, 0.031539916992188, -0.042968750000000, 0.015075683593750, 0.025558471679688, -0.059051513671875, -0.039749145507812, -0.056320190429688, -0.092132568359375, -0.000045776367188, 0.044494628906250, 0.078491210937500, -0.034622192382812, -0.015838623046875, -0.090927124023438, -0.034866333007812, 0.005737304687500, -0.072814941406250, 0.017868041992188, -0.152465820312500, -0.126388549804688, -0.040817260742188, -0.128448486328125, -0.111694335937500, -0.029388427734375, -0.006652832031250, -0.020019531250000, -0.012786865234375, 0.016738891601562, -0.174148559570312, -0.152191162109375, -0.034591674804688, -0.061676025390625, -0.057998657226562, -0.009902954101562, 0.027603149414062, -0.001617431640625, -0.050491333007812, 0.090774536132812, -0.107498168945312, -0.041427612304688, -0.070983886718750, -0.041488647460938, 0.044052124023438, -0.016723632812500, -0.024353027343750, -0.008407592773438, -0.075500488281250, 0.040634155273438, -0.075744628906250, -0.040039062500000, -0.004867553710938, -0.174209594726562, -0.063217163085938, -0.025421142578125, 0.074356079101562, -0.015914916992188, -0.074569702148438, 0.010574340820312, -0.013031005859375, -0.120208740234375, -0.143524169921875, -0.012664794921875, -0.027404785156250, -0.028869628906250, -0.092300415039062, -0.030471801757812, -0.095977783203125, -0.056137084960938, -0.030120849609375, -0.029281616210938, 0.005081176757812, -0.030517578125000, -0.056594848632812, -0.024246215820312, -0.071212768554688, 0.002761840820312, -0.181945800781250, -0.041732788085938}, 
{-0.084808349609375, -0.065399169921875, 0.040023803710938, 0.013565063476562, -0.136245727539062, 0.058044433593750, -0.000137329101562, 0.030197143554688, 0.085449218750000, 0.041183471679688, 0.040679931640625, 0.004348754882812, 0.014999389648438, 0.046157836914062, -0.064285278320312, -0.107650756835938, 0.000823974609375, 0.020507812500000, 0.104827880859375, 0.031097412109375, 0.028305053710938, -0.001770019531250, 0.078506469726562, 0.073989868164062, 0.140594482421875, 0.090072631835938, 0.039001464843750, 0.037002563476562, 0.040588378906250, 0.005920410156250, -0.012145996093750, -0.071411132812500, 0.109207153320312, -0.021179199218750, 0.079910278320312, 0.012542724609375, -0.024276733398438, 0.041839599609375, -0.032806396484375, -0.061355590820312, 0.027313232421875, -0.169189453125000, 0.055267333984375, 0.020553588867188, 0.014205932617188, 0.054611206054688, -0.038543701171875, 0.018859863281250, -0.020339965820312, -0.020629882812500, 0.037857055664062, 0.039611816406250, 0.051574707031250, 0.092514038085938, 0.021743774414062, -0.087875366210938, 0.035369873046875, -0.038925170898438, -0.023574829101562, 0.002273559570312, -0.029998779296875, 0.038146972656250, 0.042510986328125, -0.002914428710938, 0.027816772460938, 0.032104492187500, -0.047622680664062, -0.002227783203125, -0.027206420898438, -0.056884765625000, 0.061828613281250, 0.033966064453125, 0.027450561523438, 0.019668579101562, 0.002975463867188, -0.001678466796875, 0.025558471679688, 0.019515991210938, -0.105682373046875, 0.037292480468750, -0.012390136718750, -0.009902954101562, 0.010330200195312, -0.041580200195312, -0.084472656250000, 0.045333862304688, -0.087615966796875, -0.026809692382812, 0.036819458007812, -0.004501342773438, -0.011306762695312, 0.030075073242188, 0.002532958984375, -0.124694824218750, 0.015899658203125, -0.018417358398438, 0.015563964843750, 0.124923706054688, -0.027465820312500, -0.136123657226562, 0.002258300781250, -0.133102416992188, 0.024856567382812, -0.007675170898438, -0.122421264648438, -0.001556396484375, -0.033859252929688, 0.038513183593750, 0.018875122070312, -0.003768920898438, 0.115036010742188, 0.068923950195312, 0.006134033203125, 0.011489868164062, -0.031936645507812, 0.074615478515625, -0.088943481445312, 0.131546020507812, -0.012832641601562, -0.023117065429688, -0.165512084960938, -0.024185180664062, -0.017486572265625, 0.017395019531250, -0.015548706054688, 0.011489868164062, 0.041946411132812, 0.124740600585938}, 
{0.300460815429688, 0.033950805664062, 0.041839599609375, 0.007720947265625, -0.021301269531250, 0.049041748046875, 0.030273437500000, 0.029220581054688, 0.445053100585938, -0.007904052734375, 0.023803710937500, 0.069015502929688, 0.043426513671875, 0.007019042968750, 0.000457763671875, 0.127716064453125, 0.028228759765625, -0.030746459960938, 0.089065551757812, 0.013076782226562, 0.000762939453125, 0.000549316406250, 0.063186645507812, 0.167205810546875, -0.094512939453125, 0.026580810546875, 0.078720092773438, 0.040969848632812, 0.018768310546875, 0.015670776367188, -0.007247924804688, 0.055892944335938, 0.063690185546875, -0.074768066406250, 0.016433715820312, 0.011138916015625, 0.006484985351562, -0.024291992187500, -0.041336059570312, 0.002334594726562, -0.001663208007812, 0.160537719726562, 0.062545776367188, 0.043716430664062, 0.104278564453125, 0.016937255859375, 0.036163330078125, 0.058822631835938, 0.039642333984375, -0.013122558593750, 0.029708862304688, 0.016479492187500, 0.059112548828125, 0.022079467773438, 0.011306762695312, -0.011825561523438, -0.070327758789062, 0.064208984375000, -0.014053344726562, 0.102371215820312, -0.076141357421875, -0.035720825195312, 0.072509765625000, 0.133163452148438, 0.013549804687500, -0.011260986328125, 0.054870605468750, 0.031204223632812, 0.540008544921875, -0.013336181640625, 0.020339965820312, -0.074859619140625, -0.049026489257812, 0.038726806640625, 0.035827636718750, -0.011520385742188, -0.008285522460938, 0.028274536132812, 0.326751708984375, 0.053222656250000, 0.131057739257812, -0.033248901367188, 0.099868774414062, 0.044113159179688, -0.020706176757812, 0.021697998046875, 0.161636352539062, 0.004943847656250, -0.027496337890625, -0.028533935546875, 0.023834228515625, 0.080154418945312, -0.033401489257812, 0.001052856445312, 0.008148193359375, 0.010116577148438, -0.017959594726562, -0.015274047851562, -0.086563110351562, 0.187011718750000, 0.020690917968750, 0.269882202148438, 0.020477294921875, -0.007858276367188, 0.161422729492188, 0.267410278320312, -0.000213623046875, 0.030075073242188, -0.008361816406250, 0.053588867187500, -0.081085205078125, -0.011764526367188, 0.023681640625000, -0.065383911132812, 0.066894531250000, 0.022155761718750, 0.064788818359375, -0.021484375000000, 0.016937255859375, -0.010772705078125, -0.008972167968750, 0.011291503906250, -0.037902832031250, -0.001968383789062, 0.058639526367188, 0.062820434570312, -0.031356811523438, 0.034469604492188}, 
{0.026138305664062, -0.018493652343750, -0.013885498046875, -0.071594238281250, 0.002304077148438, 0.043899536132812, 0.025009155273438, 0.017990112304688, -0.200622558593750, -0.048065185546875, 0.014587402343750, -0.073089599609375, -0.026031494140625, -0.084686279296875, -0.094146728515625, -0.126388549804688, 0.001022338867188, -0.030776977539062, 0.078018188476562, -0.031646728515625, 0.008544921875000, -0.015167236328125, -0.227523803710938, -0.032241821289062, -0.022750854492188, -0.054931640625000, -0.025787353515625, -0.030853271484375, -0.014190673828125, 0.067855834960938, 0.322647094726562, -0.031768798828125, 0.100082397460938, -0.025650024414062, 0.021560668945312, -0.020690917968750, -0.038543701171875, -0.013565063476562, -0.044387817382812, 0.113098144531250, -0.012527465820312, -0.114715576171875, 0.033874511718750, -0.004669189453125, -0.057907104492188, -0.009170532226562, -0.224502563476562, -0.044708251953125, 0.106430053710938, -0.046661376953125, -0.011062622070312, -0.008636474609375, 0.004730224609375, -0.060684204101562, -0.012008666992188, 0.088394165039062, 0.066131591796875, -0.035690307617188, -0.116348266601562, -0.055984497070312, 0.069641113281250, -0.041107177734375, 0.009765625000000, -0.039062500000000, -0.012374877929688, -0.068710327148438, 0.031692504882812, 0.052139282226562, -0.057113647460938, -0.037460327148438, 0.044433593750000, -0.078460693359375, -0.150161743164062, -0.019561767578125, 0.026550292968750, -0.009262084960938, -0.031311035156250, -0.023056030273438, -0.151382446289062, -0.055175781250000, 0.031097412109375, 0.029205322265625, 0.075927734375000, 0.079605102539062, -0.004577636718750, -0.025085449218750, -0.090454101562500, 0.069274902343750, -0.021942138671875, -0.051330566406250, 0.034469604492188, -0.143585205078125, -0.006835937500000, 0.128707885742188, 0.032791137695312, 0.118927001953125, -0.027832031250000, -0.053146362304688, -0.025588989257812, 0.023773193359375, 0.001663208007812, -0.086303710937500, -0.122497558593750, -0.026367187500000, 0.048568725585938, -0.031707763671875, 0.181457519531250, 0.007446289062500, 0.106887817382812, -0.052749633789062, 0.157882690429688, -0.075897216796875, 0.015991210937500, -0.081283569335938, 0.143035888671875, 0.098388671875000, -0.033355712890625, -0.011932373046875, -0.010208129882812, -0.007827758789062, 0.075866699218750, -0.013732910156250, 0.045501708984375, 0.016906738281250, -0.079299926757812, 0.087188720703125, -0.079620361328125, -0.053604125976562}, 
{0.334243774414062, -0.018539428710938, -0.016418457031250, -0.037109375000000, 0.086685180664062, -0.086654663085938, 0.025497436523438, -0.037200927734375, 0.401397705078125, 0.006774902343750, 0.002380371093750, -0.046768188476562, 0.001266479492188, 0.134643554687500, -0.013412475585938, 0.132324218750000, -0.025466918945312, -0.033676147460938, -0.027770996093750, 0.004989624023438, -0.000991821289062, -0.028396606445312, -0.068374633789062, 0.004562377929688, 0.021102905273438, -0.040542602539062, 0.035064697265625, -0.198440551757812, 0.007476806640625, 0.014297485351562, -0.096618652343750, 0.024932861328125, 0.086273193359375, 0.020965576171875, -0.109451293945312, -0.009094238281250, -0.019439697265625, -0.032241821289062, 0.061645507812500, -0.044128417968750, -0.013122558593750, 0.126174926757812, 0.004089355468750, -0.007339477539062, 0.082962036132812, 0.046524047851562, 0.140518188476562, 0.000244140625000, 0.022583007812500, -0.000091552734375, 0.053955078125000, -0.008529663085938, 0.060668945312500, 0.027938842773438, -0.021041870117188, 0.028747558593750, -0.032287597656250, -0.016540527343750, -0.006912231445312, -0.051818847656250, -0.017333984375000, 0.017196655273438, 0.002838134765625, 0.007049560546875, 0.001464843750000, 0.036697387695312, 0.017562866210938, 0.048934936523438, 0.495605468750000, -0.035278320312500, 0.010406494140625, -0.004882812500000, -0.116531372070312, -0.037368774414062, -0.007919311523438, -0.032089233398438, 0.011993408203125, 0.015029907226562, -0.081619262695312, -0.022796630859375, -0.084472656250000, -0.006179809570312, 0.059646606445312, -0.045669555664062, 0.023986816406250, 0.039825439453125, 0.094543457031250, 0.012313842773438, 0.029357910156250, -0.014053344726562, 0.003585815429688, -0.040252685546875, -0.004379272460938, 0.014465332031250, 0.002273559570312, -0.082717895507812, -0.026962280273438, -0.196258544921875, -0.002212524414062, -0.022842407226562, 0.006744384765625, 0.174530029296875, -0.073059082031250, -0.017639160156250, -0.050323486328125, 0.224395751953125, -0.080551147460938, 0.017929077148438, 0.001434326171875, -0.018264770507812, 0.030960083007812, 0.001861572265625, 0.013427734375000, -0.094619750976562, 0.034088134765625, -0.034423828125000, -0.018371582031250, -0.116119384765625, -0.071426391601562, -0.026779174804688, 0.065643310546875, -0.037185668945312, -0.092651367187500, -0.009689331054688, -0.024871826171875, -0.093658447265625, 0.003448486328125, -0.102142333984375}, 
{-0.259475708007812, -0.029724121093750, -0.030548095703125, -0.023574829101562, -0.157135009765625, 0.036529541015625, -0.094070434570312, -0.011184692382812, -0.001205444335938, -0.042098999023438, 0.000473022460938, -0.051025390625000, 0.003982543945312, 0.051834106445312, -0.007019042968750, -0.068481445312500, -0.040817260742188, -0.049453735351562, 0.014465332031250, -0.019454956054688, -0.005599975585938, -0.037643432617188, 0.020584106445312, -0.095581054687500, -0.037673950195312, -0.084304809570312, -0.040817260742188, -0.062805175781250, -0.035232543945312, 0.007904052734375, -0.004135131835938, 0.023056030273438, -0.072937011718750, 0.047119140625000, 0.043609619140625, -0.031768798828125, -0.024475097656250, -0.077041625976562, 0.003829956054688, 0.054061889648438, -0.059066772460938, 0.026657104492188, -0.033050537109375, -0.020690917968750, 0.029678344726562, 0.016098022460938, -0.051406860351562, 0.000930786132812, -0.004013061523438, -0.013961791992188, -0.005401611328125, -0.033065795898438, 0.017486572265625, 0.032028198242188, -0.063705444335938, 0.018051147460938, -0.149536132812500, -0.019180297851562, -0.019348144531250, 0.015136718750000, -0.026290893554688, -0.056274414062500, 0.018615722656250, 0.080047607421875, -0.041305541992188, 0.013183593750000, -0.102172851562500, 0.021591186523438, 0.040802001953125, -0.093856811523438, -0.043334960937500, 0.024505615234375, -0.085769653320312, 0.006622314453125, -0.017578125000000, -0.020828247070312, -0.032516479492188, 0.009185791015625, 0.122802734375000, 0.043029785156250, -0.066085815429688, -0.076492309570312, -0.026626586914062, -0.030380249023438, 0.020065307617188, 0.041336059570312, -0.081420898437500, -0.024749755859375, -0.106033325195312, -0.035949707031250, -0.056182861328125, -0.088592529296875, 0.026092529296875, 0.019912719726562, 0.006896972656250, 0.083480834960938, -0.073440551757812, -0.008697509765625, -0.023315429687500, 0.049102783203125, -0.001800537109375, -0.004867553710938, -0.050109863281250, -0.026367187500000, -0.115249633789062, -0.056243896484375, -0.035308837890625, -0.012649536132812, -0.003799438476562, 0.021499633789062, -0.224517822265625, -0.040008544921875, -0.013824462890625, 0.067153930664062, -0.093383789062500, 0.086654663085938, -0.008483886718750, -0.041824340820312, -0.029937744140625, -0.020797729492188, -0.007843017578125, -0.032119750976562, -0.054458618164062, -0.032943725585938, -0.024902343750000, -0.031127929687500, -0.048217773437500, -0.018295288085938}, 
{0.245025634765625, -0.020339965820312, -0.004943847656250, -0.046325683593750, -0.023925781250000, -0.078811645507812, -0.077514648437500, -0.021926879882812, 0.236083984375000, -0.006179809570312, -0.028167724609375, 0.020233154296875, -0.005935668945312, 0.031967163085938, -0.021255493164062, 0.039550781250000, -0.060806274414062, -0.035217285156250, 0.038238525390625, -0.017532348632812, -0.004394531250000, -0.020477294921875, -0.042297363281250, -0.024566650390625, 0.069946289062500, 0.023757934570312, -0.015686035156250, -0.034103393554688, -0.041885375976562, -0.023330688476562, 0.013244628906250, -0.009277343750000, 0.019973754882812, 0.025283813476562, -0.021972656250000, 0.005722045898438, -0.026123046875000, -0.099044799804688, 0.067703247070312, -0.027252197265625, -0.034088134765625, 0.071975708007812, -0.039337158203125, -0.023345947265625, -0.009109497070312, 0.026519775390625, 0.143661499023438, 0.030029296875000, 0.040771484375000, -0.003112792968750, -0.008270263671875, -0.021148681640625, 0.015045166015625, 0.000747680664062, -0.035827636718750, -0.038650512695312, -0.106735229492188, -0.013534545898438, -0.048797607421875, 0.042541503906250, 0.030838012695312, -0.006881713867188, -0.017944335937500, 0.015274047851562, -0.015625000000000, 0.016586303710938, 0.054534912109375, -0.045791625976562, 0.289138793945312, -0.038345336914062, -0.012481689453125, 0.120620727539062, -0.043167114257812, 0.001022338867188, -0.022125244140625, -0.057098388671875, -0.026275634765625, 0.005065917968750, 0.368484497070312, 0.072128295898438, -0.083862304687500, 0.000595092773438, 0.068847656250000, -0.026794433593750, 0.008987426757812, -0.005371093750000, -0.088348388671875, -0.089981079101562, 0.012481689453125, -0.009689331054688, 0.069412231445312, -0.110458374023438, 0.030364990234375, 0.009521484375000, -0.000366210937500, -0.022125244140625, -0.042129516601562, -0.007202148437500, -0.063446044921875, 0.053588867187500, -0.007720947265625, 0.016128540039062, 0.027542114257812, -0.020904541015625, 0.127136230468750, 0.012176513671875, -0.095504760742188, 0.006301879882812, -0.045593261718750, 0.042449951171875, -0.070312500000000, 0.011917114257812, -0.001434326171875, -0.033935546875000, -0.000946044921875, -0.039642333984375, 0.031539916992188, -0.025573730468750, -0.020492553710938, -0.006027221679688, -0.000244140625000, -0.044677734375000, -0.039474487304688, -0.020080566406250, -0.056427001953125, -0.028640747070312, 0.013763427734375, -0.001724243164062}, 
{-0.015045166015625, -0.018890380859375, 0.053375244140625, -0.023086547851562, 0.054138183593750, 0.100097656250000, 0.012603759765625, -0.041122436523438, -0.029525756835938, -0.003906250000000, 0.038070678710938, -0.191604614257812, 0.019683837890625, 0.090347290039062, -0.005325317382812, -0.111068725585938, -0.021087646484375, 0.048675537109375, 0.043823242187500, -0.002655029296875, -0.008056640625000, 0.007583618164062, 0.061874389648438, 0.011962890625000, 0.366027832031250, 0.058227539062500, 0.045989990234375, 0.035446166992188, -0.063034057617188, -0.040557861328125, -0.007186889648438, -0.694915771484375, -0.718536376953125, -0.443237304687500, 0.124374389648438, 0.004943847656250, -0.050277709960938, 0.069534301757812, -0.581115722656250, 0.121185302734375, -0.165267944335938, -0.801879882812500, 0.074325561523438, -0.037643432617188, -0.800094604492188, 0.033828735351562, -0.025238037109375, -0.112686157226562, -0.020568847656250, -0.474716186523438, 0.063842773437500, 0.046691894531250, 0.063476562500000, -0.107299804687500, -0.036529541015625, -0.004913330078125, 0.106964111328125, -0.132797241210938, 0.008743286132812, -0.041275024414062, -0.190277099609375, 0.078125000000000, 0.005386352539062, -0.719970703125000, 0.017105102539062, -0.055969238281250, 0.077362060546875, -0.008758544921875, 0.009124755859375, 0.031021118164062, 0.010269165039062, -0.914764404296875, 0.077819824218750, -0.073272705078125, 0.012771606445312, 0.047744750976562, -0.042831420898438, -0.016235351562500, 0.023895263671875, -0.881576538085938, 0.135147094726562, 0.002883911132812, 0.050735473632812, 0.053237915039062, -0.022354125976562, 0.042526245117188, -0.730087280273438, -0.213928222656250, 0.047698974609375, -0.058410644531250, -0.701339721679688, -0.067855834960938, 0.090347290039062, 0.131805419921875, 0.018951416015625, -0.082290649414062, 0.021194458007812, 0.052474975585938, -0.029785156250000, -0.816619873046875, -0.009887695312500, 0.066177368164062, 0.159271240234375, -0.039764404296875, -0.084899902343750, -0.056854248046875, -0.232131958007812, 0.006408691406250, -0.042770385742188, -0.558639526367188, 0.059524536132812, -0.042114257812500, -0.016952514648438, 0.140914916992188, -0.830337524414062, 0.127410888671875, -0.601684570312500, 0.148223876953125, -0.030517578125000, -0.128967285156250, -0.539840698242188, -0.002426147460938, -0.000152587890625, -0.007568359375000, -0.125946044921875, 0.058380126953125, -0.014038085937500, 0.030639648437500}, 
{0.157394409179688, 0.004653930664062, -0.033218383789062, -0.100631713867188, -0.014236450195312, 0.126403808593750, 0.023193359375000, -0.046157836914062, 0.059661865234375, -0.013076782226562, 0.030029296875000, -0.036834716796875, 0.003616333007812, 0.097213745117188, -0.016021728515625, 0.094543457031250, -0.026657104492188, 0.008697509765625, 0.021301269531250, 0.005218505859375, -0.007919311523438, -0.041503906250000, 0.064254760742188, 0.111328125000000, 0.025848388671875, 0.057952880859375, 0.000747680664062, 0.059707641601562, -0.020492553710938, -0.005203247070312, 0.039199829101562, 0.122741699218750, -0.054870605468750, -0.065155029296875, -0.051773071289062, -0.002380371093750, 0.023635864257812, 0.072631835937500, -0.069793701171875, 0.096221923828125, -0.069030761718750, -0.035293579101562, 0.067367553710938, -0.006744384765625, -0.090347290039062, -0.001800537109375, -0.005676269531250, 0.002395629882812, -0.048309326171875, -0.059936523437500, 0.027267456054688, 0.005096435546875, -0.029708862304688, 0.032409667968750, -0.010589599609375, -0.015121459960938, 0.104049682617188, -0.048171997070312, -0.020309448242188, 0.009460449218750, 0.090530395507812, -0.005798339843750, 0.016708374023438, 0.158843994140625, -0.004577636718750, -0.000976562500000, 0.087417602539062, -0.080718994140625, 0.069168090820312, -0.013946533203125, -0.002426147460938, -0.115295410156250, -0.093948364257812, -0.013275146484375, -0.025344848632812, -0.016067504882812, -0.000213623046875, -0.007492065429688, 0.055465698242188, 0.116836547851562, 0.097229003906250, -0.003616333007812, 0.101089477539062, -0.018295288085938, 0.016403198242188, 0.052276611328125, 0.026977539062500, 0.045227050781250, -0.001617431640625, -0.061889648437500, 0.038009643554688, -0.018035888671875, -0.006378173828125, 0.059875488281250, -0.017517089843750, -0.136367797851562, -0.044433593750000, -0.037673950195312, -0.043273925781250, 0.068786621093750, -0.016357421875000, -0.028152465820312, -0.000350952148438, -0.020324707031250, 0.027572631835938, 0.151504516601562, -0.104614257812500, 0.018997192382812, -0.004959106445312, 0.022369384765625, 0.023178100585938, -0.017639160156250, -0.017120361328125, 0.046737670898438, 0.084899902343750, 0.032623291015625, 0.023666381835938, 0.035385131835938, -0.037963867187500, -0.043640136718750, -0.006637573242188, -0.028488159179688, 0.023757934570312, -0.008438110351562, -0.056106567382812, 0.004531860351562, 0.050170898437500, -0.041076660156250}, 
{-0.094680786132812, -0.034072875976562, 0.032287597656250, -0.011215209960938, 0.016906738281250, -0.087844848632812, 0.016555786132812, 0.051116943359375, -0.140426635742188, 0.001449584960938, 0.032119750976562, 0.010070800781250, 0.007965087890625, 0.047378540039062, 0.055282592773438, -0.089782714843750, 0.026962280273438, -0.009384155273438, -0.023544311523438, 0.042449951171875, 0.025085449218750, -0.010498046875000, -0.098892211914062, 0.010848999023438, -0.036514282226562, -0.065811157226562, -0.007598876953125, 0.044631958007812, 0.009963989257812, 0.034774780273438, -0.007202148437500, 0.058395385742188, 0.070541381835938, 0.014816284179688, 0.098937988281250, 0.023086547851562, -0.001678466796875, -0.020233154296875, -0.010742187500000, -0.061813354492188, 0.022308349609375, -0.007843017578125, -0.076293945312500, 0.034622192382812, -0.000534057617188, 0.008972167968750, -0.058334350585938, 0.066436767578125, 0.034851074218750, 0.044418334960938, -0.003067016601562, 0.004425048828125, 0.043899536132812, -0.030242919921875, 0.010650634765625, 0.000595092773438, -0.016677856445312, 0.045852661132812, -0.028640747070312, 0.033477783203125, -0.067626953125000, 0.021636962890625, -0.007995605468750, 0.009231567382812, 0.033355712890625, -0.043502807617188, -0.029495239257812, -0.006668090820312, -0.159301757812500, 0.051483154296875, 0.053695678710938, -0.010940551757812, 0.048156738281250, -0.003250122070312, -0.001724243164062, -0.005813598632812, 0.025924682617188, 0.032150268554688, 0.153274536132812, 0.087875366210938, 0.133193969726562, -0.008270263671875, 0.019104003906250, 0.010147094726562, -0.068222045898438, 0.012252807617188, 0.029190063476562, 0.056289672851562, -0.002182006835938, 0.008117675781250, 0.007827758789062, -0.052383422851562, -0.039581298828125, 0.088073730468750, 0.003723144531250, 0.008148193359375, 0.066589355468750, 0.038681030273438, 0.008316040039062, -0.001037597656250, 0.013259887695312, -0.042587280273438, 0.076553344726562, 0.014755249023438, -0.036331176757812, -0.098846435546875, -0.099121093750000, 0.019531250000000, -0.030883789062500, 0.016098022460938, -0.039031982421875, -0.005142211914062, 0.042129516601562, -0.007308959960938, -0.011474609375000, -0.097366333007812, -0.019577026367188, -0.085235595703125, -0.003982543945312, -0.003341674804688, 0.051818847656250, 0.002456665039062, 0.047576904296875, -0.010650634765625, 0.042572021484375, -0.053161621093750, -0.009017944335938, -0.076034545898438}, 
{-0.017456054687500, 0.020751953125000, -0.015991210937500, -0.041397094726562, -0.093933105468750, -0.059448242187500, -0.044311523437500, -0.038146972656250, 0.065475463867188, -0.047653198242188, -0.014709472656250, -0.045211791992188, 0.009872436523438, -0.009536743164062, -0.018859863281250, -0.117523193359375, -0.032943725585938, -0.073135375976562, -0.055435180664062, -0.000061035156250, -0.017715454101562, -0.048370361328125, -0.109863281250000, -0.028579711914062, -0.064956665039062, -0.057495117187500, -0.112564086914062, -0.112716674804688, -0.079910278320312, -0.029006958007812, -0.039779663085938, 0.016326904296875, -0.019256591796875, -0.034652709960938, -0.047866821289062, -0.032028198242188, -0.044509887695312, 0.024673461914062, -0.003448486328125, -0.153732299804688, -0.057418823242188, -0.040481567382812, -0.036834716796875, -0.050277709960938, 0.035537719726562, -0.038482666015625, -0.041824340820312, -0.009460449218750, 0.015762329101562, -0.033721923828125, -0.034103393554688, -0.035537719726562, -0.011718750000000, -0.000198364257812, -0.052810668945312, 0.060043334960938, -0.001647949218750, 0.027450561523438, -0.025970458984375, -0.001617431640625, -0.003143310546875, -0.081542968750000, -0.044174194335938, -0.014266967773438, -0.028625488281250, -0.036193847656250, -0.082336425781250, -0.018386840820312, -0.260833740234375, -0.063293457031250, -0.041931152343750, -0.072921752929688, -0.064910888671875, -0.038162231445312, -0.042068481445312, -0.045989990234375, -0.063156127929688, 0.002960205078125, 0.150894165039062, -0.044769287109375, -0.074645996093750, -0.031250000000000, -0.069686889648438, -0.066345214843750, 0.034057617187500, -0.014022827148438, -0.010299682617188, -0.074050903320312, -0.072570800781250, -0.039276123046875, 0.116210937500000, 0.006378173828125, 0.010498046875000, 0.000518798828125, -0.003463745117188, -0.074249267578125, -0.073471069335938, -0.045181274414062, -0.021850585937500, 0.048233032226562, -0.008956909179688, -0.040878295898438, -0.020156860351562, -0.022354125976562, -0.107101440429688, -0.074096679687500, -0.049575805664062, -0.010833740234375, -0.062072753906250, -0.000961303710938, 0.037170410156250, -0.043884277343750, -0.002044677734375, 0.046371459960938, -0.009750366210938, -0.006805419921875, -0.037414550781250, 0.018768310546875, -0.038681030273438, -0.054870605468750, -0.052322387695312, -0.034332275390625, -0.019515991210938, -0.022979736328125, -0.039291381835938, -0.056198120117188, -0.012969970703125, 0.028076171875000}, 
{0.044082641601562, -0.019546508789062, -0.017349243164062, 0.003753662109375, -0.058227539062500, -0.023468017578125, -0.074737548828125, -0.038574218750000, -0.142654418945312, -0.039566040039062, -0.030181884765625, 0.027816772460938, 0.008255004882812, -0.043502807617188, -0.027389526367188, 0.034606933593750, -0.025207519531250, -0.052230834960938, 0.001373291015625, -0.014907836914062, 0.002883911132812, -0.042648315429688, 0.043380737304688, -0.024444580078125, 0.051635742187500, 0.133514404296875, -0.013610839843750, -0.004180908203125, -0.030014038085938, -0.037216186523438, 0.077377319335938, 0.068145751953125, 0.051101684570312, 0.038955688476562, -0.087326049804688, -0.029968261718750, -0.026306152343750, -0.079650878906250, 0.046524047851562, 0.037948608398438, -0.001693725585938, -0.019958496093750, -0.124481201171875, -0.045776367187500, 0.057525634765625, 0.006225585937500, -0.047531127929688, 0.047378540039062, 0.011871337890625, 0.048614501953125, 0.033843994140625, -0.037445068359375, 0.016906738281250, 0.018463134765625, -0.014816284179688, -0.008834838867188, 0.010955810546875, 0.021652221679688, -0.027069091796875, -0.050827026367188, 0.002792358398438, 0.004547119140625, -0.020248413085938, -0.083953857421875, -0.019714355468750, 0.005798339843750, -0.037918090820312, -0.084243774414062, -0.171127319335938, -0.038391113281250, 0.027969360351562, 0.083145141601562, -0.102996826171875, 0.001907348632812, -0.012222290039062, -0.031036376953125, -0.057815551757812, 0.013336181640625, -0.021896362304688, 0.022033691406250, -0.022689819335938, -0.038299560546875, 0.009002685546875, -0.075942993164062, 0.002929687500000, 0.017120361328125, 0.057708740234375, -0.018768310546875, -0.051513671875000, -0.034576416015625, 0.005111694335938, -0.044067382812500, -0.007781982421875, -0.058746337890625, 0.010711669921875, -0.048339843750000, -0.047882080078125, 0.061798095703125, 0.034667968750000, 0.029647827148438, -0.009811401367188, -0.042022705078125, 0.035156250000000, -0.025909423828125, -0.012115478515625, -0.072601318359375, 0.035446166992188, 0.003555297851562, -0.021820068359375, -0.016479492187500, -0.026687622070312, -0.063003540039062, -0.011032104492188, 0.026931762695312, 0.012344360351562, -0.054656982421875, -0.002990722656250, -0.036117553710938, -0.039428710937500, -0.028869628906250, 0.051910400390625, -0.025558471679688, -0.037658691406250, -0.001342773437500, -0.038116455078125, -0.034057617187500, -0.040573120117188, -0.050064086914062}, 
{-0.064239501953125, -0.042129516601562, 0.003433227539062, -0.040237426757812, -0.097778320312500, -0.185440063476562, -0.010833740234375, 0.043121337890625, -0.255157470703125, -0.001174926757812, 0.016860961914062, 0.025558471679688, 0.021896362304688, -0.103500366210938, 0.005294799804688, -0.260253906250000, 0.019546508789062, -0.022033691406250, -0.042282104492188, -0.006423950195312, 0.009765625000000, 0.003173828125000, -0.264694213867188, -0.112579345703125, -0.077041625976562, -0.135787963867188, 0.045623779296875, 0.005249023437500, -0.020233154296875, 0.020507812500000, -0.101943969726562, -0.037170410156250, -0.135284423828125, -0.038253784179688, -0.056716918945312, 0.010833740234375, 0.011032104492188, -0.147369384765625, -0.107437133789062, -0.119644165039062, 0.014755249023438, -0.083297729492188, -0.044387817382812, -0.016616821289062, -0.032424926757812, 0.010452270507812, -0.073318481445312, 0.003204345703125, -0.002090454101562, -0.007034301757812, -0.019607543945312, 0.006103515625000, 0.009185791015625, 0.047897338867188, -0.012420654296875, 0.012466430664062, -0.160537719726562, 0.000686645507812, 0.018890380859375, -0.014450073242188, 0.031066894531250, 0.006240844726562, 0.010223388671875, -0.117202758789062, 0.013198852539062, -0.033172607421875, -0.134628295898438, 0.065368652343750, -0.139877319335938, -0.001037597656250, 0.006530761718750, 0.069473266601562, -0.006179809570312, -0.069458007812500, 0.004287719726562, -0.032287597656250, 0.002441406250000, 0.035110473632812, -0.530731201171875, 0.059234619140625, -0.045745849609375, -0.003524780273438, -0.136917114257812, 0.079879760742188, -0.021774291992188, -0.018859863281250, -0.036804199218750, 0.001419067382812, -0.033309936523438, 0.023925781250000, -0.080718994140625, 0.022888183593750, 0.008544921875000, -0.013336181640625, 0.011230468750000, 0.080413818359375, -0.010925292968750, -0.016708374023438, 0.073883056640625, -0.001968383789062, 0.036499023437500, -0.127563476562500, -0.126525878906250, 0.003326416015625, 0.007064819335938, -0.058700561523438, 0.138031005859375, 0.030654907226562, 0.028167724609375, -0.071670532226562, -0.128799438476562, -0.009445190429688, 0.033233642578125, -0.072219848632812, 0.105834960937500, 0.003555297851562, -0.088424682617188, -0.064743041992188, -0.003463745117188, 0.029251098632812, -0.050689697265625, -0.006500244140625, -0.030990600585938, 0.024078369140625, -0.033767700195312, -0.066024780273438, 0.029800415039062, -0.051666259765625}, 
{0.107681274414062, 0.009201049804688, 0.024856567382812, -0.077346801757812, 0.050689697265625, 0.190048217773438, -0.000656127929688, -0.011962890625000, 0.171142578125000, -0.012878417968750, 0.063598632812500, -0.043838500976562, 0.011413574218750, 0.110595703125000, 0.049346923828125, 0.125961303710938, -0.008666992187500, -0.003982543945312, 0.092285156250000, 0.023513793945312, 0.024459838867188, -0.018524169921875, 0.168899536132812, 0.061203002929688, -0.271636962890625, -0.155258178710938, -0.031646728515625, 0.122482299804688, -0.039276123046875, -0.044250488281250, 0.084289550781250, -0.115341186523438, -0.247451782226562, -0.163970947265625, -0.034149169921875, -0.037857055664062, 0.013549804687500, 0.103164672851562, -0.217864990234375, 0.177886962890625, -0.172027587890625, -0.212402343750000, 0.169891357421875, -0.026824951171875, -0.129348754882812, 0.023544311523438, 0.058990478515625, -0.061370849609375, -0.073745727539062, -0.175781250000000, 0.058776855468750, 0.046157836914062, 0.043197631835938, -0.022567749023438, 0.019088745117188, -0.072601318359375, 0.153472900390625, -0.060058593750000, 0.076034545898438, 0.108322143554688, 0.199859619140625, 0.046554565429688, 0.058059692382812, -0.183715820312500, 0.025573730468750, -0.031448364257812, 0.054641723632812, -0.118194580078125, 0.103393554687500, 0.027694702148438, 0.020019531250000, -0.271667480468750, -0.026184082031250, -0.012374877929688, -0.034500122070312, -0.010086059570312, -0.018875122070312, -0.027587890625000, -0.129180908203125, -0.179687500000000, 0.128967285156250, 0.005844116210938, 0.025695800781250, 0.057785034179688, 0.011581420898438, 0.060684204101562, -0.254867553710938, -0.000335693359375, 0.062591552734375, -0.090057373046875, -0.166488647460938, -0.005401611328125, -0.114746093750000, 0.064346313476562, -0.020477294921875, -0.110931396484375, -0.005523681640625, 0.163406372070312, -0.046936035156250, -0.176345825195312, -0.021652221679688, -0.023803710937500, 0.125732421875000, -0.017669677734375, 0.096603393554688, -0.049636840820312, -0.063278198242188, -0.014556884765625, 0.025833129882812, -0.177490234375000, 0.200607299804688, -0.042907714843750, 0.031097412109375, 0.065399169921875, -0.234313964843750, 0.051589965820312, -0.140350341796875, 0.008605957031250, 0.018905639648438, -0.085235595703125, -0.008926391601562, -0.033157348632812, 0.041366577148438, -0.041656494140625, -0.119140625000000, 0.037658691406250, -0.052551269531250, 0.017471313476562}, 
{0.101013183593750, -0.024917602539062, 0.054382324218750, -0.024169921875000, -0.050445556640625, 0.045715332031250, 0.010635375976562, 0.030136108398438, 0.141876220703125, 0.039001464843750, 0.037109375000000, 0.022216796875000, 0.046279907226562, 0.171417236328125, 0.015640258789062, -0.062545776367188, 0.005416870117188, 0.034652709960938, 0.054000854492188, 0.069168090820312, 0.047286987304688, -0.003631591796875, -0.025695800781250, 0.092437744140625, 0.020797729492188, 0.079116821289062, 0.108825683593750, -0.083068847656250, 0.001266479492188, -0.008316040039062, -0.015151977539062, -0.047698974609375, 0.121536254882812, 0.022232055664062, 0.011016845703125, 0.020080566406250, 0.006561279296875, -0.013305664062500, -0.019027709960938, -0.008560180664062, 0.029357910156250, -0.106231689453125, 0.100402832031250, 0.042617797851562, 0.033538818359375, 0.025100708007812, 0.051284790039062, 0.030380249023438, -0.023590087890625, 0.001434326171875, 0.035079956054688, -0.019592285156250, -0.002532958984375, -0.053176879882812, 0.024276733398438, 0.005661010742188, 0.033660888671875, 0.018280029296875, 0.056396484375000, -0.126144409179688, 0.008102416992188, 0.037857055664062, 0.007781982421875, -0.074707031250000, -0.007141113281250, -0.019058227539062, 0.069168090820312, -0.004409790039062, 0.169158935546875, 0.022628784179688, -0.009552001953125, 0.071517944335938, 0.005279541015625, 0.019424438476562, -0.007736206054688, 0.020904541015625, -0.009048461914062, 0.019485473632812, -0.057647705078125, -0.022659301757812, 0.015121459960938, 0.014541625976562, -0.029190063476562, 0.039001464843750, -0.063034057617188, 0.030685424804688, -0.002471923828125, 0.007614135742188, 0.004241943359375, -0.009521484375000, -0.034545898437500, 0.006988525390625, -0.099670410156250, -0.009262084960938, 0.043945312500000, -0.025878906250000, 0.016143798828125, 0.062179565429688, 0.018753051757812, -0.015396118164062, 0.016357421875000, -0.002655029296875, 0.029052734375000, 0.016403198242188, -0.002655029296875, 0.167022705078125, -0.008361816406250, -0.005798339843750, 0.012268066406250, 0.003753662109375, -0.056838989257812, 0.034362792968750, 0.063522338867188, -0.075103759765625, -0.096755981445312, 0.007293701171875, 0.035614013671875, -0.030288696289062, 0.002624511718750, 0.006500244140625, -0.057418823242188, 0.007553100585938, -0.013885498046875, -0.009643554687500, -0.000259399414062, -0.059234619140625, -0.030868530273438, 0.021362304687500}, 
{-0.270797729492188, 0.043640136718750, -0.022094726562500, 0.012054443359375, -0.001144409179688, -0.124359130859375, -0.005722045898438, 0.026138305664062, -0.400894165039062, -0.005828857421875, -0.052841186523438, 0.029647827148438, -0.010437011718750, -0.164657592773438, 0.040847778320312, -0.107543945312500, 0.002883911132812, 0.002105712890625, -0.041076660156250, 0.006286621093750, -0.015808105468750, -0.042053222656250, -0.025238037109375, -0.018310546875000, 0.015136718750000, -0.644317626953125, -0.120986938476562, -0.094619750976562, 0.041961669921875, -0.015823364257812, -0.108078002929688, -0.011581420898438, 0.126266479492188, 0.099777221679688, -0.028686523437500, -0.062194824218750, -0.013793945312500, -0.078140258789062, 0.084091186523438, -0.022537231445312, -0.058929443359375, -0.021591186523438, -0.058258056640625, 0.012969970703125, -0.048370361328125, -0.014251708984375, 0.006240844726562, 0.016326904296875, -0.009719848632812, -0.097152709960938, -0.068588256835938, -0.031677246093750, -0.075683593750000, -0.065322875976562, 0.030197143554688, -0.375503540039062, -0.119766235351562, 0.002670288085938, 0.016723632812500, -0.060958862304688, 0.147079467773438, -0.074462890625000, 0.043457031250000, -0.026321411132812, -0.013687133789062, -0.037170410156250, -0.124969482421875, -0.053649902343750, -0.130157470703125, -0.031967163085938, -0.022842407226562, -0.011550903320312, 0.117965698242188, -0.079971313476562, -0.043151855468750, -0.048141479492188, -0.011245727539062, -0.011428833007812, -0.182754516601562, -0.008010864257812, -0.087097167968750, -0.007873535156250, -0.390869140625000, -0.027938842773438, -0.011093139648438, 0.003997802734375, 0.043655395507812, -0.031631469726562, -0.391921997070312, -0.035018920898438, 0.060943603515625, 0.069656372070312, -0.051208496093750, -0.041732788085938, -0.011962890625000, -0.013290405273438, -0.018035888671875, -0.226043701171875, 0.080673217773438, 0.007247924804688, -0.018127441406250, -0.102035522460938, -0.050430297851562, -0.003128051757812, -0.105667114257812, -0.862625122070312, 0.130401611328125, -0.018615722656250, -0.007675170898438, 0.030151367187500, -0.076385498046875, -0.063293457031250, -0.012924194335938, 0.050369262695312, 0.059188842773438, -0.054000854492188, 0.115554809570312, -0.154357910156250, -0.030471801757812, 0.046981811523438, 0.016494750976562, -0.027160644531250, 0.036743164062500, -0.028747558593750, -0.027206420898438, -0.031082153320312, 0.015762329101562, -0.098495483398438}, 
{-0.104461669921875, 0.028076171875000, 0.016937255859375, 0.000518798828125, -0.179870605468750, 0.055847167968750, -0.002761840820312, -0.011169433593750, -0.110382080078125, -0.020141601562500, -0.028854370117188, 0.030380249023438, 0.007949829101562, 0.021804809570312, -0.020401000976562, -0.045913696289062, -0.004455566406250, -0.057083129882812, 0.034500122070312, -0.023178100585938, 0.018936157226562, -0.010345458984375, 0.014846801757812, -0.029693603515625, 0.020217895507812, -0.209091186523438, -0.020126342773438, -0.111831665039062, -0.029037475585938, 0.060882568359375, 0.045440673828125, -0.063552856445312, -0.124649047851562, -0.078079223632812, -0.064590454101562, -0.025085449218750, 0.032028198242188, -0.108764648437500, -0.031021118164062, -0.174133300781250, 0.018417358398438, 0.002807617187500, -0.025680541992188, 0.024368286132812, -0.123291015625000, -0.004089355468750, 0.048309326171875, -0.019805908203125, 0.075119018554688, -0.026916503906250, 0.086883544921875, 0.022705078125000, 0.050155639648438, -0.068191528320312, -0.013076782226562, -0.024383544921875, -0.095184326171875, 0.038940429687500, -0.000396728515625, 0.066131591796875, 0.039672851562500, 0.033828735351562, 0.066131591796875, -0.054107666015625, 0.019470214843750, -0.033081054687500, 0.039169311523438, -0.029800415039062, -0.045623779296875, 0.005249023437500, 0.048812866210938, -0.178497314453125, -0.161315917968750, -0.025009155273438, -0.019775390625000, 0.009368896484375, -0.012893676757812, 0.009902954101562, -0.230560302734375, -0.179000854492188, -0.020401000976562, -0.020065307617188, -0.145202636718750, 0.076766967773438, -0.001617431640625, 0.021606445312500, -0.011795043945312, 0.034683227539062, -0.029907226562500, -0.004058837890625, 0.072280883789062, -0.023803710937500, 0.018127441406250, -0.048217773437500, 0.015151977539062, 0.082260131835938, -0.014266967773438, -0.154449462890625, -0.017547607421875, -0.048675537109375, -0.001266479492188, 0.006393432617188, 0.102294921875000, 0.003341674804688, 0.103134155273438, 0.045074462890625, 0.034881591796875, 0.030715942382812, 0.064270019531250, -0.078689575195312, -0.155380249023438, 0.013977050781250, 0.005340576171875, -0.141021728515625, -0.147323608398438, 0.079620361328125, -0.057327270507812, -0.026626586914062, -0.017959594726562, -0.013626098632812, -0.088897705078125, -0.011856079101562, 0.008834838867188, -0.000869750976562, 0.013656616210938, -0.042526245117188, -0.100097656250000, -0.078948974609375}, 
{-0.152511596679688, -0.060882568359375, -0.014617919921875, -0.035278320312500, -0.001190185546875, 0.007904052734375, -0.049789428710938, -0.015899658203125, 0.185592651367188, -0.025329589843750, -0.042251586914062, 0.002777099609375, -0.016540527343750, -0.018035888671875, -0.028106689453125, -0.058868408203125, -0.016876220703125, -0.021697998046875, -0.005722045898438, -0.016601562500000, -0.008773803710938, -0.031768798828125, -0.025527954101562, -0.055694580078125, 0.022354125976562, 0.022735595703125, 0.010848999023438, 0.015106201171875, -0.031906127929688, -0.020248413085938, -0.004592895507812, 0.025543212890625, 0.044158935546875, -0.004028320312500, -0.022201538085938, -0.024780273437500, -0.045913696289062, -0.022933959960938, 0.053634643554688, 0.007781982421875, 0.008773803710938, 0.119506835937500, -0.119277954101562, -0.024856567382812, -0.021011352539062, -0.021163940429688, -0.023391723632812, 0.034240722656250, -0.014419555664062, -0.024948120117188, -0.012649536132812, -0.017074584960938, 0.005081176757812, -0.033447265625000, -0.049743652343750, 0.009521484375000, -0.021499633789062, -0.057678222656250, -0.039260864257812, -0.038513183593750, 0.029006958007812, -0.081344604492188, -0.057586669921875, -0.009140014648438, -0.010986328125000, -0.012374877929688, -0.019775390625000, -0.038925170898438, -0.039184570312500, -0.013381958007812, -0.062301635742188, 0.033218383789062, -0.011169433593750, -0.056900024414062, -0.034927368164062, -0.038726806640625, -0.027801513671875, -0.001037597656250, 0.022293090820312, 0.001815795898438, -0.006393432617188, -0.050415039062500, -0.013122558593750, -0.044433593750000, -0.016143798828125, -0.044296264648438, -0.015731811523438, -0.046264648437500, -0.002258300781250, -0.036361694335938, 0.040222167968750, -0.059204101562500, 0.013671875000000, -0.018585205078125, -0.003555297851562, 0.011581420898438, -0.065994262695312, 0.008056640625000, -0.031723022460938, -0.086532592773438, -0.012832641601562, -0.051132202148438, -0.024734497070312, -0.019470214843750, -0.055480957031250, 0.068084716796875, 0.034591674804688, -0.028945922851562, -0.016067504882812, 0.019577026367188, -0.174880981445312, -0.027160644531250, -0.039840698242188, -0.016143798828125, 0.011505126953125, -0.064773559570312, 0.002578735351562, -0.068405151367188, -0.038711547851562, -0.040771484375000, 0.006423950195312, -0.003540039062500, -0.059417724609375, -0.023437500000000, -0.038482666015625, -0.102645874023438, -0.045257568359375, 0.010635375976562}, 
{0.118682861328125, 0.009628295898438, 0.021575927734375, -0.034225463867188, 0.053543090820312, -0.020980834960938, -0.003433227539062, 0.018783569335938, -0.034118652343750, -0.027542114257812, 0.038665771484375, 0.037521362304688, 0.013137817382812, 0.050231933593750, 0.019973754882812, 0.102645874023438, 0.011642456054688, 0.034988403320312, -0.023727416992188, -0.006118774414062, 0.026473999023438, 0.000900268554688, -0.052154541015625, 0.035568237304688, 0.011337280273438, -0.050521850585938, 0.048797607421875, -0.020919799804688, 0.014877319335938, 0.013671875000000, -0.007110595703125, 0.088211059570312, -0.050323486328125, -0.038330078125000, 0.018264770507812, 0.008148193359375, -0.027801513671875, -0.026138305664062, -0.077255249023438, 0.048965454101562, 0.005493164062500, 0.113388061523438, -0.078948974609375, 0.052261352539062, 0.012130737304688, 0.022857666015625, -0.030380249023438, 0.040908813476562, 0.021026611328125, 0.029083251953125, 0.091201782226562, -0.016891479492188, 0.008529663085938, -0.024902343750000, 0.028747558593750, 0.030349731445312, 0.145339965820312, 0.002868652343750, -0.006729125976562, 0.048965454101562, -0.037002563476562, -0.036743164062500, 0.045425415039062, 0.118270874023438, 0.032073974609375, -0.024353027343750, -0.075485229492188, 0.012115478515625, 0.096023559570312, -0.016479492187500, 0.026031494140625, 0.002304077148438, 0.022796630859375, 0.031250000000000, 0.015579223632812, -0.012954711914062, -0.013259887695312, 0.013702392578125, 0.398162841796875, -0.001770019531250, 0.039108276367188, -0.023468017578125, 0.129547119140625, 0.037002563476562, 0.010238647460938, -0.008468627929688, -0.009765625000000, 0.007568359375000, 0.129074096679688, -0.001205444335938, 0.085250854492188, 0.043121337890625, -0.067092895507812, -0.038360595703125, -0.005920410156250, 0.057418823242188, -0.000350952148438, -0.039016723632812, -0.058242797851562, 0.066162109375000, 0.019424438476562, 0.083724975585938, 0.006103515625000, 0.001144409179688, 0.015121459960938, 0.154174804687500, 0.081207275390625, -0.020736694335938, -0.021759033203125, 0.042205810546875, 0.013900756835938, -0.022781372070312, 0.013107299804688, -0.026550292968750, -0.000915527343750, 0.062591552734375, 0.010528564453125, -0.029968261718750, 0.005386352539062, 0.028320312500000, -0.099594116210938, 0.006790161132812, 0.022613525390625, 0.007492065429688, 0.022109985351562, 0.002227783203125, 0.005355834960938, -0.064285278320312}, 
{0.138488769531250, 0.068283081054688, 0.022766113281250, -0.016479492187500, -0.001907348632812, 0.183578491210938, -0.000518798828125, -0.011001586914062, 0.173416137695312, 0.013092041015625, 0.024185180664062, -0.203338623046875, 0.040573120117188, 0.154022216796875, 0.029342651367188, 0.013839721679688, -0.011154174804688, 0.021041870117188, 0.020614624023438, 0.043365478515625, 0.025314331054688, -0.018341064453125, 0.143539428710938, 0.067199707031250, 0.276535034179688, 0.040222167968750, 0.031890869140625, 0.099609375000000, 0.067016601562500, 0.016769409179688, -0.016540527343750, -0.065963745117188, -0.190185546875000, -0.134048461914062, 0.035980224609375, -0.003295898437500, 0.035156250000000, 0.130645751953125, -0.038711547851562, 0.359573364257812, -0.017044067382812, -0.212234497070312, 0.024322509765625, 0.048980712890625, -0.211517333984375, 0.057952880859375, 0.025695800781250, 0.012756347656250, -0.089538574218750, 0.036376953125000, 0.097076416015625, 0.019210815429688, 0.051223754882812, 0.062927246093750, 0.031982421875000, -0.044601440429688, 0.098648071289062, 0.005386352539062, 0.038589477539062, 0.072631835937500, 0.120697021484375, 0.069366455078125, 0.129074096679688, -0.198989868164062, 0.015762329101562, 0.002395629882812, 0.135528564453125, 0.003265380859375, -0.086120605468750, 0.008041381835938, 0.031875610351562, 0.068359375000000, 0.010955810546875, -0.025222778320312, -0.034194946289062, 0.006423950195312, 0.033828735351562, 0.021591186523438, 0.150787353515625, -0.166412353515625, 0.034652709960938, 0.011489868164062, 0.018341064453125, -0.000747680664062, -0.032165527343750, 0.058181762695312, -0.106201171875000, -0.055343627929688, -0.014450073242188, -0.045593261718750, -0.048278808593750, 0.023712158203125, -0.091323852539062, 0.047180175781250, -0.020629882812500, -0.135223388671875, 0.014953613281250, 0.119888305664062, -0.033081054687500, -0.188690185546875, 0.010848999023438, 0.024307250976562, 0.269927978515625, -0.007446289062500, 0.033676147460938, 0.189758300781250, -0.071258544921875, 0.007308959960938, 0.074142456054688, -0.086822509765625, 0.117233276367188, -0.016921997070312, 0.031524658203125, 0.041305541992188, -0.166107177734375, 0.195129394531250, -0.125900268554688, 0.079376220703125, 0.080307006835938, -0.058822631835938, -0.144714355468750, -0.018585205078125, 0.062484741210938, -0.023834228515625, 0.002655029296875, 0.059432983398438, 0.052642822265625, 0.063522338867188}, 
{-0.126693725585938, -0.035675048828125, 0.048889160156250, -0.000717163085938, -0.036483764648438, -0.040328979492188, -0.005203247070312, 0.031036376953125, 0.004608154296875, 0.022384643554688, 0.028945922851562, -0.082611083984375, 0.018890380859375, 0.108062744140625, 0.020492553710938, 0.029388427734375, -0.001922607421875, 0.008773803710938, -0.009536743164062, 0.030807495117188, 0.001678466796875, -0.001647949218750, 0.076644897460938, 0.028121948242188, 0.169357299804688, 0.043731689453125, 0.098785400390625, 0.027908325195312, 0.050521850585938, -0.011886596679688, 0.055130004882812, -0.118957519531250, 0.090042114257812, 0.017349243164062, 0.091308593750000, 0.007537841796875, 0.009033203125000, 0.104110717773438, -0.032272338867188, -0.010192871093750, -0.034988403320312, -0.042938232421875, 0.092224121093750, 0.005996704101562, -0.049209594726562, 0.019683837890625, 0.030548095703125, 0.066711425781250, 0.027175903320312, -0.010864257812500, 0.067367553710938, 0.027084350585938, 0.006713867187500, 0.106964111328125, 0.007583618164062, -0.028488159179688, 0.165222167968750, 0.067962646484375, -0.020980834960938, -0.042572021484375, -0.014938354492188, 0.025070190429688, 0.028427124023438, 0.012420654296875, 0.049026489257812, 0.064834594726562, -0.020172119140625, 0.046386718750000, -0.039505004882812, -0.010726928710938, 0.037857055664062, 0.038558959960938, -0.009933471679688, 0.023025512695312, 0.030975341796875, 0.011718750000000, 0.022598266601562, 0.032730102539062, 0.051269531250000, 0.016799926757812, 0.159957885742188, 0.005889892578125, 0.042587280273438, -0.048980712890625, -0.051483154296875, 0.006713867187500, -0.012603759765625, -0.039031982421875, 0.037506103515625, -0.027191162109375, 0.040924072265625, 0.014282226562500, 0.002059936523438, -0.079162597656250, 0.008499145507812, -0.046066284179688, 0.019699096679688, 0.033233642578125, -0.007217407226562, -0.066467285156250, 0.007888793945312, 0.009048461914062, 0.117279052734375, -0.000442504882812, 0.044586181640625, -0.100555419921875, 0.040466308593750, 0.012557983398438, 0.045593261718750, 0.043182373046875, 0.077560424804688, 0.029235839843750, 0.044967651367188, 0.023910522460938, 0.018936157226562, 0.067626953125000, 0.019256591796875, 0.038162231445312, -0.046035766601562, -0.017700195312500, -0.011001586914062, -0.000320434570312, -0.010101318359375, 0.005401611328125, -0.014358520507812, -0.031707763671875, 0.077987670898438, 0.055007934570312}, 
{0.305892944335938, 0.004379272460938, 0.069961547851562, 0.030807495117188, 0.179412841796875, 0.290802001953125, 0.068618774414062, -0.015151977539062, 0.246612548828125, 0.017150878906250, 0.029144287109375, -0.007247924804688, 0.022720336914062, 0.232666015625000, -0.024322509765625, 0.163909912109375, -0.033752441406250, 0.025741577148438, -0.032135009765625, 0.038681030273438, 0.013748168945312, -0.012527465820312, 0.192871093750000, 0.180679321289062, 0.109481811523438, 0.151062011718750, 0.086990356445312, -0.006286621093750, 0.047805786132812, -0.055007934570312, -0.017547607421875, 0.002685546875000, 0.140243530273438, -0.146774291992188, 0.072952270507812, -0.012649536132812, 0.009490966796875, 0.220352172851562, 0.055572509765625, 0.167724609375000, -0.001296997070312, 0.005401611328125, 0.068069458007812, -0.007293701171875, 0.100524902343750, 0.025573730468750, 0.150436401367188, 0.091964721679688, -0.093597412109375, 0.073135375976562, 0.009887695312500, 0.011367797851562, 0.019332885742188, -0.019256591796875, 0.015823364257812, -0.026657104492188, 0.241546630859375, 0.034271240234375, 0.021163940429688, -0.044815063476562, 0.050277709960938, -0.004547119140625, 0.023025512695312, 0.042175292968750, 0.028793334960938, -0.024154663085938, 0.105926513671875, -0.094345092773438, 0.132644653320312, 0.030960083007812, 0.022186279296875, 0.006774902343750, -0.019393920898438, 0.022613525390625, -0.020492553710938, 0.013946533203125, -0.006576538085938, 0.011520385742188, 0.293792724609375, 0.067443847656250, 0.139877319335938, 0.017868041992188, 0.071426391601562, -0.048492431640625, -0.003463745117188, 0.019149780273438, 0.143814086914062, -0.137374877929688, 0.117477416992188, -0.004226684570312, 0.153518676757812, -0.042999267578125, 0.001190185546875, 0.065032958984375, 0.031097412109375, -0.091323852539062, 0.034088134765625, 0.177841186523438, -0.097229003906250, 0.067291259765625, 0.014038085937500, 0.133316040039062, 0.169631958007812, 0.015747070312500, -0.094924926757812, 0.069778442382812, -0.176177978515625, -0.026992797851562, -0.003280639648438, 0.086532592773438, 0.246353149414062, -0.039733886718750, 0.007019042968750, 0.026779174804688, 0.069503784179688, 0.110992431640625, 0.017532348632812, 0.049850463867188, -0.014251708984375, 0.009185791015625, -0.026672363281250, 0.013854980468750, 0.153121948242188, -0.028091430664062, 0.006820678710938, -0.030578613281250, -0.015747070312500, 0.013641357421875}, 
{-0.004058837890625, -0.013626098632812, 0.011093139648438, 0.040435791015625, -0.031036376953125, -0.012466430664062, -0.074096679687500, -0.011703491210938, 0.029693603515625, 0.000320434570312, 0.029312133789062, 0.059494018554688, 0.020965576171875, -0.052947998046875, -0.004440307617188, -0.054565429687500, 0.016571044921875, -0.026428222656250, 0.072097778320312, 0.035232543945312, 0.022659301757812, -0.028732299804688, -0.081207275390625, 0.124923706054688, -0.116165161132812, -0.022705078125000, 0.028274536132812, 0.097763061523438, 0.012710571289062, -0.064559936523438, -0.145446777343750, 0.025817871093750, -0.032073974609375, 0.028533935546875, -0.046127319335938, -0.004074096679688, 0.008346557617188, -0.075561523437500, 0.002685546875000, -0.075546264648438, 0.010589599609375, -0.016113281250000, 0.056442260742188, 0.039993286132812, 0.112915039062500, -0.002166748046875, 0.017822265625000, 0.038055419921875, 0.009262084960938, 0.006103515625000, 0.061340332031250, 0.038467407226562, -0.003692626953125, 0.002136230468750, -0.007156372070312, 0.047546386718750, -0.000976562500000, 0.069366455078125, -0.044464111328125, -0.008590698242188, -0.005783081054688, 0.023544311523438, 0.042449951171875, 0.046707153320312, 0.034225463867188, 0.012176513671875, 0.033325195312500, 0.070495605468750, -0.003570556640625, 0.029800415039062, 0.028747558593750, 0.024658203125000, 0.009597778320312, -0.019317626953125, 0.006851196289062, -0.034713745117188, 0.022308349609375, -0.000396728515625, 0.037414550781250, -0.081527709960938, -0.004257202148438, -0.011611938476562, 0.029220581054688, -0.014175415039062, -0.015151977539062, 0.039321899414062, -0.003601074218750, -0.001220703125000, -0.078369140625000, -0.006683349609375, 0.137084960937500, 0.022979736328125, 0.004776000976562, -0.021636962890625, 0.017608642578125, -0.018127441406250, 0.003616333007812, 0.095932006835938, -0.045806884765625, 0.152954101562500, -0.019500732421875, 0.007568359375000, 0.014572143554688, 0.015808105468750, 0.047103881835938, 0.108337402343750, -0.031845092773438, 0.011611938476562, 0.013336181640625, 0.008132934570312, -0.062561035156250, 0.015579223632812, -0.026733398437500, -0.037719726562500, 0.054595947265625, -0.003112792968750, -0.023880004882812, -0.091949462890625, -0.021224975585938, -0.000244140625000, 0.062911987304688, 0.009902954101562, -0.012268066406250, -0.008834838867188, 0.004257202148438, 0.020507812500000, -0.022872924804688, 0.037765502929688}, 
{0.019973754882812, 0.041946411132812, 0.018875122070312, -0.025344848632812, 0.004776000976562, -0.020401000976562, 0.026733398437500, 0.027954101562500, 0.109115600585938, -0.039642333984375, 0.001312255859375, -0.004760742187500, 0.001083374023438, 0.021972656250000, -0.016052246093750, 0.090179443359375, 0.023834228515625, 0.010833740234375, 0.010421752929688, -0.007019042968750, -0.021697998046875, 0.001068115234375, 0.027420043945312, -0.002593994140625, -0.248123168945312, -0.001205444335938, -0.019058227539062, 0.033782958984375, 0.004440307617188, 0.075347900390625, 0.362197875976562, -0.036239624023438, -0.051773071289062, 0.077392578125000, -0.050888061523438, 0.004180908203125, -0.012893676757812, -0.026046752929688, 0.030563354492188, -0.086212158203125, 0.025497436523438, 0.035751342773438, 0.027175903320312, 0.016723632812500, 0.025146484375000, -0.002960205078125, -0.019821166992188, 0.093780517578125, 0.127548217773438, 0.038955688476562, -0.012939453125000, -0.003372192382812, -0.000366210937500, -0.017608642578125, 0.040023803710938, 0.012603759765625, 0.084472656250000, 0.011337280273438, -0.002182006835938, -0.004287719726562, 0.060943603515625, -0.029434204101562, 0.072677612304688, 0.048370361328125, 0.028518676757812, -0.047439575195312, 0.030914306640625, 0.079025268554688, -0.062194824218750, -0.011779785156250, 0.066452026367188, -0.004196166992188, -0.016525268554688, 0.033218383789062, 0.048583984375000, 0.004516601562500, -0.002929687500000, -0.010131835937500, 0.026519775390625, 0.053100585937500, 0.002105712890625, 0.042770385742188, 0.060989379882812, 0.164901733398438, -0.021041870117188, 0.041702270507812, 0.011276245117188, 0.047180175781250, -0.019287109375000, 0.018218994140625, 0.156082153320312, -0.055603027343750, -0.024047851562500, -0.014968872070312, 0.006942749023438, 0.124542236328125, -0.015197753906250, 0.076721191406250, 0.016296386718750, 0.059661865234375, -0.000274658203125, 0.031921386718750, -0.045944213867188, 0.007522583007812, -0.081649780273438, 0.148498535156250, 0.149139404296875, 0.018859863281250, -0.025680541992188, 0.104751586914062, 0.022644042968750, -0.049453735351562, -0.000244140625000, -0.052566528320312, 0.026779174804688, -0.143325805664062, 0.078063964843750, -0.072982788085938, 0.033401489257812, -0.022537231445312, 0.033508300781250, 0.007476806640625, 0.101013183593750, -0.025054931640625, 0.002075195312500, 0.041839599609375, -0.039215087890625, -0.010406494140625}, 
{0.093276977539062, 0.053649902343750, 0.085937500000000, -0.015945434570312, 0.018569946289062, 0.102279663085938, 0.012374877929688, -0.017730712890625, -0.082550048828125, 0.013458251953125, 0.044433593750000, -0.131668090820312, 0.027557373046875, 0.101898193359375, 0.004287719726562, 0.133209228515625, 0.015426635742188, 0.007843017578125, -0.004074096679688, 0.043106079101562, 0.033370971679688, 0.031387329101562, 0.039276123046875, 0.066772460937500, 0.079833984375000, 0.016738891601562, 0.048599243164062, 0.073486328125000, -0.025405883789062, -0.016555786132812, 0.034469604492188, -0.007064819335938, -0.111190795898438, 0.020584106445312, 0.008514404296875, 0.014343261718750, 0.023635864257812, 0.043533325195312, -0.067291259765625, 0.125167846679688, -0.020156860351562, -0.118606567382812, 0.035156250000000, 0.011016845703125, -0.010711669921875, 0.043273925781250, -0.008132934570312, 0.046585083007812, -0.024291992187500, -0.003982543945312, 0.066375732421875, 0.029510498046875, 0.021316528320312, -0.050949096679688, -0.037231445312500, 0.015869140625000, 0.078964233398438, -0.066558837890625, 0.015792846679688, 0.002410888671875, -0.026901245117188, 0.025573730468750, -0.002441406250000, -0.279724121093750, -0.000503540039062, -0.051269531250000, 0.001129150390625, -0.044815063476562, 0.171691894531250, 0.021362304687500, 0.056381225585938, -0.057571411132812, 0.054321289062500, 0.028854370117188, -0.012634277343750, 0.026290893554688, -0.016128540039062, 0.009567260742188, 0.039993286132812, -0.001922607421875, 0.041442871093750, -0.008514404296875, -0.005874633789062, 0.002883911132812, -0.028793334960938, 0.061325073242188, -0.119735717773438, -0.070297241210938, -0.105392456054688, 0.009231567382812, 0.067932128906250, 0.023635864257812, -0.053222656250000, 0.011199951171875, 0.042144775390625, -0.104919433593750, 0.059921264648438, 0.008529663085938, 0.062789916992188, -0.160980224609375, 0.003265380859375, 0.005599975585938, -0.068145751953125, -0.013732910156250, -0.045013427734375, -0.048095703125000, -0.123519897460938, 0.034271240234375, -0.019073486328125, -0.146957397460938, 0.077377319335938, 0.040237426757812, 0.002395629882812, -0.051177978515625, -0.066665649414062, 0.127563476562500, -0.141189575195312, 0.008300781250000, -0.029083251953125, -0.033966064453125, -0.124755859375000, 0.010574340820312, -0.073318481445312, 0.019561767578125, -0.043090820312500, 0.034637451171875, 0.012527465820312, 0.026168823242188}, 
{-0.225997924804688, 0.021743774414062, -0.044113159179688, -0.043014526367188, -0.075607299804688, -0.004150390625000, -0.036209106445312, -0.048370361328125, -0.139846801757812, -0.047729492187500, -0.062042236328125, 0.051864624023438, -0.004135131835938, -0.007537841796875, -0.048934936523438, -0.003845214843750, -0.030456542968750, -0.050857543945312, -0.000183105468750, -0.003494262695312, 0.005493164062500, -0.035446166992188, 0.159713745117188, -0.039672851562500, 0.093338012695312, -0.113906860351562, -0.047088623046875, -0.081436157226562, -0.026885986328125, -0.008880615234375, -0.062530517578125, -0.034820556640625, 0.079910278320312, -0.012191772460938, 0.024398803710938, -0.056488037109375, -0.007522583007812, -0.067886352539062, 0.033889770507812, -0.009094238281250, 0.024398803710938, 0.082626342773438, 0.008148193359375, -0.011764526367188, -0.107269287109375, -0.001480102539062, -0.042938232421875, 0.014419555664062, -0.005798339843750, -0.067474365234375, 0.006759643554688, -0.030075073242188, -0.006149291992188, 0.010559082031250, -0.026290893554688, -0.006439208984375, -0.082321166992188, -0.037078857421875, 0.007858276367188, -0.057678222656250, 0.045059204101562, -0.060562133789062, -0.005844116210938, -0.027862548828125, -0.034072875976562, -0.052963256835938, -0.143844604492188, -0.008392333984375, -0.152847290039062, -0.025680541992188, -0.011550903320312, -0.012954711914062, -0.111602783203125, -0.023818969726562, -0.027938842773438, -0.009841918945312, -0.039810180664062, 0.003173828125000, -0.090026855468750, 0.001800537109375, 0.002334594726562, -0.047912597656250, 0.062286376953125, -0.039840698242188, 0.007278442382812, -0.018203735351562, -0.043060302734375, -0.089141845703125, -0.096710205078125, -0.009262084960938, 0.120391845703125, 0.001739501953125, 0.008346557617188, -0.037261962890625, 0.007034301757812, -0.008270263671875, -0.036193847656250, 0.075897216796875, -0.071640014648438, 0.134445190429688, -0.011489868164062, -0.024765014648438, -0.028396606445312, -0.029006958007812, -0.054855346679688, -0.073135375976562, -0.040084838867188, 0.002014160156250, -0.014144897460938, 0.043212890625000, 0.012710571289062, -0.005569458007812, -0.031509399414062, 0.045364379882812, -0.059219360351562, -0.068939208984375, -0.011306762695312, -0.057815551757812, -0.021041870117188, -0.053680419921875, -0.020599365234375, -0.026596069335938, -0.051269531250000, -0.029205322265625, -0.026992797851562, 0.000701904296875, -0.022979736328125, -0.074905395507812}, 
{0.076019287109375, -0.039962768554688, -0.035507202148438, -0.077957153320312, -0.052947998046875, 0.135894775390625, -0.026153564453125, -0.026092529296875, 0.310653686523438, -0.038986206054688, 0.001403808593750, 0.032379150390625, -0.011688232421875, -0.005569458007812, -0.032302856445312, 0.027359008789062, -0.037033081054688, -0.060256958007812, 0.018692016601562, 0.014144897460938, -0.008041381835938, -0.027328491210938, 0.024185180664062, -0.037231445312500, 0.000183105468750, 0.081863403320312, -0.015594482421875, 0.089675903320312, -0.044464111328125, -0.029388427734375, 0.023620605468750, -0.060882568359375, 0.054519653320312, -0.027816772460938, -0.119659423828125, -0.043014526367188, -0.021133422851562, 0.056167602539062, -0.013565063476562, -0.111572265625000, -0.013778686523438, 0.079223632812500, -0.037796020507812, -0.000885009765625, 0.067153930664062, 0.007003784179688, 0.000030517578125, -0.043106079101562, 0.019943237304688, -0.033020019531250, 0.012466430664062, -0.070663452148438, -0.000488281250000, -0.054870605468750, -0.052139282226562, 0.024765014648438, 0.094512939453125, -0.015945434570312, -0.033981323242188, 0.055892944335938, -0.073364257812500, 0.003921508789062, 0.033432006835938, -0.109481811523438, -0.000854492187500, -0.026153564453125, 0.010818481445312, -0.017486572265625, 0.177413940429688, 0.020843505859375, -0.040176391601562, 0.062957763671875, -0.039886474609375, -0.008850097656250, 0.003158569335938, -0.037872314453125, -0.065048217773438, 0.003753662109375, 0.054779052734375, -0.008590698242188, -0.059539794921875, 0.004348754882812, 0.056289672851562, -0.011505126953125, 0.002700805664062, 0.035552978515625, 0.060928344726562, -0.056869506835938, 0.137008666992188, -0.008056640625000, 0.033111572265625, 0.015213012695312, 0.040435791015625, 0.058685302734375, -0.000091552734375, -0.007141113281250, -0.005432128906250, -0.001785278320312, -0.089263916015625, -0.043548583984375, -0.001571655273438, 0.046157836914062, 0.035858154296875, -0.020462036132812, 0.024856567382812, 0.125732421875000, 0.035919189453125, -0.021392822265625, -0.036788940429688, 0.041336059570312, 0.006881713867188, -0.035430908203125, -0.044509887695312, 0.033523559570312, -0.036117553710938, -0.029556274414062, 0.081832885742188, -0.053314208984375, -0.073455810546875, -0.042648315429688, -0.077499389648438, -0.021163940429688, -0.062942504882812, -0.023696899414062, -0.059219360351562, -0.031661987304688, -0.026123046875000, -0.089324951171875}, 
{-0.040664672851562, -0.029785156250000, -0.009231567382812, 0.029876708984375, -0.093307495117188, -0.002426147460938, -0.020523071289062, -0.026199340820312, 0.083816528320312, -0.013153076171875, 0.013687133789062, -0.046875000000000, -0.009643554687500, 0.115676879882812, -0.029541015625000, -0.032165527343750, -0.006652832031250, 0.013076782226562, 0.005065917968750, 0.038055419921875, 0.019866943359375, -0.036544799804688, 0.052658081054688, 0.045608520507812, 0.224395751953125, 0.051223754882812, 0.018417358398438, 0.124984741210938, 0.002410888671875, -0.010223388671875, 0.006301879882812, -0.070220947265625, -0.049072265625000, -0.022491455078125, 0.018981933593750, 0.006698608398438, -0.028060913085938, 0.095565795898438, -0.053863525390625, -0.079254150390625, -0.030746459960938, 0.057144165039062, 0.113220214843750, -0.041412353515625, -0.041061401367188, 0.039260864257812, 0.007400512695312, 0.025238037109375, 0.005371093750000, 0.001831054687500, 0.008285522460938, -0.013153076171875, 0.041122436523438, -0.019088745117188, -0.048339843750000, -0.046875000000000, 0.018402099609375, -0.048751831054688, -0.017562866210938, -0.036315917968750, 0.025543212890625, 0.030548095703125, -0.014968872070312, 0.044189453125000, -0.003768920898438, 0.019592285156250, 0.034683227539062, -0.006866455078125, -0.069885253906250, -0.032272338867188, -0.016616821289062, -0.018753051757812, -0.065856933593750, -0.006546020507812, -0.009963989257812, -0.076004028320312, -0.048126220703125, 0.015853881835938, 0.013107299804688, 0.034561157226562, 0.003875732421875, -0.068634033203125, 0.050292968750000, -0.003082275390625, 0.005264282226562, -0.012405395507812, -0.000717163085938, -0.029571533203125, 0.003036499023438, -0.038482666015625, -0.023605346679688, -0.005218505859375, 0.039062500000000, -0.073699951171875, -0.006790161132812, -0.093597412109375, -0.010803222656250, 0.039627075195312, -0.025146484375000, 0.076309204101562, -0.008010864257812, -0.033020019531250, -0.013427734375000, -0.030960083007812, -0.089477539062500, -0.118377685546875, -0.094909667968750, 0.011215209960938, -0.007949829101562, -0.080383300781250, 0.094223022460938, -0.017974853515625, -0.005462646484375, -0.018127441406250, 0.108978271484375, -0.020935058593750, 0.077301025390625, 0.075393676757812, -0.021545410156250, -0.027374267578125, -0.092773437500000, -0.014877319335938, -0.011154174804688, -0.009063720703125, -0.023880004882812, -0.018402099609375, -0.008056640625000, -0.033294677734375}, 
{0.102828979492188, -0.028915405273438, -0.003631591796875, -0.022598266601562, 0.081008911132812, -0.075393676757812, 0.050598144531250, -0.016067504882812, -0.118820190429688, -0.006118774414062, -0.006332397460938, 0.094467163085938, -0.020202636718750, -0.314559936523438, -0.056091308593750, -0.119903564453125, 0.038894653320312, -0.067565917968750, -0.124420166015625, 0.014389038085938, 0.020401000976562, 0.001831054687500, -0.191864013671875, -0.019149780273438, -0.137771606445312, -0.017959594726562, 0.023895263671875, -0.193588256835938, -0.023254394531250, -0.046905517578125, -0.034255981445312, 0.069229125976562, -0.050109863281250, 0.011886596679688, -0.124191284179688, 0.037445068359375, -0.011093139648438, -0.259140014648438, 0.003662109375000, 0.100296020507812, -0.000488281250000, -0.071212768554688, 0.012008666992188, -0.001434326171875, -0.084701538085938, -0.001632690429688, -0.115844726562500, -0.007415771484375, -0.013793945312500, -0.018127441406250, 0.041732788085938, 0.011932373046875, 0.043121337890625, -0.070159912109375, 0.010147094726562, 0.130645751953125, -0.205474853515625, 0.034149169921875, -0.049652099609375, 0.038406372070312, -0.019470214843750, -0.029815673828125, -0.028732299804688, 0.025527954101562, 0.005020141601562, -0.046218872070312, -0.097183227539062, -0.096359252929688, -0.258636474609375, 0.023925781250000, 0.012145996093750, -0.040069580078125, -0.090515136718750, 0.001510620117188, -0.030273437500000, 0.028106689453125, -0.017669677734375, -0.007125854492188, 0.033828735351562, -0.108428955078125, -0.029403686523438, 0.015457153320312, -0.063812255859375, 0.013687133789062, -0.024200439453125, 0.000457763671875, -0.034454345703125, -0.036453247070312, -0.048370361328125, 0.004196166992188, 0.011474609375000, -0.043609619140625, 0.007141113281250, -0.033279418945312, -0.002822875976562, -0.030715942382812, 0.029785156250000, -0.315780639648438, 0.088546752929688, -0.027221679687500, -0.004623413085938, -0.002212524414062, 0.003952026367188, -0.002258300781250, 0.028869628906250, 0.156204223632812, -0.014221191406250, -0.014358520507812, 0.022628784179688, 0.118194580078125, -0.087493896484375, -0.002273559570312, -0.019653320312500, -0.079437255859375, 0.062728881835938, -0.109161376953125, 0.036041259765625, -0.070465087890625, -0.032653808593750, -0.015197753906250, 0.016983032226562, -0.025024414062500, -0.014190673828125, -0.003158569335938, 0.020828247070312, -0.000183105468750, -0.004348754882812, -0.112976074218750}, 
{0.414001464843750, 0.027648925781250, -0.024642944335938, 0.021179199218750, -0.002349853515625, 0.054244995117188, -0.020370483398438, 0.013458251953125, 0.099777221679688, -0.046112060546875, 0.021835327148438, -0.006820678710938, 0.051116943359375, -0.055023193359375, -0.022644042968750, 0.171859741210938, 0.017211914062500, -0.028762817382812, 0.040969848632812, 0.033782958984375, 0.007308959960938, -0.001892089843750, 0.046722412109375, 0.130477905273438, -0.062591552734375, 0.032272338867188, 0.090682983398438, 0.015563964843750, -0.040695190429688, 0.023696899414062, 0.041412353515625, 0.018798828125000, 0.006790161132812, -0.013565063476562, 0.024612426757812, 0.003707885742188, -0.003982543945312, 0.037979125976562, 0.120498657226562, -0.030410766601562, -0.007705688476562, 0.085784912109375, 0.021026611328125, 0.018814086914062, 0.017013549804688, 0.002471923828125, -0.008972167968750, 0.068527221679688, 0.046447753906250, 0.031204223632812, 0.068359375000000, -0.010177612304688, 0.008758544921875, 0.005599975585938, 0.019241333007812, 0.037063598632812, -0.074188232421875, 0.040206909179688, 0.027801513671875, 0.012985229492188, 0.031646728515625, -0.021560668945312, 0.045837402343750, 0.121353149414062, 0.004516601562500, 0.000915527343750, 0.003890991210938, 0.062026977539062, 0.226150512695312, -0.041839599609375, 0.055206298828125, -0.006149291992188, -0.104858398437500, 0.048309326171875, -0.008621215820312, 0.014587402343750, -0.002243041992188, -0.001434326171875, 0.519500732421875, 0.027938842773438, 0.126892089843750, -0.018341064453125, 0.061752319335938, 0.110687255859375, -0.053375244140625, 0.032775878906250, 0.113449096679688, 0.017181396484375, 0.080307006835938, -0.006790161132812, 0.046432495117188, -0.005355834960938, 0.013839721679688, 0.051391601562500, 0.005142211914062, 0.044723510742188, 0.031585693359375, -0.163955688476562, -0.084808349609375, 0.055664062500000, 0.019042968750000, 0.155441284179688, 0.071685791015625, 0.021377563476562, 0.020431518554688, 0.197448730468750, 0.031692504882812, 0.016281127929688, -0.009658813476562, 0.012329101562500, 0.058059692382812, 0.010620117187500, 0.016571044921875, -0.061172485351562, 0.014251708984375, 0.012542724609375, 0.082046508789062, -0.010070800781250, -0.018157958984375, 0.007812500000000, 0.000396728515625, 0.007537841796875, 0.009933471679688, 0.000122070312500, 0.036956787109375, -0.011764526367188, 0.012451171875000, -0.036087036132812}, 
{0.247406005859375, 0.098098754882812, 0.051940917968750, -0.065856933593750, 0.068572998046875, 0.147644042968750, 0.014343261718750, -0.016204833984375, 0.243896484375000, 0.004699707031250, 0.087814331054688, -0.112319946289062, 0.003936767578125, 0.215652465820312, 0.100662231445312, 0.146270751953125, -0.018981933593750, -0.011032104492188, 0.096862792968750, 0.028121948242188, 0.007125854492188, -0.028839111328125, 0.246353149414062, 0.125869750976562, 0.064651489257812, 0.183380126953125, 0.046615600585938, 0.059921264648438, 0.047286987304688, 0.039108276367188, 0.005142211914062, -0.408782958984375, -0.620040893554688, -0.248764038085938, 0.075622558593750, -0.034790039062500, 0.046569824218750, 0.172546386718750, -0.466079711914062, 0.121093750000000, -0.129531860351562, -0.508331298828125, 0.133026123046875, 0.015640258789062, -0.536743164062500, 0.006713867187500, 0.014968872070312, -0.090072631835938, -0.019577026367188, -0.327682495117188, 0.060699462890625, 0.012939453125000, 0.036895751953125, -0.040557861328125, 0.041168212890625, -0.089447021484375, 0.249481201171875, -0.102844238281250, 0.146667480468750, 0.123641967773438, 0.202102661132812, 0.029464721679688, 0.095260620117188, -0.603851318359375, 0.031433105468750, -0.016738891601562, 0.205154418945312, 0.052749633789062, 0.140335083007812, 0.035842895507812, 0.062927246093750, -0.476852416992188, -0.019805908203125, -0.004974365234375, 0.004333496093750, 0.065643310546875, -0.008148193359375, -0.000274658203125, 0.220687866210938, -0.708023071289062, 0.138626098632812, 0.028091430664062, 0.097839355468750, 0.048965454101562, -0.012496948242188, 0.068038940429688, -0.560531616210938, -0.085357666015625, 0.079284667968750, -0.098724365234375, -0.287658691406250, -0.047607421875000, -0.024703979492188, 0.054489135742188, -0.016998291015625, -0.098724365234375, -0.002258300781250, 0.076477050781250, -0.007843017578125, -0.694641113281250, 0.010650634765625, 0.127929687500000, 0.219604492187500, 0.008468627929688, 0.115875244140625, 0.246414184570312, -0.234252929687500, -0.002044677734375, 0.053054809570312, -0.368484497070312, 0.086669921875000, -0.074020385742188, 0.021255493164062, 0.072631835937500, -0.459960937500000, 0.146362304687500, -0.463287353515625, 0.079483032226562, 0.124938964843750, -0.105590820312500, -0.316497802734375, -0.010009765625000, 0.130477905273438, -0.024917602539062, -0.120132446289062, 0.039413452148438, -0.016357421875000, 0.045059204101562}, 
{-0.551513671875000, -0.017593383789062, -0.006652832031250, -0.113677978515625, -0.125686645507812, -0.142425537109375, -0.071182250976562, -0.039047241210938, -0.163986206054688, -0.025299072265625, 0.017440795898438, 0.076339721679688, -0.010589599609375, -0.161834716796875, -0.106414794921875, -0.072219848632812, -0.022430419921875, -0.036849975585938, -0.071350097656250, -0.063949584960938, -0.010528564453125, -0.042251586914062, -0.080245971679688, -0.045944213867188, -0.063034057617188, 0.050598144531250, -0.043243408203125, 0.004776000976562, -0.082183837890625, 0.004714965820312, 0.000213623046875, 0.003341674804688, -0.141693115234375, 0.074020385742188, -0.097702026367188, -0.038925170898438, -0.024810791015625, -0.126342773437500, 0.000701904296875, -0.228332519531250, -0.054870605468750, -0.139862060546875, -0.031280517578125, -0.010452270507812, -0.116546630859375, -0.009857177734375, -0.004577636718750, -0.038757324218750, 0.058334350585938, -0.069534301757812, 0.023315429687500, -0.043670654296875, 0.016311645507812, -0.055847167968750, -0.047729492187500, 0.005294799804688, 0.034255981445312, 0.034194946289062, -0.027160644531250, 0.110900878906250, 0.007125854492188, -0.054779052734375, -0.031112670898438, -0.132583618164062, -0.051589965820312, -0.065429687500000, -0.036590576171875, -0.002624511718750, -0.306991577148438, -0.110473632812500, -0.010162353515625, 0.053665161132812, -0.053085327148438, -0.023223876953125, -0.008987426757812, -0.012557983398438, -0.017364501953125, 0.008819580078125, -0.127853393554688, -0.075408935546875, -0.021286010742188, -0.017028808593750, -0.006347656250000, 0.046478271484375, 0.001419067382812, -0.010971069335938, -0.054687500000000, 0.036087036132812, -0.089065551757812, -0.024520874023438, -0.007553100585938, -0.077148437500000, -0.013656616210938, -0.018692016601562, 0.001602172851562, 0.093307495117188, -0.023590087890625, 0.073928833007812, -0.069931030273438, -0.080490112304688, 0.004043579101562, -0.084014892578125, -0.124069213867188, -0.046234130859375, 0.004898071289062, -0.182708740234375, -0.011657714843750, -0.019027709960938, 0.025238037109375, 0.024688720703125, -0.071151733398438, -0.033447265625000, -0.015274047851562, -0.004989624023438, 0.073410034179688, -0.083724975585938, -0.044754028320312, -0.029296875000000, -0.041122436523438, -0.035995483398438, -0.072189331054688, -0.013595581054688, -0.076538085937500, -0.037094116210938, -0.022857666015625, 0.027450561523438, -0.240371704101562, -0.010604858398438}, 
{0.202743530273438, 0.001174926757812, -0.011062622070312, -0.056701660156250, -0.012420654296875, -0.018417358398438, 0.013320922851562, -0.020309448242188, 0.695816040039062, -0.013992309570312, 0.035293579101562, 0.091674804687500, -0.007507324218750, -0.079269409179688, -0.000595092773438, 0.168060302734375, -0.028594970703125, -0.025207519531250, -0.003921508789062, -0.029464721679688, 0.013793945312500, -0.014160156250000, 0.036422729492188, 0.045700073242188, -0.048202514648438, 0.108947753906250, 0.013732910156250, 0.016754150390625, -0.058578491210938, 0.017074584960938, -0.065261840820312, 0.007232666015625, 0.106552124023438, 0.121368408203125, 0.003112792968750, -0.036941528320312, -0.026336669921875, -0.012039184570312, 0.087249755859375, 0.052200317382812, -0.074859619140625, 0.060348510742188, -0.018981933593750, -0.023803710937500, 0.136016845703125, 0.022827148437500, 0.128768920898438, 0.018722534179688, 0.013381958007812, 0.063827514648438, 0.018386840820312, -0.028045654296875, 0.000305175781250, -0.026306152343750, 0.006683349609375, 0.018890380859375, -0.085891723632812, 0.032546997070312, -0.081314086914062, -0.081558227539062, -0.063323974609375, -0.036773681640625, -0.014236450195312, 0.059509277343750, -0.033081054687500, -0.001052856445312, -0.033645629882812, -0.029235839843750, 0.225967407226562, 0.030685424804688, -0.016204833984375, 0.096298217773438, -0.055709838867188, -0.066040039062500, -0.005996704101562, -0.038208007812500, -0.040222167968750, 0.013824462890625, 0.003005981445312, 0.040649414062500, 0.012405395507812, -0.021453857421875, -0.003631591796875, -0.032379150390625, 0.027801513671875, 0.001937866210938, 0.043563842773438, -0.049423217773438, 0.173141479492188, -0.024627685546875, 0.054306030273438, -0.072631835937500, 0.050384521484375, -0.026168823242188, -0.012084960937500, -0.048019409179688, -0.050674438476562, -0.085922241210938, -0.008483886718750, 0.089691162109375, -0.009185791015625, 0.055938720703125, 0.010833740234375, -0.020874023437500, -0.004699707031250, 0.429824829101562, -0.075576782226562, 0.027496337890625, -0.027374267578125, -0.060607910156250, 0.036453247070312, 0.023162841796875, -0.020034790039062, 0.009414672851562, -0.041198730468750, -0.089447021484375, 0.116119384765625, -0.029983520507812, -0.054916381835938, -0.020812988281250, 0.009414672851562, -0.026412963867188, -0.051925659179688, -0.024948120117188, -0.087432861328125, -0.057723999023438, -0.117858886718750, -0.012603759765625}, 
