//Numpy array shape [3, 3, 32, 64]
//Min -0.692184448242
//Max 0.828628540039
//Number of zeros 0

#ifndef W48_H_
#define W48_H_

#ifndef __SYNTHESIS__
weight48_t w48[18432];
#else
weight48_t w48[18432] = {0.017303466796875, 0.003311157226562, 0.033569335937500, 0.059844970703125, -0.000610351562500, -0.038772583007812, -0.012771606445312, 0.041366577148438, 0.021820068359375, 0.001464843750000, 0.004440307617188, 0.034362792968750, -0.057022094726562, -0.013961791992188, 0.017684936523438, -0.010711669921875, -0.027999877929688, 0.057891845703125, 0.019866943359375, -0.001068115234375, -0.012435913085938, 0.019699096679688, -0.005432128906250, 0.027389526367188, 0.021850585937500, 0.007934570312500, 0.028747558593750, -0.000274658203125, 0.019515991210938, -0.013717651367188, -0.012329101562500, -0.031723022460938, -0.013259887695312, -0.034317016601562, -0.035202026367188, -0.010787963867188, -0.027923583984375, -0.052856445312500, -0.023529052734375, 0.007369995117188, 0.009399414062500, 0.029464721679688, -0.011901855468750, -0.002899169921875, -0.084960937500000, -0.030258178710938, -0.003448486328125, -0.051895141601562, -0.030059814453125, 0.041870117187500, 0.020431518554688, 0.010696411132812, -0.001235961914062, 0.008193969726562, -0.027587890625000, 0.012298583984375, 0.010406494140625, 0.040390014648438, 0.008316040039062, -0.077575683593750, -0.015396118164062, -0.058425903320312, -0.002716064453125, -0.020187377929688, -0.030532836914062, -0.030593872070312, -0.034729003906250, -0.027328491210938, 0.004592895507812, -0.052337646484375, -0.009246826171875, 0.003601074218750, 0.032226562500000, 0.032272338867188, -0.030593872070312, -0.025558471679688, -0.006057739257812, -0.032165527343750, 0.005630493164062, -0.018630981445312, -0.023376464843750, 0.031311035156250, 0.000808715820312, 0.003524780273438, 0.017776489257812, 0.018371582031250, -0.013336181640625, 0.037109375000000, 0.026184082031250, -0.001754760742188, -0.031402587890625, -0.013671875000000, -0.029388427734375, -0.052093505859375, -0.014358520507812, -0.057479858398438, -0.018875122070312, 0.021896362304688, 0.042846679687500, 0.011367797851562, -0.017379760742188, -0.044998168945312, 0.005767822265625, 0.005783081054688, 0.011398315429688, -0.051269531250000, 0.009414672851562, 0.022720336914062, 0.003479003906250, 0.022537231445312, -0.015243530273438, -0.010635375976562, -0.041168212890625, 0.013366699218750, -0.008972167968750, 0.003692626953125, 0.005401611328125, -0.020904541015625, 0.011825561523438, 0.019927978515625, 0.024520874023438, 0.014343261718750, 0.040420532226562, -0.036941528320312, 0.006149291992188, -0.029663085937500, 0.020690917968750, -0.028701782226562, 0.020278930664062, -0.060241699218750, 0.006072998046875, 0.022933959960938, -0.045425415039062, -0.057052612304688, 0.020111083984375, -0.010833740234375, -0.007965087890625, 0.020111083984375, 0.009933471679688, 0.002288818359375, -0.089431762695312, 0.004287719726562, -0.045623779296875, -0.064117431640625, -0.029830932617188, -0.001983642578125, 0.007873535156250, -0.013488769531250, 0.003616333007812, 0.005798339843750, -0.032775878906250, 0.020401000976562, -0.017333984375000, 0.026748657226562, 0.010314941406250, -0.079421997070312, -0.001861572265625, -0.027130126953125, 0.046142578125000, -0.009613037109375, -0.033401489257812, -0.041336059570312, -0.030487060546875, -0.016418457031250, -0.008392333984375, -0.068069458007812, 0.033065795898438, 0.011322021484375, 0.012374877929688, 0.028228759765625, 0.002059936523438, -0.026062011718750, 0.009750366210938, 0.035278320312500, 0.003723144531250, -0.014312744140625, -0.050216674804688, -0.003204345703125, 0.008712768554688, -0.014892578125000, 0.018936157226562, 0.014526367187500, 0.008438110351562, 0.029724121093750, -0.011810302734375, 0.044952392578125, -0.030181884765625, -0.018600463867188, 0.003189086914062, -0.018035888671875, 0.027618408203125, -0.015975952148438, -0.009765625000000, -0.018325805664062, -0.024398803710938, -0.009078979492188, 0.000289916992188, 0.001541137695312, -0.026809692382812, -0.010513305664062, -0.004562377929688, -0.019119262695312, -0.020904541015625, 0.001770019531250, 0.016387939453125, 0.014526367187500, -0.016052246093750, -0.000610351562500, -0.030853271484375, -0.013504028320312, 0.033813476562500, 0.044021606445312, -0.036987304687500, -0.039627075195312, -0.004669189453125, 0.022308349609375, 0.000778198242188, 0.024597167968750, 0.019775390625000, 0.003112792968750, -0.013366699218750, -0.023834228515625, -0.007049560546875, 0.011306762695312, 0.003005981445312, -0.033325195312500, 0.014099121093750, -0.011230468750000, -0.012084960937500, -0.025802612304688, -0.029830932617188, -0.017715454101562, 0.000915527343750, 0.010635375976562, 0.004714965820312, 0.033065795898438, 0.002883911132812, -0.009140014648438, -0.005554199218750, -0.032073974609375, -0.036666870117188, -0.023727416992188, 0.016647338867188, -0.004425048828125, -0.003875732421875, -0.020462036132812, -0.002426147460938, -0.051513671875000, 0.007888793945312, 0.003601074218750, 0.018051147460938, -0.000213623046875, -0.015029907226562, -0.035232543945312, -0.026092529296875, 0.007629394531250, 0.005950927734375, -0.000061035156250, 0.039154052734375, -0.030792236328125, 0.010238647460938, 0.001022338867188, -0.032821655273438, -0.008148193359375, 0.002929687500000, 0.000961303710938, 0.002929687500000, 0.019622802734375, -0.007003784179688, -0.019943237304688, 0.011795043945312, 0.000427246093750, -0.052642822265625, 0.011749267578125, 0.031585693359375, -0.024978637695312, 0.010101318359375, -0.004180908203125, -0.001266479492188, -0.009353637695312, -0.000488281250000, -0.001724243164062, 0.000305175781250, 0.002548217773438, -0.003295898437500, -0.050872802734375, -0.009445190429688, -0.011886596679688, 0.006271362304688, 0.001266479492188, -0.005187988281250, 0.061126708984375, 0.012008666992188, -0.041687011718750, -0.017578125000000, 0.027175903320312, 0.015884399414062, 0.042297363281250, -0.047821044921875, -0.009674072265625, -0.037734985351562, -0.008789062500000, 0.002853393554688, 0.000183105468750, -0.059844970703125, 0.074447631835938, 0.030166625976562, -0.016082763671875, 0.000900268554688, 0.035797119140625, 0.005767822265625, -0.018142700195312, 0.008621215820312, 0.061630249023438, -0.008529663085938, -0.020614624023438, -0.011703491210938, -0.043884277343750, 0.007720947265625, -0.057586669921875, -0.004013061523438, -0.027206420898438, -0.030380249023438, 0.003570556640625, -0.001327514648438, -0.046783447265625, -0.004699707031250, 0.012054443359375, 0.003005981445312, 0.033309936523438, -0.048568725585938, -0.014144897460938, -0.017471313476562, -0.023818969726562, -0.008972167968750, -0.001831054687500, -0.045562744140625, 0.068176269531250, 0.020874023437500, 0.020202636718750, 0.027832031250000, 0.039337158203125, -0.004394531250000, -0.004531860351562, -0.003479003906250, 0.000991821289062, -0.005508422851562, -0.009994506835938, -0.018051147460938, -0.039901733398438, 0.015396118164062, -0.043182373046875, -0.019943237304688, -0.005050659179688, -0.032653808593750, 0.024291992187500, -0.000793457031250, -0.054779052734375, -0.003067016601562, 0.026855468750000, 0.033798217773438, 0.010101318359375, -0.058883666992188, 0.004638671875000, -0.019378662109375, -0.010528564453125, -0.012298583984375, -0.007995605468750, -0.078430175781250, 0.035659790039062, 0.005416870117188, 0.024063110351562, -0.008529663085938, 0.007659912109375, -0.038345336914062, 0.026321411132812, -0.007141113281250, 0.002639770507812, 0.015228271484375, 0.001266479492188, -0.010482788085938, -0.055145263671875, -0.015777587890625, -0.068695068359375, -0.005325317382812, -0.004425048828125, 0.003631591796875, 0.053466796875000, -0.026489257812500, -0.045989990234375, -0.002624511718750, 0.015686035156250, 0.014892578125000, -0.058486938476562, -0.015533447265625, 0.000900268554688, -0.013412475585938, -0.016876220703125, -0.033584594726562, -0.036376953125000, -0.072662353515625, 0.007308959960938, 0.023971557617188, 0.015151977539062, -0.029418945312500, -0.006713867187500, -0.020370483398438, -0.000167846679688, -0.013381958007812, 0.047866821289062, -0.002075195312500, -0.041671752929688, -0.031539916992188, -0.035308837890625, 0.025039672851562, -0.026931762695312, -0.003631591796875, -0.036346435546875, 0.008850097656250, 0.005950927734375, -0.041610717773438, -0.075729370117188, -0.004684448242188, -0.003585815429688, -0.018859863281250, -0.009445190429688, -0.033691406250000, 0.004714965820312, -0.035339355468750, 0.012695312500000, -0.012344360351562, -0.021163940429688, -0.034072875976562, 0.002334594726562, 0.018295288085938, -0.003067016601562, 0.019073486328125, 0.019622802734375, -0.013214111328125, 0.016525268554688, -0.004089355468750, 0.013397216796875, -0.018203735351562, -0.042129516601562, -0.007095336914062, -0.030242919921875, 0.031158447265625, -0.048706054687500, -0.010955810546875, 0.008270263671875, 0.000732421875000, 0.021286010742188, -0.019729614257812, -0.059997558593750, -0.006851196289062, 0.021179199218750, 0.027053833007812, 0.016601562500000, -0.012481689453125, -0.010055541992188, -0.009536743164062, 0.005798339843750, 0.001480102539062, 0.005676269531250, -0.055480957031250, 0.011520385742188, -0.003662109375000, 0.013168334960938, -0.016632080078125, -0.004211425781250, 0.015762329101562, 0.046386718750000, -0.011596679687500, 0.021270751953125, -0.013671875000000, -0.000442504882812, -0.005889892578125, -0.044815063476562, 0.007156372070312, -0.054092407226562, 0.017379760742188, -0.021987915039062, -0.023086547851562, 0.037368774414062, -0.009567260742188, -0.044509887695312, -0.013732910156250, 0.001144409179688, 0.019195556640625, 0.012710571289062, -0.036224365234375, -0.005783081054688, -0.007217407226562, -0.012435913085938, -0.018569946289062, -0.003280639648438, -0.049484252929688, 0.007644653320312, 0.033935546875000, 0.024032592773438, -0.035491943359375, -0.032897949218750, -0.005905151367188, -0.004577636718750, -0.001846313476562, 0.014083862304688, -0.009613037109375, -0.016952514648438, 0.006652832031250, -0.038040161132812, 0.005554199218750, -0.025070190429688, -0.007217407226562, 0.002075195312500, 0.017852783203125, 0.007614135742188, 0.009368896484375, -0.035354614257812, -0.031631469726562, 0.018493652343750, 0.036926269531250, 0.009414672851562, -0.017501831054688, 0.015151977539062, -0.026565551757812, -0.027328491210938, 0.003204345703125, -0.005645751953125, -0.026214599609375, 0.034851074218750, 0.043014526367188, 0.002624511718750, -0.016006469726562, -0.010101318359375, 0.001602172851562, 0.007369995117188, 0.017089843750000, -0.021301269531250, -0.014816284179688, -0.016052246093750, -0.008850097656250, -0.033981323242188, -0.010498046875000, -0.030426025390625, -0.005859375000000, -0.031005859375000, 0.025711059570312, 0.017654418945312, 0.002197265625000, -0.025924682617188, -0.045257568359375, 0.012847900390625, 0.024581909179688, 0.024673461914062, -0.025360107421875, 0.016769409179688, 0.000595092773438, -0.043106079101562, 0.005828857421875, 0.003814697265625, -0.033859252929688, 0.038162231445312, 0.008865356445312, -0.015426635742188, 0.017471313476562, -0.001144409179688, 0.031112670898438, 0.018280029296875, 0.014297485351562, 0.038742065429688, -0.014221191406250, -0.004806518554688, -0.009384155273438, -0.021224975585938, -0.032669067382812, -0.046752929687500, -0.083251953125000, -0.021240234375000, -0.052139282226562, 0.048950195312500, -0.064147949218750, -0.162734985351562, -0.030517578125000, 0.000579833984375, 0.156112670898438, 0.145248413085938, 0.012481689453125, -0.041702270507812, -0.050674438476562, -0.103164672851562, -0.030364990234375, -0.029724121093750, -0.078170776367188, 0.161727905273438, -0.291900634765625, -0.023101806640625, 0.039855957031250, 0.046813964843750, 0.177017211914062, -0.106292724609375, 0.081893920898438, -0.257690429687500, 0.078613281250000, -0.043838500976562, -0.101242065429688, 0.010421752929688, -0.161102294921875, -0.088302612304688, -0.051147460937500, -0.103225708007812, 0.041000366210938, 0.016906738281250, 0.013961791992188, -0.228347778320312, -0.096496582031250, 0.035263061523438, 0.129440307617188, 0.126678466796875, -0.084548950195312, -0.168472290039062, -0.101165771484375, -0.166625976562500, -0.034530639648438, -0.054306030273438, -0.049468994140625, 0.147354125976562, -0.099243164062500, -0.079666137695312, 0.071716308593750, 0.142608642578125, 0.097824096679688, -0.117874145507812, 0.156494140625000, -0.011489868164062, -0.022201538085938, -0.088882446289062, -0.183212280273438, -0.028930664062500, -0.245315551757812, -0.027038574218750, 0.037933349609375, -0.116287231445312, 0.043060302734375, -0.027221679687500, -0.061264038085938, -0.200515747070312, -0.120315551757812, 0.021560668945312, 0.063262939453125, 0.088378906250000, -0.143981933593750, -0.188171386718750, -0.050704956054688, -0.205581665039062, -0.015899658203125, -0.063262939453125, -0.009384155273438, 0.136108398437500, 0.048034667968750, -0.181503295898438, -0.042694091796875, 0.049880981445312, 0.054702758789062, -0.077056884765625, 0.034164428710938, 0.074066162109375, -0.141235351562500, -0.140411376953125, -0.074966430664062, -0.047943115234375, -0.209304809570312, 0.072723388671875, -0.067764282226562, 0.038833618164062, -0.028411865234375, -0.003936767578125, -0.060638427734375, -0.149291992187500, 0.096786499023438, 0.020248413085938, 0.042846679687500, 0.000518798828125, 0.040618896484375, -0.205291748046875, -0.020370483398438, 0.083465576171875, -0.047576904296875, -0.002517700195312, 0.067214965820312, 0.090606689453125, -0.040679931640625, 0.138427734375000, 0.199676513671875, -0.059829711914062, -0.011383056640625, -0.003479003906250, 0.112152099609375, -0.063034057617188, 0.034851074218750, 0.023315429687500, -0.003921508789062, 0.034072875976562, 0.110214233398438, 0.055358886718750, -0.029479980468750, -0.063919067382812, -0.098892211914062, -0.020797729492188, -0.166137695312500, -0.042861938476562, 0.169754028320312, -0.100265502929688, -0.087646484375000, -0.039657592773438, 0.027664184570312, -0.183258056640625, -0.176864624023438, 0.136413574218750, -0.146377563476562, -0.042312622070312, 0.061721801757812, 0.011398315429688, -0.008407592773438, 0.107742309570312, 0.150421142578125, 0.035568237304688, 0.077239990234375, 0.169464111328125, 0.063385009765625, 0.097839355468750, 0.067108154296875, -0.120132446289062, 0.016967773437500, 0.029129028320312, 0.116378784179688, 0.002609252929688, 0.000030517578125, -0.011215209960938, -0.110107421875000, -0.156372070312500, -0.002243041992188, -0.060409545898438, 0.129180908203125, -0.119674682617188, -0.063934326171875, -0.017684936523438, -0.083084106445312, -0.135025024414062, -0.111022949218750, -0.063125610351562, -0.034149169921875, -0.053024291992188, 0.126266479492188, -0.005111694335938, 0.099670410156250, -0.051940917968750, 0.051177978515625, -0.037048339843750, -0.036209106445312, 0.064788818359375, -0.010910034179688, 0.073120117187500, -0.050079345703125, -0.067550659179688, 0.083969116210938, 0.136032104492188, 0.079528808593750, 0.108337402343750, 0.041030883789062, -0.132049560546875, -0.132659912109375, -0.072326660156250, -0.020523071289062, -0.119598388671875, -0.106430053710938, -0.129409790039062, -0.055191040039062, -0.157089233398438, -0.059661865234375, -0.021209716796875, 0.056976318359375, -0.005020141601562, -0.066543579101562, -0.027770996093750, 0.103500366210938, 0.055419921875000, 0.178054809570312, 0.227401733398438, -0.098205566406250, 0.018142700195312, -0.025939941406250, -0.020080566406250, -0.037719726562500, 0.103408813476562, 0.009414672851562, 0.075698852539062, 0.164062500000000, -0.151229858398438, -0.114181518554688, -0.084381103515625, -0.103469848632812, -0.034896850585938, -0.041870117187500, 0.121017456054688, 0.073318481445312, -0.001892089843750, -0.208633422851562, 0.008514404296875, 0.025482177734375, -0.052276611328125, 0.038848876953125, 0.075042724609375, 0.117370605468750, -0.218475341796875, 0.104873657226562, 0.037429809570312, 0.026779174804688, 0.050323486328125, 0.024856567382812, 0.016906738281250, -0.106445312500000, 0.045196533203125, 0.062530517578125, -0.076629638671875, 0.047012329101562, -0.013244628906250, 0.029525756835938, 0.136825561523438, -0.044235229492188, -0.102005004882812, -0.285736083984375, -0.134017944335938, -0.101257324218750, 0.029922485351562, 0.227127075195312, -0.052001953125000, 0.053634643554688, 0.116729736328125, -0.243865966796875, -0.039825439453125, 0.063751220703125, 0.072586059570312, 0.015762329101562, 0.176895141601562, 0.155426025390625, -0.318786621093750, 0.033660888671875, 0.087646484375000, -0.066970825195312, 0.115249633789062, -0.073135375976562, -0.082366943359375, -0.079025268554688, 0.082046508789062, 0.079818725585938, -0.150253295898438, 0.001342773437500, -0.130691528320312, 0.013870239257812, 0.068969726562500, -0.009414672851562, -0.138275146484375, -0.312362670898438, -0.104919433593750, -0.048889160156250, -0.012054443359375, -0.007949829101562, 0.014526367187500, -0.013992309570312, -0.038177490234375, -0.004119873046875, -0.021682739257812, -0.024642944335938, 0.040283203125000, -0.075790405273438, -0.008819580078125, -0.030975341796875, -0.018875122070312, -0.027435302734375, -0.000289916992188, 0.030349731445312, -0.041442871093750, -0.070892333984375, -0.042068481445312, 0.026977539062500, 0.013259887695312, -0.020050048828125, -0.045333862304688, -0.051269531250000, -0.030853271484375, -0.013961791992188, -0.069473266601562, -0.017868041992188, 0.027847290039062, 0.008880615234375, 0.013275146484375, 0.016311645507812, 0.002075195312500, -0.000061035156250, -0.016555786132812, 0.018966674804688, -0.046691894531250, -0.019332885742188, 0.032058715820312, -0.037200927734375, 0.066467285156250, -0.045608520507812, -0.024673461914062, -0.048004150390625, 0.023529052734375, -0.023422241210938, -0.015960693359375, 0.031356811523438, -0.023971557617188, -0.008911132812500, 0.001800537109375, -0.025817871093750, -0.004455566406250, 0.022155761718750, 0.026199340820312, -0.050537109375000, 0.006301879882812, -0.014739990234375, -0.029586791992188, 0.019210815429688, 0.008132934570312, -0.004501342773438, -0.001281738281250, 0.008438110351562, -0.018493652343750, -0.026229858398438, 0.022048950195312, 0.013259887695312, -0.029464721679688, 0.004562377929688, 0.065063476562500, 0.021392822265625, -0.038253784179688, -0.131378173828125, 0.031753540039062, -0.066741943359375, 0.056396484375000, -0.019317626953125, -0.036468505859375, -0.020126342773438, -0.030303955078125, -0.007202148437500, -0.027221679687500, -0.076110839843750, -0.027603149414062, -0.054016113281250, 0.042373657226562, -0.050415039062500, -0.020278930664062, -0.065216064453125, -0.003494262695312, 0.042999267578125, -0.040359497070312, 0.038665771484375, 0.022842407226562, 0.009460449218750, 0.035491943359375, -0.008651733398438, 0.049057006835938, 0.039794921875000, 0.027816772460938, 0.019210815429688, 0.009201049804688, -0.004287719726562, 0.037536621093750, -0.001281738281250, -0.034896850585938, 0.014999389648438, 0.019104003906250, 0.034851074218750, 0.005508422851562, -0.034164428710938, 0.045181274414062, -0.118698120117188, 0.009780883789062, -0.005279541015625, 0.050125122070312, 0.026443481445312, -0.002746582031250, -0.022140502929688, -0.057037353515625, 0.011611938476562, 0.019485473632812, -0.040054321289062, 0.036209106445312, -0.031890869140625, 0.015625000000000, 0.071914672851562, 0.044479370117188, 0.047805786132812, 0.024810791015625, -0.019714355468750, 0.027938842773438, -0.026840209960938, 0.031921386718750, 0.032073974609375, 0.024185180664062, 0.020965576171875, 0.000274658203125, -0.013519287109375, -0.056930541992188, -0.027694702148438, -0.009872436523438, 0.029937744140625, 0.039337158203125, 0.025222778320312, -0.035781860351562, -0.077148437500000, 0.011199951171875, -0.002944946289062, -0.019836425781250, -0.004806518554688, 0.079010009765625, -0.023620605468750, -0.002365112304688, 0.062286376953125, 0.019393920898438, -0.025268554687500, 0.008621215820312, 0.031265258789062, 0.015609741210938, -0.008026123046875, 0.025177001953125, 0.040451049804688, 0.011535644531250, -0.098281860351562, 0.021728515625000, 0.013214111328125, 0.062088012695312, -0.081237792968750, 0.007843017578125, 0.008255004882812, -0.027908325195312, 0.044143676757812, 0.020523071289062, 0.013656616210938, 0.043777465820312, 0.001449584960938, 0.000869750976562, -0.101486206054688, 0.020385742187500, 0.023056030273438, -0.010086059570312, -0.003509521484375, -0.000427246093750, -0.083496093750000, -0.018966674804688, -0.000595092773438, 0.015853881835938, -0.030807495117188, 0.014801025390625, 0.019851684570312, -0.024658203125000, 0.009567260742188, -0.033035278320312, -0.018661499023438, 0.005157470703125, -0.067810058593750, -0.025115966796875, -0.041259765625000, 0.025817871093750, 0.009552001953125, 0.045639038085938, 0.013793945312500, -0.022842407226562, -0.003952026367188, 0.000137329101562, 0.017440795898438, 0.033828735351562, -0.008224487304688, -0.050323486328125, 0.016891479492188, 0.004440307617188, -0.030593872070312, -0.017944335937500, -0.016891479492188, -0.028320312500000, -0.058380126953125, 0.002639770507812, 0.021286010742188, 0.025665283203125, -0.088821411132812, -0.007202148437500, 0.120971679687500, -0.014022827148438, -0.022735595703125, 0.060058593750000, -0.000228881835938, 0.052749633789062, -0.048446655273438, -0.028686523437500, 0.010742187500000, 0.019104003906250, -0.064910888671875, 0.010101318359375, 0.024047851562500, -0.071853637695312, -0.006576538085938, -0.019592285156250, -0.010101318359375, 0.059768676757812, 0.102188110351562, -0.137680053710938, -0.091690063476562, -0.003005981445312, -0.014419555664062, 0.019653320312500, -0.045471191406250, 0.063064575195312, -0.057739257812500, -0.020446777343750, 0.038513183593750, 0.054992675781250, -0.101043701171875, 0.014587402343750, 0.060501098632812, -0.018096923828125, 0.035629272460938, -0.051910400390625, -0.000183105468750, 0.040878295898438, -0.147674560546875, -0.087890625000000, 0.003829956054688, -0.058029174804688, -0.078567504882812, -0.020446777343750, -0.029159545898438, -0.095062255859375, -0.025817871093750, -0.023315429687500, -0.023345947265625, 0.011840820312500, 0.125610351562500, -0.006851196289062, -0.113327026367188, 0.003814697265625, -0.071578979492188, 0.070175170898438, 0.039932250976562, 0.025375366210938, -0.050689697265625, -0.024276733398438, 0.002487182617188, 0.044555664062500, -0.101730346679688, 0.008804321289062, -0.003738403320312, -0.041198730468750, -0.035293579101562, 0.062362670898438, -0.012527465820312, -0.101440429687500, -0.126647949218750, 0.070968627929688, -0.020782470703125, 0.021713256835938, 0.006729125976562, 0.035644531250000, 0.013778686523438, -0.093917846679688, -0.022247314453125, 0.016693115234375, -0.108963012695312, -0.000869750976562, -0.022171020507812, -0.051971435546875, -0.013046264648438, 0.016998291015625, 0.002960205078125, -0.020690917968750, 0.024215698242188, 0.027389526367188, -0.043792724609375, 0.002639770507812, -0.058792114257812, -0.081649780273438, -0.103057861328125, -0.043655395507812, 0.024642944335938, -0.009384155273438, 0.041564941406250, 0.033325195312500, 0.030273437500000, -0.002166748046875, -0.112533569335938, -0.012802124023438, -0.006011962890625, 0.005844116210938, -0.050048828125000, 0.062103271484375, 0.012527465820312, -0.078414916992188, 0.005111694335938, -0.030456542968750, -0.075012207031250, 0.072753906250000, -0.038406372070312, -0.012588500976562, -0.013824462890625, 0.016128540039062, 0.005737304687500, -0.058212280273438, -0.010986328125000, -0.012573242187500, -0.000991821289062, 0.006240844726562, -0.059829711914062, -0.102874755859375, -0.078445434570312, -0.063659667968750, 0.014770507812500, 0.003280639648438, 0.000411987304688, -0.013183593750000, -0.014495849609375, 0.042861938476562, -0.092285156250000, -0.093826293945312, 0.019897460937500, 0.001983642578125, -0.019729614257812, 0.027145385742188, -0.040863037109375, -0.083221435546875, -0.054962158203125, -0.025436401367188, -0.020431518554688, 0.036544799804688, -0.021011352539062, -0.002227783203125, -0.019378662109375, -0.002822875976562, -0.020492553710938, -0.012710571289062, -0.032714843750000, 0.011459350585938, 0.004211425781250, -0.019378662109375, -0.025665283203125, -0.050491333007812, -0.057327270507812, 0.004028320312500, -0.046768188476562, 0.008163452148438, -0.030166625976562, 0.095718383789062, 0.015319824218750, -0.098724365234375, -0.059753417968750, 0.044830322265625, 0.030502319335938, 0.024444580078125, 0.010986328125000, -0.012130737304688, -0.005157470703125, 0.005371093750000, -0.000167846679688, 0.030822753906250, -0.049407958984375, -0.080322265625000, -0.026962280273438, 0.029067993164062, 0.117599487304688, -0.006484985351562, 0.011749267578125, -0.051010131835938, -0.020492553710938, -0.016784667968750, -0.056472778320312, 0.010360717773438, -0.067352294921875, -0.054321289062500, -0.002212524414062, -0.073486328125000, 0.016525268554688, 0.031448364257812, 0.025772094726562, -0.049407958984375, 0.044998168945312, -0.032394409179688, -0.013122558593750, -0.009552001953125, 0.072814941406250, -0.032150268554688, 0.043029785156250, -0.034835815429688, -0.025756835937500, 0.019699096679688, 0.025497436523438, -0.005203247070312, -0.044677734375000, 0.035461425781250, -0.058197021484375, 0.050582885742188, 0.025039672851562, -0.076705932617188, -0.012023925781250, 0.008026123046875, 0.014144897460938, -0.005432128906250, 0.034835815429688, -0.015274047851562, -0.093887329101562, -0.025192260742188, 0.041320800781250, -0.002334594726562, 0.039550781250000, -0.030334472656250, 0.137069702148438, -0.046997070312500, -0.025222778320312, 0.045745849609375, 0.035385131835938, 0.020614624023438, 0.054077148437500, -0.088073730468750, 0.059341430664062, 0.053771972656250, -0.072219848632812, 0.100265502929688, -0.073303222656250, -0.047439575195312, -0.022125244140625, 0.087921142578125, 0.042282104492188, 0.008056640625000, -0.014984130859375, -0.040145874023438, -0.042953491210938, 0.042999267578125, 0.020034790039062, 0.025497436523438, 0.027572631835938, -0.071945190429688, -0.008758544921875, 0.030517578125000, 0.037734985351562, 0.023254394531250, -0.017913818359375, -0.043121337890625, -0.081451416015625, 0.071502685546875, -0.025512695312500, -0.053466796875000, -0.087570190429688, 0.060806274414062, -0.027862548828125, 0.045989990234375, -0.149673461914062, -0.027145385742188, 0.002960205078125, -0.134414672851562, 0.000976562500000, 0.033782958984375, -0.065353393554688, 0.067947387695312, -0.024917602539062, -0.005767822265625, 0.031097412109375, 0.058410644531250, -0.003555297851562, -0.045333862304688, -0.052536010742188, -0.023239135742188, -0.045578002929688, -0.078582763671875, -0.034835815429688, -0.069641113281250, -0.059295654296875, -0.015533447265625, 0.001602172851562, 0.006317138671875, -0.066055297851562, 0.046813964843750, 0.022842407226562, -0.022216796875000, -0.038543701171875, 0.056671142578125, 0.032485961914062, 0.024047851562500, -0.097961425781250, 0.007705688476562, -0.012939453125000, -0.066635131835938, 0.028045654296875, 0.022460937500000, -0.018432617187500, -0.016342163085938, -0.031219482421875, 0.042190551757812, 0.008300781250000, 0.021347045898438, 0.037536621093750, 0.001998901367188, 0.026519775390625, -0.057418823242188, 0.011123657226562, -0.003463745117188, -0.019851684570312, -0.035095214843750, -0.067260742187500, 0.004196166992188, 0.047332763671875, -0.022109985351562, 0.008270263671875, 0.003601074218750, -0.025924682617188, 0.000183105468750, 0.041839599609375, 0.049026489257812, 0.006072998046875, 0.021163940429688, -0.055618286132812, 0.067337036132812, -0.045974731445312, -0.040176391601562, -0.031341552734375, -0.033248901367188, 0.000076293945312, -0.050949096679688, -0.057205200195312, -0.022003173828125, -0.087356567382812, -0.090545654296875, -0.051635742187500, -0.008972167968750, 0.025985717773438, -0.082336425781250, 0.059738159179688, -0.028472900390625, -0.033477783203125, -0.019500732421875, -0.030639648437500, 0.024017333984375, 0.093704223632812, 0.024932861328125, 0.024810791015625, -0.064804077148438, 0.033081054687500, 0.000289916992188, 0.070480346679688, -0.018859863281250, -0.104583740234375, -0.005111694335938, 0.081466674804688, 0.022567749023438, 0.030807495117188, 0.029388427734375, 0.045852661132812, 0.040985107421875, 0.049972534179688, 0.009857177734375, 0.103622436523438, 0.069702148437500, 0.027313232421875, 0.021621704101562, 0.020019531250000, 0.027755737304688, 0.004928588867188, 0.006317138671875, -0.000091552734375, 0.028671264648438, 0.026489257812500, 0.020629882812500, 0.043624877929688, 0.045562744140625, 0.081954956054688, 0.003067016601562, 0.038330078125000, 0.006134033203125, 0.007003784179688, 0.001388549804688, 0.038192749023438, -0.032135009765625, -0.067077636718750, -0.030517578125000, 0.078109741210938, 0.007781982421875, -0.001953125000000, -0.017715454101562, 0.019882202148438, 0.018417358398438, 0.059829711914062, 0.015899658203125, 0.129745483398438, 0.047988891601562, 0.050064086914062, 0.020629882812500, -0.003387451171875, 0.042984008789062, 0.012603759765625, 0.042648315429688, 0.067138671875000, 0.023468017578125, 0.033828735351562, 0.057525634765625, -0.007049560546875, 0.065750122070312, 0.078247070312500, 0.031539916992188, 0.015457153320312, 0.010848999023438, 0.026458740234375, -0.060623168945312, 0.044219970703125, -0.017562866210938, -0.052505493164062, -0.078903198242188, 0.053085327148438, 0.023330688476562, 0.041702270507812, 0.001022338867188, 0.006607055664062, 0.039276123046875, 0.066650390625000, 0.013687133789062, 0.104629516601562, 0.030822753906250, 0.038681030273438, 0.044082641601562, 0.002258300781250, 0.042297363281250, 0.039688110351562, 0.040390014648438, 0.043838500976562, -0.033432006835938, 0.059555053710938, 0.005996704101562, 0.025924682617188, 0.055175781250000, 0.059799194335938, -0.030441284179688, -0.015747070312500, -0.041000366210938, -0.058456420898438, 0.022857666015625, 0.073852539062500, 0.010055541992188, -0.119186401367188, 0.016632080078125, 0.065444946289062, -0.001541137695312, -0.027038574218750, 0.067581176757812, -0.078536987304688, -0.052658081054688, 0.063812255859375, -0.062057495117188, 0.057754516601562, 0.041381835937500, -0.020126342773438, 0.014251708984375, -0.076995849609375, -0.032501220703125, -0.028289794921875, -0.003082275390625, -0.010192871093750, -0.062881469726562, 0.004974365234375, 0.073257446289062, 0.107147216796875, 0.079559326171875, 0.058868408203125, -0.030838012695312, 0.080734252929688, -0.020538330078125, -0.062545776367188, 0.017272949218750, 0.089767456054688, -0.004394531250000, -0.063232421875000, 0.011398315429688, 0.051391601562500, 0.066925048828125, -0.014312744140625, 0.051361083984375, -0.076400756835938, -0.041854858398438, 0.024429321289062, -0.035369873046875, 0.038162231445312, 0.017562866210938, -0.010894775390625, -0.047210693359375, -0.066497802734375, -0.038665771484375, 0.006912231445312, 0.050277709960938, 0.044525146484375, 0.019119262695312, -0.027526855468750, -0.002136230468750, 0.071197509765625, 0.067214965820312, 0.067199707031250, -0.012100219726562, 0.119400024414062, 0.000411987304688, -0.062164306640625, -0.039642333984375, 0.039993286132812, 0.017959594726562, -0.064743041992188, -0.019866943359375, 0.024887084960938, 0.083892822265625, -0.023925781250000, 0.050048828125000, -0.087554931640625, -0.056533813476562, 0.033142089843750, 0.009704589843750, 0.057510375976562, -0.024719238281250, -0.018524169921875, -0.011077880859375, -0.060577392578125, -0.013381958007812, 0.039566040039062, -0.002014160156250, 0.050109863281250, -0.027832031250000, 0.019851684570312, -0.004852294921875, 0.060241699218750, 0.047210693359375, -0.041427612304688, -0.004348754882812, -0.025802612304688, -0.017242431640625, -0.036819458007812, 0.045852661132812, 0.046234130859375, -0.012863159179688, -0.054901123046875, 0.014694213867188, -0.060317993164062, 0.023834228515625, 0.031616210937500, -0.091903686523438, -0.034271240234375, -0.016525268554688, 0.021713256835938, -0.048187255859375, -0.046829223632812, -0.040237426757812, 0.016525268554688, -0.014526367187500, -0.021911621093750, -0.049606323242188, 0.018707275390625, -0.014404296875000, -0.017318725585938, 0.001602172851562, -0.057785034179688, -0.014251708984375, 0.003784179687500, 0.074111938476562, -0.014053344726562, 0.059326171875000, -0.022247314453125, -0.063278198242188, -0.018173217773438, 0.023422241210938, 0.007263183593750, -0.044189453125000, -0.007568359375000, 0.032562255859375, -0.028671264648438, 0.022857666015625, 0.017852783203125, -0.076385498046875, 0.027816772460938, -0.002120971679688, 0.027572631835938, -0.030426025390625, -0.065093994140625, -0.023422241210938, 0.009979248046875, -0.019638061523438, 0.005401611328125, -0.051651000976562, 0.004562377929688, -0.097717285156250, 0.028259277343750, 0.065551757812500, -0.040191650390625, -0.039398193359375, -0.008636474609375, 0.068038940429688, 0.002899169921875, 0.041458129882812, -0.009155273437500, -0.061111450195312, 0.030685424804688, 0.005508422851562, -0.010574340820312, -0.027938842773438, -0.015411376953125, 0.021804809570312, -0.021606445312500, 0.014556884765625, 0.022003173828125, -0.022171020507812, 0.023544311523438, 0.015304565429688, 0.020736694335938, -0.045989990234375, -0.040954589843750, 0.015823364257812, 0.006515502929688, -0.076065063476562, 0.019790649414062, -0.002761840820312, 0.067855834960938, -0.065383911132812, 0.066726684570312, 0.062286376953125, -0.029083251953125, -0.049591064453125, 0.016036987304688, 0.030075073242188, 0.046295166015625, -0.037490844726562, -0.008956909179688, 0.085906982421875, 0.022232055664062, 0.055328369140625, -0.068374633789062, -0.120941162109375, -0.110000610351562, 0.016250610351562, -0.069854736328125, -0.221710205078125, 0.049240112304688, 0.176635742187500, 0.053649902343750, 0.030883789062500, -0.037841796875000, -0.077468872070312, 0.105987548828125, -0.048522949218750, 0.183166503906250, 0.062576293945312, 0.040054321289062, 0.017532348632812, -0.114120483398438, 0.267105102539062, 0.077560424804688, -0.062194824218750, -0.016174316406250, -0.106536865234375, -0.060729980468750, 0.009704589843750, -0.085021972656250, 0.010086059570312, 0.081604003906250, -0.016357421875000, 0.101730346679688, 0.014358520507812, -0.024124145507812, -0.034973144531250, 0.019790649414062, -0.031082153320312, -0.047637939453125, -0.155609130859375, 0.018020629882812, 0.155914306640625, 0.136459350585938, 0.021316528320312, -0.021514892578125, -0.139099121093750, -0.038345336914062, 0.031143188476562, 0.103302001953125, 0.022445678710938, 0.000808715820312, 0.033813476562500, -0.063507080078125, 0.022430419921875, 0.081604003906250, 0.001541137695312, 0.074371337890625, -0.073364257812500, -0.042205810546875, 0.039108276367188, 0.101638793945312, -0.060272216796875, 0.046813964843750, -0.034378051757812, -0.021423339843750, 0.004028320312500, -0.067474365234375, 0.008041381835938, -0.021804809570312, 0.010238647460938, -0.043365478515625, -0.093627929687500, -0.026107788085938, 0.075485229492188, -0.057037353515625, 0.006896972656250, 0.017486572265625, -0.099304199218750, 0.173934936523438, -0.028701782226562, 0.003417968750000, -0.098968505859375, -0.130813598632812, 0.007324218750000, 0.006195068359375, 0.056961059570312, 0.094604492187500, -0.018951416015625, 0.087554931640625, -0.018844604492188, -0.178283691406250, -0.012130737304688, 0.016311645507812, -0.123382568359375, 0.081176757812500, -0.022949218750000, -0.043014526367188, -0.095199584960938, 0.087463378906250, 0.083709716796875, -0.090652465820312, 0.008071899414062, 0.112564086914062, -0.090209960937500, -0.037002563476562, 0.312194824218750, -0.149810791015625, -0.014755249023438, 0.046829223632812, -0.129806518554688, 0.287719726562500, -0.057571411132812, -0.066680908203125, -0.049575805664062, -0.030258178710938, 0.072326660156250, -0.036758422851562, 0.330032348632812, -0.051010131835938, 0.022109985351562, 0.093124389648438, -0.081573486328125, 0.060104370117188, 0.004653930664062, -0.075881958007812, -0.112823486328125, 0.118820190429688, -0.052154541015625, -0.026168823242188, -0.039108276367188, 0.169540405273438, 0.110107421875000, -0.029220581054688, 0.035308837890625, 0.146209716796875, -0.012191772460938, -0.074768066406250, 0.271987915039062, -0.051879882812500, -0.059143066406250, 0.110015869140625, -0.143402099609375, 0.265869140625000, -0.046279907226562, 0.045578002929688, 0.058715820312500, -0.100250244140625, 0.148910522460938, -0.003463745117188, 0.162918090820312, -0.031448364257812, -0.031051635742188, 0.030822753906250, -0.071914672851562, 0.025085449218750, 0.004226684570312, 0.079360961914062, -0.051712036132812, -0.034423828125000, 0.061172485351562, 0.045211791992188, -0.019027709960938, 0.255844116210938, 0.109329223632812, 0.037216186523438, 0.047988891601562, 0.020706176757812, -0.038177490234375, -0.001998901367188, 0.171813964843750, -0.053894042968750, -0.057495117187500, 0.074645996093750, -0.147705078125000, 0.131317138671875, -0.014129638671875, 0.027359008789062, 0.067657470703125, -0.019363403320312, -0.003692626953125, 0.012802124023438, 0.043472290039062, 0.056503295898438, 0.130661010742188, 0.097930908203125, 0.023529052734375, 0.019973754882812, -0.016235351562500, 0.092300415039062, 0.061996459960938, 0.003387451171875, 0.016021728515625, 0.122985839843750, -0.048400878906250, 0.125579833984375, 0.052505493164062, 0.000473022460938, 0.037536621093750, 0.060470581054688, -0.098526000976562, 0.102096557617188, 0.001647949218750, 0.065353393554688, 0.137573242187500, -0.134460449218750, -0.088317871093750, 0.439041137695312, -0.117279052734375, -0.185958862304688, 0.000839233398438, 0.103317260742188, -0.078369140625000, -0.039642333984375, 0.140090942382812, -0.045700073242188, 0.110717773437500, 0.294006347656250, -0.197021484375000, -0.036407470703125, 0.001235961914062, -0.000595092773438, -0.030822753906250, 0.089553833007812, -0.109451293945312, 0.085891723632812, -0.005538940429688, 0.051467895507812, 0.078323364257812, -0.018325805664062, -0.035125732421875, 0.103515625000000, 0.072601318359375, 0.014739990234375, 0.003601074218750, 0.099700927734375, 0.082885742187500, 0.021591186523438, -0.058731079101562, 0.351654052734375, 0.038375854492188, -0.181182861328125, 0.060470581054688, 0.014205932617188, 0.084686279296875, 0.115478515625000, 0.090911865234375, -0.006149291992188, 0.105163574218750, 0.135604858398438, -0.070159912109375, 0.149291992187500, 0.104843139648438, 0.137054443359375, 0.018707275390625, 0.181808471679688, 0.004547119140625, 0.002487182617188, 0.026550292968750, -0.030380249023438, 0.134124755859375, 0.049346923828125, -0.037155151367188, 0.142013549804688, 0.069580078125000, 0.064987182617188, -0.139175415039062, 0.052169799804688, 0.002334594726562, 0.005355834960938, 0.032699584960938, 0.370925903320312, -0.155059814453125, -0.031707763671875, 0.038879394531250, 0.068099975585938, 0.006713867187500, 0.053604125976562, 0.185317993164062, 0.096084594726562, 0.049484252929688, 0.193572998046875, -0.166915893554688, -0.065551757812500, -0.072784423828125, -0.099075317382812, -0.038558959960938, -0.005111694335938, 0.009048461914062, 0.015991210937500, -0.056488037109375, -0.043655395507812, -0.017288208007812, -0.128417968750000, -0.031204223632812, -0.020950317382812, -0.060058593750000, 0.031158447265625, 0.022567749023438, 0.083709716796875, 0.015945434570312, 0.065444946289062, -0.005035400390625, 0.246917724609375, -0.065872192382812, 0.061157226562500, 0.045730590820312, 0.008819580078125, -0.060195922851562, 0.008407592773438, 0.033630371093750, -0.011093139648438, 0.063201904296875, -0.000198364257812, 0.068908691406250, 0.019515991210938, -0.052032470703125, 0.008697509765625, -0.000808715820312, 0.009567260742188, -0.022705078125000, 0.023773193359375, -0.087005615234375, -0.037124633789062, -0.036163330078125, -0.061553955078125, -0.160690307617188, -0.038375854492188, -0.013656616210938, -0.007873535156250, 0.055053710937500, 0.028121948242188, 0.018051147460938, 0.087951660156250, 0.006851196289062, 0.212112426757812, -0.030120849609375, 0.054168701171875, 0.008209228515625, -0.020584106445312, 0.014190673828125, 0.018203735351562, 0.023300170898438, 0.031631469726562, 0.082550048828125, -0.017913818359375, 0.054428100585938, -0.051391601562500, -0.018905639648438, -0.016921997070312, -0.003021240234375, 0.042663574218750, 0.048980712890625, 0.010299682617188, 0.001541137695312, -0.003295898437500, 0.025146484375000, -0.108810424804688, -0.222976684570312, -0.032791137695312, -0.020446777343750, 0.030822753906250, 0.076599121093750, 0.043182373046875, -0.002380371093750, 0.052398681640625, -0.022430419921875, 0.244461059570312, -0.023941040039062, 0.014251708984375, 0.035217285156250, -0.015411376953125, 0.014831542968750, 0.027252197265625, 0.066040039062500, 0.085098266601562, 0.013092041015625, 0.096099853515625, 0.063079833984375, -0.092163085937500, 0.030197143554688, 0.007568359375000, -0.003204345703125, 0.145950317382812, 0.047378540039062, -0.033691406250000, -0.002532958984375, 0.056854248046875, 0.046691894531250, 0.031784057617188, -0.020889282226562, -0.004638671875000, -0.003387451171875, -0.090209960937500, -0.060012817382812, -0.024093627929688, -0.053680419921875, -0.004562377929688, -0.031707763671875, 0.051712036132812, -0.053588867187500, 0.006210327148438, -0.030273437500000, -0.086944580078125, 0.037673950195312, 0.032684326171875, 0.167633056640625, -0.088760375976562, -0.015930175781250, -0.025344848632812, 0.021209716796875, 0.021392822265625, 0.012710571289062, 0.094741821289062, 0.032318115234375, 0.121078491210938, -0.027114868164062, -0.042419433593750, -0.023468017578125, 0.052597045898438, 0.036483764648438, 0.039047241210938, 0.035217285156250, 0.014511108398438, -0.030639648437500, -0.043151855468750, 0.030197143554688, -0.037216186523438, -0.062286376953125, 0.019744873046875, -0.042800903320312, 0.065017700195312, 0.033340454101562, 0.020828247070312, -0.008972167968750, -0.070388793945312, 0.105789184570312, -0.012802124023438, 0.071640014648438, -0.017059326171875, 0.020416259765625, -0.001525878906250, 0.056747436523438, 0.028808593750000, 0.035003662109375, 0.167404174804688, 0.034820556640625, 0.021057128906250, 0.005935668945312, -0.030044555664062, 0.015197753906250, 0.036575317382812, 0.036987304687500, 0.017166137695312, 0.024856567382812, 0.008010864257812, 0.025588989257812, -0.043945312500000, 0.063095092773438, -0.004730224609375, -0.028366088867188, 0.046600341796875, -0.063751220703125, 0.102905273437500, -0.041061401367188, -0.049774169921875, -0.014511108398438, -0.070159912109375, 0.083587646484375, 0.012268066406250, 0.109497070312500, -0.015029907226562, 0.089675903320312, 0.039489746093750, 0.037460327148438, 0.034057617187500, 0.012954711914062, 0.016677856445312, -0.072235107421875, -0.054458618164062, 0.011276245117188, 0.019317626953125, -0.070846557617188, 0.000427246093750, 0.017120361328125, -0.013793945312500, -0.000305175781250, 0.164840698242188, -0.072341918945312, -0.006057739257812, -0.090591430664062, 0.002029418945312, -0.013961791992188, -0.044692993164062, 0.013809204101562, -0.026931762695312, -0.014343261718750, 0.098419189453125, -0.078491210937500, 0.005111694335938, -0.056015014648438, -0.020935058593750, -0.055633544921875, -0.089477539062500, -0.032226562500000, -0.022140502929688, -0.065567016601562, -0.027832031250000, -0.052291870117188, 0.072738647460938, 0.032653808593750, -0.063827514648438, -0.020629882812500, 0.009933471679688, 0.036422729492188, 0.057846069335938, 0.019210815429688, -0.062103271484375, -0.004211425781250, 0.142730712890625, -0.040237426757812, -0.023406982421875, -0.015823364257812, 0.032348632812500, -0.052032470703125, -0.020523071289062, 0.007339477539062, 0.020492553710938, 0.030258178710938, 0.046127319335938, -0.046752929687500, -0.041168212890625, 0.016296386718750, 0.010482788085938, -0.085174560546875, -0.041595458984375, 0.004821777343750, -0.037887573242188, 0.014190673828125, 0.001144409179688, 0.007125854492188, 0.018096923828125, 0.024978637695312, -0.033843994140625, 0.007827758789062, 0.037017822265625, 0.043548583984375, 0.035552978515625, 0.060699462890625, -0.049468994140625, 0.004531860351562, 0.121994018554688, 0.006271362304688, -0.016220092773438, 0.025878906250000, 0.017974853515625, -0.023925781250000, -0.049011230468750, 0.055618286132812, 0.046127319335938, 0.079040527343750, 0.132476806640625, 0.012252807617188, -0.033279418945312, -0.046569824218750, -0.049743652343750, -0.051605224609375, -0.013031005859375, 0.015457153320312, 0.007385253906250, -0.000366210937500, 0.058670043945312, -0.036300659179688, 0.018981933593750, -0.045211791992188, 0.050552368164062, 0.227508544921875, 0.015533447265625, -0.056015014648438, 0.038894653320312, 0.066574096679688, -0.041610717773438, 0.063369750976562, 0.003036499023438, 0.076278686523438, 0.001449584960938, 0.024291992187500, -0.013107299804688, -0.027893066406250, 0.032730102539062, 0.005691528320312, 0.040847778320312, 0.002059936523438, -0.050567626953125, 0.014389038085938, -0.049377441406250, 0.040710449218750, -0.010589599609375, 0.104156494140625, 0.004074096679688, -0.014221191406250, 0.023773193359375, -0.129257202148438, -0.057647705078125, 0.015075683593750, -0.023849487304688, -0.002380371093750, 0.103057861328125, 0.064712524414062, 0.008773803710938, -0.089645385742188, 0.010482788085938, 0.081207275390625, -0.007781982421875, 0.013565063476562, 0.037200927734375, 0.071472167968750, -0.019134521484375, -0.042572021484375, 0.007522583007812, -0.017364501953125, -0.039382934570312, 0.054870605468750, 0.070861816406250, 0.017700195312500, -0.048492431640625, 0.057739257812500, -0.010223388671875, 0.036056518554688, 0.069732666015625, 0.035903930664062, 0.049911499023438, -0.028396606445312, 0.029464721679688, -0.100616455078125, -0.054870605468750, 0.022354125976562, 0.012207031250000, -0.055694580078125, 0.178009033203125, 0.063034057617188, -0.060302734375000, -0.115463256835938, -0.007171630859375, 0.027999877929688, -0.065048217773438, -0.058135986328125, 0.064498901367188, 0.116134643554688, -0.074157714843750, 0.030181884765625, -0.045410156250000, 0.000106811523438, 0.009643554687500, 0.033523559570312, 0.050567626953125, 0.040557861328125, -0.025238037109375, 0.024444580078125, -0.040115356445312, 0.076736450195312, 0.112655639648438, 0.084808349609375, 0.027450561523438, -0.037414550781250, 0.083145141601562, -0.143753051757812, -0.067794799804688, 0.032180786132812, -0.077835083007812, -0.014617919921875, -0.036422729492188, 0.079833984375000, -0.017745971679688, -0.078811645507812, -0.019546508789062, 0.061340332031250, -0.037979125976562, 0.095169067382812, 0.085266113281250, 0.014266967773438, -0.007110595703125, 0.055099487304688, -0.037521362304688, -0.011047363281250, 0.001708984375000, 0.018890380859375, -0.067382812500000, 0.049346923828125, 0.077255249023438, 0.057159423828125, -0.000183105468750, -0.040878295898438, 0.000503540039062, 0.076782226562500, -0.028366088867188, -0.033721923828125, -0.027130126953125, -0.109161376953125, 0.040557861328125, 0.002960205078125, -0.096450805664062, 0.005554199218750, -0.009429931640625, -0.134689331054688, 0.042831420898438, -0.048019409179688, 0.004333496093750, 0.054702758789062, -0.003265380859375, 0.053543090820312, 0.075149536132812, 0.040512084960938, -0.007812500000000, 0.025482177734375, -0.008178710937500, 0.062591552734375, -0.078277587890625, 0.009307861328125, -0.057968139648438, 0.095321655273438, 0.046188354492188, 0.021041870117188, 0.066375732421875, 0.000000000000000, 0.098083496093750, -0.059875488281250, 0.085891723632812, 0.003662109375000, -0.003067016601562, -0.111755371093750, 0.024276733398438, 0.009307861328125, -0.075195312500000, 0.011016845703125, 0.065628051757812, -0.043075561523438, -0.034255981445312, -0.052642822265625, 0.022552490234375, 0.039718627929688, -0.061538696289062, 0.041183471679688, 0.155349731445312, 0.060714721679688, 0.029525756835938, 0.064453125000000, -0.004791259765625, 0.009033203125000, -0.018554687500000, 0.009597778320312, -0.074340820312500, 0.088806152343750, 0.010299682617188, -0.024765014648438, -0.036300659179688, 0.089874267578125, 0.110153198242188, 0.041824340820312, 0.054122924804688, -0.000228881835938, -0.070266723632812, -0.126632690429688, 0.057510375976562, -0.026321411132812, -0.083206176757812, -0.027984619140625, -0.082748413085938, 0.139877319335938, -0.020370483398438, -0.007263183593750, 0.042419433593750, 0.087982177734375, -0.060394287109375, 0.046142578125000, 0.013031005859375, 0.050109863281250, -0.065292358398438, -0.058532714843750, -0.036666870117188, 0.005035400390625, -0.069625854492188, 0.041076660156250, -0.062973022460938, 0.004821777343750, 0.063796997070312, 0.056243896484375, -0.013366699218750, 0.074035644531250, -0.060180664062500, 0.082550048828125, -0.004196166992188, -0.089523315429688, -0.025939941406250, -0.085723876953125, 0.019592285156250, -0.019042968750000, -0.071289062500000, 0.013214111328125, -0.167388916015625, -0.039291381835938, 0.019653320312500, 0.035797119140625, 0.007781982421875, 0.021423339843750, -0.047271728515625, 0.037033081054688, -0.007720947265625, 0.049926757812500, 0.019378662109375, -0.085220336914062, 0.033752441406250, 0.059219360351562, -0.051544189453125, 0.011657714843750, -0.090911865234375, 0.070129394531250, 0.061355590820312, 0.040588378906250, 0.012100219726562, 0.030029296875000, 0.000656127929688, -0.032073974609375, 0.071823120117188, -0.051910400390625, -0.029357910156250, -0.127380371093750, -0.031906127929688, -0.009994506835938, -0.062286376953125, 0.003601074218750, -0.089050292968750, -0.010772705078125, -0.014633178710938, -0.009628295898438, 0.007827758789062, 0.124771118164062, -0.070266723632812, -0.006973266601562, 0.050292968750000, 0.104110717773438, -0.004669189453125, 0.024261474609375, -0.002212524414062, 0.050094604492188, -0.033294677734375, -0.001190185546875, -0.081680297851562, 0.104537963867188, 0.002563476562500, -0.051147460937500, -0.008605957031250, 0.132568359375000, 0.034515380859375, -0.050155639648438, 0.095169067382812, -0.059555053710938, -0.057067871093750, -0.081130981445312, -0.034072875976562, -0.078903198242188, 0.034194946289062, -0.030441284179688, 0.035583496093750, -0.036743164062500, 0.000991821289062, 0.003952026367188, 0.022369384765625, -0.010574340820312, -0.016387939453125, 0.016616821289062, -0.011413574218750, 0.002670288085938, -0.020111083984375, -0.006454467773438, 0.009689331054688, 0.036514282226562, -0.001998901367188, 0.014083862304688, 0.002746582031250, 0.025695800781250, -0.034362792968750, -0.026824951171875, -0.004272460937500, 0.023193359375000, 0.001937866210938, 0.039886474609375, 0.035079956054688, -0.007720947265625, 0.012496948242188, -0.024414062500000, 0.046646118164062, 0.018005371093750, 0.041244506835938, -0.065795898437500, -0.022537231445312, -0.064666748046875, -0.021453857421875, -0.022186279296875, 0.020507812500000, -0.023086547851562, -0.013519287109375, -0.009353637695312, -0.007904052734375, 0.010208129882812, -0.028945922851562, 0.043930053710938, -0.010940551757812, -0.013458251953125, -0.027618408203125, 0.009994506835938, 0.047683715820312, 0.021194458007812, -0.017150878906250, -0.021942138671875, -0.050949096679688, 0.068695068359375, -0.036590576171875, -0.001266479492188, 0.028701782226562, -0.021682739257812, 0.022537231445312, -0.015228271484375, 0.051239013671875, -0.010665893554688, -0.036911010742188, -0.031707763671875, -0.062530517578125, -0.003463745117188, -0.010971069335938, -0.053482055664062, 0.007553100585938, 0.037414550781250, -0.024108886718750, 0.019943237304688, -0.055480957031250, -0.045410156250000, -0.011718750000000, 0.004989624023438, 0.020446777343750, -0.018981933593750, -0.042556762695312, 0.018661499023438, 0.009262084960938, 0.009567260742188, 0.005477905273438, 0.004135131835938, 0.004974365234375, 0.022750854492188, 0.058929443359375, 0.028961181640625, -0.042587280273438, 0.014602661132812, -0.011276245117188, -0.027282714843750, -0.022308349609375, -0.051315307617188, 0.061813354492188, -0.056884765625000, 0.067749023437500, -0.073745727539062, -0.022827148437500, -0.016235351562500, 0.019531250000000, -0.017868041992188, -0.030014038085938, -0.046356201171875, -0.060729980468750, 0.028167724609375, -0.043853759765625, 0.004837036132812, 0.007720947265625, -0.030090332031250, -0.013336181640625, 0.003662109375000, 0.042800903320312, 0.005477905273438, -0.068069458007812, -0.035812377929688, -0.045745849609375, 0.046539306640625, 0.038208007812500, 0.063049316406250, 0.055877685546875, 0.005706787109375, 0.044769287109375, -0.043289184570312, 0.027511596679688, 0.028823852539062, 0.041442871093750, -0.087387084960938, 0.001205444335938, -0.042984008789062, -0.027297973632812, -0.044754028320312, -0.023193359375000, 0.006591796875000, -0.029098510742188, 0.027526855468750, -0.003356933593750, 0.008560180664062, -0.003204345703125, 0.038635253906250, 0.005187988281250, 0.009872436523438, -0.009689331054688, 0.013702392578125, 0.041336059570312, 0.013458251953125, -0.010055541992188, 0.004302978515625, -0.034652709960938, 0.033401489257812, 0.011474609375000, 0.008377075195312, 0.015289306640625, -0.021972656250000, 0.017059326171875, -0.052474975585938, 0.033538818359375, 0.012664794921875, -0.041473388671875, 0.005050659179688, -0.069671630859375, 0.016510009765625, -0.000152587890625, -0.078811645507812, -0.035003662109375, -0.001770019531250, -0.000839233398438, 0.041076660156250, -0.041992187500000, -0.045257568359375, -0.000061035156250, 0.042877197265625, 0.033981323242188, 0.015594482421875, -0.041503906250000, -0.000991821289062, -0.021026611328125, -0.014205932617188, 0.032623291015625, 0.021514892578125, 0.033157348632812, -0.009643554687500, 0.022567749023438, -0.004318237304688, -0.057754516601562, 0.017196655273438, -0.017654418945312, -0.049713134765625, -0.035873413085938, -0.031524658203125, 0.041198730468750, -0.066772460937500, 0.021667480468750, -0.023605346679688, -0.003173828125000, -0.001922607421875, 0.009414672851562, -0.021102905273438, -0.000732421875000, 0.009994506835938, -0.007797241210938, 0.012771606445312, -0.052719116210938, 0.035339355468750, 0.001571655273438, -0.029403686523438, -0.016601562500000, -0.014862060546875, 0.046279907226562, 0.007934570312500, -0.065155029296875, -0.030090332031250, -0.025436401367188, 0.022186279296875, 0.020172119140625, 0.018936157226562, 0.043395996093750, 0.011016845703125, 0.022827148437500, -0.017272949218750, 0.046752929687500, 0.048278808593750, 0.001144409179688, -0.055313110351562, 0.016174316406250, -0.012542724609375, -0.020523071289062, -0.001983642578125, -0.021408081054688, 0.007492065429688, 0.013946533203125, 0.006668090820312, -0.030548095703125, 0.002227783203125, -0.026184082031250, 0.006896972656250, 0.011840820312500, -0.027236938476562, -0.010772705078125, 0.025878906250000, 0.051925659179688, -0.012069702148438, -0.024581909179688, -0.009963989257812, -0.024276733398438, 0.066604614257812, 0.018981933593750, -0.011016845703125, -0.002166748046875, 0.014892578125000, 0.004806518554688, -0.027069091796875, 0.022140502929688, 0.010803222656250, -0.031265258789062, -0.010070800781250, -0.010696411132812, -0.010543823242188, 0.013610839843750, 0.019699096679688, -0.020629882812500, -0.057006835937500, -0.009292602539062, 0.032012939453125, -0.056106567382812, -0.052490234375000, 0.024246215820312, -0.008132934570312, 0.038330078125000, 0.024673461914062, -0.046157836914062, 0.012054443359375, -0.000366210937500, 0.011505126953125, 0.020263671875000, -0.005737304687500, 0.033294677734375, 0.008758544921875, 0.006546020507812, 0.024993896484375, -0.086929321289062, 0.009307861328125, -0.035629272460938, -0.058944702148438, -0.002792358398438, -0.034973144531250, -0.011215209960938, -0.149047851562500, -0.054260253906250, 0.041580200195312, -0.068542480468750, -0.048889160156250, -0.020721435546875, 0.054809570312500, -0.106765747070312, -0.011627197265625, 0.108718872070312, 0.036972045898438, -0.072341918945312, -0.064254760742188, -0.072021484375000, -0.114028930664062, 0.154281616210938, 0.081817626953125, 0.020523071289062, -0.066406250000000, -0.085906982421875, -0.005874633789062, 0.009628295898438, 0.043701171875000, -0.005355834960938, 0.087448120117188, -0.104965209960938, -0.087829589843750, 0.091278076171875, -0.004364013671875, -0.064498901367188, -0.035202026367188, -0.081726074218750, -0.004882812500000, 0.062393188476562, -0.076644897460938, 0.020355224609375, 0.000808715820312, -0.063110351562500, -0.033615112304688, -0.055557250976562, -0.053100585937500, 0.043319702148438, 0.063003540039062, -0.024520874023438, -0.053497314453125, 0.115097045898438, -0.016860961914062, 0.036605834960938, 0.172012329101562, 0.047744750976562, -0.020782470703125, -0.037429809570312, -0.223739624023438, 0.055206298828125, -0.101089477539062, 0.021041870117188, -0.066757202148438, -0.114181518554688, 0.007904052734375, 0.083694458007812, -0.094451904296875, -0.068649291992188, -0.074539184570312, 0.053833007812500, -0.023925781250000, 0.219406127929688, -0.062957763671875, -0.006286621093750, -0.000595092773438, -0.094497680664062, -0.045928955078125, -0.040649414062500, -0.145080566406250, 0.145248413085938, 0.094146728515625, -0.023101806640625, -0.007125854492188, 0.048004150390625, 0.024246215820312, 0.084335327148438, 0.140197753906250, 0.003250122070312, -0.017761230468750, -0.020446777343750, -0.225036621093750, -0.023040771484375, 0.060089111328125, -0.017105102539062, -0.007781982421875, -0.050964355468750, -0.032089233398438, 0.088546752929688, -0.089553833007812, 0.104354858398438, -0.086380004882812, -0.117462158203125, -0.020065307617188, -0.119735717773438, 0.081192016601562, 0.059280395507812, -0.045318603515625, -0.019866943359375, -0.012878417968750, 0.047958374023438, 0.244079589843750, -0.003311157226562, -0.093917846679688, 0.071334838867188, -0.044830322265625, -0.022811889648438, -0.014175415039062, 0.041549682617188, -0.002059936523438, -0.120727539062500, -0.027008056640625, 0.050704956054688, 0.232894897460938, 0.024642944335938, -0.214584350585938, -0.043518066406250, 0.182495117187500, -0.084243774414062, 0.067626953125000, -0.003921508789062, -0.060897827148438, -0.016906738281250, -0.070251464843750, -0.086624145507812, 0.089004516601562, -0.141235351562500, -0.049255371093750, 0.044662475585938, -0.084609985351562, 0.054321289062500, -0.058547973632812, 0.074066162109375, 0.100524902343750, -0.032730102539062, -0.102676391601562, 0.101516723632812, -0.062469482421875, 0.100326538085938, 0.082061767578125, 0.062530517578125, 0.062805175781250, -0.138763427734375, 0.111190795898438, 0.093338012695312, 0.101867675781250, 0.017349243164062, -0.117797851562500, 0.035202026367188, -0.048126220703125, 0.066680908203125, 0.070938110351562, 0.012680053710938, 0.015777587890625, -0.109771728515625, -0.029235839843750, 0.105651855468750, 0.090286254882812, 0.001983642578125, 0.111206054687500, 0.021850585937500, 0.005645751953125, 0.039169311523438, 0.032730102539062, -0.001419067382812, -0.060516357421875, 0.057189941406250, -0.069458007812500, 0.071365356445312, -0.047744750976562, 0.032028198242188, 0.010360717773438, 0.051864624023438, 0.051574707031250, -0.095779418945312, 0.097778320312500, -0.069229125976562, 0.022262573242188, -0.031173706054688, 0.155181884765625, 0.070983886718750, -0.030853271484375, 0.109619140625000, 0.023941040039062, 0.059020996093750, -0.045593261718750, -0.138336181640625, -0.001892089843750, -0.044021606445312, -0.006378173828125, 0.126785278320312, 0.017471313476562, -0.023239135742188, -0.029067993164062, -0.039199829101562, -0.025299072265625, -0.044403076171875, -0.018951416015625, 0.098144531250000, -0.000442504882812, 0.036514282226562, 0.015655517578125, -0.092849731445312, -0.013442993164062, 0.060455322265625, 0.054794311523438, 0.070602416992188, -0.024353027343750, 0.116317749023438, 0.012527465820312, -0.038345336914062, 0.115234375000000, -0.031219482421875, 0.314971923828125, 0.071670532226562, -0.000198364257812, 0.041458129882812, 0.043319702148438, 0.016220092773438, 0.003921508789062, -0.008163452148438, -0.081924438476562, -0.062988281250000, 0.001907348632812, -0.068023681640625, 0.026519775390625, 0.026718139648438, 0.101989746093750, -0.162643432617188, -0.062088012695312, -0.020202636718750, 0.051254272460938, 0.016662597656250, 0.043746948242188, -0.072891235351562, 0.028900146484375, 0.055023193359375, 0.076156616210938, 0.057968139648438, 0.024063110351562, 0.105682373046875, -0.013732910156250, -0.045303344726562, 0.337081909179688, -0.106994628906250, 0.071533203125000, 0.140060424804688, -0.030960083007812, -0.036437988281250, 0.088836669921875, -0.064025878906250, -0.041030883789062, 0.041580200195312, -0.058410644531250, 0.024719238281250, 0.050201416015625, -0.071289062500000, 0.125305175781250, 0.068557739257812, 0.213363647460938, -0.157348632812500, -0.090454101562500, -0.069900512695312, 0.177017211914062, -0.068588256835938, 0.022171020507812, -0.086593627929688, -0.104187011718750, 0.054519653320312, -0.125701904296875, 0.094192504882812, -0.012847900390625, 0.013046264648438, -0.000900268554688, -0.164993286132812, 0.325073242187500, -0.109527587890625, 0.127395629882812, 0.012756347656250, -0.064804077148438, 0.078536987304688, 0.044326782226562, 0.006118774414062, -0.045043945312500, -0.049240112304688, -0.063461303710938, 0.002151489257812, -0.014434814453125, -0.038192749023438, -0.007812500000000, 0.013717651367188, 0.016632080078125, 0.032958984375000, 0.028533935546875, 0.005340576171875, -0.003890991210938, -0.024810791015625, -0.017822265625000, -0.038055419921875, -0.055297851562500, -0.027435302734375, 0.029067993164062, -0.037307739257812, -0.035446166992188, 0.000030517578125, 0.055603027343750, -0.020065307617188, 0.026016235351562, -0.013381958007812, -0.003967285156250, 0.037612915039062, -0.024169921875000, 0.012115478515625, -0.002700805664062, -0.030670166015625, -0.005203247070312, -0.015426635742188, -0.012023925781250, -0.036209106445312, -0.005599975585938, -0.003829956054688, -0.023040771484375, 0.018737792968750, -0.012893676757812, 0.042770385742188, 0.009292602539062, -0.015426635742188, -0.021453857421875, -0.025650024414062, -0.023803710937500, -0.031494140625000, -0.017303466796875, -0.020324707031250, 0.013122558593750, -0.026626586914062, -0.027923583984375, 0.029083251953125, 0.019226074218750, -0.013000488281250, 0.014419555664062, -0.018234252929688, -0.029281616210938, -0.005767822265625, -0.005599975585938, 0.003219604492188, -0.023345947265625, -0.040954589843750, -0.014434814453125, -0.004043579101562, -0.029037475585938, -0.032867431640625, -0.030105590820312, -0.022933959960938, -0.055160522460938, 0.020629882812500, -0.033050537109375, 0.026245117187500, -0.024475097656250, -0.018295288085938, -0.011611938476562, -0.033233642578125, 0.014175415039062, -0.002166748046875, -0.015701293945312, -0.015151977539062, 0.008987426757812, -0.023193359375000, 0.006774902343750, 0.021621704101562, 0.026138305664062, -0.010452270507812, 0.030334472656250, -0.021865844726562, -0.042007446289062, 0.037948608398438, -0.017684936523438, -0.001663208007812, -0.015853881835938, -0.016815185546875, -0.010391235351562, -0.006530761718750, 0.004882812500000, 0.027740478515625, 0.007690429687500, 0.000564575195312, -0.039001464843750, 0.001373291015625, 0.013320922851562, -0.000610351562500, -0.048980712890625, -0.004028320312500, -0.008560180664062, 0.011825561523438, -0.010528564453125, -0.022109985351562, -0.019256591796875, -0.010116577148438, -0.011581420898438, -0.009597778320312, 0.000213623046875, 0.019454956054688, 0.002883911132812, 0.003952026367188, 0.012924194335938, 0.003982543945312, 0.040023803710938, 0.012863159179688, -0.008773803710938, 0.010879516601562, -0.021942138671875, 0.002548217773438, -0.037292480468750, -0.012191772460938, -0.015533447265625, 0.003311157226562, 0.005981445312500, -0.038894653320312, -0.033691406250000, -0.017227172851562, -0.038360595703125, -0.003982543945312, -0.033462524414062, 0.005065917968750, -0.019012451171875, -0.023406982421875, -0.014770507812500, -0.020935058593750, -0.050292968750000, -0.009429931640625, -0.016464233398438, -0.014892578125000, 0.004684448242188, 0.012664794921875, -0.009948730468750, -0.008422851562500, -0.006057739257812, -0.009857177734375, -0.016036987304688, 0.002456665039062, -0.029037475585938, 0.013916015625000, 0.010971069335938, -0.024627685546875, -0.030807495117188, 0.013473510742188, -0.004241943359375, 0.024139404296875, -0.006820678710938, -0.078155517578125, -0.002212524414062, -0.023178100585938, -0.010177612304688, -0.002426147460938, -0.039916992187500, -0.010513305664062, -0.010101318359375, -0.034698486328125, -0.012878417968750, -0.059173583984375, -0.067077636718750, -0.002502441406250, -0.008819580078125, 0.000045776367188, -0.014358520507812, 0.017974853515625, -0.003692626953125, -0.020935058593750, 0.021682739257812, -0.023162841796875, 0.002166748046875, 0.022903442382812, -0.077178955078125, 0.019470214843750, -0.022537231445312, 0.003601074218750, -0.026290893554688, 0.011825561523438, -0.005050659179688, -0.016967773437500, -0.011184692382812, -0.001968383789062, -0.008605957031250, -0.009155273437500, -0.026184082031250, 0.015090942382812, -0.001083374023438, -0.027038574218750, -0.012069702148438, -0.000457763671875, -0.011825561523438, -0.021606445312500, 0.000213623046875, -0.029479980468750, -0.003005981445312, 0.021026611328125, 0.026245117187500, -0.015289306640625, -0.021896362304688, 0.004241943359375, -0.012359619140625, 0.005905151367188, -0.044219970703125, 0.017349243164062, -0.010864257812500, 0.000106811523438, -0.022430419921875, -0.049118041992188, -0.035797119140625, -0.009307861328125, -0.031646728515625, 0.029907226562500, 0.030868530273438, -0.012695312500000, -0.030380249023438, -0.038269042968750, -0.012573242187500, 0.010833740234375, 0.016647338867188, -0.040603637695312, 0.000259399414062, -0.011642456054688, -0.003845214843750, -0.023880004882812, -0.010360717773438, 0.004394531250000, -0.033798217773438, 0.018356323242188, -0.014953613281250, -0.006195068359375, -0.039382934570312, -0.014556884765625, -0.058120727539062, 0.025009155273438, -0.028625488281250, 0.004592895507812, -0.026733398437500, -0.004913330078125, -0.035308837890625, -0.041107177734375, -0.022201538085938, -0.008590698242188, -0.025451660156250, 0.020004272460938, 0.010681152343750, -0.007308959960938, -0.068222045898438, -0.037963867187500, 0.000823974609375, 0.006759643554688, 0.007385253906250, -0.023040771484375, -0.019332885742188, -0.038574218750000, -0.031509399414062, -0.033920288085938, -0.033660888671875, -0.027496337890625, -0.018692016601562, 0.012954711914062, -0.073730468750000, -0.038177490234375, -0.051452636718750, -0.018218994140625, -0.034362792968750, -0.008728027343750, -0.020584106445312, -0.005981445312500, -0.009613037109375, 0.008956909179688, -0.037139892578125, -0.035095214843750, -0.037124633789062, -0.061096191406250, -0.033645629882812, -0.114044189453125, -0.100875854492188, -0.009323120117188, -0.065734863281250, 0.022994995117188, -0.006179809570312, -0.015518188476562, 0.103698730468750, 0.101593017578125, -0.092956542968750, -0.045425415039062, -0.168945312500000, 0.087875366210938, -0.009201049804688, -0.012527465820312, -0.064926147460938, -0.046203613281250, 0.066497802734375, 0.066940307617188, 0.018020629882812, -0.007049560546875, -0.183181762695312, -0.044677734375000, 0.097961425781250, -0.043640136718750, 0.076797485351562, -0.176651000976562, 0.041900634765625, -0.060897827148438, 0.016998291015625, -0.015899658203125, -0.100662231445312, -0.127853393554688, -0.000610351562500, 0.018371582031250, 0.005416870117188, -0.095626831054688, 0.047576904296875, 0.051895141601562, 0.026107788085938, 0.027893066406250, -0.067153930664062, 0.018402099609375, -0.217132568359375, 0.008148193359375, -0.047927856445312, -0.022003173828125, 0.089996337890625, -0.007415771484375, -0.068206787109375, -0.070220947265625, 0.122467041015625, -0.042648315429688, -0.139251708984375, -0.108276367187500, 0.099273681640625, -0.073287963867188, 0.090194702148438, -0.087173461914062, -0.052917480468750, -0.175537109375000, 0.005142211914062, 0.000259399414062, -0.174484252929688, 0.025100708007812, -0.166397094726562, 0.007705688476562, -0.000213623046875, -0.143951416015625, 0.046951293945312, 0.000625610351562, -0.031600952148438, 0.046112060546875, 0.042495727539062, -0.061065673828125, -0.169097900390625, -0.063323974609375, -0.053283691406250, -0.018508911132812, -0.002243041992188, -0.051300048828125, -0.131118774414062, -0.025665283203125, 0.009063720703125, -0.106964111328125, -0.117156982421875, -0.055618286132812, 0.070083618164062, -0.082214355468750, -0.030441284179688, -0.110076904296875, -0.094650268554688, -0.186706542968750, 0.000900268554688, -0.124435424804688, 0.018280029296875, -0.055831909179688, 0.022918701171875, -0.103149414062500, -0.069931030273438, 0.054092407226562, -0.010406494140625, -0.021377563476562, 0.064987182617188, 0.024063110351562, -0.078399658203125, -0.020431518554688, 0.135528564453125, -0.047760009765625, -0.038238525390625, -0.003143310546875, -0.078063964843750, -0.058151245117188, 0.027526855468750, 0.058227539062500, -0.011764526367188, 0.011779785156250, -0.094863891601562, 0.044891357421875, 0.118347167968750, -0.088150024414062, -0.018142700195312, -0.154113769531250, 0.025817871093750, 0.149124145507812, 0.024093627929688, -0.082046508789062, 0.007980346679688, -0.073089599609375, -0.079437255859375, -0.028015136718750, -0.054046630859375, 0.061889648437500, -0.090255737304688, 0.029144287109375, 0.136306762695312, 0.016189575195312, -0.085968017578125, -0.038787841796875, 0.027221679687500, 0.027267456054688, 0.011535644531250, -0.020111083984375, -0.024627685546875, -0.113815307617188, -0.089096069335938, 0.063629150390625, 0.082321166992188, 0.030258178710938, -0.108474731445312, 0.006240844726562, 0.036254882812500, -0.013839721679688, -0.026077270507812, -0.045715332031250, 0.011032104492188, 0.180160522460938, 0.124176025390625, -0.000411987304688, -0.026794433593750, -0.134643554687500, -0.180999755859375, -0.020874023437500, -0.015609741210938, 0.023818969726562, -0.066757202148438, -0.025146484375000, 0.138931274414062, 0.025115966796875, -0.043762207031250, -0.029541015625000, -0.038528442382812, -0.013748168945312, -0.040191650390625, 0.054199218750000, 0.004714965820312, -0.075378417968750, -0.016067504882812, 0.008026123046875, 0.147216796875000, -0.028533935546875, 0.011001586914062, -0.025726318359375, 0.137069702148438, 0.010162353515625, -0.032592773437500, -0.053344726562500, -0.059112548828125, 0.136749267578125, 0.082855224609375, -0.087722778320312, -0.006210327148438, -0.063766479492188, -0.137161254882812, 0.031234741210938, -0.079605102539062, -0.042831420898438, -0.063980102539062, -0.025131225585938, 0.002365112304688, 0.027740478515625, -0.045410156250000, 0.076293945312500, -0.169097900390625, 0.029846191406250, 0.036987304687500, 0.048156738281250, -0.185150146484375, 0.157272338867188, 0.083236694335938, -0.073776245117188, -0.005523681640625, -0.036331176757812, -0.107223510742188, -0.012725830078125, 0.189056396484375, -0.125976562500000, 0.058258056640625, 0.001068115234375, -0.049957275390625, -0.267318725585938, 0.069213867187500, -0.026153564453125, 0.087203979492188, 0.091979980468750, -0.088150024414062, -0.029846191406250, 0.017730712890625, -0.048339843750000, -0.034881591796875, -0.038681030273438, -0.243240356445312, 0.035171508789062, 0.165573120117188, 0.001983642578125, -0.114883422851562, 0.039245605468750, 0.019424438476562, 0.007415771484375, -0.042175292968750, 0.081939697265625, -0.123123168945312, -0.059020996093750, -0.033828735351562, -0.061264038085938, 0.003051757812500, -0.068176269531250, -0.050415039062500, 0.044723510742188, 0.057312011718750, -0.027786254882812, 0.040145874023438, -0.241821289062500, 0.081146240234375, -0.045349121093750, -0.046875000000000, 0.075592041015625, -0.119628906250000, -0.013031005859375, 0.020782470703125, -0.016952514648438, -0.049438476562500, -0.120727539062500, -0.117858886718750, 0.133438110351562, 0.110641479492188, 0.011352539062500, -0.055084228515625, -0.007217407226562, -0.053070068359375, 0.033798217773438, -0.003372192382812, 0.008438110351562, -0.164428710937500, 0.007537841796875, -0.055511474609375, -0.111602783203125, 0.018127441406250, -0.154541015625000, 0.055282592773438, 0.021987915039062, -0.009353637695312, -0.031112670898438, -0.021423339843750, -0.102371215820312, -0.001907348632812, 0.033538818359375, 0.025588989257812, 0.002639770507812, 0.026687622070312, 0.000335693359375, -0.070220947265625, -0.024581909179688, 0.000381469726562, -0.011077880859375, 0.000442504882812, 0.043579101562500, -0.018676757812500, -0.002670288085938, -0.041213989257812, -0.008575439453125, 0.016265869140625, 0.019058227539062, -0.023269653320312, 0.046478271484375, 0.027359008789062, 0.034103393554688, 0.031250000000000, -0.024139404296875, 0.038528442382812, 0.016708374023438, 0.084152221679688, 0.024169921875000, -0.031707763671875, 0.031112670898438, -0.058731079101562, -0.024826049804688, 0.043777465820312, 0.018341064453125, 0.048355102539062, 0.056686401367188, -0.019470214843750, 0.019882202148438, 0.021942138671875, 0.018096923828125, -0.008651733398438, -0.022674560546875, -0.020919799804688, -0.013885498046875, -0.008941650390625, 0.008392333984375, -0.017242431640625, 0.007461547851562, 0.055587768554688, 0.060714721679688, -0.023651123046875, 0.067810058593750, 0.022079467773438, 0.037551879882812, 0.040283203125000, 0.018264770507812, -0.006622314453125, -0.007934570312500, 0.095199584960938, 0.006713867187500, 0.020782470703125, 0.031738281250000, 0.003372192382812, -0.006942749023438, 0.046600341796875, -0.015502929687500, -0.011764526367188, 0.036331176757812, -0.015548706054688, 0.029449462890625, -0.042388916015625, 0.040634155273438, 0.020477294921875, -0.061981201171875, -0.023330688476562, 0.041381835937500, 0.003402709960938, 0.045608520507812, -0.014434814453125, 0.050003051757812, 0.032348632812500, 0.021499633789062, -0.003189086914062, 0.027786254882812, 0.020004272460938, 0.042999267578125, 0.036453247070312, -0.003021240234375, 0.043182373046875, -0.001831054687500, 0.096603393554688, 0.056091308593750, -0.011795043945312, 0.046829223632812, -0.081283569335938, 0.008209228515625, 0.063156127929688, -0.009521484375000, 0.013687133789062, 0.048126220703125, 0.017791748046875, -0.004745483398438, -0.039642333984375, -0.015548706054688, 0.049240112304688, -0.066818237304688, -0.082382202148438, 0.075042724609375, 0.038391113281250, -0.027343750000000, 0.009902954101562, -0.037506103515625, -0.018173217773438, 0.014785766601562, -0.029083251953125, 0.082290649414062, -0.025100708007812, -0.044769287109375, -0.004318237304688, -0.046752929687500, 0.015213012695312, -0.005111694335938, 0.058746337890625, -0.044143676757812, -0.028213500976562, 0.039291381835938, -0.057159423828125, -0.013641357421875, 0.008178710937500, -0.034835815429688, -0.022293090820312, 0.041336059570312, -0.048126220703125, -0.069900512695312, 0.032272338867188, 0.088760375976562, 0.031127929687500, -0.069488525390625, -0.068496704101562, 0.046401977539062, 0.089843750000000, -0.041122436523438, 0.040588378906250, -0.051818847656250, -0.010757446289062, 0.043884277343750, -0.041244506835938, 0.076553344726562, 0.016906738281250, -0.014831542968750, -0.022109985351562, -0.050354003906250, 0.054885864257812, -0.033325195312500, 0.065139770507812, 0.018051147460938, -0.033035278320312, 0.019302368164062, -0.017288208007812, 0.063003540039062, 0.015472412109375, 0.001953125000000, -0.037780761718750, 0.008865356445312, -0.022705078125000, -0.036666870117188, -0.024154663085938, 0.076293945312500, 0.037765502929688, -0.076980590820312, -0.061264038085938, 0.063339233398438, 0.085311889648438, -0.029876708984375, 0.054550170898438, -0.033294677734375, -0.037780761718750, 0.045547485351562, -0.068069458007812, 0.053100585937500, 0.015289306640625, -0.020248413085938, 0.027191162109375, -0.038009643554688, 0.041488647460938, -0.016464233398438, 0.039733886718750, 0.025192260742188, -0.029220581054688, 0.026153564453125, -0.008300781250000, 0.037597656250000, 0.023147583007812, -0.054931640625000, 0.011749267578125, -0.057769775390625, -0.023803710937500, 0.033843994140625, -0.004837036132812, 0.042984008789062, 0.054092407226562, -0.037017822265625, -0.009262084960938, -0.030868530273438, -0.005706787109375, 0.007019042968750, -0.076354980468750, 0.017272949218750, 0.009490966796875, -0.009109497070312, 0.031555175781250, 0.023254394531250, -0.044494628906250, -0.123291015625000, -0.034515380859375, 0.003219604492188, -0.040664672851562, -0.015930175781250, -0.020492553710938, 0.031967163085938, 0.031906127929688, -0.003585815429688, -0.050781250000000, 0.021697998046875, 0.044006347656250, -0.053665161132812, -0.006988525390625, -0.010513305664062, -0.025756835937500, -0.003997802734375, 0.030776977539062, 0.044906616210938, 0.025741577148438, -0.009887695312500, -0.010269165039062, -0.014801025390625, -0.021209716796875, -0.002883911132812, -0.005249023437500, -0.003646850585938, -0.034484863281250, 0.022857666015625, -0.008789062500000, -0.037094116210938, -0.031799316406250, -0.065765380859375, 0.014022827148438, 0.010314941406250, -0.055770874023438, -0.015899658203125, -0.056777954101562, -0.013839721679688, 0.040328979492188, 0.002792358398438, -0.035995483398438, 0.038391113281250, 0.049011230468750, -0.058029174804688, -0.021453857421875, -0.034698486328125, 0.007186889648438, 0.007781982421875, 0.032836914062500, 0.072402954101562, 0.043548583984375, -0.023574829101562, 0.039733886718750, 0.017120361328125, 0.006454467773438, 0.011642456054688, -0.003646850585938, 0.020156860351562, 0.011535644531250, 0.007003784179688, 0.005416870117188, -0.006866455078125, 0.020446777343750, -0.048110961914062, -0.010894775390625, -0.008224487304688, -0.059387207031250, 0.047744750976562, -0.014541625976562, 0.026794433593750, 0.031265258789062, -0.043655395507812, -0.055633544921875, 0.081024169921875, 0.027587890625000, -0.000381469726562, 0.070129394531250, -0.010040283203125, 0.013732910156250, 0.050415039062500, -0.032974243164062, 0.013824462890625, 0.004501342773438, 0.015045166015625, -0.017868041992188, -0.053054809570312, -0.024215698242188, 0.063796997070312, 0.047790527343750, 0.044021606445312, 0.070251464843750, 0.013259887695312, 0.000717163085938, -0.013717651367188, 0.022323608398438, -0.007553100585938, -0.026458740234375, 0.044906616210938, -0.012405395507812, -0.004302978515625, -0.032882690429688, 0.047180175781250, 0.044357299804688, -0.002578735351562, -0.014114379882812, 0.011093139648438, -0.006210327148438, -0.015060424804688, 0.030364990234375, -0.003021240234375, 0.017089843750000, -0.001205444335938, 0.016265869140625, 0.042221069335938, 0.006469726562500, 0.000610351562500, 0.013824462890625, -0.033721923828125, -0.011245727539062, 0.030593872070312, 0.033615112304688, 0.020095825195312, 0.023956298828125, -0.026123046875000, -0.017807006835938, 0.015335083007812, 0.007980346679688, 0.003082275390625, -0.014450073242188, 0.007659912109375, -0.002441406250000, -0.020065307617188, -0.028060913085938, 0.014434814453125, 0.002471923828125, 0.006652832031250, 0.008316040039062, 0.040008544921875, -0.008255004882812, -0.001296997070312, 0.055023193359375, -0.031982421875000, 0.050521850585938, 0.003326416015625, -0.009582519531250, -0.009262084960938, 0.036254882812500, 0.004211425781250, 0.028472900390625, -0.036148071289062, 0.009750366210938, 0.081832885742188, 0.006072998046875, 0.013122558593750, 0.053176879882812, 0.003341674804688, -0.033050537109375, -0.004516601562500, 0.039749145507812, -0.000610351562500, -0.020690917968750, 0.032623291015625, -0.046127319335938, -0.043533325195312, -0.016342163085938, -0.049972534179688, 0.044052124023438, -0.016204833984375, 0.017456054687500, 0.014221191406250, 0.019348144531250, -0.019912719726562, 0.038085937500000, -0.017456054687500, 0.000518798828125, 0.041854858398438, -0.000808715820312, 0.003128051757812, -0.017639160156250, 0.029937744140625, -0.015243530273438, -0.010589599609375, -0.001556396484375, 0.029144287109375, 0.010589599609375, 0.032440185546875, -0.007431030273438, -0.005584716796875, 0.022125244140625, -0.019897460937500, -0.003738403320312, -0.021484375000000, -0.030822753906250, 0.029876708984375, 0.038314819335938, 0.032409667968750, -0.065017700195312, 0.030227661132812, -0.009597778320312, -0.016540527343750, -0.007400512695312, -0.010894775390625, 0.000625610351562, 0.015029907226562, -0.000686645507812, -0.020980834960938, -0.032287597656250, -0.037185668945312, -0.008926391601562, 0.006271362304688, -0.019714355468750, 0.009857177734375, 0.016754150390625, 0.006057739257812, -0.000411987304688, -0.002853393554688, 0.035507202148438, -0.024490356445312, -0.021087646484375, -0.020919799804688, 0.006927490234375, -0.021072387695312, 0.017883300781250, -0.019149780273438, -0.027862548828125, -0.007949829101562, -0.015716552734375, -0.003784179687500, -0.019180297851562, -0.036178588867188, -0.008819580078125, -0.022766113281250, -0.003341674804688, 0.005981445312500, -0.000579833984375, -0.011993408203125, -0.009353637695312, -0.052368164062500, 0.005752563476562, 0.014450073242188, -0.021438598632812, -0.017425537109375, -0.019165039062500, 0.004257202148438, 0.012695312500000, 0.019943237304688, -0.062576293945312, 0.025588989257812, -0.015228271484375, 0.004028320312500, 0.041885375976562, 0.011032104492188, 0.022567749023438, -0.005371093750000, 0.000488281250000, 0.020156860351562, 0.018981933593750, 0.041366577148438, -0.038864135742188, -0.019638061523438, -0.014938354492188, -0.061141967773438, 0.005889892578125, -0.008087158203125, -0.030059814453125, 0.002197265625000, -0.008941650390625, -0.003540039062500, 0.072494506835938, 0.003784179687500, -0.054748535156250, 0.082794189453125, -0.011474609375000, 0.007339477539062, -0.026824951171875, 0.029144287109375, -0.011871337890625, -0.004241943359375, 0.015075683593750, 0.052658081054688, 0.034896850585938, 0.057815551757812, 0.040756225585938, 0.008438110351562, -0.007125854492188, -0.020660400390625, 0.005996704101562, -0.037063598632812, -0.030670166015625, 0.079284667968750, 0.012130737304688, 0.008804321289062, -0.066146850585938, 0.034881591796875, 0.036880493164062, 0.004791259765625, -0.000381469726562, -0.027725219726562, 0.008666992187500, 0.010467529296875, 0.010955810546875, 0.001983642578125, -0.000854492187500, 0.033142089843750, 0.011383056640625, 0.013870239257812, -0.038024902343750, 0.025222778320312, -0.006637573242188, 0.007843017578125, -0.006546020507812, 0.068099975585938, 0.040679931640625, 0.045364379882812, -0.006805419921875, 0.008773803710938, -0.018554687500000, 0.019042968750000, -0.021423339843750, -0.025329589843750, 0.007354736328125, 0.042999267578125, -0.006561279296875, 0.021041870117188, -0.000244140625000, -0.018234252929688, 0.024261474609375, 0.014389038085938, 0.017410278320312, -0.016189575195312, 0.026565551757812, -0.013015747070312, 0.045669555664062, -0.050888061523438, 0.008377075195312, 0.087448120117188, -0.032012939453125, -0.001708984375000, -0.047790527343750, 0.025482177734375, 0.022659301757812, -0.003372192382812, -0.054000854492188, 0.070114135742188, -0.023834228515625, 0.054885864257812, 0.030899047851562, 0.015426635742188, -0.018020629882812, 0.015075683593750, 0.001037597656250, 0.037597656250000, -0.016738891601562, 0.072174072265625, -0.019027709960938, -0.012359619140625, 0.008636474609375, -0.019165039062500, 0.041458129882812, 0.005615234375000, -0.020828247070312, -0.025329589843750, 0.006042480468750, 0.056625366210938, 0.060333251953125, 0.004486083984375, -0.018280029296875, 0.032791137695312, 0.020065307617188, 0.019607543945312, 0.007217407226562, 0.022750854492188, -0.033081054687500, -0.018478393554688, 0.003570556640625, 0.034713745117188, -0.008590698242188, 0.029907226562500, 0.044006347656250, 0.014221191406250, -0.078002929687500, -0.001785278320312, 0.020614624023438, -0.026229858398438, -0.031555175781250, 0.022567749023438, 0.012313842773438, -0.023864746093750, -0.107925415039062, 0.021621704101562, 0.026046752929688, 0.085830688476562, 0.051055908203125, -0.086410522460938, 0.021667480468750, 0.017593383789062, 0.021667480468750, -0.015029907226562, -0.043045043945312, 0.017654418945312, 0.031738281250000, 0.028778076171875, -0.015899658203125, 0.002426147460938, -0.036773681640625, -0.029754638671875, -0.022140502929688, 0.030776977539062, 0.042617797851562, -0.005569458007812, 0.029113769531250, 0.009231567382812, -0.073562622070312, 0.020919799804688, 0.058090209960938, -0.002105712890625, 0.018554687500000, -0.004211425781250, 0.013504028320312, -0.048400878906250, -0.009140014648438, 0.020645141601562, 0.033020019531250, 0.064224243164062, 0.057464599609375, -0.015716552734375, 0.059280395507812, 0.035736083984375, 0.055130004882812, -0.089981079101562, -0.031082153320312, 0.022460937500000, 0.015762329101562, 0.019531250000000, -0.056732177734375, -0.004150390625000, 0.004409790039062, -0.032226562500000, -0.042709350585938, 0.037612915039062, -0.051361083984375, 0.007476806640625, 0.049331665039062, 0.050125122070312, -0.122756958007812, 0.008773803710938, 0.028686523437500, 0.005340576171875, 0.033462524414062, 0.040100097656250, -0.052932739257812, 0.005355834960938, -0.007751464843750, -0.035903930664062, 0.031646728515625, 0.025894165039062, 0.030090332031250, -0.057174682617188, 0.051666259765625, 0.139953613281250, 0.009613037109375, -0.003570556640625, 0.005416870117188, -0.010421752929688, 0.003509521484375, 0.014068603515625, 0.021987915039062, 0.001861572265625, -0.045776367187500, -0.041000366210938, 0.033081054687500, -0.004669189453125, 0.023178100585938, -0.005676269531250, -0.006347656250000, 0.074371337890625, -0.006820678710938, 0.069885253906250, -0.027999877929688, -0.031234741210938, -0.042617797851562, 0.014801025390625, 0.011566162109375, -0.036621093750000, -0.098846435546875, -0.019989013671875, 0.001220703125000, 0.053009033203125, 0.019271850585938, 0.009414672851562, 0.040191650390625, 0.135299682617188, 0.004425048828125, 0.014572143554688, -0.023773193359375, -0.035461425781250, 0.029052734375000, 0.042175292968750, 0.015625000000000, 0.006286621093750, -0.047927856445312, 0.012969970703125, 0.032287597656250, -0.003723144531250, -0.002838134765625, 0.006027221679688, -0.034988403320312, 0.073989868164062, -0.028823852539062, 0.049484252929688, -0.020019531250000, -0.052124023437500, -0.033477783203125, -0.027313232421875, -0.030517578125000, -0.010604858398438, -0.001510620117188, -0.048599243164062, -0.009307861328125, 0.031707763671875, 0.067581176757812, 0.025909423828125, 0.044616699218750, 0.132308959960938, 0.029968261718750, 0.039779663085938, -0.004486083984375, -0.012878417968750, 0.039489746093750, 0.002731323242188, -0.039535522460938, -0.017990112304688, 0.008758544921875, 0.030731201171875, -0.012466430664062, 0.017898559570312, 0.013229370117188, 0.003250122070312, 0.008544921875000, 0.049194335937500, 0.001403808593750, 0.074218750000000, -0.028594970703125, -0.031295776367188, 0.025177001953125, 0.029617309570312, -0.079971313476562, -0.042419433593750, 0.030914306640625, -0.070617675781250, 0.023803710937500, 0.037704467773438, 0.041320800781250, 0.029342651367188, 0.024520874023438, 0.042785644531250, 0.006271362304688, 0.058349609375000, -0.079574584960938, 0.049423217773438, 0.009078979492188, 0.030838012695312, 0.014007568359375, 0.072814941406250, 0.018341064453125, -0.031433105468750, 0.042861938476562, 0.019042968750000, -0.014862060546875, 0.028579711914062, 0.036560058593750, 0.039749145507812, 0.044708251953125, 0.023742675781250, -0.049179077148438, -0.061325073242188, -0.004943847656250, 0.022537231445312, -0.038543701171875, 0.033157348632812, -0.134628295898438, -0.009216308593750, 0.061080932617188, 0.000396728515625, 0.009841918945312, -0.063308715820312, 0.049438476562500, 0.034896850585938, 0.038619995117188, 0.079940795898438, 0.006942749023438, -0.013793945312500, 0.035537719726562, 0.025726318359375, 0.003540039062500, 0.022460937500000, 0.000900268554688, 0.021453857421875, 0.046890258789062, 0.001998901367188, 0.004135131835938, -0.008422851562500, 0.001007080078125, 0.054809570312500, 0.009948730468750, 0.034530639648438, -0.018936157226562, -0.086044311523438, -0.001113891601562, -0.005645751953125, -0.071212768554688, 0.028106689453125, -0.028869628906250, -0.010971069335938, -0.003738403320312, -0.002670288085938, 0.049209594726562, 0.012268066406250, -0.002807617187500, 0.014862060546875, 0.016906738281250, 0.043228149414062, -0.002075195312500, 0.029983520507812, 0.003112792968750, -0.007644653320312, -0.004867553710938, 0.011962890625000, 0.047836303710938, 0.048980712890625, 0.003829956054688, 0.042663574218750, -0.024505615234375, 0.045532226562500, 0.052398681640625, 0.048095703125000, -0.071121215820312, 0.029464721679688, -0.066146850585938, -0.024765014648438, -0.010986328125000, 0.068267822265625, -0.121902465820312, 0.000320434570312, 0.039398193359375, -0.048080444335938, 0.060104370117188, 0.015808105468750, -0.014862060546875, -0.014801025390625, 0.065490722656250, -0.010757446289062, -0.009399414062500, -0.026351928710938, 0.055847167968750, 0.048065185546875, 0.051071166992188, 0.005294799804688, 0.000015258789062, 0.023101806640625, -0.014328002929688, 0.003265380859375, 0.014373779296875, 0.015090942382812, -0.007492065429688, 0.031082153320312, 0.047332763671875, 0.034210205078125, -0.021179199218750, 0.021957397460938, 0.055465698242188, -0.000213623046875, 0.024307250976562, 0.013442993164062, -0.032913208007812, -0.025619506835938, 0.065521240234375, 0.002670288085938, 0.012435913085938, -0.029800415039062, 0.005386352539062, 0.032165527343750, -0.011856079101562, -0.018844604492188, 0.009811401367188, 0.020782470703125, -0.015213012695312, -0.007247924804688, 0.082916259765625, 0.021316528320312, -0.048248291015625, 0.006301879882812, -0.075271606445312, 0.024490356445312, 0.011566162109375, 0.028259277343750, -0.022491455078125, 0.054687500000000, 0.000701904296875, 0.012588500976562, -0.022964477539062, 0.009765625000000, 0.048995971679688, -0.023086547851562, 0.034118652343750, 0.027603149414062, -0.013809204101562, -0.016525268554688, 0.033721923828125, 0.005950927734375, 0.019515991210938, 0.009109497070312, -0.010635375976562, 0.005950927734375, 0.004196166992188, -0.005569458007812, -0.002059936523438, -0.028945922851562, -0.030426025390625, -0.000350952148438, 0.055038452148438, -0.008224487304688, -0.006301879882812, -0.011688232421875, -0.060165405273438, -0.003540039062500, 0.026428222656250, 0.005523681640625, -0.004852294921875, 0.008438110351562, 0.005035400390625, 0.028182983398438, -0.002899169921875, 0.027328491210938, 0.033615112304688, -0.052383422851562, 0.014801025390625, -0.014328002929688, 0.036666870117188, -0.013336181640625, 0.015136718750000, 0.049774169921875, 0.004730224609375, 0.000000000000000, -0.003234863281250, 0.022796630859375, -0.002883911132812, -0.002288818359375, -0.101882934570312, 0.068756103515625, 0.020935058593750, -0.113037109375000, 0.014129638671875, 0.001037597656250, 0.026016235351562, -0.026580810546875, -0.088897705078125, 0.027297973632812, 0.018478393554688, -0.080352783203125, 0.043197631835938, -0.078384399414062, -0.074554443359375, -0.001068115234375, -0.049087524414062, 0.025878906250000, 0.031005859375000, -0.023956298828125, -0.004425048828125, -0.105499267578125, -0.021209716796875, -0.037887573242188, 0.035690307617188, -0.086822509765625, -0.066101074218750, -0.007919311523438, -0.021331787109375, 0.052261352539062, 0.001342773437500, -0.036483764648438, -0.057815551757812, 0.036300659179688, 0.027511596679688, -0.065353393554688, 0.026748657226562, 0.016693115234375, 0.025817871093750, -0.025039672851562, -0.022964477539062, 0.018661499023438, 0.038787841796875, -0.066146850585938, 0.050613403320312, -0.075180053710938, -0.070266723632812, 0.000640869140625, -0.025634765625000, -0.034042358398438, 0.040283203125000, -0.031723022460938, -0.003112792968750, -0.015670776367188, -0.001998901367188, -0.001449584960938, 0.037796020507812, -0.016662597656250, -0.053268432617188, -0.007385253906250, -0.020355224609375, 0.036743164062500, 0.016632080078125, -0.065872192382812, -0.027420043945312, 0.055801391601562, -0.006805419921875, -0.000381469726562, -0.014251708984375, -0.000106811523438, 0.047073364257812, 0.004379272460938, 0.003814697265625, 0.048095703125000, 0.047027587890625, -0.014099121093750, 0.005081176757812, -0.009597778320312, -0.021347045898438, -0.021316528320312, -0.049484252929688, -0.019073486328125, 0.042984008789062, -0.037292480468750, -0.008987426757812, -0.011688232421875, 0.015457153320312, 0.028457641601562, -0.001602172851562, 0.018524169921875, 0.004272460937500, -0.050598144531250, -0.036437988281250, 0.071243286132812, -0.007904052734375, 0.007400512695312, -0.042465209960938, -0.016876220703125, -0.005294799804688, -0.033447265625000, 0.010360717773438, 0.023376464843750, -0.011337280273438, -0.008346557617188, -0.040206909179688, 0.035903930664062, -0.008117675781250, -0.004440307617188, -0.010910034179688, -0.038177490234375, -0.029113769531250, 0.002166748046875, -0.058868408203125, 0.091201782226562, -0.001861572265625, -0.114303588867188, -0.058181762695312, -0.034759521484375, -0.036575317382812, -0.052612304687500, 0.034408569335938, -0.056472778320312, 0.037200927734375, 0.005950927734375, -0.019927978515625, 0.012573242187500, 0.015853881835938, -0.042098999023438, -0.018356323242188, -0.008010864257812, 0.013046264648438, -0.028793334960938, 0.019927978515625, 0.029174804687500, -0.007904052734375, 0.020996093750000, 0.017684936523438, 0.045410156250000, -0.000640869140625, -0.010452270507812, -0.000167846679688, -0.014144897460938, -0.006866455078125, 0.008804321289062, -0.024230957031250, 0.004028320312500, -0.010025024414062, -0.063003540039062, -0.035293579101562, -0.021820068359375, -0.012939453125000, -0.018188476562500, -0.036285400390625, -0.033111572265625, -0.013381958007812, -0.011413574218750, -0.034576416015625, 0.008010864257812, 0.012161254882812, -0.015167236328125, -0.008911132812500, 0.011856079101562, -0.012817382812500, 0.032775878906250, 0.011611938476562, 0.042877197265625, -0.016403198242188, 0.002273559570312, 0.032699584960938, 0.028244018554688, -0.034500122070312, 0.016143798828125, -0.002532958984375, 0.007125854492188, 0.027481079101562, -0.016311645507812, -0.041549682617188, 0.004776000976562, -0.005065917968750, 0.011169433593750, -0.015136718750000, 0.010421752929688, 0.002960205078125, -0.047760009765625, -0.067047119140625, 0.000213623046875, 0.027404785156250, -0.025207519531250, -0.047348022460938, 0.019195556640625, -0.000061035156250, 0.115325927734375, 0.008499145507812, -0.033538818359375, 0.031356811523438, 0.011108398437500, 0.140518188476562, -0.137161254882812, 0.003692626953125, 0.030593872070312, 0.072952270507812, 0.026000976562500, 0.007095336914062, -0.021957397460938, 0.046066284179688, 0.028442382812500, 0.040771484375000, -0.055831909179688, -0.026870727539062, -0.032592773437500, 0.002502441406250, 0.060150146484375, 0.108520507812500, 0.027160644531250, -0.088302612304688, -0.041229248046875, -0.056045532226562, 0.012786865234375, -0.006896972656250, -0.055984497070312, -0.126983642578125, -0.044067382812500, -0.098251342773438, 0.036132812500000, 0.006088256835938, -0.032028198242188, -0.000289916992188, 0.084167480468750, 0.088119506835938, -0.036407470703125, -0.071792602539062, -0.026916503906250, 0.019485473632812, -0.158721923828125, -0.164825439453125, -0.037033081054688, 0.038848876953125, 0.028350830078125, 0.076812744140625, -0.013778686523438, -0.127929687500000, 0.002456665039062, 0.034713745117188, 0.025161743164062, -0.070663452148438, 0.015853881835938, 0.043792724609375, -0.030075073242188, -0.003601074218750, 0.008987426757812, -0.021697998046875, -0.028121948242188, -0.072189331054688, 0.015502929687500, 0.074417114257812, 0.218872070312500, -0.004547119140625, 0.006378173828125, -0.028472900390625, 0.022537231445312, 0.231842041015625, 0.047256469726562, 0.031066894531250, -0.005706787109375, -0.028152465820312, -0.169509887695312, -0.054840087890625, -0.007873535156250, 0.036483764648438, 0.051788330078125, -0.018768310546875, -0.046966552734375, -0.045730590820312, 0.091827392578125, -0.020828247070312, -0.154281616210938, -0.034545898437500, 0.035781860351562, 0.055099487304688, -0.076858520507812, 0.069107055664062, -0.042877197265625, 0.015670776367188, 0.058273315429688, -0.019287109375000, -0.064285278320312, 0.092727661132812, 0.061203002929688, 0.005889892578125, 0.086364746093750, -0.029510498046875, -0.014953613281250, 0.020446777343750, -0.074005126953125, -0.041854858398438, 0.031250000000000, -0.009216308593750, -0.090652465820312, 0.063598632812500, -0.017669677734375, -0.080581665039062, -0.000015258789062, 0.007446289062500, -0.001022338867188, 0.138565063476562, -0.185150146484375, 0.017730712890625, 0.114318847656250, 0.029235839843750, 0.031585693359375, -0.069305419921875, -0.114624023437500, -0.166412353515625, -0.007995605468750, 0.016540527343750, -0.000045776367188, -0.042724609375000, -0.058547973632812, 0.017181396484375, 0.049011230468750, -0.050277709960938, -0.022247314453125, -0.072830200195312, 0.023437500000000, 0.015075683593750, -0.008941650390625, 0.003707885742188, -0.053573608398438, 0.087539672851562, -0.034194946289062, -0.008270263671875, 0.000625610351562, -0.003356933593750, 0.039321899414062, -0.003051757812500, 0.074325561523438, -0.076599121093750, 0.018981933593750, -0.034591674804688, 0.014923095703125, -0.053863525390625, -0.009918212890625, -0.058456420898438, -0.035400390625000, 0.013900756835938, -0.089813232421875, -0.061706542968750, 0.088592529296875, 0.021072387695312, -0.047576904296875, 0.029083251953125, 0.275009155273438, -0.025054931640625, 0.086380004882812, 0.025161743164062, 0.058639526367188, 0.094177246093750, -0.052261352539062, 0.112609863281250, 0.012344360351562, -0.124496459960938, -0.117019653320312, -0.018127441406250, -0.096542358398438, -0.083145141601562, 0.034149169921875, -0.036422729492188, 0.080261230468750, 0.043914794921875, 0.173797607421875, -0.086883544921875, -0.232055664062500, -0.121459960937500, -0.052597045898438, -0.009902954101562, -0.073059082031250, 0.174545288085938, -0.107345581054688, 0.021514892578125, 0.097885131835938, 0.068893432617188, -0.069168090820312, 0.075149536132812, -0.176055908203125, -0.044677734375000, 0.031066894531250, -0.045761108398438, -0.055252075195312, -0.048980712890625, -0.006744384765625, 0.031738281250000, 0.001632690429688, 0.067886352539062, 0.052932739257812, 0.054702758789062, -0.051559448242188, -0.005004882812500, -0.007522583007812, -0.077484130859375, -0.037231445312500, 0.140441894531250, -0.003173828125000, 0.049301147460938, 0.195373535156250, 0.008010864257812, -0.026275634765625, 0.079635620117188, 0.004592895507812, 