//Numpy array shape [3, 3, 64, 64]
//Min -0.910079956055
//Max 0.695465087891
//Number of zeros 2

#ifndef W55_H_
#define W55_H_

#ifndef __SYNTHESIS__
weight55_t w55[36864];
#else
weight55_t w55[36864] = {0.011581420898438, -0.009170532226562, -0.010330200195312, -0.004119873046875, 0.014465332031250, 0.001220703125000, -0.004959106445312, 0.002227783203125, -0.000289916992188, -0.031158447265625, -0.012023925781250, 0.003738403320312, -0.015609741210938, -0.027236938476562, 0.000686645507812, 0.010681152343750, -0.015121459960938, -0.015945434570312, 0.000640869140625, -0.017410278320312, -0.027618408203125, 0.016998291015625, -0.036880493164062, 0.003143310546875, -0.019531250000000, -0.004791259765625, -0.003433227539062, 0.004455566406250, 0.004379272460938, -0.014678955078125, -0.008697509765625, 0.008255004882812, -0.006698608398438, -0.020431518554688, 0.008544921875000, -0.022415161132812, -0.015289306640625, 0.006530761718750, 0.012069702148438, -0.007507324218750, 0.012496948242188, 0.009429931640625, -0.003997802734375, 0.012680053710938, -0.012756347656250, -0.026443481445312, -0.017578125000000, 0.015945434570312, -0.003417968750000, -0.008117675781250, -0.017868041992188, 0.001663208007812, -0.010345458984375, -0.028472900390625, -0.000106811523438, -0.016174316406250, -0.009887695312500, -0.008666992187500, -0.005584716796875, -0.009765625000000, 0.016555786132812, -0.017776489257812, 0.002166748046875, -0.020233154296875, -0.002304077148438, 0.009078979492188, -0.022720336914062, -0.037429809570312, 0.001480102539062, 0.004180908203125, 0.008636474609375, -0.010787963867188, -0.008148193359375, -0.019195556640625, -0.025115966796875, 0.001159667968750, -0.013015747070312, 0.013977050781250, -0.000320434570312, 0.019592285156250, -0.004119873046875, -0.045059204101562, -0.012451171875000, -0.023483276367188, -0.029769897460938, 0.004516601562500, -0.036712646484375, 0.008514404296875, -0.005645751953125, -0.009078979492188, -0.003295898437500, -0.014694213867188, -0.012863159179688, -0.013122558593750, 0.009414672851562, 0.003952026367188, 0.008193969726562, -0.007659912109375, -0.002593994140625, 0.005203247070312, -0.026123046875000, -0.001235961914062, 0.007385253906250, -0.017578125000000, 0.012191772460938, -0.002609252929688, -0.005203247070312, 0.011306762695312, -0.001342773437500, -0.008224487304688, -0.017883300781250, 0.016098022460938, -0.012954711914062, -0.007568359375000, -0.009155273437500, -0.003860473632812, -0.010360717773438, -0.004043579101562, -0.022125244140625, -0.020614624023438, 0.001052856445312, -0.018661499023438, 0.000808715820312, 0.011962890625000, 0.009613037109375, -0.019073486328125, 0.001129150390625, -0.033111572265625, -0.014724731445312, 0.001342773437500, -0.037322998046875, -0.033370971679688, -0.015304565429688, 0.005187988281250, -0.000228881835938, -0.019012451171875, 0.000640869140625, 0.005187988281250, -0.033569335937500, -0.009933471679688, -0.030395507812500, -0.006454467773438, 0.001251220703125, 0.012481689453125, 0.002929687500000, -0.020660400390625, -0.004806518554688, -0.010421752929688, -0.019607543945312, 0.003112792968750, -0.022644042968750, 0.012069702148438, 0.001266479492188, -0.020233154296875, -0.006317138671875, -0.020309448242188, 0.011550903320312, -0.002731323242188, 0.000671386718750, -0.019882202148438, -0.007247924804688, 0.006378173828125, -0.000152587890625, -0.004913330078125, -0.013122558593750, 0.005767822265625, -0.015167236328125, -0.015930175781250, 0.004791259765625, 0.008972167968750, -0.002075195312500, 0.010650634765625, -0.001296997070312, -0.014999389648438, 0.002624511718750, 0.010589599609375, -0.009475708007812, -0.013946533203125, 0.003753662109375, 0.001541137695312, 0.013885498046875, -0.025878906250000, -0.020797729492188, -0.019729614257812, 0.001663208007812, -0.000167846679688, 0.004486083984375, 0.005630493164062, 0.001220703125000, -0.013641357421875, -0.018371582031250, -0.007339477539062, -0.002532958984375, -0.012878417968750, 0.033691406250000, 0.010421752929688, 0.031250000000000, 0.005584716796875, -0.020675659179688, -0.008621215820312, 0.001571655273438, -0.019317626953125, 0.002532958984375, 0.005371093750000, 0.006317138671875, -0.027587890625000, -0.008880615234375, -0.009567260742188, -0.017150878906250, 0.001754760742188, 0.006271362304688, 0.000778198242188, -0.009201049804688, -0.002410888671875, 0.017608642578125, 0.000762939453125, 0.007583618164062, -0.024765014648438, 0.026168823242188, 0.002731323242188, 0.004745483398438, -0.018127441406250, 0.004867553710938, 0.027053833007812, -0.017074584960938, -0.006896972656250, 0.004287719726562, -0.002014160156250, -0.001617431640625, -0.003723144531250, 0.005813598632812, 0.021972656250000, -0.005706787109375, 0.004974365234375, -0.008880615234375, -0.007934570312500, 0.017013549804688, 0.004730224609375, 0.001449584960938, -0.000091552734375, -0.009796142578125, 0.002731323242188, -0.001174926757812, -0.000366210937500, 0.008895874023438, 0.019332885742188, 0.010437011718750, 0.012649536132812, -0.002685546875000, 0.005630493164062, -0.000564575195312, 0.005493164062500, 0.001998901367188, -0.012298583984375, 0.007354736328125, -0.014282226562500, 0.019577026367188, 0.000122070312500, 0.003479003906250, -0.012756347656250, 0.017257690429688, 0.005905151367188, -0.008163452148438, 0.000915527343750, 0.005676269531250, 0.006561279296875, -0.012863159179688, 0.010360717773438, 0.010818481445312, -0.022125244140625, -0.001693725585938, -0.004226684570312, -0.003341674804688, -0.049240112304688, -0.006546020507812, 0.005401611328125, -0.010726928710938, -0.003067016601562, -0.007736206054688, 0.001693725585938, 0.017868041992188, -0.016494750976562, 0.013549804687500, 0.009811401367188, -0.000061035156250, -0.010848999023438, -0.006164550781250, 0.004104614257812, -0.009567260742188, -0.005050659179688, 0.023162841796875, 0.015563964843750, -0.013153076171875, -0.003173828125000, 0.006225585937500, 0.036132812500000, 0.000137329101562, -0.002990722656250, 0.012908935546875, -0.004486083984375, 0.002456665039062, 0.006958007812500, 0.004119873046875, 0.001647949218750, -0.012802124023438, 0.004806518554688, -0.008697509765625, 0.008361816406250, -0.005050659179688, 0.012588500976562, -0.015060424804688, -0.001007080078125, 0.005920410156250, -0.028671264648438, 0.009918212890625, 0.005111694335938, 0.010848999023438, 0.001296997070312, -0.002182006835938, -0.002410888671875, 0.012542724609375, -0.005844116210938, 0.003479003906250, -0.019912719726562, -0.002075195312500, 0.001434326171875, -0.001434326171875, -0.008117675781250, 0.001953125000000, 0.006286621093750, -0.031753540039062, 0.003890991210938, -0.000518798828125, -0.016235351562500, 0.000549316406250, -0.003723144531250, 0.000442504882812, -0.017730712890625, -0.000961303710938, -0.002868652343750, -0.003433227539062, -0.001007080078125, 0.013961791992188, 0.008636474609375, 0.006698608398438, 0.002655029296875, 0.000518798828125, 0.002853393554688, 0.005416870117188, 0.005889892578125, -0.023330688476562, -0.039871215820312, -0.022827148437500, 0.020156860351562, 0.024322509765625, 0.003387451171875, 0.001693725585938, -0.000122070312500, -0.002914428710938, 0.021911621093750, 0.005737304687500, 0.004028320312500, -0.000366210937500, 0.008956909179688, -0.012985229492188, 0.012008666992188, -0.005554199218750, 0.011505126953125, -0.017395019531250, -0.014923095703125, -0.002319335937500, 0.003662109375000, 0.003906250000000, -0.006286621093750, -0.018615722656250, -0.006301879882812, 0.010589599609375, -0.030197143554688, 0.008682250976562, 0.004577636718750, 0.010742187500000, -0.001083374023438, -0.006301879882812, 0.001358032226562, -0.001785278320312, -0.000015258789062, 0.019134521484375, 0.010192871093750, 0.011550903320312, -0.000411987304688, 0.026977539062500, -0.003036499023438, 0.002822875976562, -0.012039184570312, 0.023361206054688, 0.001708984375000, 0.002517700195312, 0.005828857421875, -0.014221191406250, -0.026794433593750, -0.003601074218750, 0.017410278320312, 0.014846801757812, 0.024307250976562, -0.008636474609375, 0.001678466796875, 0.025222778320312, 0.002212524414062, 0.015670776367188, -0.012222290039062, 0.001052856445312, -0.003021240234375, 0.004745483398438, -0.030014038085938, 0.019058227539062, 0.002197265625000, 0.005142211914062, -0.021636962890625, 0.014862060546875, 0.011123657226562, -0.020462036132812, -0.005401611328125, 0.006072998046875, 0.003112792968750, -0.006378173828125, -0.011917114257812, -0.004211425781250, -0.012207031250000, 0.013778686523438, 0.001358032226562, 0.004867553710938, -0.003707885742188, -0.005081176757812, 0.008102416992188, -0.000686645507812, -0.006790161132812, 0.012023925781250, 0.009536743164062, 0.019699096679688, 0.011306762695312, 0.008041381835938, 0.010925292968750, -0.000289916992188, 0.000701904296875, 0.001556396484375, -0.009048461914062, -0.000732421875000, -0.007781982421875, -0.002838134765625, 0.004196166992188, -0.013671875000000, 0.003768920898438, -0.000869750976562, 0.001220703125000, 0.027587890625000, -0.002563476562500, 0.001449584960938, 0.003189086914062, 0.013046264648438, -0.004623413085938, 0.006576538085938, 0.012207031250000, -0.014358520507812, -0.005004882812500, 0.002410888671875, -0.019515991210938, 0.001266479492188, 0.013900756835938, -0.002227783203125, 0.000289916992188, -0.015747070312500, -0.003112792968750, 0.017623901367188, -0.023757934570312, 0.002487182617188, 0.015975952148438, -0.011901855468750, -0.023742675781250, 0.013946533203125, 0.007614135742188, 0.005691528320312, -0.007644653320312, 0.009796142578125, 0.004364013671875, -0.008728027343750, 0.004577636718750, 0.005050659179688, -0.003097534179688, -0.005157470703125, -0.016067504882812, 0.006713867187500, -0.000244140625000, 0.006515502929688, -0.004943847656250, 0.012145996093750, -0.006027221679688, -0.007827758789062, 0.002975463867188, -0.012298583984375, -0.006423950195312, 0.002136230468750, -0.012420654296875, -0.004959106445312, 0.000305175781250, 0.009963989257812, -0.007141113281250, 0.012863159179688, 0.000259399414062, -0.003234863281250, -0.009521484375000, 0.009841918945312, -0.012863159179688, -0.013824462890625, -0.002868652343750, 0.008483886718750, -0.003860473632812, -0.007247924804688, 0.002487182617188, 0.007492065429688, -0.005310058593750, -0.003356933593750, 0.004608154296875, -0.004409790039062, 0.003173828125000, -0.003784179687500, 0.008865356445312, -0.007507324218750, 0.007751464843750, 0.000671386718750, -0.023269653320312, 0.009750366210938, -0.010955810546875, -0.011337280273438, 0.011871337890625, 0.010650634765625, 0.006195068359375, 0.011627197265625, -0.023330688476562, -0.004333496093750, 0.002716064453125, 0.013351440429688, -0.019805908203125, -0.012161254882812, -0.025772094726562, 0.019531250000000, 0.019454956054688, 0.019744873046875, -0.001556396484375, -0.009460449218750, -0.004730224609375, 0.002624511718750, -0.022872924804688, 0.006011962890625, -0.015731811523438, -0.001480102539062, 0.004455566406250, -0.002426147460938, 0.000183105468750, 0.002380371093750, 0.001144409179688, -0.015411376953125, 0.004425048828125, -0.011810302734375, -0.003662109375000, 0.009765625000000, 0.003631591796875, -0.009078979492188, 0.001678466796875, -0.010314941406250, -0.002120971679688, 0.009658813476562, 0.004974365234375, -0.002120971679688, -0.011062622070312, -0.002731323242188, -0.000518798828125, -0.018386840820312, -0.006256103515625, -0.026153564453125, -0.006851196289062, -0.007019042968750, -0.001037597656250, -0.000091552734375, -0.005493164062500, 0.000076293945312, -0.013046264648438, -0.016571044921875, -0.003265380859375, -0.019531250000000, 0.003616333007812, 0.016204833984375, -0.007644653320312, -0.002059936523438, 0.006164550781250, -0.015518188476562, -0.002029418945312, -0.003112792968750, 0.016189575195312, -0.008392333984375, 0.018310546875000, 0.012969970703125, 0.004714965820312, -0.012573242187500, -0.013992309570312, -0.005722045898438, -0.011047363281250, -0.017089843750000, -0.001937866210938, -0.013076782226562, -0.001266479492188, -0.013854980468750, -0.005035400390625, -0.008819580078125, 0.002807617187500, -0.017669677734375, 0.014343261718750, 0.011474609375000, 0.006088256835938, -0.002914428710938, 0.019393920898438, -0.001251220703125, -0.022750854492188, -0.030120849609375, 0.014862060546875, -0.008407592773438, -0.002960205078125, -0.009567260742188, -0.000549316406250, 0.016189575195312, -0.029479980468750, 0.000183105468750, 0.004974365234375, -0.009735107421875, -0.020324707031250, 0.001358032226562, 0.002395629882812, 0.000228881835938, -0.010437011718750, -0.005142211914062, -0.006896972656250, -0.011932373046875, -0.004455566406250, -0.030075073242188, 0.003540039062500, -0.002029418945312, 0.000549316406250, -0.001419067382812, -0.007781982421875, -0.004486083984375, -0.012466430664062, -0.015380859375000, -0.006820678710938, -0.021759033203125, -0.002929687500000, 0.011489868164062, -0.000625610351562, -0.005111694335938, -0.002227783203125, -0.002609252929688, 0.002456665039062, 0.000427246093750, 0.008346557617188, -0.013107299804688, 0.009872436523438, 0.018463134765625, -0.004165649414062, -0.006210327148438, -0.011413574218750, -0.007003784179688, -0.014221191406250, -0.021270751953125, -0.000686645507812, -0.006179809570312, -0.009414672851562, -0.027755737304688, -0.002822875976562, -0.009994506835938, 0.000167846679688, -0.000946044921875, 0.009384155273438, 0.008758544921875, 0.000518798828125, -0.002761840820312, 0.013702392578125, -0.001831054687500, -0.003189086914062, -0.014434814453125, 0.011886596679688, -0.007461547851562, 0.003890991210938, -0.006072998046875, -0.001785278320312, 0.014999389648438, -0.025833129882812, -0.010772705078125, 0.006286621093750, -0.009994506835938, -0.024093627929688, -0.000671386718750, -0.003402709960938, 0.002822875976562, -0.010757446289062, -0.002288818359375, -0.009048461914062, -0.010131835937500, -0.007614135742188, -0.020339965820312, 0.010650634765625, 0.005340576171875, -0.003112792968750, -0.008117675781250, 0.001327514648438, 0.001388549804688, -0.015808105468750, -0.009399414062500, -0.000946044921875, -0.031539916992188, -0.002410888671875, 0.008453369140625, -0.004074096679688, 0.000488281250000, 0.002304077148438, -0.002578735351562, 0.009719848632812, -0.002609252929688, 0.008239746093750, -0.011795043945312, 0.017730712890625, 0.011856079101562, -0.006607055664062, -0.007720947265625, -0.011749267578125, -0.016296386718750, -0.011627197265625, -0.011962890625000, -0.001419067382812, -0.005844116210938, -0.013748168945312, -0.021804809570312, -0.000686645507812, -0.008071899414062, 0.001495361328125, 0.014984130859375, 0.008483886718750, 0.011276245117188, -0.001007080078125, -0.003799438476562, 0.015533447265625, -0.006530761718750, -0.003692626953125, -0.024246215820312, 0.011398315429688, -0.010192871093750, 0.002944946289062, -0.008499145507812, -0.000732421875000, 0.009674072265625, -0.016708374023438, -0.009826660156250, 0.014633178710938, -0.002151489257812, -0.003646850585938, -0.000152587890625, -0.001525878906250, 0.000137329101562, -0.006805419921875, -0.012832641601562, 0.000320434570312, -0.008331298828125, 0.002197265625000, -0.003021240234375, 0.000961303710938, 0.001327514648438, 0.000854492187500, -0.003265380859375, 0.003860473632812, -0.001342773437500, -0.007904052734375, -0.011001586914062, 0.001831054687500, 0.004104614257812, 0.000289916992188, 0.022476196289062, -0.002822875976562, 0.005798339843750, -0.017532348632812, -0.009048461914062, -0.008224487304688, -0.011688232421875, 0.027893066406250, 0.006164550781250, 0.024902343750000, 0.017639160156250, -0.023666381835938, -0.009765625000000, -0.009796142578125, 0.001403808593750, -0.003021240234375, -0.017898559570312, -0.007522583007812, -0.026077270507812, -0.004943847656250, 0.013961791992188, -0.004913330078125, -0.011993408203125, -0.000701904296875, -0.004302978515625, 0.012084960937500, 0.024032592773438, 0.005828857421875, -0.000305175781250, 0.018814086914062, -0.017562866210938, -0.002960205078125, -0.008071899414062, 0.031265258789062, -0.000625610351562, -0.007553100585938, 0.000411987304688, 0.007263183593750, 0.001556396484375, -0.018585205078125, -0.009948730468750, -0.009643554687500, -0.007034301757812, -0.017028808593750, -0.002288818359375, 0.003189086914062, 0.004913330078125, -0.008834838867188, -0.004257202148438, -0.001968383789062, 0.001586914062500, 0.005004882812500, -0.000442504882812, 0.009490966796875, -0.009613037109375, 0.000808715820312, 0.002334594726562, 0.002792358398438, 0.002532958984375, -0.004989624023438, 0.003067016601562, 0.003982543945312, 0.002960205078125, -0.001647949218750, 0.018966674804688, 0.002258300781250, 0.008926391601562, -0.011703491210938, -0.012390136718750, 0.001541137695312, -0.004592895507812, 0.016586303710938, -0.004425048828125, 0.016036987304688, 0.016906738281250, -0.019943237304688, -0.006713867187500, -0.006256103515625, 0.002548217773438, 0.010070800781250, -0.008804321289062, -0.012313842773438, -0.017898559570312, -0.006103515625000, 0.004150390625000, 0.006317138671875, -0.019012451171875, 0.004440307617188, -0.000564575195312, 0.012252807617188, 0.013381958007812, 0.002609252929688, 0.004882812500000, 0.018539428710938, -0.009246826171875, -0.001785278320312, -0.006347656250000, 0.024429321289062, 0.001968383789062, 0.002075195312500, 0.005355834960938, 0.004257202148438, 0.008834838867188, -0.016250610351562, -0.010848999023438, -0.002365112304688, 0.006683349609375, -0.005355834960938, 0.000854492187500, 0.001571655273438, 0.002746582031250, -0.000198364257812, 0.002502441406250, -0.005371093750000, -0.006713867187500, -0.001586914062500, -0.003295898437500, 0.004943847656250, -0.003692626953125, -0.002593994140625, 0.000030517578125, 0.000457763671875, 0.005218505859375, -0.004928588867188, -0.000823974609375, -0.004043579101562, -0.000213623046875, -0.004272460937500, 0.013504028320312, -0.001174926757812, 0.005203247070312, -0.021652221679688, -0.023147583007812, 0.003295898437500, -0.002456665039062, 0.019744873046875, -0.000518798828125, 0.020111083984375, 0.015182495117188, -0.029983520507812, -0.012908935546875, -0.018478393554688, -0.011245727539062, 0.001647949218750, 0.005264282226562, -0.010314941406250, 0.003875732421875, 0.002304077148438, 0.004821777343750, 0.001708984375000, -0.004730224609375, -0.005722045898438, -0.001571655273438, 0.009094238281250, 0.015792846679688, 0.005340576171875, 0.004684448242188, 0.022430419921875, -0.012298583984375, -0.003753662109375, -0.001190185546875, 0.024993896484375, 0.001693725585938, 0.002456665039062, 0.008987426757812, 0.006225585937500, 0.002914428710938, -0.014083862304688, -0.015411376953125, 0.006408691406250, 0.006256103515625, -0.008499145507812, 0.003036499023438, 0.000823974609375, 0.001174926757812, 0.004074096679688, -0.002807617187500, -0.001281738281250, -0.012603759765625, -0.017822265625000, 0.008026123046875, 0.013214111328125, 0.001068115234375, 0.002105712890625, -0.014724731445312, -0.007202148437500, -0.000991821289062, -0.020324707031250, -0.017776489257812, -0.002227783203125, 0.006439208984375, -0.008712768554688, 0.020797729492188, -0.002487182617188, 0.001831054687500, -0.014877319335938, -0.002273559570312, -0.008987426757812, -0.006179809570312, 0.035720825195312, -0.001663208007812, 0.026916503906250, -0.001556396484375, -0.031265258789062, -0.014617919921875, -0.003692626953125, 0.006362915039062, -0.004837036132812, -0.011718750000000, -0.017486572265625, -0.010696411132812, -0.012542724609375, -0.007980346679688, -0.017639160156250, -0.001037597656250, -0.001129150390625, -0.003509521484375, -0.000289916992188, 0.035766601562500, -0.001312255859375, 0.001464843750000, 0.037384033203125, -0.005279541015625, -0.018859863281250, -0.017776489257812, 0.034729003906250, -0.015731811523438, -0.009735107421875, -0.004653930664062, 0.010574340820312, -0.001495361328125, -0.029144287109375, -0.001190185546875, 0.000350952148438, -0.009262084960938, -0.009185791015625, 0.004776000976562, 0.003570556640625, -0.002639770507812, -0.008529663085938, -0.009078979492188, -0.000076293945312, 0.002746582031250, -0.004623413085938, 0.009674072265625, 0.009109497070312, 0.000137329101562, 0.000244140625000, -0.013076782226562, 0.002838134765625, 0.000854492187500, -0.010192871093750, -0.010360717773438, 0.001525878906250, -0.001296997070312, -0.008331298828125, 0.022750854492188, 0.001235961914062, -0.001861572265625, -0.016601562500000, -0.006286621093750, -0.010726928710938, -0.003967285156250, 0.020385742187500, 0.001464843750000, 0.026947021484375, 0.003005981445312, -0.026489257812500, -0.026550292968750, -0.006393432617188, -0.006011962890625, -0.011108398437500, -0.014511108398438, -0.016311645507812, -0.007293701171875, -0.002548217773438, 0.003097534179688, -0.000381469726562, -0.009735107421875, -0.000640869140625, -0.000015258789062, -0.007537841796875, 0.023895263671875, 0.006896972656250, 0.005615234375000, 0.037368774414062, -0.008453369140625, -0.013031005859375, -0.007949829101562, 0.026687622070312, -0.018814086914062, -0.000640869140625, -0.008300781250000, 0.009292602539062, 0.003646850585938, -0.024780273437500, -0.012878417968750, 0.009674072265625, -0.003479003906250, 0.010955810546875, 0.001571655273438, -0.003097534179688, -0.000274658203125, -0.014297485351562, -0.003097534179688, 0.005706787109375, -0.006469726562500, 0.000137329101562, 0.001174926757812, -0.005981445312500, -0.005950927734375, 0.000259399414062, -0.009948730468750, 0.002258300781250, 0.000091552734375, -0.009078979492188, -0.014053344726562, -0.000946044921875, -0.002670288085938, -0.001632690429688, 0.030731201171875, 0.000274658203125, -0.002365112304688, -0.018585205078125, -0.009170532226562, -0.001098632812500, -0.000381469726562, 0.027359008789062, -0.003921508789062, 0.031829833984375, 0.003494262695312, -0.009399414062500, -0.021728515625000, -0.009719848632812, -0.010498046875000, 0.005737304687500, -0.019378662109375, -0.010086059570312, -0.003204345703125, -0.000991821289062, -0.000549316406250, -0.003875732421875, -0.010665893554688, -0.002349853515625, -0.006713867187500, -0.014480590820312, 0.030044555664062, 0.002838134765625, -0.005447387695312, 0.037734985351562, -0.003967285156250, -0.012817382812500, 0.000473022460938, 0.021316528320312, -0.006515502929688, -0.009490966796875, -0.005065917968750, 0.009780883789062, 0.005584716796875, -0.023727416992188, -0.018218994140625, 0.000000000000000, 0.006393432617188, -0.004409790039062, -0.002868652343750, -0.001266479492188, -0.001876831054688, -0.003387451171875, 0.002563476562500, 0.008117675781250, -0.003036499023438, -0.003372192382812, -0.010513305664062, -0.000030517578125, -0.003921508789062, -0.001708984375000, -0.002868652343750, -0.000045776367188, -0.001098632812500, -0.003265380859375, -0.002258300781250, -0.001007080078125, -0.000930786132812, 0.000473022460938, 0.002349853515625, -0.002029418945312, 0.000656127929688, 0.000701904296875, 0.006576538085938, -0.005508422851562, -0.000595092773438, 0.004516601562500, 0.003463745117188, 0.002960205078125, -0.004852294921875, -0.001129150390625, -0.001998901367188, 0.000839233398438, -0.005111694335938, -0.001052856445312, 0.002548217773438, -0.000793457031250, -0.007461547851562, 0.000610351562500, -0.003173828125000, -0.004379272460938, -0.003982543945312, -0.001388549804688, -0.004760742187500, -0.004882812500000, 0.003341674804688, -0.002212524414062, -0.000427246093750, 0.002822875976562, 0.001296997070312, -0.002441406250000, -0.001937866210938, 0.002914428710938, -0.000198364257812, -0.003219604492188, -0.001922607421875, -0.000595092773438, -0.000289916992188, -0.006805419921875, 0.007339477539062, -0.004730224609375, 0.000213623046875, -0.003280639648438, -0.002059936523438, -0.001739501953125, 0.001632690429688, -0.003372192382812, 0.002014160156250, -0.001647949218750, 0.001556396484375, -0.004226684570312, -0.012374877929688, 0.000869750976562, -0.004989624023438, -0.000442504882812, -0.004348754882812, 0.001205444335938, -0.001800537109375, 0.002426147460938, -0.001449584960938, -0.002655029296875, -0.002059936523438, -0.002288818359375, -0.000411987304688, -0.002838134765625, -0.001510620117188, 0.002151489257812, 0.004669189453125, 0.001312255859375, -0.000381469726562, -0.000274658203125, -0.001403808593750, -0.000411987304688, -0.000671386718750, -0.002105712890625, -0.004150390625000, -0.001464843750000, -0.005508422851562, -0.001403808593750, -0.000152587890625, -0.003723144531250, 0.001296997070312, 0.001586914062500, -0.003997802734375, -0.002639770507812, 0.000320434570312, -0.001541137695312, -0.005371093750000, 0.001876831054688, -0.001068115234375, -0.004272460937500, -0.000366210937500, -0.002334594726562, -0.001632690429688, -0.000747680664062, -0.000335693359375, 0.000076293945312, -0.001815795898438, -0.004318237304688, -0.000473022460938, -0.003906250000000, 0.001953125000000, 0.000122070312500, 0.003372192382812, -0.003829956054688, -0.001052856445312, -0.004714965820312, -0.002670288085938, -0.002395629882812, 0.002105712890625, -0.000183105468750, -0.000747680664062, -0.004867553710938, -0.003097534179688, 0.000305175781250, -0.012130737304688, -0.000091552734375, 0.002166748046875, -0.002624511718750, -0.004348754882812, -0.001678466796875, -0.000228881835938, -0.002182006835938, 0.000885009765625, -0.003936767578125, -0.001785278320312, -0.005508422851562, -0.002532958984375, -0.009307861328125, -0.001098632812500, -0.003768920898438, -0.004531860351562, -0.001068115234375, 0.000762939453125, -0.003295898437500, -0.007400512695312, -0.001220703125000, -0.006317138671875, 0.000350952148438, -0.006805419921875, -0.003860473632812, -0.003997802734375, -0.001663208007812, -0.002151489257812, -0.000228881835938, -0.000061035156250, 0.001266479492188, -0.010498046875000, -0.002182006835938, 0.000717163085938, -0.003112792968750, 0.000595092773438, -0.000518798828125, -0.002838134765625, -0.002853393554688, -0.001449584960938, -0.001617431640625, -0.003463745117188, -0.006835937500000, 0.000076293945312, -0.003463745117188, 0.000305175781250, -0.004486083984375, -0.000900268554688, -0.004409790039062, 0.002288818359375, -0.000183105468750, -0.007385253906250, -0.002853393554688, 0.000457763671875, -0.001251220703125, -0.002136230468750, -0.000289916992188, -0.002792358398438, -0.001220703125000, 0.001373291015625, -0.004409790039062, 0.005477905273438, 0.003616333007812, 0.006164550781250, -0.001861572265625, 0.003402709960938, -0.002029418945312, -0.000640869140625, 0.001785278320312, -0.004684448242188, -0.002105712890625, -0.004486083984375, 0.003952026367188, 0.004119873046875, -0.002151489257812, 0.002563476562500, 0.007843017578125, 0.000442504882812, 0.002044677734375, 0.005111694335938, 0.003585815429688, -0.003417968750000, 0.005203247070312, 0.006286621093750, 0.003036499023438, 0.003662109375000, -0.002395629882812, 0.004760742187500, 0.003448486328125, -0.000259399414062, 0.003158569335938, -0.000198364257812, 0.001052856445312, -0.003814697265625, -0.000747680664062, 0.008239746093750, 0.006866455078125, 0.002761840820312, -0.002456665039062, -0.003906250000000, 0.001754760742188, 0.003372192382812, -0.004959106445312, -0.000854492187500, 0.005981445312500, -0.001464843750000, 0.008911132812500, 0.001327514648438, 0.003799438476562, -0.002883911132812, 0.004486083984375, 0.000396728515625, 0.001205444335938, -0.001617431640625, 0.002456665039062, 0.003875732421875, -0.003341674804688, 0.004486083984375, -0.002548217773438, -0.002944946289062, -0.003097534179688, 0.001815795898438, 0.003845214843750, -0.000396728515625, 0.002243041992188, 0.004623413085938, 0.004592895507812, 0.007171630859375, 0.002716064453125, 0.000106811523438, 0.001876831054688, 0.000503540039062, 0.001266479492188, -0.002136230468750, 0.000900268554688, 0.002075195312500, 0.001220703125000, 0.000595092773438, -0.001937866210938, 0.001571655273438, 0.005355834960938, 0.002044677734375, 0.002777099609375, 0.003936767578125, 0.002166748046875, -0.001693725585938, 0.001525878906250, 0.004516601562500, -0.000030517578125, 0.003723144531250, -0.006088256835938, 0.001556396484375, 0.003143310546875, 0.000457763671875, 0.001388549804688, -0.000350952148438, -0.003967285156250, -0.006622314453125, 0.003326416015625, 0.008087158203125, 0.003982543945312, 0.001876831054688, -0.001419067382812, -0.003616333007812, 0.001266479492188, 0.001525878906250, -0.002746582031250, 0.001113891601562, 0.001907348632812, -0.004806518554688, 0.006317138671875, 0.002182006835938, 0.000747680664062, -0.002532958984375, 0.003280639648438, 0.004226684570312, -0.000518798828125, 0.001235961914062, -0.002136230468750, 0.003417968750000, -0.002410888671875, 0.000244140625000, -0.002822875976562, -0.002273559570312, -0.001281738281250, 0.000457763671875, 0.004409790039062, 0.001449584960938, 0.000289916992188, 0.002319335937500, 0.003494262695312, 0.005264282226562, -0.001007080078125, 0.006561279296875, 0.001052856445312, 0.003768920898438, -0.000350952148438, -0.006317138671875, -0.000640869140625, 0.001464843750000, -0.000640869140625, 0.000518798828125, -0.001800537109375, -0.000732421875000, 0.001724243164062, 0.000671386718750, -0.003082275390625, -0.010147094726562, 0.004150390625000, -0.001922607421875, -0.000671386718750, 0.000656127929688, 0.000671386718750, 0.000427246093750, -0.003616333007812, 0.001434326171875, -0.003494262695312, -0.000198364257812, 0.001296997070312, -0.004119873046875, 0.003112792968750, -0.006057739257812, 0.000289916992188, 0.007293701171875, 0.003280639648438, 0.001998901367188, -0.004547119140625, -0.002792358398438, 0.000457763671875, 0.002517700195312, -0.004409790039062, -0.002609252929688, 0.002197265625000, -0.003814697265625, 0.005294799804688, 0.001052856445312, -0.000656127929688, -0.005432128906250, 0.000839233398438, -0.000183105468750, -0.002685546875000, -0.001495361328125, 0.000457763671875, -0.007690429687500, -0.002136230468750, 0.001815795898438, -0.001190185546875, -0.001571655273438, -0.001525878906250, 0.000228881835938, 0.003982543945312, 0.003555297851562, -0.001358032226562, 0.001037597656250, -0.002822875976562, 0.004150390625000, 0.000671386718750, -0.001068115234375, -0.000854492187500, -0.000228881835938, -0.000610351562500, -0.007125854492188, -0.001983642578125, -0.014205932617188, 0.002532958984375, 0.002944946289062, -0.003967285156250, 0.003234863281250, 0.002365112304688, -0.001464843750000, 0.005065917968750, 0.003860473632812, 0.002105712890625, -0.001159667968750, 0.004638671875000, 0.002120971679688, 0.004730224609375, -0.003036499023438, -0.003585815429688, 0.002151489257812, 0.002304077148438, 0.000671386718750, -0.002273559570312, 0.000076293945312, -0.002197265625000, 0.001724243164062, -0.003906250000000, -0.000885009765625, -0.001083374023438, 0.002410888671875, -0.003067016601562, -0.001281738281250, -0.000320434570312, 0.003906250000000, -0.006530761718750, 0.000137329101562, 0.005661010742188, -0.001739501953125, 0.002349853515625, -0.006134033203125, 0.002502441406250, -0.002120971679688, 0.001953125000000, -0.005599975585938, -0.000778198242188, -0.005111694335938, -0.000991821289062, 0.006088256835938, -0.001663208007812, 0.000289916992188, 0.001739501953125, -0.001815795898438, -0.000885009765625, 0.001007080078125, -0.000930786132812, 0.001632690429688, 0.002609252929688, 0.001678466796875, 0.000579833984375, 0.008789062500000, 0.003265380859375, -0.001571655273438, -0.001663208007812, 0.000823974609375, 0.000076293945312, -0.009460449218750, -0.000534057617188, -0.015808105468750, 0.001632690429688, 0.004791259765625, -0.002349853515625, 0.002944946289062, 0.000930786132812, -0.000152587890625, 0.006164550781250, 0.005828857421875, -0.001464843750000, 0.001068115234375, 0.002792358398438, 0.005050659179688, 0.003250122070312, 0.000000000000000, -0.000885009765625, 0.003021240234375, 0.004852294921875, 0.003555297851562, -0.000381469726562, 0.000671386718750, -0.003967285156250, 0.001419067382812, 0.001007080078125, 0.002822875976562, 0.000717163085938, -0.001556396484375, -0.003601074218750, -0.002014160156250, -0.006057739257812, 0.004333496093750, 0.001052856445312, 0.000717163085938, 0.002319335937500, -0.002670288085938, 0.004333496093750, -0.002151489257812, 0.002166748046875, -0.006195068359375, 0.001022338867188, -0.000656127929688, 0.000564575195312, -0.002838134765625, 0.001922607421875, 0.005981445312500, 0.000289916992188, 0.003234863281250, -0.000427246093750, -0.001266479492188, -0.003463745117188, 0.000183105468750, 0.000457763671875, -0.001235961914062, 0.000808715820312, 0.002212524414062, -0.000122070312500, 0.005172729492188, 0.003463745117188, -0.000869750976562, -0.003372192382812, 0.002319335937500, -0.000427246093750, -0.008743286132812, -0.000076293945312, -0.011459350585938, 0.002090454101562, 0.000701904296875, -0.003585815429688, 0.001571655273438, -0.000488281250000, -0.001693725585938, -0.001510620117188, -0.001235961914062, 0.000778198242188, -0.000305175781250, 0.001251220703125, 0.000839233398438, 0.000549316406250, -0.004852294921875, 0.000991821289062, 0.004592895507812, -0.000946044921875, 0.000732421875000, -0.005950927734375, -0.003204345703125, 0.000259399414062, 0.003555297851562, -0.006973266601562, 0.001586914062500, 0.002212524414062, -0.000610351562500, -0.004028320312500, 0.000000000000000, -0.002792358398438, 0.002593994140625, -0.004226684570312, -0.001815795898438, 0.001770019531250, -0.004150390625000, 0.002471923828125, -0.004501342773438, 0.001403808593750, -0.006759643554688, -0.000457763671875, 0.000518798828125, 0.000137329101562, -0.000289916992188, 0.001159667968750, 0.000244140625000, -0.000778198242188, 0.001052856445312, 0.006164550781250, -0.002120971679688, -0.003829956054688, -0.003067016601562, -0.002471923828125, 0.000732421875000, -0.002029418945312, -0.000686645507812, -0.002716064453125, 0.001083374023438, 0.000305175781250, -0.001586914062500, -0.003768920898438, 0.000183105468750, -0.001129150390625, -0.004562377929688, -0.000854492187500, -0.001251220703125, 0.000061035156250, 0.000686645507812, -0.002288818359375, 0.000411987304688, -0.000381469726562, -0.000976562500000, 0.001678466796875, 0.002426147460938, -0.001312255859375, 0.000350952148438, 0.001419067382812, -0.000762939453125, 0.000534057617188, -0.001983642578125, -0.004348754882812, 0.000885009765625, -0.000900268554688, -0.000732421875000, -0.000427246093750, -0.001129150390625, 0.001480102539062, -0.001159667968750, -0.000762939453125, -0.000549316406250, -0.001846313476562, -0.000976562500000, -0.001785278320312, -0.000976562500000, -0.002426147460938, 0.001281738281250, -0.001739501953125, -0.000534057617188, 0.001296997070312, -0.001708984375000, -0.001907348632812, -0.001693725585938, 0.001358032226562, -0.001541137695312, -0.002182006835938, -0.001113891601562, -0.000442504882812, -0.001983642578125, -0.001846313476562, 0.003173828125000, -0.002990722656250, -0.001327514648438, -0.001586914062500, -0.003936767578125, -0.001815795898438, 0.000091552734375, -0.001449584960938, -0.000747680664062, 0.000061035156250, 0.000686645507812, -0.000671386718750, 0.002044677734375, 0.000244140625000, -0.001251220703125, -0.004547119140625, -0.000717163085938, -0.000915527343750, -0.005416870117188, -0.000823974609375, -0.003082275390625, 0.000442504882812, 0.002380371093750, -0.002395629882812, 0.001113891601562, -0.000488281250000, -0.000686645507812, -0.000076293945312, 0.000045776367188, -0.001113891601562, 0.000213623046875, 0.001754760742188, -0.002151489257812, 0.001739501953125, 0.000518798828125, -0.002197265625000, 0.001235961914062, -0.000106811523438, -0.000137329101562, -0.000045776367188, -0.000869750976562, -0.000610351562500, 0.000015258789062, -0.000885009765625, 0.000183105468750, -0.000549316406250, 0.000686645507812, -0.002059936523438, -0.000930786132812, -0.000991821289062, 0.001663208007812, -0.002471923828125, 0.000427246093750, 0.001525878906250, -0.002105712890625, -0.000640869140625, 0.000473022460938, 0.000808715820312, -0.001846313476562, -0.001220703125000, 0.000000000000000, -0.001266479492188, -0.003616333007812, 0.000228881835938, -0.000152587890625, -0.001541137695312, -0.000167846679688, -0.001144409179688, -0.003295898437500, -0.001419067382812, -0.000076293945312, -0.000610351562500, -0.000366210937500, 0.000213623046875, -0.000747680664062, -0.000564575195312, -0.000595092773438, -0.000686645507812, -0.001678466796875, -0.003494262695312, 0.000915527343750, -0.000900268554688, -0.004241943359375, -0.001495361328125, -0.001907348632812, 0.000061035156250, 0.000244140625000, -0.003723144531250, 0.001098632812500, 0.000595092773438, -0.001098632812500, -0.001266479492188, -0.000122070312500, -0.001846313476562, 0.000686645507812, 0.001937866210938, -0.000915527343750, 0.001525878906250, -0.001037597656250, -0.002792358398438, -0.000213623046875, -0.001953125000000, -0.002578735351562, 0.000671386718750, -0.002075195312500, -0.001876831054688, -0.001464843750000, -0.000991821289062, -0.000274658203125, -0.001098632812500, -0.000473022460938, -0.002777099609375, -0.000961303710938, -0.001296997070312, 0.002197265625000, -0.001937866210938, -0.000671386718750, 0.002258300781250, -0.001632690429688, -0.002105712890625, 0.001388549804688, 0.001724243164062, -0.001068115234375, -0.000183105468750, 0.000061035156250, -0.000244140625000, -0.001129150390625, -0.000671386718750, -0.001419067382812, -0.001373291015625, 0.000823974609375, -0.001312255859375, -0.003799438476562, -0.003097534179688, -0.000366210937500, -0.001998901367188, -0.000778198242188, -0.000274658203125, 0.001708984375000, 0.000534057617188, 0.002609252929688, -0.000488281250000, 0.001098632812500, -0.002670288085938, 0.000289916992188, -0.000137329101562, -0.003295898437500, -0.000885009765625, -0.001586914062500, 0.000793457031250, 0.001525878906250, -0.000076293945312, 0.000488281250000, 0.000091552734375, -0.000137329101562, 0.000808715820312, 0.002090454101562, 0.001129150390625, -0.000793457031250, 0.001647949218750, 0.002471923828125, 0.000946044921875, 0.001571655273438, -0.005828857421875, 0.001632690429688, -0.000350952148438, -0.000045776367188, -0.000030517578125, 0.000350952148438, 0.000885009765625, 0.000305175781250, -0.000808715820312, -0.001602172851562, 0.000946044921875, 0.000671386718750, -0.001251220703125, -0.002182006835938, 0.000610351562500, 0.001922607421875, -0.001724243164062, 0.000366210937500, 0.001373291015625, -0.001678466796875, 0.001663208007812, -0.002365112304688, 0.000732421875000, 0.000137329101562, 0.000701904296875, 0.000656127929688, -0.000579833984375, -0.000671386718750, 0.002075195312500, 0.000411987304688, 0.000717163085938, 0.000915527343750, -0.002426147460938, -0.002197265625000, -0.001312255859375, 0.000030517578125, 0.000534057617188, 0.000335693359375, 0.000625610351562, 0.001907348632812, 0.000808715820312, 0.002319335937500, 0.001098632812500, 0.001617431640625, -0.002136230468750, -0.000198364257812, 0.000625610351562, -0.001937866210938, 0.000167846679688, -0.000030517578125, 0.001281738281250, 0.002120971679688, 0.000076293945312, 0.001022338867188, -0.000213623046875, 0.000000000000000, -0.001266479492188, -0.001312255859375, 0.001464843750000, -0.001190185546875, 0.000900268554688, 0.002120971679688, 0.001510620117188, 0.000808715820312, -0.003387451171875, 0.002929687500000, 0.000762939453125, 0.000885009765625, -0.000595092773438, -0.001846313476562, -0.000488281250000, -0.000259399414062, -0.002868652343750, -0.000671386718750, 0.001220703125000, 0.001708984375000, -0.000793457031250, -0.000961303710938, 0.001144409179688, 0.001174926757812, -0.001068115234375, 0.000259399414062, 0.000961303710938, -0.001571655273438, 0.002182006835938, -0.000015258789062, 0.001586914062500, 0.001312255859375, 0.001388549804688, 0.000457763671875, -0.000228881835938, -0.001510620117188, 0.001647949218750, -0.000518798828125, 0.002944946289062, 0.000747680664062, -0.001296997070312, -0.001937866210938, -0.000488281250000, -0.000625610351562, 0.001174926757812, -0.000061035156250, -0.000274658203125, 0.001907348632812, 0.001068115234375, 0.002014160156250, 0.000488281250000, 0.002136230468750, -0.002136230468750, 0.000762939453125, 0.000427246093750, -0.002304077148438, -0.001281738281250, 0.000839233398438, 0.000503540039062, 0.001678466796875, 0.000076293945312, 0.000839233398438, -0.000122070312500, -0.000061035156250, -0.002258300781250, -0.000671386718750, 0.002090454101562, -0.000732421875000, 0.000976562500000, 0.002166748046875, 0.000762939453125, 0.000564575195312, -0.002441406250000, 0.002197265625000, 0.000152587890625, -0.000473022460938, 0.000701904296875, -0.004379272460938, -0.002227783203125, 0.000457763671875, -0.002456665039062, 0.000717163085938, 0.001434326171875, -0.000274658203125, -0.001754760742188, -0.001129150390625, 0.001327514648438, 0.001602172851562, -0.000946044921875, -0.000152587890625, 0.001098632812500, -0.001892089843750, 0.001159667968750, 0.000366210937500, 0.001663208007812, -0.001892089843750, 0.000823974609375, 0.000595092773438, 0.000289916992188, 0.000732421875000, -0.002761840820312, -0.000488281250000, 0.001922607421875, 0.000213623046875, -0.000595092773438, -0.002075195312500, -0.000534057617188, 0.000366210937500, 0.000961303710938, 0.000000000000000, -0.000885009765625, -0.000701904296875, -0.001312255859375, -0.000564575195312, -0.000610351562500, -0.000839233398438, -0.003265380859375, -0.001632690429688, -0.001586914062500, -0.003219604492188, 0.000320434570312, 0.001327514648438, -0.001602172851562, 0.000411987304688, -0.002288818359375, -0.000488281250000, -0.001266479492188, -0.000946044921875, 0.001449584960938, 0.002777099609375, -0.000686645507812, -0.001388549804688, 0.001434326171875, 0.000335693359375, -0.000473022460938, -0.000656127929688, -0.001785278320312, -0.000167846679688, -0.001708984375000, -0.001388549804688, 0.001495361328125, -0.000381469726562, -0.000335693359375, 0.000244140625000, 0.000350952148438, -0.000717163085938, -0.000732421875000, 0.000244140625000, -0.002700805664062, 0.000076293945312, -0.002304077148438, -0.000152587890625, -0.001251220703125, -0.000823974609375, -0.000595092773438, -0.000701904296875, -0.000167846679688, -0.001098632812500, 0.000488281250000, 0.000717163085938, -0.000198364257812, -0.001296997070312, -0.001983642578125, -0.001083374023438, -0.001419067382812, 0.002578735351562, 0.000076293945312, 0.000122070312500, -0.000854492187500, -0.002822875976562, -0.001647949218750, -0.000549316406250, 0.000106811523438, -0.000610351562500, -0.000610351562500, -0.000320434570312, -0.000823974609375, -0.000808715820312, -0.000122070312500, -0.000289916992188, -0.002227783203125, -0.002883911132812, -0.001693725585938, -0.002075195312500, 0.001220703125000, 0.001403808593750, -0.001220703125000, -0.000152587890625, -0.001678466796875, 0.000045776367188, -0.000411987304688, -0.000381469726562, -0.000335693359375, 0.000335693359375, 0.001052856445312, -0.002960205078125, 0.001541137695312, -0.000778198242188, -0.000534057617188, -0.001281738281250, -0.002960205078125, -0.000442504882812, -0.000671386718750, -0.000350952148438, 0.000106811523438, -0.000320434570312, -0.001159667968750, 0.001327514648438, 0.000167846679688, -0.000030517578125, -0.000228881835938, 0.000595092773438, -0.001785278320312, 0.000503540039062, -0.002105712890625, 0.001129150390625, -0.001327514648438, 0.000228881835938, 0.000106811523438, -0.000823974609375, -0.000671386718750, 0.000503540039062, 0.001296997070312, 0.001373291015625, -0.000137329101562, -0.000427246093750, -0.000549316406250, -0.001510620117188, -0.002075195312500, 0.000503540039062, -0.000625610351562, -0.000610351562500, -0.000061035156250, -0.002563476562500, -0.001800537109375, -0.000061035156250, 0.000625610351562, -0.000152587890625, -0.001052856445312, -0.000747680664062, -0.001541137695312, -0.000381469726562, -0.000961303710938, 0.000625610351562, -0.002304077148438, -0.002258300781250, 0.000045776367188, -0.000885009765625, -0.000244140625000, 0.002960205078125, -0.001449584960938, -0.000289916992188, -0.001998901367188, 0.000579833984375, -0.000274658203125, -0.002349853515625, -0.001129150390625, 0.001846313476562, 0.000289916992188, -0.001174926757812, 0.001037597656250, -0.000961303710938, 0.000396728515625, -0.002944946289062, -0.001525878906250, -0.003326416015625, 0.000671386718750, -0.001159667968750, -0.000915527343750, -0.001556396484375, -0.001831054687500, 0.000534057617188, -0.003097534179688, 0.001098632812500, -0.000244140625000, -0.000930786132812, -0.002380371093750, 0.000396728515625, -0.003799438476562, 0.001007080078125, -0.000701904296875, -0.000564575195312, 0.000030517578125, -0.001327514648438, -0.002334594726562, 0.000518798828125, 0.000534057617188, 0.000061035156250, -0.001541137695312, -0.001892089843750, -0.000610351562500, 0.000320434570312, -0.000900268554688, 0.001464843750000, -0.000503540039062, -0.000778198242188, -0.000305175781250, -0.002105712890625, -0.001098632812500, -0.000335693359375, -0.000305175781250, 0.000274658203125, -0.001586914062500, -0.014190673828125, 0.000335693359375, -0.030364990234375, -0.002304077148438, 0.002517700195312, 0.003890991210938, 0.000808715820312, -0.018600463867188, 0.002014160156250, -0.013534545898438, -0.011749267578125, -0.003784179687500, -0.023330688476562, 0.002304077148438, 0.017898559570312, -0.000991821289062, -0.001098632812500, -0.004150390625000, -0.012527465820312, 0.000991821289062, -0.004486083984375, 0.016525268554688, -0.008407592773438, 0.028305053710938, 0.008056640625000, -0.003768920898438, -0.006713867187500, -0.011154174804688, -0.001937866210938, -0.007690429687500, -0.009216308593750, -0.000503540039062, -0.014968872070312, 0.002319335937500, -0.007705688476562, 0.001037597656250, -0.006591796875000, 0.001388549804688, -0.000732421875000, 0.007736206054688, 0.017501831054688, 0.001281738281250, 0.001541137695312, 0.019470214843750, -0.012786865234375, -0.011550903320312, -0.024063110351562, 0.017639160156250, -0.004638671875000, 0.008087158203125, -0.000869750976562, 0.008285522460938, 0.006332397460938, -0.024337768554688, -0.002761840820312, 0.007171630859375, -0.006057739257812, -0.014480590820312, -0.002075195312500, -0.002456665039062, -0.002746582031250, -0.005966186523438, -0.014144897460938, 0.003494262695312, -0.011718750000000, -0.001632690429688, -0.019821166992188, 0.000564575195312, -0.005676269531250, -0.002731323242188, -0.000656127929688, -0.012115478515625, 0.000900268554688, -0.009140014648438, -0.021682739257812, -0.004089355468750, -0.020828247070312, 0.000411987304688, 0.012847900390625, -0.002014160156250, -0.000808715820312, -0.016265869140625, -0.003219604492188, 0.006927490234375, -0.004196166992188, 0.009094238281250, -0.004653930664062, 0.018722534179688, 0.014160156250000, 0.003417968750000, -0.008209228515625, -0.006622314453125, -0.010528564453125, -0.000549316406250, -0.019836425781250, -0.005447387695312, -0.004425048828125, -0.004257202148438, -0.007949829101562, -0.008926391601562, -0.007537841796875, -0.002639770507812, 0.001373291015625, 0.014694213867188, 0.016738891601562, 0.004821777343750, 0.000854492187500, 0.020538330078125, -0.003204345703125, -0.006713867187500, -0.014282226562500, 0.014999389648438, -0.000549316406250, 0.003295898437500, -0.002868652343750, 0.002792358398438, -0.000747680664062, -0.018737792968750, -0.018753051757812, 0.005996704101562, 0.000091552734375, -0.011917114257812, -0.001083374023438, -0.002700805664062, 0.001251220703125, -0.006225585937500, -0.001235961914062, 0.004623413085938, -0.016281127929688, -0.008560180664062, -0.018234252929688, -0.003250122070312, -0.004959106445312, -0.002502441406250, -0.006225585937500, 0.005020141601562, 0.001632690429688, -0.004150390625000, -0.006408691406250, -0.007080078125000, -0.028671264648438, 0.006393432617188, 0.012359619140625, -0.002456665039062, 0.000503540039062, -0.025177001953125, -0.004455566406250, -0.002273559570312, -0.007461547851562, 0.003494262695312, -0.011749267578125, 0.015670776367188, 0.013519287109375, -0.008636474609375, -0.012252807617188, -0.008148193359375, -0.017852783203125, -0.006256103515625, -0.021408081054688, -0.006210327148438, 0.001785278320312, 0.002609252929688, -0.015274047851562, -0.008865356445312, -0.012222290039062, 0.000396728515625, -0.011184692382812, 0.002014160156250, 0.011093139648438, 0.009231567382812, -0.000930786132812, 0.015411376953125, -0.003646850585938, -0.010162353515625, -0.021118164062500, 0.009811401367188, 0.001480102539062, -0.003280639648438, -0.007492065429688, -0.004058837890625, 0.000854492187500, -0.020385742187500, -0.015258789062500, 0.007781982421875, -0.008193969726562, -0.006469726562500, 0.001983642578125, -0.000396728515625, -0.001464843750000, -0.012176513671875, -0.013076782226562, 0.001068115234375, -0.001846313476562, -0.001678466796875, 0.000350952148438, 0.005157470703125, 0.009277343750000, 0.004226684570312, 0.006881713867188, 0.009658813476562, 0.003219604492188, -0.011627197265625, -0.001678466796875, 0.007110595703125, 0.005416870117188, -0.001281738281250, 0.021759033203125, 0.005294799804688, 0.000015258789062, -0.004013061523438, -0.001281738281250, -0.007965087890625, -0.011917114257812, 0.022460937500000, 0.012924194335938, 0.025161743164062, 0.018768310546875, -0.026000976562500, -0.001159667968750, -0.005859375000000, 0.002502441406250, -0.000411987304688, -0.003234863281250, 0.005264282226562, -0.024459838867188, -0.003417968750000, 0.005279541015625, -0.008041381835938, -0.017852783203125, 0.001632690429688, -0.010635375976562, 0.017929077148438, 0.022674560546875, -0.003158569335938, 0.004058837890625, 0.023223876953125, -0.009048461914062, -0.004730224609375, -0.009674072265625, 0.025009155273438, -0.001251220703125, -0.008743286132812, -0.002914428710938, 0.011535644531250, 0.004013061523438, -0.014694213867188, -0.005798339843750, 0.000152587890625, 0.004852294921875, -0.020553588867188, 0.001556396484375, -0.001083374023438, -0.000427246093750, -0.003646850585938, -0.002014160156250, 0.000671386718750, 0.004837036132812, 0.004806518554688, -0.000167846679688, 0.006576538085938, 0.000045776367188, 0.002914428710938, 0.008331298828125, 0.000701904296875, 0.001693725585938, 0.006668090820312, 0.002319335937500, 0.000656127929688, 0.007217407226562, -0.001541137695312, 0.017486572265625, -0.003585815429688, 0.000503540039062, -0.019927978515625, -0.007217407226562, 0.000686645507812, -0.013305664062500, 0.014694213867188, 0.016906738281250, 0.015274047851562, 0.016067504882812, -0.012863159179688, -0.006561279296875, -0.006393432617188, 0.000213623046875, 0.006759643554688, -0.008972167968750, -0.003601074218750, -0.011459350585938, -0.002319335937500, 0.000274658203125, 0.000976562500000, -0.010437011718750, 0.000289916992188, 0.008316040039062, 0.008712768554688, 0.018936157226562, -0.002014160156250, 0.004898071289062, 0.017211914062500, -0.002883911132812, 0.003448486328125, -0.000457763671875, 0.016616821289062, 0.010147094726562, 0.005661010742188, 0.007095336914062, 0.006210327148438, 0.001327514648438, -0.019714355468750, -0.012161254882812, -0.003097534179688, 0.008956909179688, -0.017181396484375, 0.000701904296875, 0.002395629882812, -0.000350952148438, -0.000915527343750, 0.008010864257812, 0.002410888671875, 0.000381469726562, 0.003234863281250, 0.002456665039062, 0.002517700195312, -0.005310058593750, 0.001235961914062, -0.009170532226562, 0.003112792968750, -0.000854492187500, 0.001480102539062, -0.008316040039062, -0.002410888671875, 0.005645751953125, -0.007186889648438, 0.016830444335938, -0.000228881835938, 0.004409790039062, -0.013488769531250, -0.001998901367188, 0.001464843750000, -0.008590698242188, 0.013229370117188, 0.006271362304688, 0.012893676757812, 0.018142700195312, -0.022842407226562, 0.002395629882812, 0.001602172851562, -0.004928588867188, 0.006896972656250, -0.006439208984375, -0.001434326171875, -0.007629394531250, 0.000457763671875, -0.003402709960938, 0.005371093750000, 0.005401611328125, 0.000137329101562, 0.011016845703125, -0.001754760742188, 0.021850585937500, 0.000961303710938, 0.005935668945312, 0.019210815429688, -0.007705688476562, -0.001190185546875, 0.002059936523438, 0.019454956054688, 0.007492065429688, 0.002838134765625, 0.011337280273438, 0.002822875976562, 0.005935668945312, -0.012588500976562, -0.011093139648438, 0.005737304687500, 0.016555786132812, -0.014144897460938, 0.002807617187500, 0.006011962890625, 0.004760742187500, 0.000350952148438, -0.001083374023438, 0.001800537109375, -0.001159667968750, -0.018859863281250, 0.001693725585938, 0.012283325195312, -0.002227783203125, -0.001312255859375, -0.014999389648438, -0.007400512695312, 0.000595092773438, -0.016555786132812, -0.010910034179688, -0.001983642578125, -0.007247924804688, -0.007507324218750, 0.020599365234375, 0.003173828125000, -0.000152587890625, 0.001693725585938, 0.007873535156250, -0.013061523437500, 0.007049560546875, 0.027206420898438, 0.011535644531250, 0.021163940429688, 0.005249023437500, -0.025848388671875, 0.000396728515625, -0.006591796875000, 0.003036499023438, -0.007904052734375, 0.015380859375000, 0.001785278320312, -0.013641357421875, -0.016372680664062, -0.004653930664062, -0.020004272460938, -0.001861572265625, -0.000152587890625, -0.011169433593750, -0.001296997070312, 0.031051635742188, -0.003067016601562, -0.001022338867188, 0.036331176757812, -0.000488281250000, -0.010528564453125, -0.021423339843750, 0.029739379882812, -0.015045166015625, -0.005538940429688, -0.017532348632812, 0.010879516601562, 0.001998901367188, -0.005081176757812, 0.005020141601562, 0.001525878906250, -0.017333984375000, -0.015151977539062, 0.003036499023438, -0.002929687500000, -0.004119873046875, -0.010391235351562, -0.008895874023438, 0.004867553710938, 0.008239746093750, -0.003753662109375, 0.009231567382812, -0.002044677734375, -0.001281738281250, -0.001571655273438, -0.018539428710938, -0.002731323242188, 0.000167846679688, -0.001388549804688, -0.016494750976562, 0.003265380859375, -0.001968383789062, -0.006011962890625, 0.019989013671875, 0.000381469726562, 0.000381469726562, -0.002349853515625, -0.007080078125000, -0.007217407226562, 0.001266479492188, 0.023223876953125, 0.013381958007812, 0.021911621093750, 0.009521484375000, -0.018630981445312, 0.004379272460938, -0.004608154296875, 0.012161254882812, -0.000030517578125, -0.001235961914062, -0.005462646484375, -0.004745483398438, 0.005416870117188, 0.002899169921875, -0.002334594726562, -0.003295898437500, -0.001083374023438, 0.005477905273438, -0.011779785156250, 0.024902343750000, -0.001602172851562, -0.001403808593750, 0.033096313476562, -0.002151489257812, 0.002670288085938, -0.009353637695312, 0.020980834960938, -0.010055541992188, 0.001632690429688, -0.004043579101562, 0.000747680664062, -0.001220703125000, -0.003768920898438, -0.003509521484375, -0.001266479492188, 0.001052856445312, -0.004562377929688, -0.005630493164062, -0.001754760742188, -0.002059936523438, -0.005828857421875, -0.006591796875000, 0.000762939453125, -0.002136230468750, 0.004135131835938, -0.000930786132812, -0.000305175781250, -0.006103515625000, -0.000747680664062, -0.019302368164062, 0.006103515625000, -0.004058837890625, 0.003906250000000, -0.025421142578125, 0.001464843750000, -0.010070800781250, -0.000900268554688, 0.029846191406250, 0.003234863281250, -0.001495361328125, -0.008850097656250, 0.003112792968750, 0.000946044921875, 0.005859375000000, 0.021011352539062, 0.012023925781250, 0.024795532226562, 0.003234863281250, -0.013412475585938, 0.006805419921875, 0.013381958007812, 0.001266479492188, 0.001998901367188, -0.020462036132812, -0.006393432617188, -0.000564575195312, -0.000549316406250, 0.010467529296875, 0.006118774414062, -0.001998901367188, -0.000335693359375, -0.003967285156250, -0.016342163085938, 0.025253295898438, -0.000579833984375, -0.009857177734375, 0.036560058593750, -0.001770019531250, 0.010101318359375, 0.001754760742188, 0.020706176757812, -0.005905151367188, 0.008575439453125, -0.000045776367188, 0.004455566406250, 0.005615234375000, -0.007324218750000, 0.000885009765625, -0.001174926757812, 0.009567260742188, -0.011825561523438, -0.001235961914062, -0.002334594726562, -0.002365112304688, 0.001342773437500, -0.004867553710938, 0.006744384765625, -0.001602172851562, -0.004882812500000, 0.000381469726562, 0.001693725585938, -0.004623413085938, -0.003829956054688, 0.000991821289062, -0.005462646484375, -0.006683349609375, -0.002899169921875, -0.003158569335938, -0.002380371093750, 0.001815795898438, -0.006530761718750, 0.000457763671875, -0.001968383789062, -0.003631591796875, 0.002471923828125, 0.004074096679688, -0.004531860351562, 0.001220703125000, 0.002426147460938, -0.000381469726562, 0.001434326171875, -0.003662109375000, -0.001907348632812, 0.000717163085938, -0.002319335937500, -0.002090454101562, -0.002182006835938, -0.003677368164062, 0.003051757812500, -0.003143310546875, -0.003204345703125, -0.000122070312500, -0.003906250000000, -0.003112792968750, -0.004287719726562, -0.000839233398438, -0.004760742187500, 0.003494262695312, -0.004257202148438, -0.000167846679688, 0.003738403320312, -0.002120971679688, -0.004180908203125, -0.001815795898438, 0.003005981445312, -0.006149291992188, -0.003143310546875, -0.000701904296875, -0.001098632812500, -0.004211425781250, -0.001998901367188, 0.002807617187500, -0.003631591796875, -0.002487182617188, -0.005310058593750, -0.005752563476562, -0.004043579101562, -0.000289916992188, -0.002807617187500, -0.000198364257812, -0.000640869140625, -0.000900268554688, -0.000152587890625, 0.004745483398438, 0.000946044921875, -0.005172729492188, -0.005203247070312, -0.000717163085938, -0.004531860351562, -0.008193969726562, -0.005020141601562, -0.001678466796875, 0.000961303710938, 0.003067016601562, -0.005233764648438, 0.000717163085938, -0.000915527343750, -0.002532958984375, 0.000289916992188, -0.001678466796875, -0.002578735351562, 0.002410888671875, 0.003784179687500, -0.004150390625000, 0.001190185546875, 0.001068115234375, -0.005187988281250, 0.000488281250000, -0.001235961914062, -0.000503540039062, -0.001281738281250, -0.002655029296875, -0.000228881835938, -0.000289916992188, -0.006622314453125, 0.002471923828125, -0.002548217773438, -0.000473022460938, -0.002334594726562, 0.000259399414062, -0.003707885742188, 0.005737304687500, -0.002883911132812, 0.001724243164062, 0.002105712890625, -0.001632690429688, -0.001098632812500, 0.004943847656250, 0.002655029296875, -0.002807617187500, 0.000076293945312, 0.000503540039062, -0.002029418945312, -0.004669189453125, 0.000045776367188, -0.000015258789062, -0.002441406250000, -0.000228881835938, -0.001632690429688, -0.004165649414062, -0.003112792968750, -0.000869750976562, -0.003143310546875, -0.001037597656250, -0.000747680664062, 0.000854492187500, -0.000320434570312, 0.001663208007812, 0.001373291015625, -0.003494262695312, -0.005279541015625, -0.000869750976562, -0.006240844726562, -0.006271362304688, -0.000564575195312, -0.001388549804688, -0.000946044921875, 0.000854492187500, -0.007858276367188, 0.000564575195312, 0.000411987304688, -0.002914428710938, -0.001510620117188, 0.000732421875000, -0.001022338867188, 0.001937866210938, 0.002197265625000, -0.004562377929688, 0.000610351562500, -0.003906250000000, -0.007095336914062, -0.000961303710938, -0.003601074218750, -0.004653930664062, -0.000778198242188, -0.000625610351562, -0.003005981445312, 0.001663208007812, -0.003463745117188, 0.000671386718750, -0.000701904296875, -0.000061035156250, -0.003158569335938, 0.001327514648438, -0.002136230468750, 0.005157470703125, -0.004577636718750, 0.000976562500000, 0.003692626953125, -0.002868652343750, -0.003677368164062, 0.001998901367188, 0.003921508789062, -0.001708984375000, 0.000030517578125, -0.000396728515625, -0.000686645507812, -0.002471923828125, 0.002136230468750, -0.003295898437500, -0.001480102539062, 0.000259399414062, -0.002273559570312, -0.004745483398438, -0.005767822265625, -0.001693725585938, -0.003250122070312, -0.001205444335938, 0.000167846679688, 0.002029418945312, 0.001937866210938, 0.005752563476562, 0.000656127929688, 0.004272460937500, -0.001113891601562, 0.000335693359375, 0.002090454101562, -0.002182006835938, -0.001708984375000, -0.001266479492188, 0.000930786132812, 0.001205444335938, -0.000045776367188, 0.002258300781250, -0.001754760742188, -0.000640869140625, 0.005783081054688, 0.003112792968750, 0.002517700195312, -0.002166748046875, 0.002349853515625, 0.002929687500000, 0.002639770507812, 0.001190185546875, -0.005249023437500, 0.004272460937500, -0.000167846679688, -0.000198364257812, 0.001098632812500, -0.003860473632812, 0.000823974609375, -0.000274658203125, -0.003677368164062, -0.000869750976562, 0.002716064453125, 0.001388549804688, -0.000473022460938, 0.001205444335938, 0.000656127929688, 0.000793457031250, -0.006103515625000, 0.001876831054688, 0.001800537109375, 0.000579833984375, 0.003036499023438, -0.003265380859375, 0.003082275390625, -0.000686645507812, 0.001220703125000, 0.001495361328125, -0.001556396484375, -0.002120971679688, 0.000854492187500, -0.000335693359375, 0.001159667968750, 0.002716064453125, -0.003097534179688, -0.000930786132812, -0.001235961914062, 0.001846313476562, -0.000625610351562, -0.001098632812500, -0.000778198242188, 0.002090454101562, 0.002838134765625, 0.004196166992188, 0.002746582031250, 0.003570556640625, 0.000061035156250, 0.002304077148438, 0.002014160156250, -0.001998901367188, -0.001663208007812, -0.000274658203125, 0.001434326171875, 0.003051757812500, 0.000442504882812, 0.000061035156250, -0.001907348632812, 0.000411987304688, -0.001556396484375, -0.000122070312500, 0.002914428710938, -0.001678466796875, 0.001129150390625, 0.003250122070312, 0.000045776367188, 0.003555297851562, -0.004287719726562, 0.002517700195312, -0.000152587890625, 0.000946044921875, 0.000015258789062, -0.005142211914062, 0.002349853515625, -0.000427246093750, -0.008911132812500, 0.000656127929688, 0.003829956054688, 0.001983642578125, 0.000579833984375, 0.001403808593750, 0.002197265625000, 0.001480102539062, -0.005081176757812, 0.000579833984375, 0.001708984375000, -0.001800537109375, 0.003936767578125, 0.001724243164062, 0.001998901367188, 0.002182006835938, 0.003631591796875, 0.002166748046875, 0.000625610351562, -0.003219604492188, 0.002029418945312, -0.001342773437500, 0.004898071289062, 0.003128051757812, 0.000411987304688, -0.002075195312500, -0.000244140625000, -0.000259399414062, 0.002700805664062, -0.000213623046875, -0.000671386718750, 0.002578735351562, 0.003479003906250, 0.002700805664062, 0.001770019531250, 0.002014160156250, -0.002349853515625, 0.002822875976562, 0.002166748046875, -0.001358032226562, -0.000946044921875, 0.001235961914062, 0.000869750976562, -0.000244140625000, 0.000411987304688, 0.001007080078125, 0.000381469726562, 0.001358032226562, -0.000915527343750, -0.001129150390625, 0.003158569335938, -0.001235961914062, 0.001953125000000, 0.003128051757812, 0.000930786132812, 0.001235961914062, -0.002288818359375, 0.001998901367188, -0.000900268554688, -0.000030517578125, 0.000030517578125, -0.006088256835938, -0.002914428710938, 0.001815795898438, -0.005722045898438, 0.001998901367188, 0.005340576171875, 0.000030517578125, -0.000061035156250, 0.000152587890625, 0.004211425781250, 0.001953125000000, -0.006149291992188, 0.001449584960938, 0.001129150390625, -0.001617431640625, 0.001968383789062, 0.001098632812500, 0.002197265625000, 0.001052856445312, 0.002960205078125, 0.001434326171875, 0.000457763671875, -0.000015258789062, -0.000152587890625, -0.002853393554688, 0.007247924804688, 0.004150390625000, -0.001098632812500, -0.000930786132812, -0.000335693359375, 0.000808715820312, -0.000381469726562, -0.000335693359375, -0.000503540039062, 0.001464843750000, -0.000885009765625, -0.000274658203125, -0.004333496093750, 0.000640869140625, -0.003555297851562, -0.003021240234375, -0.002639770507812, -0.000335693359375, 0.002120971679688, 0.003417968750000, -0.001052856445312, 0.001556396484375, -0.003311157226562, -0.000701904296875, -0.002624511718750, -0.001998901367188, 0.000289916992188, 0.002593994140625, -0.000045776367188, -0.002807617187500, 0.001342773437500, 0.001235961914062, -0.000350952148438, -0.002655029296875, -0.005538940429688, -0.001556396484375, -0.003585815429688, -0.000885009765625, 0.000991821289062, -0.005020141601562, 0.000991821289062, -0.002716064453125, 0.001937866210938, -0.001159667968750, -0.001129150390625, 0.001373291015625, -0.001953125000000, 0.004745483398438, -0.004440307617188, 0.003677368164062, -0.003662109375000, 0.000061035156250, -0.000823974609375, -0.000839233398438, -0.002502441406250, 0.000579833984375, 0.000961303710938, 0.001815795898438, -0.001129150390625, 0.001220703125000, -0.001525878906250, -0.001113891601562, -0.004806518554688, 0.000061035156250, -0.002182006835938, 0.002029418945312, -0.001495361328125, -0.001892089843750, -0.001403808593750, 0.000732421875000, 0.001586914062500, 0.000122070312500, -0.004714965820312, -0.000442504882812, -0.001235961914062, 0.000106811523438, -0.001724243164062, 0.001800537109375, -0.003631591796875, -0.007003784179688, -0.001663208007812, 0.000610351562500, 0.000167846679688, 0.006027221679688, -0.002578735351562, 0.002471923828125, -0.004501342773438, 0.001174926757812, -0.001129150390625, -0.001892089843750, -0.002395629882812, 0.001907348632812, 0.000885009765625, -0.004226684570312, 0.001464843750000, -0.000396728515625, -0.000762939453125, -0.002136230468750, -0.004806518554688, -0.003677368164062, -0.001480102539062, 0.000152587890625, -0.000411987304688, -0.003524780273438, -0.002365112304688, 0.001922607421875, -0.000411987304688, -0.001251220703125, -0.003890991210938, 0.003540039062500, -0.001937866210938, 0.005355834960938, -0.003509521484375, 0.002014160156250, -0.001678466796875, 0.000366210937500, -0.000244140625000, -0.002044677734375, -0.002563476562500, 0.001464843750000, 0.001495361328125, 0.001495361328125, 0.001007080078125, 0.000717163085938, -0.001342773437500, -0.002044677734375, -0.006958007812500, -0.000564575195312, -0.003097534179688, 0.000595092773438, 0.002609252929688, -0.000350952148438, -0.000152587890625, -0.000991821289062, 0.004028320312500, 0.001373291015625, -0.003280639648438, 0.001083374023438, -0.001724243164062, -0.001739501953125, -0.005325317382812, -0.000076293945312, -0.002899169921875, -0.007507324218750, -0.000656127929688, 0.000747680664062, 0.000534057617188, 0.007827758789062, -0.001815795898438, 0.001251220703125, -0.004959106445312, -0.001113891601562, -0.003402709960938, -0.002349853515625, -0.001403808593750, 0.004852294921875, 0.000457763671875, -0.003707885742188, 0.002136230468750, -0.001907348632812, 0.000762939453125, -0.005065917968750, -0.004257202148438, -0.007171630859375, -0.002655029296875, -0.002578735351562, 0.000350952148438, -0.004470825195312, -0.002395629882812, 0.002288818359375, -0.004653930664062, -0.000701904296875, -0.001022338867188, 0.000137329101562, -0.002838134765625, 0.003616333007812, -0.003417968750000, 0.001785278320312, -0.003173828125000, -0.002151489257812, 0.000564575195312, -0.001510620117188, -0.006927490234375, 0.000625610351562, 0.001815795898438, 0.000671386718750, -0.001617431640625, 0.000137329101562, -0.001144409179688, 0.000946044921875, -0.002822875976562, 0.003494262695312, 0.000579833984375, -0.000427246093750, -0.000503540039062, -0.000198364257812, -0.000839233398438, -0.001480102539062, 0.001327514648438, 0.001770019531250, -0.002975463867188, 0.001037597656250, -0.001052856445312, 0.002471923828125, 0.000137329101562, 0.001174926757812, -0.002227783203125, -0.001953125000000, -0.001785278320312, -0.002182006835938, -0.000976562500000, 0.000503540039062, 0.001251220703125, 0.004745483398438, -0.003051757812500, 0.001129150390625, -0.000274658203125, 0.000106811523438, 0.001449584960938, 0.002777099609375, -0.001724243164062, 0.000534057617188, 0.002395629882812, 0.001800537109375, -0.000122070312500, 0.000686645507812, -0.000762939453125, 0.002685546875000, 0.000183105468750, 0.000045776367188, 0.000564575195312, 0.000900268554688, 0.002258300781250, -0.000900268554688, -0.003204345703125, 0.000701904296875, -0.000503540039062, 0.000823974609375, -0.003005981445312, -0.000305175781250, -0.000991821289062, 0.001586914062500, -0.001495361328125, -0.001159667968750, 0.001586914062500, 0.000564575195312, 0.000854492187500, 0.002792358398438, 0.002029418945312, -0.000900268554688, -0.001266479492188, -0.003356933593750, 0.000335693359375, -0.000213623046875, 0.000350952148438, 0.003005981445312, -0.002517700195312, 0.002212524414062, 0.000122070312500, -0.001983642578125, -0.002182006835938, -0.000885009765625, -0.001571655273438, -0.000152587890625, -0.000518798828125, -0.000152587890625, -0.000228881835938, 0.001190185546875, 0.001449584960938, 0.000015258789062, -0.002120971679688, -0.001144409179688, -0.001968383789062, -0.002761840820312, -0.002029418945312, -0.000549316406250, 0.002075195312500, 0.002456665039062, -0.003173828125000, 0.000396728515625, -0.000244140625000, 0.000442504882812, 0.002243041992188, 0.002120971679688, -0.000320434570312, 0.000152587890625, 0.001449584960938, 0.001541137695312, 0.000961303710938, 0.000747680664062, -0.001022338867188, 0.003021240234375, -0.000305175781250, -0.001129150390625, -0.000732421875000, 0.001342773437500, 0.000823974609375, -0.000991821289062, -0.002243041992188, 0.001190185546875, 0.000366210937500, 0.000228881835938, -0.002807617187500, -0.000610351562500, -0.001098632812500, 0.001449584960938, -0.001541137695312, 0.000167846679688, 0.001235961914062, -0.000427246093750, 0.000808715820312, 0.001922607421875, 0.001541137695312, -0.000579833984375, -0.000335693359375, -0.000244140625000, -0.000457763671875, -0.001815795898438, 0.002120971679688, 0.001968383789062, -0.001190185546875, 0.000259399414062, 0.000854492187500, -0.002120971679688, -0.001144409179688, -0.000137329101562, -0.001770019531250, 0.000488281250000, -0.000610351562500, -0.000869750976562, -0.001800537109375, -0.000534057617188, -0.000061035156250, -0.001235961914062, -0.002990722656250, -0.000961303710938, -0.002258300781250, -0.002868652343750, 0.000930786132812, -0.001312255859375, -0.001327514648438, 0.000747680664062, -0.004302978515625, 0.000564575195312, -0.000686645507812, 0.000274658203125, -0.000320434570312, 0.001419067382812, -0.000366210937500, -0.000076293945312, 0.001586914062500, 0.002212524414062, 0.000259399414062, -0.001159667968750, -0.001861572265625, -0.000427246093750, -0.002075195312500, -0.001068115234375, -0.000976562500000, 0.000808715820312, -0.001251220703125, -0.001342773437500, -0.001754760742188, 0.000091552734375, -0.000656127929688, -0.000793457031250, -0.003356933593750, -0.000503540039062, -0.000289916992188, 0.001647949218750, -0.002059936523438, -0.000747680664062, 0.001449584960938, 0.000152587890625, -0.000976562500000, 0.000091552734375, 0.002090454101562, -0.000030517578125, -0.000991821289062, -0.001327514648438, -0.000778198242188, -0.002395629882812, -0.000061035156250, 0.000396728515625, -0.001403808593750, 0.000244140625000, 0.001708984375000, -0.002090454101562, -0.002258300781250, 0.000091552734375, -0.002090454101562, -0.000061035156250, -0.000640869140625, 0.002014160156250, 0.001037597656250, 0.004058837890625, -0.000518798828125, 0.003768920898438, -0.001876831054688, 0.000396728515625, 0.001129150390625, -0.002212524414062, -0.001754760742188, -0.001296997070312, 0.001449584960938, 0.000961303710938, 0.001541137695312, 0.000076293945312, 0.000930786132812, 0.000244140625000, -0.000213623046875, -0.000396728515625, 0.000793457031250, -0.000503540039062, 0.001678466796875, 0.001266479492188, 0.000885009765625, 0.000656127929688, -0.004257202148438, 0.004501342773438, 0.000946044921875, 0.000854492187500, 0.000061035156250, 0.000228881835938, 0.002655029296875, 0.000686645507812, -0.002029418945312, -0.001281738281250, 0.001571655273438, 0.001174926757812, -0.002517700195312, -0.001556396484375, 0.001831054687500, 0.001922607421875, -0.000915527343750, 0.000473022460938, 0.001388549804688, 0.000244140625000, 0.002120971679688, -0.002059936523438, 0.001815795898438, 0.000076293945312, 0.000946044921875, -0.000137329101562, 0.000442504882812, -0.000961303710938, 0.001907348632812, -0.000061035156250, 0.000900268554688, 0.001693725585938, -0.002365112304688, -0.002624511718750, -0.001632690429688, 0.000579833984375, 0.000061035156250, 0.000503540039062, -0.000427246093750, 0.000930786132812, 0.001174926757812, 0.001800537109375, 0.000213623046875, 0.003326416015625, -0.002639770507812, 0.000427246093750, 0.002182006835938, -0.002349853515625, -0.001831054687500, -0.001373291015625, 0.000946044921875, 0.001510620117188, 0.000579833984375, 0.000305175781250, 0.000778198242188, 0.001495361328125, -0.001525878906250, -0.001876831054688, 0.000503540039062, -0.000549316406250, 0.000976562500000, 0.001251220703125, 0.000564575195312, 0.001464843750000, -0.004318237304688, 0.003326416015625, 0.000915527343750, 0.000671386718750, 0.000625610351562, -0.000381469726562, 0.000671386718750, 0.000503540039062, -0.004531860351562, -0.001419067382812, 0.002075195312500, 0.000411987304688, -0.000701904296875, -0.001235961914062, 0.002441406250000, 0.000320434570312, -0.001327514648438, 0.001419067382812, 0.001220703125000, -0.000442504882812, 0.003387451171875, -0.000061035156250, 0.000457763671875, 0.000167846679688, 0.000244140625000, 0.000076293945312, -0.000732421875000, -0.001037597656250, 0.003540039062500, -0.001358032226562, 0.000976562500000, 0.002059936523438, -0.001403808593750, -0.000961303710938, -0.001419067382812, 0.000991821289062, 0.000503540039062, -0.000152587890625, -0.000915527343750, 0.001342773437500, 0.000656127929688, 0.000854492187500, -0.000656127929688, 0.000579833984375, -0.002136230468750, 0.000900268554688, 0.000228881835938, -0.002395629882812, -0.000762939453125, -0.001052856445312, -0.000091552734375, -0.000305175781250, 0.000274658203125, 0.000244140625000, 0.000732421875000, 0.000610351562500, -0.000625610351562, 0.000030517578125, 0.000991821289062, -0.000167846679688, 0.001525878906250, 0.002212524414062, 0.000579833984375, 0.000915527343750, -0.002136230468750, 0.000106811523438, -0.000579833984375, -0.000961303710938, 0.000228881835938, -0.002334594726562, -0.000961303710938, 0.001358032226562, -0.002258300781250, -0.000335693359375, 0.002944946289062, 0.000061035156250, -0.002578735351562, -0.001022338867188, 0.000350952148438, 0.001647949218750, -0.000442504882812, 0.000000000000000, 0.000930786132812, -0.001144409179688, 0.001770019531250, -0.001373291015625, 0.001922607421875, -0.001327514648438, 0.000045776367188, 0.000839233398438, -0.001129150390625, -0.000045776367188, 0.000381469726562, -0.001052856445312, 0.000427246093750, 0.000747680664062, -0.000167846679688, -0.002960205078125, -0.001815795898438, -0.000015258789062, -0.000091552734375, 0.000000000000000, -0.000503540039062, -0.000518798828125, -0.001327514648438, 0.001220703125000, 0.001647949218750, -0.001007080078125, -0.002273559570312, 0.000854492187500, -0.001632690429688, -0.003677368164062, 0.000854492187500, 0.002670288085938, -0.001907348632812, 0.003784179687500, -0.001770019531250, -0.000045776367188, -0.000335693359375, -0.001235961914062, 0.002044677734375, 0.000839233398438, -0.000854492187500, -0.000808715820312, 0.001068115234375, 0.000961303710938, -0.000274658203125, -0.000579833984375, -0.003723144531250, -0.001068115234375, -0.001235961914062, 0.000122070312500, 0.001525878906250, 0.001144409179688, -0.000122070312500, 0.001510620117188, 0.001632690429688, -0.001266479492188, -0.000885009765625, 0.000488281250000, -0.003128051757812, -0.000152587890625, 0.001541137695312, 0.001373291015625, 0.001327514648438, -0.000122070312500, 0.000457763671875, -0.000686645507812, -0.000259399414062, -0.001220703125000, 0.000701904296875, 0.001037597656250, -0.001235961914062, -0.002288818359375, 0.000030517578125, 0.000183105468750, 0.000228881835938, 0.000869750976562, -0.002044677734375, 0.000823974609375, -0.000152587890625, -0.002853393554688, -0.002838134765625, -0.000885009765625, -0.000839233398438, -0.000152587890625, -0.002716064453125, -0.000381469726562, -0.001678466796875, 0.001358032226562, 0.000656127929688, -0.000045776367188, -0.002639770507812, 0.000381469726562, -0.000885009765625, -0.003356933593750, 0.000244140625000, 0.001892089843750, -0.002182006835938, 0.002929687500000, -0.000717163085938, -0.000305175781250, -0.001083374023438, -0.000579833984375, -0.001495361328125, -0.002288818359375, -0.000473022460938, -0.001602172851562, 0.000183105468750, 0.000122070312500, -0.000305175781250, 0.000946044921875, -0.002655029296875, -0.000732421875000, -0.001220703125000, 0.000122070312500, 0.000900268554688, 0.000579833984375, 0.000106811523438, 0.001571655273438, 0.000350952148438, -0.001861572265625, -0.000762939453125, 0.000381469726562, -0.003677368164062, -0.000701904296875, -0.000091552734375, 0.000122070312500, 0.000091552734375, -0.000320434570312, -0.000061035156250, -0.000289916992188, -0.000518798828125, -0.000900268554688, 0.000457763671875, 0.000747680664062, -0.000885009765625, -0.001220703125000, -0.001449584960938, -0.001113891601562, -0.000320434570312, -0.002304077148438, -0.002365112304688, 0.000656127929688, 0.001007080078125, -0.002532958984375, -0.001892089843750, -0.000396728515625, 0.001083374023438, -0.000091552734375, -0.002212524414062, -0.000137329101562, -0.001815795898438, -0.001617431640625, 0.000640869140625, -0.000061035156250, -0.003540039062500, 0.000274658203125, -0.002624511718750, -0.004348754882812, 0.001342773437500, 0.001663208007812, -0.001647949218750, 0.001571655273438, -0.001861572265625, -0.000198364257812, -0.002975463867188, -0.001312255859375, -0.000808715820312, 0.001525878906250, -0.000625610351562, -0.001251220703125, -0.000076293945312, 0.000152587890625, -0.000991821289062, 0.000289916992188, -0.001831054687500, -0.001510620117188, 0.001083374023438, -0.000869750976562, 0.000000000000000, -0.002334594726562, -0.001235961914062, 0.001007080078125, 0.000534057617188, 0.000595092773438, -0.000930786132812, -0.001159667968750, -0.003967285156250, -0.002456665039062, -0.001571655273438, 0.000457763671875, 0.001068115234375, -0.002212524414062, -0.000289916992188, -0.000869750976562, -0.001754760742188, -0.001785278320312, 0.000473022460938, 0.000183105468750, -0.002563476562500, -0.002380371093750, -0.001342773437500, -0.001617431640625, -0.000869750976562, 0.001052856445312, -0.003662109375000, -0.001632690429688, 0.001724243164062, -0.002700805664062, -0.002410888671875, -0.001495361328125, -0.000808715820312, -0.000640869140625, -0.001449584960938, -0.001159667968750, -0.002456665039062, 0.000305175781250, -0.000213623046875, -0.001251220703125, -0.003372192382812, 0.001251220703125, -0.001312255859375, -0.005355834960938, -0.001235961914062, -0.002014160156250, -0.000350952148438, 0.000091552734375, -0.002059936523438, 0.000579833984375, 0.000244140625000, -0.000900268554688, -0.000961303710938, 0.000625610351562, -0.000930786132812, 0.000091552734375, 0.002136230468750, 0.000000000000000, 0.000885009765625, -0.000305175781250, -0.002365112304688, 0.002487182617188, 0.000122070312500, 0.000045776367188, -0.001663208007812, -0.000839233398438, 0.001800537109375, -0.000564575195312, -0.002059936523438, 0.001434326171875, -0.001403808593750, -0.000610351562500, -0.002014160156250, -0.000335693359375, -0.001846313476562, 0.002029418945312, 0.000686645507812, -0.000244140625000, 0.002029418945312, -0.000061035156250, -0.000595092773438, -0.001556396484375, 0.001846313476562, -0.000244140625000, -0.000595092773438, -0.001327514648438, -0.000122070312500, -0.001831054687500, -0.002288818359375, 0.001846313476562, -0.001754760742188, -0.001800537109375, -0.001693725585938, -0.002944946289062, -0.002044677734375, -0.000198364257812, -0.001525878906250, -0.000320434570312, -0.000167846679688, 0.001831054687500, -0.001373291015625, 0.000854492187500, 0.000396728515625, -0.001647949218750, -0.003372192382812, 0.000152587890625, -0.002899169921875, -0.005035400390625, -0.000289916992188, -0.002212524414062, 0.000213623046875, 0.001586914062500, -0.002456665039062, 0.000885009765625, 0.000259399414062, -0.001312255859375, 0.000000000000000, 0.001358032226562, 0.000518798828125, -0.000228881835938, 0.001846313476562, 0.000350952148438, 0.001434326171875, -0.000076293945312, -0.002136230468750, 0.001251220703125, 0.000091552734375, 0.000381469726562, -0.000915527343750, -0.001373291015625, -0.001037597656250, -0.000671386718750, -0.000595092773438, 0.000167846679688, 0.000091552734375, -0.000183105468750, -0.002319335937500, -0.000671386718750, -0.001052856445312, 0.001922607421875, 0.000335693359375, -0.000656127929688, 0.001892089843750, 0.000091552734375, 0.002044677734375, 0.000473022460938, 0.001342773437500, 0.000335693359375, 0.000274658203125, -0.000762939453125, -0.000869750976562, -0.001983642578125, 0.000457763671875, 0.001281738281250, -0.000350952148438, -0.000122070312500, -0.001571655273438, -0.003128051757812, -0.001403808593750, 0.000122070312500, -0.000564575195312, -0.000885009765625, -0.000183105468750, 0.000900268554688, 0.000671386718750, 0.000976562500000, 0.000793457031250, -0.001495361328125, -0.004898071289062, -0.000320434570312, -0.001800537109375, -0.005142211914062, 0.000198364257812, -0.002487182617188, 0.000000000000000, 0.000015258789062, -0.003036499023438, 0.001113891601562, 0.000289916992188, -0.000961303710938, -0.000198364257812, 0.000625610351562, -0.000015258789062, 0.000457763671875, 0.002517700195312, -0.000946044921875, 0.000915527343750, -0.002105712890625, -0.001861572265625, -0.000747680664062, -0.002410888671875, -0.001510620117188, -0.000869750976562, -0.001068115234375, -0.000106811523438, 0.000442504882812, 0.000015258789062, -0.001525878906250, 0.000991821289062, 0.000640869140625, -0.002792358398438, -0.000305175781250, -0.000488281250000, 0.001510620117188, -0.000335693359375, -0.000610351562500, 0.002227783203125, 0.000000000000000, -0.002059936523438, -0.000411987304688, 0.001754760742188, -0.000671386718750, 0.000762939453125, -0.000091552734375, -0.000152587890625, -0.001922607421875, -0.000305175781250, -0.001358032226562, -0.000976562500000, 0.000015258789062, -0.000732421875000, -0.003814697265625, -0.003173828125000, -0.000259399414062, 0.000015258789062, -0.000061035156250, -0.001449584960938, 0.001068115234375, 0.000717163085938, 0.003234863281250, 0.000152587890625, 0.001510620117188, -0.001693725585938, 0.000915527343750, 0.001586914062500, -0.003784179687500, -0.000152587890625, -0.002258300781250, 0.001312255859375, 0.002258300781250, -0.000717163085938, 0.001327514648438, 0.001083374023438, -0.000579833984375, 0.000656127929688, -0.000350952148438, 0.000167846679688, -0.000488281250000, 0.002090454101562, 0.001983642578125, 0.001831054687500, 0.001480102539062, -0.002975463867188, 0.002258300781250, 0.000061035156250, 0.000457763671875, 0.000747680664062, -0.000640869140625, 0.000534057617188, -0.001312255859375, 0.000122070312500, -0.000411987304688, 0.000106811523438, 0.000274658203125, -0.002044677734375, -0.000595092773438, 0.001678466796875, 0.001449584960938, -0.001022338867188, 0.001113891601562, 0.001678466796875, -0.001525878906250, 0.001739501953125, -0.002960205078125, 0.000808715820312, 0.000488281250000, 0.000213623046875, -0.000198364257812, 0.000106811523438, -0.000885009765625, 0.000610351562500, 0.000778198242188, -0.000885009765625, 0.002304077148438, -0.001586914062500, -0.002441406250000, -0.001251220703125, 0.000717163085938, 0.000656127929688, -0.000030517578125, -0.000457763671875, 0.000640869140625, 0.000549316406250, 0.001739501953125, 0.001708984375000, 0.001449584960938, -0.001159667968750, 0.000625610351562, 0.001571655273438, -0.003250122070312, 0.000930786132812, -0.000442504882812, 0.000213623046875, 0.001358032226562, -0.000885009765625, 0.001342773437500, 0.001083374023438, -0.000213623046875, 0.000976562500000, 0.000793457031250, 0.000274658203125, -0.000900268554688, 0.001220703125000, 0.001861572265625, 0.001434326171875, 0.001586914062500, -0.001632690429688, 0.001922607421875, 0.000015258789062, 0.001052856445312, 0.001068115234375, -0.002410888671875, 0.000091552734375, 0.000579833984375, -0.000732421875000, -0.000762939453125, 0.000976562500000, 0.000595092773438, -0.001129150390625, -0.000885009765625, 0.001342773437500, 0.001220703125000, -0.000244140625000, 0.000534057617188, 0.001083374023438, -0.001129150390625, 0.001434326171875, -0.000061035156250, 0.001220703125000, 0.000946044921875, 0.001251220703125, 0.001373291015625, 0.000396728515625, -0.001220703125000, 0.000549316406250, -0.000045776367188, -0.000274658203125, 0.001113891601562, -0.001296997070312, -0.001861572265625, -0.001525878906250, -0.000366210937500, 0.000640869140625, 0.000030517578125, -0.000396728515625, 0.001052856445312, 0.000808715820312, 0.001022338867188, 0.001083374023438, 0.000854492187500, -0.001602172851562, 0.000579833984375, -0.000015258789062, -0.002441406250000, -0.000030517578125, 0.000259399414062, 0.000747680664062, 0.001022338867188, -0.001800537109375, 0.001770019531250, -0.000503540039062, 0.000457763671875, -0.000991821289062, -0.000350952148438, 0.000152587890625, -0.001800537109375, 0.001083374023438, 0.001937866210938, 0.001113891601562, 0.000457763671875, -0.001327514648438, 0.001480102539062, -0.000473022460938, 0.000366210937500, 0.000427246093750, -0.002304077148438, -0.000534057617188, -0.000045776367188, -0.000274658203125, 0.000244140625000, 0.000976562500000, -0.001190185546875, -0.002212524414062, -0.000167846679688, 0.001174926757812, 0.001068115234375, -0.001022338867188, 0.000564575195312, 0.000778198242188, -0.002059936523438, 0.000991821289062, 0.000198364257812, 0.001846313476562, 0.000000000000000, 0.000717163085938, 0.001007080078125, 0.000396728515625, 0.000030517578125, -0.000915527343750, -0.000411987304688, 0.000930786132812, 0.000946044921875, -0.000869750976562, -0.001754760742188, -0.001159667968750, -0.000473022460938, 0.000488281250000, -0.000122070312500, -0.000534057617188, 0.002136230468750, 0.000015258789062, -0.000244140625000, 0.000595092773438, -0.000122070312500, -0.002120971679688, 0.000076293945312, -0.001449584960938, -0.002380371093750, 0.000030517578125, 0.000442504882812, -0.001266479492188, 0.002151489257812, -0.001785278320312, 0.000900268554688, -0.000778198242188, -0.001495361328125, 0.001113891601562, 0.001678466796875, -0.000808715820312, -0.001831054687500, 0.000839233398438, 0.000701904296875, 0.000869750976562, -0.000427246093750, -0.001617431640625, 0.000244140625000, -0.000335693359375, -0.000045776367188, 0.000701904296875, -0.001037597656250, 0.000320434570312, 0.001296997070312, 0.000091552734375, -0.000915527343750, 0.000961303710938, 0.001510620117188, -0.002975463867188, 0.000991821289062, -0.000579833984375, 0.001678466796875, -0.002777099609375, -0.000564575195312, 0.001571655273438, -0.000793457031250, 0.001083374023438, -0.000686645507812, 0.001068115234375, 0.000411987304688, 0.000427246093750, -0.000915527343750, -0.000473022460938, 0.000701904296875, -0.000213623046875, 0.001846313476562, -0.000854492187500, 0.000518798828125, 0.000488281250000, -0.002746582031250, -0.001266479492188, 0.000350952148438, -0.000244140625000, 0.000320434570312, -0.001998901367188, 0.000717163085938, -0.000686645507812, 0.000015258789062, 0.000183105468750, -0.000488281250000, -0.002365112304688, -0.001281738281250, -0.000381469726562, -0.002532958984375, 0.000549316406250, 0.001068115234375, -0.000946044921875, 0.001083374023438, -0.002258300781250, 0.000320434570312, -0.001113891601562, -0.002059936523438, 0.000320434570312, 0.001190185546875, 0.000457763671875, -0.001022338867188, 0.001831054687500, 0.000503540039062, 0.000244140625000, -0.000610351562500, -0.001617431640625, -0.000823974609375, 0.001052856445312, 0.000915527343750, 0.000900268554688, -0.000823974609375, -0.001174926757812, 0.000564575195312, -0.000198364257812, -0.000244140625000, 0.000167846679688, 0.001068115234375, -0.001953125000000, 0.001052856445312, -0.001937866210938, 0.001220703125000, -0.001190185546875, -0.000350952148438, 0.001296997070312, -0.001007080078125, -0.000122070312500, 0.001190185546875, 0.001358032226562, 0.001800537109375, 0.000793457031250, 0.001251220703125, -0.000625610351562, -0.000366210937500, -0.002120971679688, 0.000869750976562, -0.000595092773438, 0.000534057617188, 0.001068115234375, -0.001968383789062, -0.001480102539062, -0.000946044921875, 0.001373291015625, 0.000381469726562, -0.002182006835938, -0.000259399414062, -0.000778198242188, -0.000320434570312, -0.000885009765625, -0.001358032226562, -0.002212524414062, -0.001159667968750, -0.001022338867188, -0.002380371093750, 0.000259399414062, 0.001174926757812, -0.001907348632812, 0.000732421875000, -0.002227783203125, 0.000106811523438, -0.000854492187500, -0.002593994140625, -0.000045776367188, 0.001556396484375, 0.000427246093750, -0.000122070312500, 0.001861572265625, -0.000900268554688, 0.000778198242188, -0.001037597656250, -0.001022338867188, -0.002029418945312, -0.000930786132812, -0.001464843750000, 0.001815795898438, -0.000274658203125, -0.001434326171875, 0.000122070312500, -0.001068115234375, -0.000167846679688, -0.001007080078125, 0.001129150390625, -0.003005981445312, 0.000961303710938, -0.002304077148438, 0.001495361328125, -0.000411987304688, -0.000564575195312, 0.000289916992188, -0.000762939453125, -0.002944946289062, 0.000259399414062, 0.000198364257812, 0.001068115234375, 0.000015258789062, 0.000396728515625, -0.001495361328125, 0.000183105468750, -0.002532958984375, 0.002365112304688, -0.001113891601562, 0.000595092773438, 0.001235961914062, -0.002319335937500, -0.001602172851562, 0.000015258789062, 0.000747680664062, 0.000534057617188, -0.001754760742188, -0.001724243164062, -0.004486083984375, 0.000091552734375, 0.000396728515625, -0.000991821289062, -0.004455566406250, 0.000671386718750, -0.001403808593750, -0.006271362304688, -0.003448486328125, -0.003280639648438, 0.000640869140625, 0.000823974609375, -0.003631591796875, -0.000106811523438, 0.001739501953125, -0.002349853515625, 0.002304077148438, 0.002502441406250, -0.004638671875000, -0.000015258789062, 0.002731323242188, -0.001098632812500, 0.001083374023438, -0.000900268554688, -0.000610351562500, 0.000564575195312, -0.000320434570312, -0.001281738281250, -0.001892089843750, -0.001098632812500, 0.003463745117188, -0.003295898437500, -0.001205444335938, 0.002136230468750, -0.003479003906250, -0.002182006835938, -0.001144409179688, -0.000518798828125, 0.000320434570312, 0.003189086914062, -0.000518798828125, -0.000076293945312, 0.002914428710938, -0.000854492187500, -0.003295898437500, -0.000976562500000, 0.001541137695312, -0.002716064453125, -0.002395629882812, -0.003631591796875, -0.000457763671875, -0.002151489257812, -0.001510620117188, 0.004089355468750, -0.002151489257812, -0.002243041992188, -0.002944946289062, -0.003890991210938, -0.002716064453125, -0.000366210937500, -0.004669189453125, -0.000106811523438, 0.001037597656250, -0.000259399414062, -0.001953125000000, 0.001007080078125, -0.001724243164062, -0.001861572265625, -0.004226684570312, 0.000259399414062, -0.003112792968750, -0.004669189453125, -0.002502441406250, -0.002700805664062, 0.000457763671875, -0.000839233398438, -0.004257202148438, -0.000411987304688, -0.000656127929688, -0.000534057617188, -0.000900268554688, -0.000350952148438, -0.002120971679688, 0.000381469726562, 0.000564575195312, 0.000030517578125, 0.000869750976562, -0.000991821289062, -0.001647949218750, 0.002273559570312, -0.000701904296875, -0.000183105468750, -0.001846313476562, -0.002624511718750, -0.000350952148438, -0.003005981445312, -0.001266479492188, 0.001022338867188, -0.001693725585938, -0.000305175781250, -0.002105712890625, -0.001342773437500, 0.000885009765625, 0.001922607421875, -0.001144409179688, -0.000152587890625, 0.001617431640625, -0.001617431640625, 0.000640869140625, 0.000732421875000, 0.000823974609375, -0.003204345703125, -0.000259399414062, -0.001449584960938, -0.000457763671875, -0.001251220703125, -0.000503540039062, 0.000701904296875, -0.002441406250000, -0.000762939453125, -0.001602172851562, -0.003784179687500, -0.001892089843750, -0.000335693359375, -0.003387451171875, -0.001205444335938, -0.000457763671875, -0.000518798828125, -0.001434326171875, 0.001770019531250, -0.000900268554688, -0.001205444335938, -0.004211425781250, -0.000274658203125, -0.003738403320312, -0.005310058593750, 0.000213623046875, -0.003448486328125, -0.000793457031250, -0.001144409179688, -0.005004882812500, 0.000198364257812, 0.001754760742188, -0.001693725585938, -0.002563476562500, 0.000183105468750, -0.001525878906250, -0.000106811523438, 0.002182006835938, -0.001464843750000, 0.001113891601562, -0.001892089843750, -0.001602172851562, 0.000106811523438, -0.001464843750000, -0.001419067382812, -0.000442504882812, -0.001617431640625, -0.000625610351562, -0.000793457031250, 0.000091552734375, -0.000610351562500, -0.000808715820312, 0.001434326171875, -0.002685546875000, -0.001495361328125, 0.000701904296875, 0.002456665039062, -0.000564575195312, -0.000045776367188, 0.001571655273438, -0.000793457031250, -0.000717163085938, -0.000534057617188, 0.001358032226562, -0.000473022460938, -0.000930786132812, -0.000640869140625, -0.000991821289062, -0.001464843750000, 0.000564575195312, -0.001708984375000, -0.002944946289062, 0.000854492187500, -0.003234863281250, -0.004241943359375, -0.003067016601562, -0.000305175781250, -0.002273559570312, -0.001205444335938, -0.000686645507812, 0.001907348632812, 0.001068115234375, 0.002563476562500, 0.000381469726562, 0.002777099609375, -0.001800537109375, 0.000198364257812, 0.000488281250000, -0.003768920898438, -0.002227783203125, 0.000411987304688, 0.001037597656250, 0.001342773437500, -0.001831054687500, 0.002731323242188, 0.001159667968750, -0.001144409179688, 0.003814697265625, 0.002777099609375, -0.000320434570312, -0.001388549804688, 0.001632690429688, 0.002792358398438, 0.001968383789062, 0.000762939453125, -0.002319335937500, 0.004379272460938, -0.000976562500000, 0.000137329101562, -0.002685546875000, -0.000686645507812, 0.002075195312500, -0.000686645507812, -0.003280639648438, -0.000244140625000, 0.000930786132812, -0.001586914062500, -0.000640869140625, -0.001831054687500, 0.000625610351562, 0.001144409179688, -0.002349853515625, 0.000213623046875, 0.000854492187500, -0.000244140625000, 0.002029418945312, -0.002410888671875, 0.001663208007812, -0.002410888671875, 0.002441406250000, -0.000366210937500, -0.000503540039062, 0.001281738281250, -0.000198364257812, 0.002288818359375, 0.000518798828125, 0.000762939453125, -0.003219604492188, -0.003295898437500, -0.000762939453125, 0.001403808593750, -0.000503540039062, -0.000167846679688, 0.000259399414062, 0.002441406250000, 0.001159667968750, 0.002243041992188, 0.000610351562500, 0.003295898437500, -0.001907348632812, 0.000396728515625, 0.000488281250000, -0.001678466796875, 0.000488281250000, 0.000442504882812, 0.001296997070312, 0.001876831054688, 0.000015258789062, 0.000518798828125, 0.000076293945312, 0.000122070312500, -0.002410888671875, -0.000473022460938, 0.000259399414062, -0.002319335937500, -0.000137329101562, 0.001464843750000, 0.000885009765625, 0.000732421875000, -0.002639770507812, 0.003601074218750, 0.000564575195312, 0.000152587890625, -0.001739501953125, -0.004013061523438, 0.000091552734375, -0.000946044921875, -0.003494262695312, -0.000122070312500, 0.001388549804688, 0.000549316406250, 0.000885009765625, -0.001586914062500, 0.001800537109375, 0.000442504882812, -0.001495361328125, 0.000808715820312, 0.000976562500000, -0.001525878906250, 0.002288818359375, -0.001617431640625, 0.001602172851562, 0.000137329101562, 0.002288818359375, 0.000869750976562, -0.001831054687500, 0.000289916992188, -0.000137329101562, -0.000701904296875, 0.001358032226562, 0.001174926757812, -0.001876831054688, -0.002166748046875, -0.002014160156250, -0.000259399414062, -0.000457763671875, -0.000473022460938, -0.001022338867188, 0.001678466796875, 0.001403808593750, 0.002075195312500, 0.000762939453125, 0.001892089843750, -0.001419067382812, -0.000473022460938, 0.000320434570312, -0.002120971679688, 0.002075195312500, 0.000396728515625, 0.000152587890625, 0.000946044921875, -0.002029418945312, 0.000076293945312, 0.000198364257812, -0.000488281250000, -0.002273559570312, -0.000839233398438, 0.000640869140625, -0.002609252929688, 0.001220703125000, 0.000518798828125, 0.001007080078125, 0.001861572265625, -0.003143310546875, 0.000900268554688, -0.000503540039062, 0.000167846679688, 0.000305175781250, -0.004150390625000, -0.001770019531250, 0.002456665039062, -0.002243041992188, -0.000747680664062, 0.002182006835938, 0.001159667968750, -0.000686645507812, -0.003372192382812, 0.002304077148438, 0.001647949218750, -0.002487182617188, 0.000457763671875, 0.000747680664062, -0.001083374023438, 0.000839233398438, -0.001159667968750, 0.000976562500000, 0.000976562500000, 0.001815795898438, 0.000427246093750, -0.000228881835938, 0.000976562500000, -0.001586914062500, -0.001007080078125, 0.002426147460938, 0.000885009765625, -0.001937866210938, -0.001327514648438, -0.000839233398438, 0.000701904296875, 0.000457763671875, 0.000671386718750, 0.000717163085938, 0.000488281250000, -0.001266479492188, 0.002700805664062, -0.001052856445312, 0.001220703125000, -0.004028320312500, -0.002212524414062, -0.002899169921875, -0.001678466796875, -0.000076293945312, 0.003845214843750, -0.001495361328125, 0.003524780273438, -0.003128051757812, -0.000198364257812, -0.000045776367188, -0.001876831054688, 0.002532958984375, 0.003890991210938, -0.000366210937500, -0.002853393554688, 0.001815795898438, 0.002807617187500, 0.000167846679688, -0.003250122070312, -0.003067016601562, -0.000381469726562, -0.001998901367188, -0.000488281250000, -0.001129150390625, 0.002487182617188, 0.000915527343750, 0.000717163085938, -0.000900268554688, -0.002792358398438, -0.002441406250000, -0.000686645507812, -0.002746582031250, 0.001556396484375, -0.003753662109375, 0.001388549804688, -0.002975463867188, -0.000289916992188, 0.000961303710938, 0.000213623046875, -0.001968383789062, -0.000656127929688, 0.001358032226562, -0.000747680664062, 0.000686645507812, -0.001571655273438, -0.000656127929688, -0.000411987304688, -0.002746582031250, 0.003738403320312, -0.002014160156250, -0.000930786132812, -0.001602172851562, -0.003555297851562, -0.001953125000000, -0.001205444335938, -0.000457763671875, -0.000045776367188, -0.000366210937500, 0.000183105468750, 0.000244140625000, 0.001907348632812, -0.001571655273438, 0.000717163085938, -0.003387451171875, -0.001510620117188, -0.003204345703125, -0.001052856445312, 0.001922607421875, 0.002883911132812, -0.001724243164062, 0.002395629882812, -0.003768920898438, 0.001022338867188, -0.002395629882812, -0.000930786132812, -0.001632690429688, 0.000045776367188, 0.000274658203125, -0.003921508789062, 0.001586914062500, 0.001327514648438, 0.000518798828125, -0.001968383789062, -0.003189086914062, -0.001632690429688, -0.000488281250000, 0.001205444335938, -0.000213623046875, -0.000686645507812, -0.000320434570312, 0.002273559570312, 0.001892089843750, -0.000686645507812, -0.000488281250000, 0.001159667968750, -0.002426147460938, 0.002212524414062, -0.003234863281250, 0.002059936523438, -0.002471923828125, -0.000518798828125, 0.000656127929688, 0.000122070312500, -0.000762939453125, 