//Numpy array shape [3, 3, 64, 64]
//Min -0.578125000000
//Max 0.562500000000
//Number of zeros 2301

#ifndef W55_H_
#define W55_H_

#ifndef __SYNTHESIS__
weight55_t w55[36864];
#else
weight55_t w55[36864] = {-0.015625, -0.031250, 0.046875, 0.062500, 0.046875, 0.062500, -0.015625, -0.031250, 0.015625, -0.031250, -0.062500, 0.015625, -0.015625, -0.031250, 0.000000, -0.078125, 0.031250, -0.031250, 0.046875, 0.015625, 0.015625, -0.062500, 0.078125, 0.109375, 0.031250, 0.031250, -0.031250, 0.015625, -0.046875, -0.046875, 0.015625, 0.000000, 0.000000, -0.015625, -0.046875, 0.046875, 0.062500, -0.015625, 0.093750, 0.000000, 0.046875, 0.046875, 0.031250, 0.000000, 0.078125, -0.015625, 0.031250, 0.031250, 0.078125, 0.062500, -0.031250, 0.000000, -0.031250, 0.031250, 0.015625, 0.000000, 0.031250, 0.062500, 0.000000, 0.031250, 0.046875, 0.046875, -0.031250, -0.062500, -0.125000, -0.015625, 0.031250, 0.031250, -0.015625, 0.031250, 0.015625, -0.046875, 0.000000, 0.000000, -0.031250, 0.015625, 0.062500, 0.000000, -0.046875, -0.109375, 0.015625, 0.015625, -0.015625, -0.031250, 0.015625, -0.046875, 0.062500, 0.093750, 0.031250, 0.015625, -0.015625, 0.000000, -0.046875, -0.031250, 0.031250, -0.062500, 0.015625, 0.000000, -0.078125, 0.015625, 0.015625, 0.015625, 0.015625, -0.015625, 0.078125, 0.015625, -0.046875, 0.015625, 0.093750, -0.015625, 0.000000, 0.046875, -0.031250, 0.000000, 0.015625, -0.062500, -0.031250, 0.031250, -0.015625, -0.031250, -0.015625, 0.000000, -0.062500, 0.078125, 0.046875, 0.015625, -0.031250, -0.078125, -0.062500, -0.031250, 0.031250, -0.015625, 0.015625, 0.046875, 0.000000, -0.046875, -0.031250, 0.000000, 0.000000, 0.031250, 0.000000, 0.015625, -0.015625, -0.031250, 0.000000, -0.015625, 0.000000, -0.015625, 0.031250, -0.062500, 0.031250, 0.000000, 0.046875, 0.031250, 0.015625, -0.031250, 0.000000, 0.031250, 0.015625, -0.062500, 0.000000, 0.031250, -0.046875, 0.015625, 0.015625, 0.015625, 0.031250, 0.000000, 0.078125, 0.062500, -0.015625, 0.000000, 0.046875, 0.000000, 0.000000, 0.125000, -0.078125, 0.062500, 0.015625, 0.000000, 0.046875, -0.062500, 0.015625, -0.015625, -0.015625, 0.000000, -0.015625, 0.015625, 0.015625, 0.031250, -0.046875, -0.078125, -0.046875, 0.046875, 0.031250, 0.031250, 0.015625, 0.031250, 0.015625, 0.015625, 0.031250, -0.031250, -0.046875, 0.046875, 0.015625, 0.000000, -0.031250, -0.015625, 0.078125, -0.015625, -0.015625, -0.046875, 0.046875, -0.015625, 0.046875, 0.125000, 0.000000, 0.031250, 0.015625, 0.015625, -0.046875, -0.078125, -0.015625, -0.109375, -0.062500, -0.031250, -0.031250, 0.031250, 0.031250, -0.031250, 0.046875, 0.015625, -0.031250, 0.015625, 0.015625, 0.000000, 0.046875, 0.015625, -0.078125, -0.031250, 0.000000, 0.046875, 0.000000, -0.078125, 0.000000, 0.031250, -0.015625, -0.046875, 0.015625, 0.078125, -0.031250, -0.015625, 0.031250, 0.015625, 0.015625, -0.062500, -0.046875, 0.046875, 0.015625, 0.000000, -0.062500, 0.046875, -0.031250, -0.031250, -0.031250, -0.015625, -0.031250, 0.015625, 0.031250, -0.031250, 0.046875, -0.156250, 0.015625, -0.015625, -0.140625, -0.015625, 0.046875, -0.046875, 0.015625, 0.093750, -0.015625, 0.000000, -0.046875, 0.031250, -0.015625, -0.046875, 0.000000, -0.140625, 0.000000, -0.031250, -0.062500, 0.031250, -0.015625, -0.062500, 0.000000, -0.046875, 0.000000, -0.015625, -0.031250, 0.015625, 0.031250, 0.046875, -0.015625, -0.062500, -0.046875, -0.078125, -0.015625, -0.046875, -0.015625, 0.031250, 0.000000, -0.046875, -0.015625, -0.046875, 0.000000, 0.000000, 0.015625, -0.031250, -0.046875, -0.031250, -0.031250, 0.031250, 0.031250, 0.062500, -0.015625, 0.078125, 0.000000, -0.015625, -0.015625, -0.046875, -0.031250, 0.031250, 0.015625, 0.015625, 0.015625, -0.031250, 0.031250, -0.015625, -0.015625, -0.015625, 0.078125, 0.015625, 0.015625, -0.046875, 0.000000, 0.031250, 0.000000, -0.062500, -0.031250, 0.000000, -0.031250, -0.062500, 0.031250, -0.015625, -0.062500, 0.031250, 0.015625, 0.000000, 0.046875, 0.000000, 0.015625, -0.015625, 0.015625, 0.000000, 0.078125, -0.015625, -0.015625, 0.000000, -0.093750, 0.015625, 0.031250, 0.015625, -0.031250, -0.046875, 0.000000, -0.046875, 0.046875, -0.015625, -0.062500, 0.015625, 0.062500, 0.031250, -0.093750, -0.046875, -0.109375, 0.015625, 0.046875, 0.015625, -0.015625, 0.078125, 0.031250, -0.031250, 0.000000, 0.000000, -0.015625, 0.062500, -0.046875, 0.031250, -0.031250, 0.000000, 0.000000, -0.015625, 0.015625, -0.031250, 0.031250, -0.093750, 0.031250, 0.015625, -0.046875, 0.046875, 0.000000, 0.000000, -0.031250, 0.046875, 0.000000, 0.031250, -0.046875, -0.031250, -0.046875, 0.046875, 0.046875, -0.031250, 0.062500, 0.046875, 0.015625, -0.046875, 0.000000, 0.000000, 0.125000, -0.015625, 0.015625, 0.078125, 0.093750, 0.062500, -0.078125, -0.062500, -0.015625, 0.046875, 0.046875, -0.062500, 0.015625, -0.031250, -0.015625, 0.015625, 0.031250, 0.046875, 0.078125, -0.078125, -0.062500, 0.031250, 0.078125, 0.000000, 0.031250, 0.046875, 0.000000, -0.015625, 0.000000, -0.015625, -0.031250, 0.062500, 0.078125, 0.031250, -0.031250, -0.062500, -0.031250, 0.015625, -0.046875, 0.015625, 0.062500, -0.109375, 0.046875, 0.046875, 0.000000, 0.046875, 0.000000, 0.031250, -0.015625, -0.031250, 0.000000, -0.078125, 0.031250, -0.015625, -0.078125, 0.031250, 0.046875, -0.062500, 0.000000, 0.031250, 0.046875, -0.046875, -0.031250, 0.000000, 0.093750, -0.031250, -0.031250, 0.109375, 0.031250, -0.046875, -0.031250, -0.031250, -0.015625, 0.000000, 0.046875, -0.031250, 0.000000, -0.015625, -0.109375, 0.015625, 0.062500, -0.015625, 0.000000, -0.015625, -0.015625, -0.015625, 0.062500, 0.031250, -0.015625, 0.062500, 0.046875, 0.000000, -0.078125, 0.000000, -0.062500, 0.062500, 0.000000, 0.031250, 0.015625, -0.031250, 0.015625, 0.015625, 0.015625, -0.031250, 0.046875, 0.000000, 0.031250, -0.078125, -0.046875, 0.046875, 0.015625, -0.046875, -0.031250, -0.015625, 0.000000, -0.031250, 0.015625, 0.015625, -0.093750, 0.062500, 0.031250, -0.031250, 0.062500, 0.062500, 0.000000, -0.031250, 0.000000, 0.000000, 0.078125, 0.015625, 0.015625, 0.156250, 0.000000, 0.062500, 0.000000, -0.015625, 0.015625, -0.031250, 0.015625, -0.015625, 0.015625, -0.031250, -0.062500, -0.015625, 0.078125, 0.015625, -0.078125, -0.015625, 0.046875, 0.031250, -0.015625, 0.031250, -0.031250, 0.000000, 0.000000, 0.031250, 0.031250, 0.000000, 0.000000, -0.031250, 0.046875, -0.015625, 0.015625, 0.078125, 0.000000, 0.015625, -0.062500, 0.000000, 0.000000, -0.031250, -0.015625, 0.062500, 0.078125, 0.000000, 0.000000, -0.062500, -0.015625, -0.078125, 0.000000, -0.046875, 0.000000, 0.031250, -0.078125, 0.015625, -0.015625, 0.031250, 0.000000, 0.000000, 0.015625, -0.125000, -0.031250, -0.031250, 0.000000, -0.015625, 0.046875, -0.062500, 0.046875, -0.031250, 0.031250, 0.000000, -0.015625, -0.015625, 0.000000, 0.093750, -0.015625, -0.015625, 0.000000, 0.031250, 0.015625, 0.015625, 0.031250, 0.062500, 0.078125, 0.062500, 0.015625, 0.000000, -0.125000, 0.046875, 0.000000, 0.015625, 0.062500, -0.031250, 0.000000, 0.000000, 0.015625, 0.046875, 0.000000, 0.015625, -0.015625, -0.015625, -0.062500, -0.015625, -0.062500, 0.000000, 0.015625, 0.078125, 0.046875, -0.046875, 0.000000, -0.046875, -0.031250, -0.046875, 0.000000, -0.046875, -0.031250, 0.046875, 0.078125, 0.015625, 0.015625, 0.031250, -0.015625, -0.046875, 0.000000, -0.015625, -0.015625, -0.046875, -0.015625, -0.015625, 0.078125, -0.062500, 0.031250, -0.015625, 0.015625, 0.015625, 0.015625, 0.031250, 0.031250, 0.093750, -0.015625, 0.000000, -0.015625, -0.015625, 0.015625, -0.046875, 0.015625, 0.031250, 0.046875, 0.015625, 0.000000, 0.015625, -0.031250, -0.015625, -0.015625, 0.031250, 0.000000, 0.046875, 0.015625, -0.031250, -0.046875, 0.000000, -0.031250, 0.015625, 0.000000, -0.031250, -0.062500, 0.031250, 0.000000, -0.031250, -0.046875, 0.046875, 0.031250, -0.046875, 0.000000, -0.062500, -0.015625, -0.046875, 0.046875, -0.078125, 0.031250, 0.015625, 0.062500, 0.015625, 0.000000, 0.031250, -0.015625, 0.000000, 0.015625, -0.015625, 0.000000, -0.015625, 0.015625, -0.015625, -0.015625, 0.000000, -0.015625, -0.015625, 0.046875, 0.031250, 0.000000, -0.031250, -0.031250, 0.046875, 0.031250, 0.000000, -0.078125, -0.031250, 0.000000, 0.015625, -0.062500, -0.031250, 0.046875, -0.046875, 0.000000, 0.078125, 0.015625, -0.031250, -0.015625, 0.015625, -0.015625, 0.015625, 0.093750, -0.046875, -0.015625, -0.031250, 0.000000, 0.000000, 0.046875, -0.031250, -0.046875, 0.000000, -0.015625, 0.015625, -0.031250, -0.015625, 0.062500, -0.046875, -0.015625, -0.015625, 0.000000, -0.078125, -0.015625, -0.015625, 0.000000, 0.031250, -0.015625, -0.046875, -0.031250, -0.015625, 0.015625, -0.015625, 0.000000, -0.062500, 0.031250, 0.000000, 0.015625, -0.031250, 0.031250, 0.046875, 0.015625, -0.046875, 0.000000, -0.015625, -0.015625, -0.015625, -0.031250, -0.031250, 0.031250, 0.000000, -0.031250, -0.031250, -0.046875, 0.015625, -0.062500, -0.015625, 0.000000, -0.062500, 0.015625, 0.015625, 0.031250, -0.015625, -0.015625, -0.031250, -0.015625, 0.000000, 0.062500, -0.031250, 0.031250, 0.031250, 0.015625, 0.000000, -0.015625, 0.000000, -0.031250, -0.031250, 0.000000, 0.062500, -0.015625, 0.015625, 0.031250, -0.015625, 0.000000, 0.000000, 0.000000, -0.046875, 0.031250, -0.015625, 0.015625, 0.000000, 0.031250, -0.031250, 0.015625, -0.031250, -0.015625, -0.015625, 0.000000, -0.015625, 0.000000, -0.046875, 0.000000, 0.015625, 0.015625, 0.031250, -0.015625, -0.046875, -0.015625, 0.015625, 0.031250, -0.015625, -0.046875, -0.015625, 0.000000, -0.015625, 0.000000, -0.015625, 0.031250, -0.046875, 0.000000, -0.031250, 0.031250, -0.093750, -0.062500, 0.000000, 0.093750, -0.046875, -0.062500, 0.062500, -0.015625, 0.046875, 0.031250, -0.046875, 0.000000, -0.031250, 0.000000, -0.015625, -0.015625, -0.031250, -0.031250, 0.031250, 0.062500, 0.000000, -0.078125, -0.046875, 0.015625, -0.015625, -0.015625, -0.015625, 0.000000, -0.046875, 0.000000, -0.062500, 0.046875, -0.015625, 0.078125, -0.046875, -0.062500, -0.031250, 0.015625, 0.000000, 0.015625, 0.015625, 0.000000, -0.046875, 0.015625, 0.031250, -0.031250, -0.046875, -0.031250, -0.078125, 0.046875, 0.031250, 0.046875, -0.015625, -0.062500, 0.015625, -0.015625, -0.031250, 0.062500, -0.062500, -0.046875, -0.031250, 0.015625, -0.093750, -0.078125, -0.015625, 0.000000, 0.031250, 0.062500, -0.031250, -0.015625, 0.046875, -0.031250, -0.015625, 0.046875, 0.000000, 0.046875, 0.000000, -0.031250, -0.015625, 0.046875, 0.000000, -0.046875, 0.015625, 0.000000, 0.015625, -0.015625, 0.031250, -0.015625, -0.031250, -0.031250, 0.015625, 0.031250, -0.015625, -0.015625, -0.046875, 0.031250, 0.015625, 0.031250, 0.015625, -0.031250, 0.015625, 0.031250, -0.046875, 0.046875, 0.015625, 0.031250, 0.000000, -0.015625, 0.000000, -0.062500, 0.031250, -0.015625, -0.015625, 0.000000, 0.015625, 0.015625, -0.031250, -0.015625, -0.015625, 0.031250, 0.093750, 0.015625, -0.015625, 0.000000, 0.031250, -0.031250, -0.015625, 0.031250, -0.031250, 0.031250, 0.015625, 0.015625, 0.031250, 0.031250, 0.000000, 0.000000, -0.031250, 0.062500, 0.031250, 0.125000, 0.015625, 0.000000, -0.015625, 0.000000, -0.015625, -0.062500, 0.000000, 0.000000, 0.093750, 0.015625, 0.062500, 0.000000, 0.015625, -0.046875, 0.109375, -0.031250, 0.062500, 0.062500, -0.078125, 0.062500, 0.031250, 0.046875, 0.046875, 0.031250, 0.093750, 0.015625, -0.046875, 0.062500, 0.031250, -0.015625, -0.015625, -0.015625, 0.031250, -0.015625, 0.000000, -0.031250, -0.062500, 0.000000, 0.015625, -0.015625, 0.000000, 0.031250, 0.000000, 0.015625, 0.093750, 0.000000, -0.031250, 0.031250, 0.015625, -0.031250, -0.046875, 0.031250, -0.046875, -0.015625, -0.015625, 0.031250, 0.000000, 0.000000, 0.031250, -0.046875, 0.031250, 0.015625, -0.046875, 0.062500, -0.015625, -0.015625, -0.031250, -0.015625, -0.015625, 0.000000, 0.015625, 0.031250, -0.031250, 0.000000, 0.046875, -0.015625, -0.031250, -0.031250, 0.062500, 0.000000, -0.031250, 0.015625, -0.031250, 0.078125, 0.031250, 0.015625, -0.031250, -0.015625, -0.015625, 0.015625, -0.015625, 0.015625, 0.046875, 0.062500, -0.015625, 0.046875, -0.015625, -0.015625, -0.062500, -0.078125, -0.046875, 0.031250, 0.062500, -0.031250, -0.046875, -0.046875, -0.031250, 0.000000, 0.093750, -0.015625, -0.031250, -0.046875, 0.015625, -0.031250, -0.078125, 0.031250, 0.015625, 0.015625, 0.000000, 0.015625, 0.015625, 0.000000, -0.015625, -0.031250, 0.031250, 0.000000, 0.000000, 0.031250, 0.015625, -0.015625, -0.015625, 0.000000, 0.000000, 0.000000, 0.031250, 0.015625, -0.031250, 0.000000, 0.015625, 0.000000, 0.031250, 0.000000, 0.000000, 0.015625, -0.015625, 0.031250, 0.000000, 0.015625, 0.031250, 0.031250, 0.000000, 0.000000, 0.000000, 0.031250, 0.031250, 0.015625, -0.015625, 0.015625, 0.031250, 0.015625, 0.015625, -0.015625, 0.000000, 0.015625, -0.015625, 0.015625, 0.015625, -0.031250, 0.000000, 0.000000, 0.015625, 0.015625, 0.000000, -0.015625, 0.000000, 0.015625, 0.015625, -0.031250, 0.000000, 0.015625, 0.031250, 0.000000, -0.015625, -0.015625, 0.015625, 0.000000, 0.000000, -0.046875, 0.015625, 0.000000, 0.015625, 0.015625, 0.000000, -0.015625, 0.000000, 0.000000, 0.015625, 0.000000, 0.031250, 0.000000, -0.015625, 0.015625, -0.015625, 0.000000, 0.015625, 0.000000, 0.015625, 0.015625, 0.015625, 0.031250, 0.000000, 0.000000, 0.031250, 0.000000, 0.015625, 0.000000, 0.000000, 0.015625, 0.046875, 0.015625, -0.031250, 0.015625, 0.000000, 0.031250, 0.046875, -0.015625, 0.031250, 0.000000, 0.000000, 0.015625, 0.000000, -0.015625, 0.000000, -0.015625, 0.000000, 0.015625, -0.031250, 0.000000, -0.015625, 0.015625, 0.015625, 0.000000, 0.000000, 0.015625, 0.000000, 0.000000, 0.000000, 0.000000, 0.031250, -0.015625, -0.015625, -0.031250, 0.015625, 0.000000, 0.015625, -0.015625, 0.015625, -0.015625, 0.000000, 0.015625, 0.015625, 0.015625, 0.000000, 0.000000, 0.000000, 0.000000, -0.046875, -0.015625, 0.031250, -0.015625, 0.000000, 0.015625, 0.015625, 0.062500, 0.015625, 0.015625, 0.015625, 0.000000, 0.015625, 0.000000, -0.015625, 0.015625, 0.015625, 0.015625, -0.062500, 0.015625, 0.031250, 0.031250, 0.031250, -0.031250, 0.015625, 0.015625, 0.000000, 0.015625, 0.015625, -0.031250, 0.000000, 0.000000, -0.015625, 0.000000, -0.015625, 0.031250, 0.000000, 0.000000, 0.015625, 0.015625, 0.015625, -0.015625, 0.015625, 0.000000, 0.000000, 0.000000, 0.015625, 0.000000, 0.031250, -0.046875, 0.031250, -0.015625, -0.015625, 0.000000, 0.015625, -0.031250, -0.015625, 0.015625, 0.000000, 0.000000, 0.031250, 0.015625, -0.015625, 0.000000, -0.015625, 0.000000, 0.000000, 0.015625, -0.015625, 0.015625, -0.015625, -0.015625, 0.000000, -0.015625, 0.031250, 0.015625, 0.000000, 0.000000, 0.000000, 0.031250, 0.046875, -0.015625, -0.015625, 0.046875, 0.000000, 0.031250, 0.000000, -0.015625, 0.015625, 0.000000, -0.015625, 0.000000, 0.015625, -0.015625, 0.000000, 0.000000, 0.015625, 0.000000, -0.062500, -0.015625, -0.015625, 0.000000, 0.031250, -0.062500, 0.000000, 0.000000, 0.015625, 0.000000, 0.015625, -0.031250, 0.015625, 0.000000, -0.015625, -0.046875, 0.000000, -0.015625, 0.000000, 0.015625, 0.000000, -0.031250, 0.000000, 0.031250, 0.000000, -0.015625, 0.015625, 0.000000, 0.000000, 0.000000, -0.015625, -0.015625, 0.015625, 0.000000, 0.000000, 0.015625, 0.000000, -0.015625, 0.015625, -0.015625, 0.015625, -0.015625, 0.015625, 0.000000, 0.000000, 0.015625, 0.046875, -0.031250, -0.046875, 0.015625, 0.000000, 0.031250, 0.000000, -0.015625, 0.000000, -0.015625, -0.046875, 0.015625, 0.015625, -0.031250, 0.000000, 0.000000, 0.000000, 0.031250, -0.031250, -0.015625, 0.000000, 0.000000, 0.015625, 0.000000, 0.015625, -0.015625, 0.000000, 0.000000, -0.015625, -0.046875, 0.015625, -0.015625, 0.000000, -0.031250, 0.000000, 0.015625, 0.015625, 0.000000, 0.000000, -0.015625, 0.000000, 0.031250, 0.000000, -0.015625, 0.015625, 0.046875, -0.031250, 0.000000, 0.015625, 0.015625, 0.015625, 0.000000, 0.000000, 0.015625, 0.000000, 0.015625, -0.015625, 0.015625, 0.000000, -0.015625, 0.000000, 0.015625, 0.000000, 0.031250, 0.015625, -0.015625, -0.031250, 0.062500, 0.000000, 0.031250, 0.015625, -0.031250, -0.046875, -0.046875, -0.046875, 0.015625, 0.031250, -0.031250, 0.000000, 0.000000, 0.015625, 0.046875, 0.000000, -0.015625, 0.000000, 0.000000, 0.015625, 0.015625, 0.000000, -0.015625, 0.000000, 0.015625, 0.015625, 0.015625, 0.015625, 0.015625, 0.000000, -0.031250, 0.031250, 0.000000, 0.015625, 0.000000, 0.000000, 0.000000, -0.015625, -0.015625, 0.000000, 0.000000, 0.015625, 0.000000, 0.015625, 0.000000, 0.000000, 0.000000, 0.031250, 0.000000, -0.015625, 0.000000, 0.015625, 0.000000, 0.000000, 0.015625, 0.015625, 0.000000, 0.015625, 0.000000, -0.031250, 0.046875, 0.031250, 0.031250, 0.046875, 0.046875, 0.000000, 0.000000, -0.015625, -0.015625, 0.015625, -0.031250, -0.015625, 0.015625, 0.015625, -0.015625, -0.015625, 0.000000, 0.000000, 0.000000, 0.000000, 0.015625, 0.000000, 0.015625, 0.015625, -0.031250, -0.015625, 0.000000, -0.031250, 0.015625, 0.015625, 0.000000, 0.031250, 0.015625, 0.015625, -0.031250, 0.031250, 0.000000, 0.015625, -0.015625, 0.031250, -0.015625, -0.031250, 0.015625, 0.031250, -0.015625, 0.015625, -0.015625, 0.000000, 0.000000, -0.046875, 0.015625, 0.015625, 0.000000, -0.015625, 0.031250, 0.015625, 0.000000, 0.000000, 0.000000, 0.015625, 0.015625, 0.046875, 0.031250, -0.031250, 0.031250, 0.062500, 0.000000, 0.000000, 0.015625, 0.015625, 0.015625, 0.000000, 0.015625, 0.031250, -0.031250, -0.015625, 0.015625, -0.015625, -0.015625, 0.000000, 0.031250, 0.015625, 0.031250, 0.000000, 0.015625, -0.015625, 0.031250, 0.015625, 0.000000, 0.000000, 0.000000, -0.031250, 0.015625, 0.000000, -0.015625, 0.015625, 0.000000, -0.015625, -0.031250, 0.031250, 0.031250, 0.000000, -0.015625, 0.015625, -0.031250, -0.015625, -0.015625, 0.015625, -0.015625, 0.015625, 0.015625, 0.000000, 0.015625, -0.031250, 0.015625, 0.015625, -0.015625, 0.031250, 0.031250, 0.015625, 0.000000, 0.015625, 0.046875, 0.000000, 0.000000, 0.015625, 0.000000, 0.000000, 0.031250, 0.000000, 0.015625, -0.015625, 0.031250, 0.000000, 0.031250, 0.000000, 0.000000, 0.062500, -0.031250, -0.031250, 0.000000, 0.015625, -0.031250, 0.000000, 0.015625, 0.015625, 0.015625, 0.015625, 0.015625, -0.015625, 0.000000, 0.015625, 0.000000, -0.015625, 0.015625, 0.015625, -0.015625, 0.015625, 0.015625, 0.000000, -0.031250, 0.000000, 0.015625, 0.015625, 0.000000, -0.015625, 0.000000, 0.015625, 0.015625, 0.015625, -0.015625, 0.000000, -0.015625, 0.000000, 0.000000, 0.000000, -0.015625, 0.000000, 0.000000, -0.015625, -0.031250, -0.031250, -0.031250, 0.015625, 0.000000, 0.031250, -0.031250, 0.015625, 0.000000, 0.000000, -0.015625, -0.015625, 0.000000, 0.000000, 0.015625, -0.046875, -0.015625, 0.031250, 0.015625, 0.000000, 0.031250, 0.015625, 0.015625, 0.046875, -0.031250, -0.015625, 0.000000, -0.031250, 0.000000, 0.000000, -0.031250, -0.031250, -0.031250, 0.015625, 0.000000, 0.015625, 0.000000, 0.000000, 0.031250, 0.031250, 0.000000, 0.000000, 0.015625, -0.015625, 0.000000, -0.015625, 0.031250, 0.000000, 0.000000, -0.031250, 0.031250, 0.015625, 0.015625, 0.015625, -0.015625, -0.015625, 0.015625, -0.015625, 0.015625, 0.015625, -0.015625, 0.015625, 0.000000, 0.015625, -0.031250, -0.015625, -0.015625, 0.000000, 0.015625, -0.015625, 0.015625, 0.000000, 0.015625, -0.015625, 0.000000, 0.031250, 0.000000, 0.000000, 0.031250, -0.015625, 0.000000, 0.015625, 0.015625, 0.015625, 0.015625, 0.015625, 0.000000, 0.031250, 0.000000, -0.015625, 0.031250, -0.015625, 0.000000, -0.015625, -0.031250, 0.000000, -0.015625, 0.000000, -0.031250, 0.000000, 0.000000, 0.000000, 0.015625, 0.000000, -0.031250, 0.000000, 0.000000, -0.015625, -0.031250, -0.046875, 0.015625, 0.015625, 0.000000, -0.031250, 0.000000, -0.015625, -0.015625, 0.031250, 0.000000, -0.015625, -0.015625, 0.015625, 0.000000, 0.000000, -0.031250, 0.015625, 0.000000, -0.015625, -0.046875, 0.000000, 0.015625, 0.000000, 0.015625, -0.031250, 0.015625, -0.015625, 0.000000, -0.031250, -0.031250, 0.015625, 0.000000, 0.015625, 0.031250, -0.031250, -0.015625, 0.031250, 0.015625, 0.000000, 0.000000, 0.000000, 0.015625, 0.031250, 0.000000, 0.000000, -0.015625, 0.000000, -0.015625, -0.015625, 0.015625, 0.015625, 0.000000, 0.015625, -0.031250, 0.015625, 0.015625, 0.000000, -0.015625, 0.031250, 0.015625, 0.015625, 0.031250, 0.015625, -0.015625, 0.015625, -0.015625, 0.015625, -0.015625, 0.000000, -0.015625, 0.015625, 0.000000, -0.031250, 0.031250, 0.000000, 0.000000, 0.031250, 0.000000, -0.031250, 0.015625, 0.000000, 0.000000, -0.015625, -0.015625, 0.015625, -0.015625, 0.015625, -0.015625, 0.015625, -0.015625, 0.000000, 0.000000, 0.000000, 0.000000, -0.031250, 0.015625, 0.015625, 0.000000, -0.015625, 0.031250, 0.031250, 0.000000, 0.015625, -0.015625, 0.000000, 0.000000, 0.015625, 0.015625, 0.000000, -0.015625, -0.062500, 0.015625, 0.000000, 0.015625, 0.015625, -0.015625, 0.015625, 0.000000, 0.031250, -0.046875, 0.000000, 0.000000, 0.031250, 0.000000, -0.015625, 0.062500, 0.000000, 0.000000, 0.015625, -0.031250, 0.031250, 0.000000, 0.000000, 0.031250, 0.000000, 0.031250, -0.015625, 0.015625, -0.015625, 0.000000, 0.000000, 0.000000, 0.000000, 0.000000, 0.015625, 0.031250, 0.000000, -0.046875, 0.000000, 0.015625, -0.031250, 0.000000, 0.000000, -0.031250, 0.000000, -0.015625, 0.000000, -0.015625, 0.000000, 0.031250, 0.000000, 0.000000, -0.015625, 0.015625, 0.000000, 0.015625, 0.015625, 0.015625, 0.031250, -0.031250, 0.031250, 0.000000, 0.015625, 0.015625, -0.031250, 0.015625, -0.015625, 0.015625, 0.000000, 0.031250, 0.015625, 0.000000, 0.015625, -0.015625, -0.015625, -0.031250, 0.031250, -0.046875, 0.000000, 0.015625, -0.062500, -0.031250, 0.000000, -0.031250, 0.015625, -0.015625, -0.046875, 0.015625, -0.031250, 0.000000, 0.000000, 0.015625, -0.031250, -0.031250, 0.031250, 0.015625, 0.000000, -0.046875, 0.000000, 0.031250, 0.000000, -0.046875, -0.015625, 0.046875, 0.000000, 0.000000, -0.046875, 0.000000, 0.000000, -0.015625, -0.031250, -0.046875, 0.031250, 0.015625, 0.046875, -0.015625, 0.000000, 0.031250, 0.000000, 0.015625, 0.015625, 0.000000, 0.031250, -0.031250, 0.031250, 0.000000, 0.000000, -0.015625, -0.015625, -0.031250, 0.000000, 0.031250, 0.015625, 0.000000, -0.015625, -0.046875, 0.000000, -0.015625, -0.015625, 0.015625, 0.015625, 0.015625, 0.015625, 0.015625, 0.000000, 0.000000, 0.031250, 0.015625, 0.015625, 0.031250, 0.015625, 0.015625, 0.015625, 0.015625, 0.015625, 0.000000, 0.000000, 0.015625, 0.000000, 0.000000, 0.015625, 0.015625, 0.000000, 0.000000, -0.015625, -0.031250, 0.062500, 0.015625, 0.031250, -0.015625, 0.015625, 0.031250, 0.015625, 0.015625, 0.031250, 0.000000, -0.015625, 0.000000, 0.000000, 0.000000, 0.015625, 0.015625, 0.046875, 0.000000, -0.015625, -0.015625, 0.015625, -0.015625, 0.031250, 0.015625, -0.015625, 0.046875, -0.015625, 0.031250, 0.031250, 0.015625, 0.015625, 0.000000, 0.015625, 0.000000, -0.015625, 0.000000, 0.015625, 0.000000, 0.000000, 0.000000, 0.000000, 0.031250, 0.000000, 0.000000, 0.015625, 0.000000, 0.031250, 0.000000, 0.000000, -0.031250, 0.015625, 0.015625, 0.031250, 0.000000, 0.015625, 0.046875, 0.000000, 0.015625, 0.031250, 0.015625, 0.000000, 0.000000, 0.015625, -0.031250, 0.031250, 0.031250, 0.000000, -0.015625, 0.015625, 0.015625, 0.000000, 0.000000, 0.000000, 0.000000, 0.015625, 0.000000, 0.031250, 0.000000, 0.000000, 0.000000, 0.031250, -0.015625, -0.015625, 0.000000, 0.000000, -0.031250, 0.015625, 0.015625, 0.000000, 0.046875, -0.046875, 0.015625, 0.015625, 0.015625, 0.015625, 0.000000, 0.015625, 0.015625, 0.000000, 0.031250, 0.000000, -0.015625, -0.015625, 0.000000, 0.015625, 0.031250, -0.015625, -0.015625, 0.000000, 0.000000, 0.000000, -0.015625, -0.015625, -0.015625, -0.015625, 0.000000, 0.015625, 0.000000, -0.015625, -0.015625, 0.000000, 0.000000, 0.015625, -0.015625, 0.000000, 0.015625, 0.000000, -0.062500, 0.000000, 0.031250, 0.000000, 0.000000, 0.000000, 0.015625, -0.015625, 0.000000, -0.015625, -0.015625, 0.000000, 0.015625, 0.000000, -0.031250, 0.031250, 0.031250, 0.015625, -0.031250, -0.031250, 0.000000, 0.000000, -0.031250, 0.046875, 0.015625, 0.000000, 0.000000, -0.031250, 0.000000, 0.000000, 0.015625, 0.031250, 0.000000, 0.015625, -0.031250, 0.000000, 0.015625, -0.031250, -0.015625, 0.015625, 0.000000, 0.000000, 0.015625, -0.015625, 0.000000, 0.031250, 0.000000, 0.015625, 0.000000, 0.000000, -0.015625, 0.000000, 0.015625, 0.031250, -0.015625, 0.000000, 0.015625, 0.000000, 0.000000, 0.015625, 0.000000, 0.000000, 0.046875, 0.000000, 0.000000, 0.000000, -0.031250, 0.015625, 0.000000, 0.015625, 0.062500, 0.015625, -0.031250, 0.015625, 0.000000, 0.015625, -0.015625, -0.015625, -0.046875, -0.062500, -0.031250, 0.000000, -0.046875, 0.000000, -0.046875, 0.031250, 0.046875, 0.015625, 0.000000, 0.000000, -0.015625, 0.031250, 0.000000, 0.015625, 0.015625, -0.031250, 0.046875, 0.015625, 0.000000, -0.046875, 0.046875, -0.031250, -0.078125, 0.000000, 0.000000, 0.046875, -0.015625, 0.015625, 0.015625, 0.015625, 0.015625, -0.015625, 0.000000, 0.000000, -0.015625, 0.015625, 0.031250, 0.000000, -0.031250, 0.000000, 0.015625, -0.031250, 0.046875, -0.046875, 0.015625, 0.062500, 0.031250, 0.015625, 0.015625, 0.000000, -0.015625, -0.031250, 0.015625, -0.046875, 0.062500, 0.015625, 0.000000, 0.015625, 0.015625, -0.015625, -0.031250, -0.062500, 0.000000, -0.046875, -0.031250, 0.015625, -0.015625, -0.015625, -0.015625, 0.000000, 0.015625, 0.000000, 0.015625, 0.000000, 0.031250, 0.015625, -0.015625, -0.015625, 0.000000, 0.015625, 0.031250, 0.015625, 0.015625, -0.062500, 0.031250, -0.031250, 0.000000, 0.000000, -0.031250, 0.078125, 0.031250, -0.031250, -0.015625, 0.046875, 0.000000, -0.015625, 0.015625, -0.046875, 0.031250, -0.046875, 0.000000, -0.031250, -0.015625, -0.031250, -0.015625, -0.015625, 0.015625, 0.000000, -0.015625, 0.046875, 0.046875, 0.015625, 0.000000, 0.031250, -0.015625, -0.031250, 0.046875, -0.062500, 0.093750, 0.031250, -0.015625, 0.000000, -0.031250, -0.031250, -0.015625, -0.031250, 0.015625, -0.046875, -0.046875, 0.046875, -0.031250, 0.000000, 0.000000, 0.000000, -0.015625, -0.031250, 0.000000, 0.015625, 0.000000, -0.046875, -0.015625, -0.015625, 0.000000, 0.000000, -0.015625, 0.000000, -0.015625, -0.031250, -0.046875, -0.015625, 0.000000, 0.015625, 0.000000, 0.015625, 0.046875, -0.015625, 0.000000, 0.046875, 0.000000, 0.000000, 0.000000, -0.031250, 0.015625, 0.000000, -0.015625, 0.031250, -0.031250, -0.031250, -0.015625, -0.015625, -0.015625, 0.000000, 0.000000, 0.015625, 0.015625, 0.015625, -0.015625, -0.015625, -0.015625, 0.015625, 0.031250, 0.031250, 0.000000, 0.031250, -0.031250, 0.015625, -0.015625, 0.031250, 0.000000, -0.015625, -0.031250, -0.031250, 0.000000, 0.015625, -0.015625, -0.046875, -0.015625, 0.000000, -0.015625, 0.046875, -0.015625, 0.015625, -0.015625, 0.000000, 0.000000, 0.015625, 0.000000, -0.031250, 0.046875, -0.046875, 0.015625, -0.031250, 0.015625, 0.000000, 0.000000, 0.000000, 0.015625, 0.031250, 0.015625, -0.015625, 0.015625, 0.000000, 0.031250, 0.000000, 0.015625, 0.000000, 0.015625, -0.015625, 0.000000, -0.031250, -0.031250, -0.015625, -0.031250, 0.000000, 0.000000, 0.015625, 0.015625, 0.046875, 0.015625, 0.031250, -0.046875, 0.015625, -0.015625, -0.031250, 0.015625, -0.015625, 0.015625, 0.015625, 0.015625, -0.031250, 0.000000, -0.031250, -0.031250, -0.015625, 0.000000, -0.015625, -0.031250, 0.031250, 0.000000, -0.031250, -0.015625, 0.000000, -0.031250, -0.015625, 0.000000, 0.015625, 0.000000, -0.031250, 0.000000, 0.015625, 0.000000, 0.000000, 0.062500, 0.015625, 0.015625, -0.046875, 0.015625, 0.031250, 0.015625, -0.031250, -0.062500, 0.062500, 0.031250, -0.046875, -0.031250, 0.015625, 0.015625, 0.000000, 0.031250, -0.062500, 0.031250, -0.031250, 0.000000, -0.031250, -0.031250, -0.031250, -0.031250, -0.015625, 0.031250, 0.000000, -0.046875, 0.062500, 0.031250, 0.031250, -0.031250, 0.015625, 0.000000, -0.046875, 0.046875, -0.078125, 0.046875, 0.000000, 0.031250, -0.046875, -0.031250, -0.015625, -0.031250, -0.046875, 0.000000, -0.031250, -0.031250, -0.015625, -0.015625, -0.015625, -0.015625, -0.031250, -0.031250, -0.031250, 0.015625, 0.015625, 0.000000, -0.062500, -0.031250, -0.015625, -0.031250, 0.015625, -0.015625, 0.000000, -0.046875, -0.046875, -0.015625, 0.000000, -0.015625, 0.000000, -0.031250, 0.015625, -0.046875, 0.000000, -0.015625, 0.015625, 0.015625, 0.000000, 0.046875, -0.031250, -0.031250, 0.000000, -0.031250, 0.031250, 0.000000, 0.000000, 0.000000, 0.000000, -0.015625, 0.015625, 0.000000, 0.000000, 0.046875, 0.031250, 0.000000, 0.015625, -0.015625, 0.031250, 0.031250, 0.015625, 0.046875, 0.031250, -0.015625, -0.015625, -0.015625, 0.015625, 0.000000, -0.015625, 0.015625, -0.031250, 0.015625, 0.031250, -0.015625, -0.015625, 0.031250, 0.015625, 0.015625, 0.031250, 0.015625, 0.031250, 0.000000, -0.031250, -0.015625, 0.031250, 0.046875, -0.015625, 0.015625, -0.015625, 0.015625, -0.015625, 0.031250, 0.015625, 0.000000, -0.015625, -0.015625, 0.000000, -0.078125, -0.031250, 0.000000, 0.000000, 0.031250, 0.000000, 0.031250, -0.031250, 0.015625, 0.015625, 0.031250, 0.000000, -0.031250, 0.000000, 0.000000, 0.000000, -0.015625, 0.000000, 0.000000, 0.031250, 0.031250, 0.015625, -0.015625, 0.031250, 0.000000, 0.000000, 0.015625, -0.031250, 0.046875, -0.015625, 0.000000, -0.015625, -0.015625, 0.078125, -0.031250, 0.000000, 0.031250, -0.046875, 0.000000, 0.000000, -0.015625, 0.015625, 0.000000, 0.000000, 0.000000, 0.000000, 0.015625, 0.031250, -0.015625, -0.015625, -0.015625, -0.031250, 0.000000, 0.015625, 0.031250, -0.015625, -0.015625, 0.000000, 0.015625, 0.000000, 0.015625, -0.015625, -0.031250, 0.046875, -0.015625, -0.031250, -0.015625, -0.031250, 0.000000, 0.015625, 0.031250, -0.046875, 0.031250, -0.015625, 0.031250, -0.046875, -0.015625, -0.031250, -0.046875, 0.031250, 0.015625, 0.015625, 0.000000, 0.031250, 0.046875, 0.000000, -0.031250, 0.031250, 0.000000, 0.015625, 0.015625, -0.046875, 0.093750, 0.015625, 0.000000, -0.015625, -0.031250, 0.062500, -0.031250, -0.015625, 0.015625, -0.031250, 0.000000, -0.015625, -0.031250, 0.015625, -0.015625, -0.015625, 0.015625, 0.000000, 0.031250, 0.031250, -0.015625, -0.015625, -0.015625, 0.000000, 0.000000, 0.000000, -0.031250, 0.015625, -0.031250, -0.015625, -0.015625, 0.031250, 0.000000, 0.031250, -0.015625, 0.031250, 0.015625, 0.000000, 0.000000, 0.046875, 0.015625, 0.015625, 0.031250, 0.000000, 0.000000, 0.015625, 0.015625, 0.046875, 0.015625, 0.000000, 0.000000, 0.015625, 0.000000, 0.000000, 0.015625, 0.031250, 0.015625, -0.015625, -0.031250, -0.015625, -0.031250, 0.015625, 0.046875, 0.015625, -0.015625, 0.031250, -0.015625, 0.000000, 0.000000, -0.015625, 0.000000, -0.015625, 0.015625, -0.031250, 0.000000, 0.015625, 0.000000, 0.000000, 0.000000, 0.031250, -0.015625, 0.015625, -0.015625, 0.015625, 0.000000, -0.046875, -0.015625, 0.015625, 0.000000, 0.031250, -0.015625, 0.000000, 0.000000, 0.000000, 0.031250, 0.015625, -0.031250, 0.031250, 0.015625, 0.031250, 0.015625, 0.000000, 0.015625, 0.015625, 0.015625, -0.015625, 0.046875, 0.000000, 0.000000, 0.000000, 0.000000, 0.031250, -0.015625, 0.015625, -0.015625, -0.015625, 0.015625, 0.015625, 0.015625, 0.000000, 0.000000, 0.000000, -0.046875, 0.015625, -0.015625, 0.031250, 0.031250, 0.000000, 0.015625, 0.031250, 0.000000, 0.015625, 0.000000, 0.000000, 0.000000, 0.000000, 0.046875, -0.046875, 0.000000, 0.015625, 0.000000, 0.000000, 0.000000, 0.015625, -0.015625, 0.031250, 0.000000, 0.000000, 0.015625, -0.062500, 0.015625, 0.000000, -0.015625, 0.031250, -0.015625, 0.000000, 0.015625, 0.000000, 0.031250, 0.000000, -0.031250, 0.000000, -0.031250, 0.000000, 0.000000, -0.031250, -0.015625, 0.000000, 0.015625, 0.015625, 0.031250, -0.031250, 0.015625, -0.015625, 0.000000, 0.031250, -0.015625, -0.031250, -0.015625, 0.015625, 0.015625, 0.031250, -0.015625, 0.015625, 0.015625, 0.015625, -0.062500, 0.031250, 0.000000, 0.015625, 0.015625, -0.031250, 0.046875, 0.031250, 0.031250, -0.015625, -0.031250, 0.046875, 0.015625, -0.015625, 0.031250, -0.015625, 0.031250, 0.015625, 0.000000, -0.015625, 0.031250, 0.000000, 0.031250, 0.031250, 0.000000, 0.015625, 0.000000, -0.031250, -0.031250, 0.031250, -0.015625, 0.015625, -0.046875, 0.015625, -0.015625, -0.015625, 0.000000, 0.000000, -0.015625, 0.015625, -0.015625, 0.015625, 0.015625, 0.000000, 0.000000, 0.031250, 0.000000, 0.015625, 0.015625, -0.015625, 0.031250, 0.000000, 0.031250, 0.000000, 0.015625, 0.000000, 0.000000, 0.000000, 0.000000, 0.015625, -0.015625, 0.000000, 0.015625, -0.015625, -0.031250, 0.000000, 0.015625, 0.000000, -0.015625, 0.015625, 0.015625, 0.031250, 0.015625, 0.015625, -0.015625, 0.000000, 0.031250, -0.015625, 0.015625, -0.031250, 0.015625, 0.031250, 0.000000, 0.015625, -0.015625, 0.031250, -0.031250, 0.000000, 0.000000, 0.000000, 0.015625, -0.031250, -0.015625, 0.000000, 0.031250, -0.031250, 0.000000, -0.015625, 0.000000, 0.015625, 0.015625, 0.000000, -0.015625, 0.015625, 0.031250, 0.000000, 0.031250, 0.000000, 0.000000, 0.015625, -0.031250, -0.015625, 0.031250, 0.000000, 0.031250, 0.000000, 0.031250, 0.000000, 0.015625, -0.015625, 0.015625, 0.000000, 0.015625, 0.031250, 0.000000, -0.015625, 0.015625, -0.015625, -0.031250, 0.000000, 0.000000, 0.015625, 0.031250, 0.000000, 0.015625, 0.046875, 0.000000, 0.000000, 0.000000, 0.000000, 0.015625, -0.015625, 0.046875, -0.015625, 0.015625, 0.015625, 0.000000, 0.015625, 0.000000, 0.000000, -0.015625, 0.000000, 0.000000, 0.015625, 0.031250, -0.015625, 0.015625, 0.000000, 0.015625, 0.000000, 0.000000, 0.000000, 0.000000, 0.031250, 0.000000, 0.015625, -0.015625, -0.015625, -0.046875, 0.000000, -0.031250, -0.046875, -0.046875, -0.046875, -0.015625, 0.031250, 0.031250, -0.046875, 0.031250, -0.046875, 0.015625, 0.015625, 0.031250, -0.031250, -0.031250, 0.015625, 0.015625, 0.062500, -0.046875, 0.000000, 0.031250, 0.015625, -0.062500, 0.031250, 0.015625, -0.015625, 0.000000, 0.000000, 0.046875, 0.015625, 0.031250, -0.062500, -0.046875, 0.000000, 0.015625, 0.000000, 0.015625, -0.015625, 0.031250, 0.000000, 0.015625, 0.000000, 0.031250, -0.015625, 0.000000, 0.015625, 0.015625, 0.015625, 0.015625, 0.015625, -0.046875, 0.000000, 0.015625, 0.015625, -0.031250, -0.015625, -0.062500, 0.015625, 0.015625, -0.031250, -0.015625, 0.000000, -0.015625, 0.015625, 0.000000, -0.015625, 0.000000, 0.015625, 0.000000, 0.000000, 0.015625, 0.000000, 0.015625, 0.000000, -0.031250, 0.031250, 0.000000, -0.015625, 0.015625, 0.000000, 0.015625, 0.015625, 0.000000, 0.000000, 0.015625, 0.000000, -0.078125, 0.031250, 0.000000, 0.031250, 0.031250, 0.000000, -0.015625, 0.031250, 0.000000, 0.000000, 0.000000, 0.046875, 0.000000, -0.031250, 0.000000, -0.031250, -0.015625, 0.031250, 0.000000, 0.000000, -0.046875, 0.062500, 0.000000, 0.000000, 0.000000, 0.000000, 0.015625, -0.031250, 0.000000, -0.015625, 0.015625, 0.000000, -0.062500, -0.015625, -0.015625, 0.000000, -0.031250, -0.015625, -0.015625, 0.000000, 0.000000, 0.000000, 0.031250, 0.000000, -0.015625, 0.015625, 0.000000, 0.000000, 0.015625, -0.015625, 0.000000, 0.000000, 0.062500, 0.046875, 0.000000, -0.015625, 0.000000, -0.031250, -0.015625, 0.000000, 0.000000, 0.000000, 0.000000, -0.015625, -0.031250, 0.046875, -0.015625, 0.000000, 0.031250, 0.031250, 0.000000, 0.000000, 0.000000, 0.000000, -0.015625, 0.031250, 0.000000, -0.015625, 0.000000, 0.000000, 0.000000, 0.000000, -0.015625, 0.000000, -0.015625, 0.015625, -0.015625, 0.000000, 0.000000, 0.000000, 0.078125, -0.031250, -0.015625, -0.015625, 0.000000, 0.046875, -0.015625, -0.031250, -0.015625, 0.000000, 0.031250, 0.015625, -0.015625, -0.015625, -0.015625, 0.000000, 0.031250, -0.015625, -0.031250, -0.015625, 0.015625, 0.015625, 0.031250, -0.031250, 0.000000, -0.015625, 0.046875, 0.000000, 0.000000, -0.015625, -0.015625, 0.000000, 0.015625, -0.015625, -0.031250, 0.015625, 0.000000, 0.000000, -0.046875, 0.046875, 0.000000, -0.015625, 0.000000, -0.015625, 0.015625, -0.015625, -0.015625, -0.015625, -0.031250, 0.015625, -0.015625, -0.015625, 0.000000, 0.015625, 0.000000, -0.015625, 0.000000, -0.031250, 0.031250, -0.015625, 0.000000, 0.015625, 0.000000, 0.000000, 0.015625, 0.000000, -0.031250, 0.000000, 0.015625, 0.031250, 0.000000, -0.031250, -0.031250, 0.031250, 0.015625, -0.031250, 0.000000, -0.031250, -0.046875, -0.093750, 0.015625, -0.046875, 0.000000, 0.015625, 0.015625, -0.031250, -0.015625, -0.015625, 0.046875, -0.015625, 0.031250, 0.093750, 0.015625, 0.000000, 0.093750, 0.015625, -0.109375, -0.015625, 0.000000, 0.062500, -0.078125, 0.000000, 0.046875, -0.015625, 0.046875, 0.062500, 0.015625, 0.031250, -0.078125, -0.031250, -0.015625, 0.015625, 0.015625, 0.031250, 0.015625, 0.031250, -0.015625, 0.078125, -0.015625, 0.015625, -0.015625, 0.000000, -0.015625, 0.000000, 0.000000, 0.015625, 0.062500, -0.015625, 0.046875, 0.031250, -0.031250, -0.015625, 0.031250, 0.078125, 0.062500, 0.046875, -0.031250, 0.031250, 0.046875, -0.031250, 0.031250, 0.015625, -0.031250, -0.125000, 0.031250, -0.031250, 0.031250, -0.015625, 0.015625, 0.015625, 0.000000, 0.000000, 0.000000, 0.000000, 0.031250, 0.046875, 0.000000, -0.015625, 0.078125, 0.015625, -0.078125, 0.000000, -0.015625, 0.015625, -0.046875, 0.000000, 0.046875, 0.062500, 0.031250, 0.031250, 0.031250, 0.031250, -0.015625, -0.015625, 0.015625, -0.046875, 0.000000, 0.000000, 0.015625, 0.000000, -0.015625, 0.078125, 0.000000, 0.015625, -0.015625, -0.015625, 0.000000, 0.000000, 0.062500, 0.031250, 0.031250, -0.031250, 0.046875, 0.046875, 0.000000, -0.015625, 0.015625, 0.109375, 0.015625, 0.015625, -0.015625, 0.031250, 0.015625, -0.015625, -0.031250, 0.015625, -0.031250, -0.109375, 0.015625, -0.046875, 0.000000, -0.046875, 0.015625, 0.031250, -0.015625, -0.031250, 0.000000, -0.015625, 0.046875, 0.078125, -0.015625, -0.031250, 0.109375, -0.015625, -0.078125, -0.046875, -0.031250, -0.015625, -0.031250, -0.062500, 0.046875, 0.031250, 0.015625, 0.093750, 0.031250, 0.046875, -0.062500, -0.015625, 0.000000, -0.031250, -0.031250, -0.031250, 0.000000, 0.000000, 0.000000, 0.093750, 0.000000, 0.015625, 0.015625, -0.046875, 0.031250, -0.015625, 0.093750, 0.000000, 0.062500, -0.015625, 0.062500, -0.031250, -0.015625, 0.031250, -0.031250, 0.062500, 0.000000, 0.031250, -0.031250, -0.015625, 0.046875, -0.031250, 0.000000, 0.062500, -0.062500, 0.000000, 0.000000, -0.078125, 0.000000, 0.031250, 0.046875, 0.000000, -0.046875, -0.015625, 0.015625, -0.015625, -0.031250, -0.015625, 0.031250, -0.015625, 0.062500, -0.015625, -0.031250, 0.031250, -0.031250, 0.000000, -0.046875, -0.046875, 0.031250, 0.015625, 0.031250, 0.046875, 0.000000, 0.046875, 0.000000, -0.015625, -0.015625, -0.015625, 0.000000, -0.015625, 0.031250, 0.000000, 0.062500, 0.062500, 0.000000, 0.000000, -0.031250, -0.015625, 0.000000, 0.031250, -0.046875, 0.031250, 0.046875, 0.015625, 0.031250, -0.031250, -0.046875, 0.000000, 0.000000, -0.015625, 0.031250, 0.015625, -0.015625, 0.031250, 0.015625, 0.000000, -0.015625, 0.046875, -0.015625, -0.046875, -0.046875, -0.015625, 0.000000, -0.015625, 0.031250, 0.000000, -0.015625, 0.015625, 0.031250, -0.015625, -0.046875, -0.046875, 0.000000, 0.015625, 0.015625, -0.015625, 0.000000, 0.031250, 0.015625, 0.015625, 0.000000, -0.031250, 0.015625, 0.031250, 0.046875, 0.046875, 0.046875, 0.046875, -0.031250, 0.000000, -0.046875, -0.031250, 0.015625, 0.031250, 0.031250, 0.031250, 0.093750, 0.046875, 0.000000, 0.015625, 0.031250, 0.000000, 0.000000, 0.078125, 0.000000, 0.031250, 0.031250, 0.000000, 0.046875, 0.031250, -0.031250, -0.015625, 0.031250, -0.015625, 0.000000, 0.046875, 0.031250, 0.031250, 0.000000, 0.062500, -0.062500, 0.078125, -0.062500, -0.046875, 0.000000, -0.046875, -0.031250, -0.062500, 0.031250, -0.015625, 0.000000, -0.031250, 0.000000, -0.062500, 0.000000, 0.015625, 0.015625, -0.015625, 0.031250, -0.046875, -0.046875, 0.015625, -0.031250, -0.015625, -0.031250, -0.109375, -0.031250, -0.046875, 0.000000, 0.062500, 0.015625, 0.046875, 0.000000, 0.000000, -0.015625, -0.078125, -0.046875, 0.000000, 0.015625, -0.046875, 0.046875, 0.062500, -0.031250, 0.000000, 0.000000, -0.031250, 0.000000, 0.015625, 0.000000, 0.031250, 0.000000, -0.046875, 0.031250, -0.046875, -0.031250, -0.062500, 0.000000, 0.000000, 0.015625, -0.015625, -0.046875, -0.078125, 0.015625, 0.000000, -0.046875, 0.000000, -0.031250, -0.046875, -0.015625, -0.015625, 0.000000, -0.031250, 0.046875, 0.000000, -0.078125, 0.015625, 0.015625, 0.000000, -0.031250, -0.031250, 0.015625, 0.000000, -0.015625, 0.000000, -0.031250, 0.046875, -0.015625, 0.015625, 0.000000, 0.000000, 0.000000, 0.000000, 0.015625, -0.046875, -0.015625, 0.015625, -0.046875, -0.046875, -0.015625, -0.031250, 0.000000, 0.031250, 0.031250, 0.000000, 0.000000, 0.031250, 0.000000, -0.015625, 0.031250, 0.000000, -0.031250, -0.015625, 0.000000, 0.031250, 0.000000, -0.046875, -0.031250, -0.046875, -0.015625, 0.015625, -0.015625, 0.000000, 0.046875, -0.015625, -0.015625, 0.031250, 0.062500, 0.015625, -0.046875, 0.000000, 0.000000, -0.062500, 0.000000, 0.015625, 0.015625, -0.031250, 0.031250, 0.046875, -0.062500, -0.015625, -0.015625, -0.015625, 0.000000, -0.062500, 0.000000, 0.000000, -0.078125, 0.000000, 0.015625, 0.062500, 0.000000, 0.000000, 0.015625, 0.000000, -0.015625, 0.000000, 0.015625, -0.109375, 0.000000, -0.046875, 0.015625, 0.000000, -0.015625, -0.015625, 0.015625, 0.046875, 0.015625, -0.015625, 0.031250, -0.031250, 0.015625, -0.015625, 0.078125, 0.000000, 0.000000, -0.015625, 0.015625, 0.000000, -0.015625, -0.015625, -0.093750, 0.015625, 0.000000, 0.031250, 0.000000, 0.031250, -0.015625, -0.031250, 0.015625, 0.031250, 0.015625, 0.062500, -0.031250, -0.031250, -0.015625, 0.000000, 0.015625, -0.046875, 0.000000, -0.062500, 0.031250, -0.078125, -0.031250, 0.015625, -0.062500, -0.015625, -0.062500, -0.109375, 0.015625, -0.031250, -0.062500, -0.015625, -0.031250, 0.062500, -0.046875, 0.015625, 0.046875, -0.093750, -0.031250, -0.015625, -0.031250, -0.031250, -0.015625, -0.093750, -0.015625, -0.015625, -0.078125, -0.046875, 0.000000, 0.000000, 0.031250, -0.046875, 0.031250, 0.000000, -0.031250, -0.015625, 0.109375, 0.015625, 0.015625, -0.046875, 0.000000, 0.031250, -0.031250, -0.015625, -0.046875, 0.015625, 0.000000, 0.078125, 0.015625, 0.046875, 0.031250, -0.031250, -0.015625, -0.062500, -0.062500, 0.015625, 0.062500, 0.000000, -0.015625, 0.015625, 0.015625, -0.015625, -0.015625, 0.000000, -0.015625, -0.015625, 0.015625, -0.031250, 0.062500, 0.000000, 0.015625, 0.046875, 0.015625, 0.000000, 0.078125, 0.000000, 0.015625, 0.015625, -0.015625, 0.015625, -0.015625, -0.031250, -0.015625, 0.046875, -0.031250, -0.046875, 0.015625, -0.015625, -0.015625, 0.015625, -0.015625, -0.015625, -0.015625, 0.000000, 0.015625, 0.031250, 0.000000, 0.046875, 0.000000, -0.015625, 0.000000, 0.000000, 0.000000, 0.000000, 0.031250, 0.000000, 0.000000, 0.015625, -0.015625, -0.015625, -0.015625, -0.046875, 0.000000, 0.015625, -0.015625, 0.031250, -0.015625, 0.000000, -0.015625, -0.015625, 0.031250, 0.000000, 0.000000, 0.000000, 0.015625, -0.015625, -0.015625, 0.000000, 0.015625, -0.015625, -0.015625, -0.015625, 0.031250, 0.000000, 0.031250, 0.046875, 0.000000, -0.015625, 0.031250, -0.031250, 0.000000, 0.000000, -0.015625, 0.015625, -0.015625, -0.015625, 0.000000, 0.031250, -0.015625, 0.000000, 0.015625, -0.046875, 0.015625, -0.015625, -0.046875, 0.000000, -0.015625, 0.000000, -0.015625, 0.015625, 0.000000, 0.015625, 0.000000, -0.062500, 0.000000, 0.015625, -0.015625, 0.000000, 0.015625, 0.015625, 0.000000, -0.015625, 0.015625, -0.015625, 0.000000, -0.015625, -0.015625, 0.031250, 0.046875, 0.031250, -0.015625, 0.000000, 0.015625, 0.031250, 0.000000, 0.000000, -0.015625, 0.015625, 0.000000, -0.015625, -0.031250, -0.031250, 0.015625, 0.000000, 0.000000, -0.031250, 0.031250, -0.031250, -0.015625, 0.000000, -0.031250, 0.000000, 0.000000, 0.000000, 0.000000, -0.015625, -0.031250, 0.000000, 0.000000, 0.000000, 0.000000, 0.015625, 0.000000, 0.000000, 0.015625, -0.046875, -0.031250, 0.000000, 0.000000, -0.046875, -0.031250, -0.015625, 0.000000, 0.000000, 0.015625, 0.015625, -0.015625, -0.046875, 0.015625, -0.015625, -0.015625, -0.031250, -0.046875, -0.015625, 0.015625, 0.015625, 0.000000, -0.015625, -0.015625, 0.000000, -0.031250, 0.031250, 0.031250, 0.015625, -0.031250, -0.015625, 0.046875, -0.015625, 0.046875, 0.000000, 0.000000, 0.031250, -0.015625, -0.015625, -0.015625, 0.015625, 0.015625, 0.046875, 0.093750, -0.031250, 0.078125, 0.000000, 0.015625, 0.015625, 0.031250, -0.031250, 0.031250, 0.046875, 0.031250, 0.015625, -0.015625, 0.031250, 0.015625, 0.000000, 0.000000, 0.046875, 0.015625, -0.031250, 0.031250, 0.015625, 0.046875, 0.015625, 0.062500, -0.015625, -0.015625, 0.062500, 0.031250, 0.031250, 0.062500, -0.015625, 0.031250, 0.000000, 0.000000, 0.015625, -0.015625, 0.015625, 0.000000, 0.000000, 0.015625, 0.031250, -0.015625, -0.031250, -0.031250, 0.015625, 0.031250, -0.015625, -0.031250, 0.000000, -0.015625, 0.031250, -0.062500, 0.000000, 0.000000, -0.031250, -0.015625, 0.015625, 0.015625, 0.000000, 0.015625, 0.031250, 0.000000, 0.015625, 0.031250, 0.000000, 0.031250, 0.015625, -0.015625, 0.031250, 0.015625, -0.015625, 0.031250, 0.015625, 0.000000, 0.000000, 0.000000, 0.015625, 0.015625, 0.015625, -0.015625, 0.046875, 0.000000, 0.015625, 0.062500, 0.000000, 0.015625, 0.015625, -0.015625, 0.000000, 0.015625, 0.031250, 0.000000, 0.031250, 0.046875, -0.015625, 0.031250, 0.000000, 0.000000, 0.046875, -0.031250, 0.046875, 0.015625, 0.000000, 0.000000, 0.031250, 0.000000, -0.015625, 0.000000, 0.015625, 0.046875, 0.000000, 0.015625, 0.015625, 0.000000, 0.015625, 0.031250, 0.000000, 0.000000, -0.015625, -0.015625, 0.015625, -0.031250, -0.031250, -0.031250, -0.015625, 0.015625, 0.015625, 0.046875, -0.062500, 0.015625, -0.046875, -0.031250, 0.000000, 0.015625, -0.031250, 0.000000, 0.031250, 0.000000, 0.015625, -0.046875, 0.015625, 0.015625, 0.015625, 0.000000, 0.031250, 0.031250, 0.000000, 0.062500, 0.031250, 0.046875, 0.000000, 0.015625, -0.015625, -0.046875, -0.031250, 0.000000, 0.015625, 0.078125, -0.015625, 0.015625, -0.031250, 0.015625, 0.000000, -0.015625, 0.000000, -0.031250, 0.015625, 0.031250, 0.015625, 0.000000, -0.015625, -0.046875, 0.000000, 0.000000, -0.015625, -0.046875, 0.015625, -0.046875, 0.015625, 0.031250, -0.015625, 0.015625, -0.015625, 0.015625, 0.000000, 0.015625, 0.000000, -0.015625, 0.015625, 0.031250, 0.031250, 0.046875, -0.031250, 0.031250, 0.000000, 0.000000, 0.031250, 0.031250, -0.015625, 0.031250, 0.015625, 0.015625, 0.000000, 0.000000, 0.046875, 0.031250, 0.000000, -0.015625, 0.015625, 0.031250, -0.015625, -0.062500, 0.000000, 0.046875, 0.000000, 0.078125, 0.000000, 0.000000, 0.031250, 0.015625, 0.000000, 0.000000, -0.015625, 0.000000, 0.062500, 0.015625, 0.000000, 0.000000, 0.031250, 0.015625, 0.015625, 0.000000, 0.031250, -0.015625, -0.031250, 0.000000, 0.000000, 0.031250, 0.000000, -0.015625, 0.031250, 0.015625, 0.000000, 0.000000, 0.000000, 0.046875, -0.046875, 0.015625, 0.000000, 0.015625, 0.015625, -0.015625, 0.015625, 0.015625, 0.031250, 0.000000, -0.031250, -0.078125, 0.000000, 0.000000, 0.015625, 0.015625, -0.015625, -0.015625, 0.015625, 0.000000, 0.015625, 0.015625, 0.015625, 0.015625, 0.015625, -0.015625, 0.078125, 0.000000, -0.015625, 0.015625, -0.031250, 0.015625, 0.015625, 0.015625, 0.000000, 0.000000, 0.015625, 0.000000, 0.000000, 0.000000, -0.031250, 0.000000, 0.000000, 0.015625, 0.000000, -0.015625, 0.031250, -0.015625, 0.000000, 0.031250, 0.000000, -0.031250, 0.000000, -0.031250, -0.031250, 0.015625, -0.015625, 0.015625, 0.015625, 0.000000, 0.015625, 0.015625, 0.000000, 0.046875, -0.046875, 0.000000, -0.015625, -0.015625, 0.000000, -0.015625, -0.031250, 0.015625, 0.031250, 0.000000, -0.031250, 0.000000, 0.000000, -0.031250, 0.000000, -0.015625, -0.031250, 0.000000, 0.031250, 0.031250, 0.000000, 0.000000, -0.015625, 0.031250, 0.000000, -0.015625, 0.031250, 0.015625, -0.015625, 0.015625, 0.015625, 0.078125, -0.015625, 0.031250, -0.015625, -0.031250, 0.000000, 0.000000, -0.015625, 0.015625, -0.031250, 0.015625, -0.031250, 0.015625, -0.015625, 0.000000, 0.015625, 0.000000, 0.015625, 0.000000, 0.000000, -0.015625, -0.015625, -0.015625, -0.015625, 0.015625, 0.015625, -0.031250, 0.015625, 0.000000, -0.015625, 0.000000, -0.015625, 0.031250, 0.000000, 0.000000, 0.078125, 0.015625, -0.046875, 0.015625, 0.062500, -0.046875, 0.015625, -0.078125, -0.031250, 0.015625, 0.000000, 0.000000, 0.015625, 0.046875, -0.015625, -0.015625, -0.031250, 0.031250, 0.093750, -0.031250, -0.078125, 0.046875, 0.000000, -0.015625, -0.031250, -0.046875, 0.000000, 0.000000, -0.015625, -0.031250, 0.015625, 0.031250, -0.031250, -0.046875, 0.031250, -0.015625, 0.000000, -0.046875, -0.093750, 0.031250, -0.031250, 0.015625, 0.000000, 0.000000, -0.062500, 0.000000, -0.031250, -0.062500, -0.015625, 0.031250, -0.031250, -0.015625, 0.000000, 0.015625, -0.015625, 0.000000, 0.000000, -0.031250, 0.015625, 0.000000, -0.015625, -0.015625, 0.015625, -0.031250, -0.015625, 0.000000, -0.015625, 0.000000, -0.031250, -0.015625, 0.078125, -0.015625, -0.046875, 0.015625, -0.015625, 0.031250, 0.046875, 0.031250, 0.015625, 0.046875, 0.031250, 0.015625, 0.062500, -0.015625, 0.015625, 0.000000, 0.031250, 0.000000, -0.015625, 0.000000, 0.015625, -0.015625, 0.000000, 0.046875, -0.015625, 0.046875, -0.015625, -0.031250, -0.031250, 0.015625, 0.046875, -0.015625, -0.015625, 0.000000, -0.046875, 0.078125, 0.031250, -0.015625, -0.062500, -0.015625, -0.078125, 0.015625, 0.015625, 0.000000, -0.031250, 0.015625, 0.078125, -0.046875, -0.078125, 0.031250, 0.031250, -0.031250, 0.078125, 0.046875, 0.000000, -0.046875, -0.015625, 0.000000, 0.000000, -0.062500, -0.031250, -0.031250, -0.078125, -0.046875, 0.046875, 0.031250, -0.015625, -0.109375, -0.031250, 0.015625, -0.031250, 0.015625, 0.000000, -0.015625, 0.000000, 0.046875, 0.000000, 0.000000, -0.015625, -0.015625, 0.015625, 0.000000, -0.062500, 0.000000, -0.046875, -0.078125, -0.031250, 0.015625, 0.000000, 0.015625, 0.031250, 0.000000, -0.046875, 0.046875, 0.062500, -0.078125, -0.109375, 0.046875, -0.015625, 0.062500, 0.078125, -0.046875, -0.093750, 0.000000, -0.062500, 0.015625, -0.031250, 0.015625, -0.062500, 0.015625, -0.015625, 0.000000, -0.031250, 0.031250, 0.000000, -0.015625, 0.046875, 0.031250, 0.015625, -0.015625, 0.078125, -0.015625, 0.062500, 0.000000, 0.000000, 0.000000, 0.046875, -0.031250, 0.000000, -0.015625, -0.015625, 0.031250, 0.000000, 0.031250, 0.031250, -0.015625, 0.031250, -0.015625, -0.031250, 0.000000, 0.078125, -0.015625, 0.015625, 0.000000, -0.046875, -0.062500, 0.015625, -0.015625, -0.046875, 0.015625, -0.031250, -0.062500, 0.015625, -0.078125, 0.015625, -0.031250, -0.046875, -0.031250, 0.015625, 0.046875, 0.015625, -0.046875, 0.000000, 0.000000, -0.031250, 0.015625, 0.046875, 0.031250, 0.046875, 0.000000, -0.031250, 0.062500, -0.078125, -0.015625, 0.046875, -0.078125, 0.078125, -0.062500, 0.000000, -0.015625, -0.015625, -0.015625, -0.031250, 0.000000, 0.062500, 0.015625, -0.031250, 0.015625, 0.000000, 0.000000, 0.031250, -0.031250, 0.046875, 0.031250, 0.000000, 0.015625, 0.000000, -0.015625, 0.078125, 0.000000, 0.015625, 0.015625, 0.000000, 0.046875, 0.093750, 0.015625, -0.015625, 0.062500, 0.000000, 0.000000, -0.062500, 0.015625, 0.000000, 0.015625, 0.046875, -0.031250, 0.000000, 0.078125, 0.031250, 0.000000, 0.031250, 0.031250, 0.015625, 0.031250, 0.062500, 0.015625, -0.062500, 0.046875, 0.031250, 0.015625, -0.015625, -0.031250, -0.015625, 0.062500, 0.000000, -0.015625, -0.046875, 0.015625, 0.031250, 0.031250, 0.046875, 0.015625, 0.031250, 0.031250, 0.046875, 0.046875, 0.062500, 0.000000, 0.046875, 0.000000, 0.015625, -0.031250, -0.015625, -0.046875, -0.062500, -0.046875, 0.062500, 0.078125, -0.046875, -0.062500, -0.031250, -0.015625, 0.000000, 0.031250, 0.015625, -0.078125, -0.015625, 0.062500, -0.015625, -0.015625, -0.015625, 0.031250, 0.000000, -0.015625, -0.062500, -0.015625, 0.000000, 0.031250, 0.000000, 0.000000, -0.015625, 0.031250, 0.000000, -0.031250, -0.015625, 0.046875, 0.031250, -0.015625, -0.015625, 0.093750, 0.000000, 0.093750, 0.046875, -0.046875, -0.062500, -0.093750, -0.015625, 0.031250, 0.000000, -0.015625, -0.031250, 0.000000, 0.000000, 0.046875, 0.015625, 0.000000, 0.000000, -0.015625, 0.062500, 0.031250, 0.046875, 0.015625, 0.015625, 0.015625, -0.015625, -0.046875, -0.015625, 0.000000, 0.000000, -0.015625, 0.000000, -0.078125, -0.046875, -0.015625, 0.015625, 0.046875, 0.000000, -0.031250, 0.015625, -0.015625, 0.015625, 0.000000, 0.093750, 0.000000, 0.046875, 0.031250, -0.093750, -0.031250, 0.046875, -0.031250, -0.015625, 0.062500, 0.015625, 0.031250, 0.046875, 0.000000, 0.015625, -0.015625, 0.000000, 0.000000, -0.031250, 0.000000, 0.062500, -0.015625, 0.015625, 0.015625, -0.031250, 0.000000, 0.000000, -0.109375, 0.000000, -0.062500, 0.000000, 0.046875, -0.031250, -0.015625, -0.015625, -0.015625, 0.046875, -0.031250, -0.015625, -0.015625, -0.046875, 0.000000, -0.046875, 0.031250, -0.031250, 0.000000, 0.000000, 0.015625, 0.015625, 0.015625, -0.031250, -0.031250, 0.078125, 0.015625, 0.000000, 0.031250, 0.031250, -0.015625, 0.046875, 0.000000, 0.015625, 0.062500, 0.031250, 0.000000, 0.093750, 0.015625, -0.078125, 0.046875, -0.046875, -0.031250, -0.015625, 0.015625, 0.078125, 0.015625, 0.078125, 0.078125, 0.000000, 0.031250, 0.046875, 0.031250, 0.000000, -0.031250, 0.000000, -0.015625, 0.046875, 0.000000, 0.000000, 0.062500, -0.015625, 0.015625, 0.000000, -0.046875, -0.015625, 0.078125, -0.015625, 0.031250, -0.031250, 0.078125, 0.031250, -0.015625, 0.031250, -0.062500, 0.015625, 0.015625, -0.046875, 0.093750, 0.015625, -0.015625, -0.062500, 0.015625, 0.000000, -0.062500, 0.015625, 0.000000, -0.015625, -0.062500, 0.046875, 0.062500, 0.000000, 0.031250, 0.031250, -0.031250, 0.000000, 0.015625, 0.000000, -0.046875, 0.015625, 0.062500, -0.046875, 0.015625, -0.078125, 0.000000, 0.000000, 0.000000, 0.000000, 0.015625, -0.015625, -0.031250, 0.046875, 0.062500, 0.000000, 0.078125, 0.015625, 0.046875, -0.031250, 0.000000, -0.015625, -0.062500, 0.031250, 0.031250, 0.031250, 0.031250, 0.031250, -0.031250, 0.015625, -0.062500, 0.000000, 0.031250, 0.046875, 0.031250, -0.015625, 0.000000, 0.046875, -0.015625, 0.000000, -0.046875, 0.000000, -0.015625, -0.015625, 0.015625, 0.015625, -0.046875, 0.015625, 0.015625, 0.000000, 0.015625, 0.000000, 0.031250, -0.015625, 0.015625, -0.015625, -0.015625, 0.015625, 0.031250, 0.015625, 0.015625, 0.015625, 0.015625, -0.015625, 0.000000, 0.015625, 0.000000, 0.015625, 0.000000, -0.031250, -0.015625, -0.046875, 0.015625, 0.031250, 0.015625, 0.031250, 0.015625, 0.031250, -0.015625, 0.000000, -0.031250, 0.000000, 0.000000, -0.015625, 0.000000, -0.015625, -0.046875, -0.031250, -0.015625, 0.031250, 0.015625, -0.015625, -0.046875, 0.000000, 0.015625, 0.015625, 0.031250, -0.015625, 0.046875, 0.015625, 0.000000, 0.046875, 0.000000, 0.046875, 0.000000, 0.015625, 0.015625, 0.000000, 0.031250, -0.015625, -0.015625, 0.031250, -0.015625, 0.000000, 0.000000, -0.015625, 0.000000, -0.031250, 0.046875, -0.015625, 0.000000, 0.000000, 0.015625, -0.015625, 0.000000, 0.015625, 0.000000, 0.000000, -0.015625, 0.031250, -0.015625, 0.015625, 0.000000, 0.015625, 0.000000, 0.000000, 0.015625, 0.046875, 0.015625, 0.031250, -0.015625, 0.031250, 0.015625, 0.015625, 0.000000, -0.015625, 0.015625, -0.031250, 0.000000, -0.031250, -0.015625, 0.000000, 0.015625, 0.046875, 0.000000, -0.031250, -0.015625, 0.015625, 0.000000, 0.031250, 0.046875, 0.000000, 0.078125, -0.015625, 0.000000, 0.031250, 0.031250, 0.031250, 0.000000, 0.015625, 0.015625, 0.031250, 0.046875, 0.000000, -0.031250, 0.000000, -0.015625, 0.000000, 0.062500, -0.046875, -0.015625, -0.015625, 0.031250, 0.000000, 0.031250, 0.000000, 0.015625, -0.015625, 0.031250, 0.000000, 0.000000, -0.031250, -0.031250, 0.000000, -0.015625, -0.046875, -0.031250, 0.000000, -0.015625, 0.000000, 0.015625, 0.062500, 0.015625, 0.031250, 0.031250, 0.015625, 0.015625, -0.015625, 0.015625, -0.062500, -0.031250, 0.000000, 0.000000, -0.015625, -0.015625, 0.015625, 0.015625, 0.015625, -0.015625, -0.031250, -0.031250, -0.078125, 0.031250, 0.031250, 0.046875, -0.015625, 0.093750, -0.015625, -0.031250, 0.000000, 0.015625, 0.031250, -0.031250, -0.015625, -0.031250, 0.015625, 0.015625, 0.000000, -0.046875, 0.015625, 0.015625, 0.015625, 0.015625, 0.000000, 0.031250, 0.015625, 0.031250, 0.000000, -0.046875, 0.015625, 0.000000, 0.015625, 0.015625, 0.015625, -0.015625, 0.000000, -0.015625, 0.000000, -0.015625, 0.031250, 0.000000, 0.000000, 0.000000, -0.015625, -0.031250, 0.015625, 0.015625, 0.046875, -0.015625, 0.031250, -0.015625, 0.000000, 0.000000, -0.015625, 0.015625, -0.015625, -0.015625, -0.015625, 0.000000, -0.031250, -0.015625, 0.046875, -0.015625, -0.015625, 0.015625, -0.015625, 0.031250, 0.000000, 0.015625, -0.015625, -0.015625, 0.000000, 0.000000, 0.015625, 0.000000, -0.062500, 0.015625, 0.000000, 0.015625, 0.000000, 0.046875, 0.046875, -0.046875, 0.015625, 0.015625, 0.031250, -0.031250, 0.000000, 0.015625, 0.000000, 0.031250, 0.031250, 0.000000, 0.046875, 0.000000, 0.015625, 0.031250, 0.078125, -0.015625, 0.000000, -0.031250, 0.000000, -0.015625, 0.046875, 0.015625, 0.015625, -0.015625, 0.000000, -0.015625, 0.000000, 0.031250, 0.031250, 0.015625, 0.015625, -0.015625, 0.000000, 0.015625, -0.031250, 0.015625, -0.031250, -0.031250, -0.031250, 0.015625, -0.015625, 0.000000, 0.031250, 0.031250, -0.031250, 0.015625, 0.015625, 0.031250, -0.031250, 0.015625, 0.000000, 0.031250, 0.000000, 0.015625, 0.015625, 0.000000, -0.015625, 0.000000, 0.015625, 0.015625, 0.015625, 0.046875, 0.062500, -0.031250, -0.015625, -0.031250, -0.015625, 0.000000, -0.031250, -0.031250, 0.015625, 0.031250, 0.015625, 0.046875, -0.031250, -0.031250, -0.031250, 0.015625, 0.000000, 0.015625, -0.031250, 0.015625, 0.000000, -0.031250, -0.031250, -0.031250, -0.015625, 0.000000, 0.000000, -0.015625, 0.000000, 0.000000, 0.062500, -0.015625, 0.046875, 0.000000, 0.000000, 0.015625, -0.046875, -0.015625, 0.000000, -0.031250, -0.015625, -0.015625, 0.000000, 0.015625, 0.015625, 0.031250, -0.015625, 0.000000, -0.031250, 0.000000, 0.015625, 0.046875, 0.000000, 0.015625, 0.000000, -0.031250, 0.015625, 0.000000, -0.031250, -0.031250, 0.046875, -0.031250, 0.062500, 0.046875, 0.062500, -0.031250, 0.000000, 0.000000, 0.000000, -0.015625, 0.000000, -0.015625, 0.000000, 0.031250, -0.015625, 0.015625, 0.000000, -0.046875, 0.015625, -0.062500, 0.015625, 0.015625, -0.015625, 0.015625, 0.015625, -0.015625, 0.078125, 0.000000, 0.015625, 0.031250, -0.015625, -0.046875, 0.000000, 0.000000, 0.031250, 0.031250, 0.046875, 0.000000, 0.000000, 0.015625, -0.015625, 0.015625, -0.015625, 0.000000, 0.015625, 0.015625, -0.015625, 0.015625, 0.015625, 0.031250, -0.031250, 0.031250, 0.015625, 0.000000, 0.000000, 0.000000, 0.000000, -0.031250, 0.000000, -0.015625, 0.031250, 0.000000, 0.000000, 0.031250, 0.015625, -0.015625, 0.000000, 0.031250, 0.031250, -0.031250, 0.000000, 0.000000, 0.000000, -0.015625, 0.000000, 0.015625, 0.015625, 0.031250, 0.015625, 0.031250, 0.000000, -0.062500, 0.000000, -0.031250, 0.046875, 0.015625, 0.000000, -0.015625, 0.031250, 0.015625, 0.031250, -0.015625, 0.015625, 0.031250, 0.000000, -0.031250, -0.015625, 0.015625, 0.078125, 0.015625, 0.046875, 0.015625, -0.031250, 0.046875, -0.015625, 0.000000, -0.015625, 0.015625, 0.015625, 0.000000, -0.031250, -0.015625, 0.015625, 0.015625, -0.015625, 0.015625, 0.031250, 0.000000, 0.000000, 0.015625, 0.031250, -0.015625, 0.015625, -0.015625, 0.000000, 0.015625, 0.046875, 0.000000, 0.000000, 0.015625, 0.000000, 0.031250, 0.062500, 0.000000, -0.015625, -0.015625, -0.015625, -0.046875, -0.031250, -0.015625, -0.031250, 0.031250, 0.000000, 0.000000, 0.000000, -0.109375, -0.015625, -0.031250, -0.015625, 0.000000, -0.015625, -0.015625, -0.015625, -0.031250, 0.046875, -0.031250, 0.000000, 0.015625, -0.015625, -0.031250, -0.031250, 0.031250, 0.046875, 0.000000, 0.031250, 0.015625, -0.015625, 0.000000, -0.031250, -0.015625, 0.000000, 0.015625, 0.015625, 0.000000, -0.046875, 0.000000, -0.015625, 0.031250, -0.015625, 0.000000, 0.015625, 0.015625, 0.000000, 0.000000, -0.015625, 0.000000, 0.015625, -0.015625, 0.000000, 0.015625, 0.015625, 0.000000, 0.000000, -0.031250, 0.015625, 0.000000, 0.046875, -0.031250, 0.000000, 0.000000, -0.015625, -0.015625, 0.000000, -0.015625, 0.015625, -0.015625, 0.015625, 0.000000, 0.000000, 0.015625, 0.000000, 0.031250, -0.046875, 0.015625, 0.000000, 0.015625, 0.031250, 0.031250, 0.015625, 0.000000, -0.015625, 0.031250, 0.000000, -0.031250, 0.015625, 0.015625, 0.015625, -0.015625, -0.015625, 0.015625, 0.015625, 0.015625, 0.015625, 0.000000, -0.015625, 0.031250, 0.015625, -0.046875, -0.015625, 0.031250, 0.015625, 0.015625, 0.000000, 0.015625, 0.046875, -0.031250, -0.015625, 0.015625, 0.000000, -0.031250, 0.000000, 0.000000, 0.015625, 0.031250, 0.031250, 0.031250, -0.031250, -0.031250, 0.000000, -0.031250, -0.015625, -0.015625, 0.000000, 0.000000, 0.015625, -0.015625, 0.000000, -0.015625, 0.000000, -0.015625, 0.000000, 0.000000, 0.000000, 0.000000, 0.000000, -0.015625, -0.031250, 0.000000, -0.015625, 0.000000, 0.031250, 0.015625, -0.015625, -0.015625, -0.015625, -0.015625, 0.000000, -0.031250, 0.031250, 0.031250, -0.015625, -0.015625, -0.015625, 0.000000, 0.015625, -0.031250, -0.015625, -0.015625, -0.015625, 0.015625, 0.031250, -0.062500, 0.015625, 0.031250, 0.031250, 0.000000, 0.000000, 0.015625, 0.015625, 0.000000, -0.015625, 0.015625, 0.031250, 0.000000, 0.000000, 0.000000, -0.015625, 0.046875, 0.031250, 0.031250, -0.015625, -0.015625, 0.000000, 0.015625, -0.015625, -0.031250, 0.000000, -0.015625, 0.015625, -0.015625, -0.015625, -0.015625, 0.000000, -0.031250, -0.015625, -0.015625, -0.015625, -0.015625, -0.015625, -0.015625, -0.031250, 0.031250, -0.031250, -0.015625, 0.015625, 0.031250, 0.031250, -0.015625, -0.015625, 0.000000, 0.000000, -0.031250, -0.015625, 0.000000, 0.000000, -0.015625, 0.031250, 0.031250, 0.000000, 0.000000, -0.015625, -0.015625, -0.015625, 0.046875, 0.015625, -0.046875, 0.000000, 0.046875, 0.000000, -0.015625, -0.015625, 0.015625, 0.000000, -0.015625, 0.000000, 0.031250, 0.015625, -0.015625, 0.000000, -0.015625, 0.000000, 0.046875, 0.015625, 0.015625, -0.015625, -0.015625, 0.000000, 0.031250, -0.062500, -0.015625, 0.046875, -0.031250, 0.000000, 0.000000, 0.000000, 0.000000, 0.031250, 0.000000, 0.015625, 0.000000, -0.015625, 0.000000, -0.015625, 0.000000, 0.000000, 0.015625, -0.015625, 0.015625, 0.031250, 0.015625, 0.031250, 0.000000, 0.000000, 0.015625, 0.015625, -0.031250, -0.015625, 0.015625, 0.015625, -0.015625, 0.000000, 0.000000, 0.031250, 0.000000, -0.015625, 0.000000, -0.015625, 0.031250, 0.031250, 0.000000, 0.015625, 0.031250, -0.015625, 0.000000, 0.000000, 0.000000, 0.015625, 0.015625, -0.015625, 0.046875, 0.000000, 0.015625, 0.015625, -0.015625, -0.015625, 0.000000, 0.000000, 0.046875, 0.015625, -0.015625, 0.000000, -0.015625, -0.015625, 0.031250, 0.046875, 0.015625, 0.015625, 0.000000, 0.000000, 0.000000, 0.000000, 0.000000, 0.000000, 0.015625, 0.000000, 0.015625, 0.015625, -0.015625, -0.015625, 0.015625, 0.000000, -0.015625, 0.000000, 0.000000, 0.031250, 0.000000, 0.031250, 0.000000, 0.031250, -0.046875, -0.015625, 0.015625, -0.015625, 0.015625, -0.015625, 0.000000, 0.000000, -0.031250, 0.000000, 0.000000, -0.015625, 0.015625, 0.031250, -0.015625, -0.015625, 0.031250, 0.000000, 0.015625, 0.000000, 0.031250, 0.015625, 0.031250, 0.000000, 0.015625, -0.015625, 0.000000, -0.015625, -0.031250, -0.031250, 0.031250, 0.015625, 0.000000, 0.000000, 0.000000, 0.000000, 0.015625, 0.015625, 0.000000, 0.046875, -0.031250, 0.000000, -0.015625, -0.015625, -0.046875, -0.015625, 0.000000, -0.031250, 0.015625, -0.031250, -0.031250, 0.000000, -0.031250, 0.000000, 0.015625, -0.015625, 0.000000, 0.000000, 0.031250, 0.031250, -0.031250, 0.000000, 0.015625, 0.000000, -0.031250, -0.015625, 0.031250, 0.000000, -0.031250, 0.000000, 0.000000, 0.000000, 0.000000, -0.031250, -0.015625, -0.031250, 0.031250, 0.000000, -0.015625, 0.000000, 0.015625, 0.000000, -0.015625, -0.015625, 0.015625, -0.015625, 0.015625, 0.000000, 0.015625, 0.000000, -0.031250, -0.015625, -0.031250, 0.000000, 0.015625, 0.015625, 0.031250, 0.000000, -0.031250, 0.000000, -0.015625, -0.015625, -0.015625, 0.000000, 0.015625, -0.015625, 0.015625, -0.015625, -0.015625, 0.015625, 0.015625, 0.015625, 0.000000, -0.015625, -0.062500, 0.015625, 0.000000, 0.031250, 0.000000, -0.015625, 0.046875, 0.015625, 0.015625, 0.000000, 0.000000, 0.015625, 0.000000, 0.000000, 0.000000, -0.031250, 0.015625, 0.015625, -0.031250, 0.015625, 0.046875, 0.015625, 0.031250, 0.015625, -0.015625, -0.015625, 0.000000, 0.015625, 0.000000, 0.062500, 0.015625, 0.015625, -0.015625, 0.000000, 0.000000, 0.000000, 0.000000, 0.031250, 0.015625, -0.015625, 0.015625, -0.015625, 0.015625, -0.031250, 0.000000, 0.031250, 0.000000, -0.015625, 0.000000, -0.031250, 0.000000, -0.015625, 0.015625, 0.015625, 0.015625, -0.015625, 0.000000, 0.015625, 0.031250, 0.031250, 0.031250, -0.015625, 0.015625, 0.015625, 0.000000, 0.015625, 0.000000, 0.015625, 0.000000, 0.015625, 0.031250, -0.031250, -0.015625, 0.000000, 0.000000, 0.015625, -0.015625, 0.015625, 0.000000, -0.015625, 0.000000, 0.015625, 0.000000, -0.015625, 0.031250, 0.015625, 0.015625, 0.000000, 0.015625, -0.015625, 0.000000, 0.015625, -0.015625, 0.031250, 0.015625, 0.015625, 0.015625, 0.000000, 0.031250, -0.015625, 0.015625, 0.015625, -0.015625, -0.015625, 0.015625, -0.015625, 0.015625, -0.015625, 0.015625, 0.062500, 0.000000, -0.015625, 0.015625, -0.015625, 0.031250, 0.000000, 0.000000, -0.015625, -0.015625, 0.015625, 0.000000, -0.015625, -0.015625, 0.031250, 0.000000, -0.015625, -0.015625, -0.015625, 0.031250, 0.000000, 0.000000, 0.031250, 0.015625, -0.031250, 0.015625, 0.000000, 0.000000, 0.000000, 0.000000, 0.000000, -0.015625, 0.000000, -0.031250, 0.015625, 0.000000, 0.000000, -0.015625, 0.000000, 0.000000, 0.000000, -0.015625, -0.015625, -0.015625, -0.015625, 0.000000, 0.000000, -0.031250, 0.046875, 0.015625, 0.000000, -0.015625, -0.015625, 0.015625, -0.046875, -0.015625, -0.015625, 0.000000, 0.000000, 0.031250, -0.015625, -0.015625, -0.015625, 0.000000, 0.015625, 0.031250, -0.015625, 0.000000, -0.031250, 0.000000, -0.015625, -0.046875, 0.000000, 0.000000, 0.046875, -0.062500, 0.000000, 0.000000, 0.000000, -0.031250, -0.093750, -0.031250, -0.015625, 0.015625, -0.031250, -0.031250, -0.031250, 0.015625, -0.015625, 0.000000, 0.015625, 0.031250, -0.062500, 0.000000, -0.031250, 0.046875, 0.000000, 0.015625, 0.031250, -0.015625, -0.046875, 0.015625, -0.046875, 0.046875, -0.015625, 0.046875, -0.015625, 0.000000, 0.015625, 0.015625, 0.015625, 0.031250, 0.015625, -0.031250, -0.031250, 0.000000, 0.015625, -0.031250, -0.062500, -0.078125, 0.031250, 0.000000, 0.015625, -0.015625, 0.015625, 0.000000, 0.031250, 0.015625, -0.046875, -0.031250, 0.015625, -0.015625, 0.000000, -0.015625, 0.000000, -0.015625, -0.062500, 0.000000, -0.015625, -0.078125, 0.031250, -0.031250, -0.078125, 0.000000, -0.078125, 0.000000, 0.000000, 0.062500, 0.000000, -0.015625, 0.031250, 0.015625, -0.015625, 0.015625, 0.000000, -0.015625, 0.000000, -0.015625, 0.000000, 0.062500, -0.031250, -0.015625, -0.031250, -0.046875, -0.062500, -0.031250, -0.078125, -0.062500, -0.031250, 0.062500, -0.062500, -0.031250, -0.031250, -0.015625, -0.015625, -0.015625, -0.031250, -0.015625, -0.031250, 0.000000, 0.000000, 0.046875, 0.000000, -0.062500, 0.015625, -0.031250, 0.000000, -0.015625, 0.015625, -0.031250, 0.062500, -0.015625, 0.031250, -0.031250, -0.031250, -0.015625, -0.031250, -0.015625, 0.015625, -0.062500, -0.046875, -0.031250, -0.046875, -0.093750, 0.000000, 0.015625, -0.062500, -0.015625, 0.031250, 0.046875, 0.000000, 0.000000, -0.031250, -0.031250, 0.015625, -0.046875, 0.000000, 0.015625, -0.031250, -0.093750, 0.000000, -0.046875, -0.046875, -0.062500, -0.031250, 0.046875, -0.046875, -0.078125, 0.062500, -0.109375, 0.062500, -0.046875, -0.015625, -0.046875, -0.015625, -0.031250, -0.046875, -0.015625, 0.000000, -0.062500, 0.046875, -0.015625, 0.015625, 0.000000, 0.015625, -0.015625, -0.031250, -0.109375, 0.062500, -0.015625, -0.046875, 0.015625, -0.015625, -0.015625, 0.015625, -0.046875, 0.015625, -0.062500, -0.015625, -0.015625, -0.046875, 0.031250, 0.015625, -0.015625, 0.015625, -0.015625, 0.046875, 0.031250, 0.000000, 0.015625, -0.046875, -0.046875, -0.031250, 0.000000, 0.000000, -0.062500, 0.000000, 0.015625, -0.109375, 0.015625, -0.015625, -0.046875, 0.000000, 0.046875, -0.046875, -0.031250, -0.015625, 0.046875, 0.000000, 0.015625, 0.000000, -0.062500, -0.031250, -0.015625, -0.078125, -0.046875, 0.015625, -0.078125, 0.000000, 0.000000, -0.015625, 0.062500, 0.000000, 0.015625, 0.031250, 0.000000, -0.062500, 0.015625, 0.031250, -0.062500, -0.031250, -0.062500, -0.031250, -0.031250, 0.000000, 0.015625, -0.046875, 0.000000, 0.031250, 0.000000, 0.031250, -0.031250, 0.046875, 0.000000, 0.062500, 0.000000, 0.015625, 0.046875, 0.015625, -0.015625, 0.000000, -0.015625, 0.015625, -0.015625, -0.062500, 0.000000, -0.062500, 0.031250, -0.031250, -0.093750, -0.031250, 0.062500, -0.046875, 0.031250, -0.046875, -0.093750, -0.031250, 0.031250, -0.015625, 0.000000, -0.046875, 0.000000, 0.000000, 0.000000, -0.015625, -0.031250, -0.031250, -0.046875, 0.000000, -0.015625, -0.015625, -0.062500, -0.046875, 0.015625, -0.015625, 0.015625, -0.046875, 0.000000, -0.031250, -0.031250, -0.046875, 0.031250, -0.046875, 0.078125, 0.000000, -0.046875, -0.031250, -0.031250, 0.000000, -0.046875, -0.046875, -0.015625, 0.031250, 0.015625, 0.015625, 0.000000, 0.046875, -0.031250, -0.015625, -0.031250, 0.015625, 0.015625, -0.078125, 0.000000, -0.046875, -0.015625, 0.031250, 0.000000, -0.015625, -0.046875, -0.031250, -0.015625, 0.015625, -0.046875, 0.000000, -0.015625, -0.093750, 0.000000, 0.015625, -0.046875, -0.046875, -0.062500, -0.031250, -0.031250, -0.140625, -0.062500, -0.062500, 0.031250, -0.031250, -0.046875, 0.031250, -0.046875, 0.062500, -0.015625, 0.000000, -0.062500, 0.015625, 0.015625, -0.031250, -0.015625, -0.046875, -0.078125, -0.046875, -0.031250, -0.031250, -0.046875, 0.015625, 0.015625, 0.031250, -0.031250, -0.015625, -0.015625, -0.015625, 0.031250, -0.046875, 0.015625, 0.031250, -0.031250, -0.015625, 0.031250, 0.046875, -0.015625, -0.062500, 0.015625, 0.015625, -0.046875, 0.015625, 0.015625, 0.031250, -0.062500, 0.000000, -0.015625, 0.000000, -0.046875, -0.046875, 0.000000, 0.015625, 0.046875, 0.046875, -0.031250, 0.000000, 0.015625, 0.000000, 0.031250, 0.000000, 0.062500, 0.015625, 0.031250, 0.046875, 0.062500, 0.062500, 0.031250, 0.015625, -0.046875, 0.000000, -0.031250, -0.031250, -0.031250, 0.031250, 0.015625, -0.031250, 0.031250, 0.000000, 0.031250, -0.031250, -0.031250, 0.031250, 0.000000, -0.046875, 0.031250, 0.015625, 0.015625, -0.046875, 0.000000, -0.031250, -0.015625, 0.000000, 0.015625, -0.015625, -0.015625, 0.000000, 0.015625, 0.000000, -0.015625, 0.000000, 0.000000, -0.031250, -0.031250, 0.046875, 0.015625, 0.078125, -0.015625, 0.015625, -0.031250, 0.031250, -0.046875, -0.046875, -0.015625, -0.046875, 0.031250, 0.031250, 0.031250, 0.031250, -0.015625, -0.031250, 0.015625, 0.031250, -0.031250, 0.000000, 0.062500, 0.046875, 0.015625, 0.015625, 0.062500, 0.000000, -0.031250, -0.062500, 0.015625, 0.015625, 0.031250, -0.062500, 0.000000, 0.015625, -0.015625, 0.000000, 0.031250, 0.015625, 0.015625, -0.031250, -0.031250, 0.015625, 0.000000, -0.015625, -0.031250, -0.015625, 0.015625, -0.093750, 0.000000, -0.062500, 0.000000, 0.062500, -0.046875, -0.046875, 0.015625, -0.015625, 0.015625, 0.015625, 0.000000, 0.031250, 0.000000, -0.046875, 0.031250, 0.031250, 0.125000, 0.015625, -0.015625, 0.000000, -0.062500, 0.031250, 0.015625, 0.015625, -0.046875, -0.015625, 0.015625, -0.015625, 0.031250, 0.015625, 0.046875, -0.031250, -0.015625, 0.000000, -0.031250, 0.000000, -0.015625, 0.093750, -0.015625, -0.031250, -0.031250, 0.015625, -0.015625, 0.015625, 0.031250, 0.000000, -0.015625, -0.046875, 0.062500, 0.031250, 0.000000, 0.000000, 0.015625, 0.031250, -0.015625, -0.062500, -0.046875, -0.015625, -0.015625, -0.015625, -0.062500, -0.015625, -0.062500, -0.109375, 0.015625, -0.046875, 0.031250, 0.046875, 0.015625, -0.015625, 0.000000, -0.046875, 0.031250, 0.015625, 0.000000, -0.015625, 0.000000, -0.046875, -0.015625, 0.093750, 0.031250, -0.015625, -0.015625, -0.046875, -0.015625, -0.046875, 0.000000, 0.015625, 0.000000, -0.031250, 0.000000, 0.000000, 0.000000, -0.015625, 0.015625, -0.031250, -0.031250, -0.015625, 0.031250, -0.015625, -0.031250, 0.015625, 0.000000, -0.015625, -0.031250, -0.031250, 0.031250, 0.031250, 0.015625, 0.031250, 0.000000, -0.078125, -0.046875, -0.031250, 0.000000, -0.031250, 0.000000, 0.031250, -0.046875, -0.031250, 0.015625, 0.000000, 0.015625, 0.031250, -0.015625, 0.000000, -0.046875, 0.000000, 0.000000, -0.015625, 0.015625, -0.046875, 0.000000, 0.031250, -0.015625, -0.031250, -0.015625, 0.000000, 0.062500, 0.000000, 0.000000, -0.015625, 0.046875, 0.046875, 0.000000, 0.000000, -0.031250, -0.015625, 0.015625, 0.000000, 0.031250, 0.000000, 0.000000, -0.015625, 0.031250, 0.000000, 0.015625, -0.015625, 0.000000, -0.062500, 0.015625, 0.000000, 0.015625, 0.015625, 0.000000, 0.000000, 0.015625, -0.015625, 0.000000, 0.031250, 0.000000, 0.046875, 0.015625, 0.062500, -0.015625, -0.062500, 0.031250, -0.015625, 0.000000, -0.015625, 0.000000, 0.031250, 0.015625, -0.015625, 0.000000, 0.046875, 0.015625, 0.000000, 0.000000, 0.015625, 0.015625, 0.000000, 0.031250, 0.000000, 0.015625, 0.015625, -0.015625, 0.015625, 0.000000, 0.015625, 0.031250, 0.015625, 0.000000, 0.015625, 0.031250, -0.031250, 0.031250, 0.046875, 0.000000, 0.000000, -0.015625, -0.078125, 0.031250, -0.031250, 0.000000, 0.000000, 0.031250, -0.078125, 0.000000, 0.000000, 0.015625, 0.000000, 0.000000, -0.078125, -0.015625, 0.000000, 0.031250, -0.015625, -0.031250, 0.000000, -0.015625, -0.046875, -0.015625, 0.015625, 0.015625, 0.015625, -0.015625, 0.046875, -0.046875, 0.000000, 0.000000, -0.031250, -0.031250, -0.031250, 0.000000, 0.031250, -0.031250, -0.062500, 0.015625, 0.093750, -0.015625, 0.031250, -0.015625, 0.015625, 0.031250, 0.000000, 0.046875, 0.015625, -0.015625, -0.031250, -0.015625, -0.046875, -0.031250, 0.031250, -0.015625, 0.046875, 0.015625, -0.031250, 0.000000, -0.078125, -0.046875, 0.046875, 0.000000, 0.000000, -0.031250, 0.000000, -0.078125, -0.046875, -0.015625, 0.000000, 0.031250, 0.000000, 0.000000, -0.031250, -0.015625, -0.031250, -0.015625, -0.046875, -0.031250, -0.015625, 0.015625, -0.015625, -0.015625, 0.000000, -0.015625, 0.000000, 0.015625, 0.000000, 0.015625, -0.031250, -0.015625, -0.062500, 0.000000, -0.031250, -0.015625, 0.031250, -0.046875, -0.031250, -0.031250, 0.015625, -0.031250, 0.000000, 0.046875, 0.000000, -0.015625, 0.000000, 0.000000, -0.015625, 0.000000, -0.015625, 0.046875, 0.000000, 0.031250, -0.015625, -0.031250, 0.031250, -0.015625, -0.046875, -0.015625, -0.031250, 0.046875, 0.000000, -0.031250, -0.015625, 0.031250, 0.000000, 0.015625, 0.015625, -0.015625, 0.000000, -0.062500, -0.015625, 0.015625, 0.000000, 0.031250, -0.015625, 0.015625, 0.015625, -0.031250, 0.000000, -0.015625, -0.015625, 0.015625, 0.000000, 0.015625, 0.015625, 0.000000, 0.015625, 0.000000, 0.031250, 0.015625, 0.000000, 0.015625, 0.000000, 0.015625, -0.062500, 0.031250, -0.015625, 0.015625, -0.015625, -0.015625, -0.015625, -0.015625, 0.000000, 0.000000, -0.015625, 0.031250, 0.015625, -0.015625, -0.015625, 0.015625, 0.000000, 0.031250, 0.000000, 0.015625, 0.015625, 0.031250, 0.015625, -0.015625, 0.015625, -0.015625, -0.031250, 0.046875, -0.015625, -0.015625, 0.000000, 0.015625, -0.015625, -0.015625, 0.015625, 0.000000, 0.000000, -0.062500, -0.015625, -0.015625, -0.078125, -0.046875, 0.000000, 0.031250, -0.109375, -0.015625, -0.031250, -0.015625, -0.031250, -0.015625, -0.046875, 0.015625, 0.000000, 0.015625, -0.031250, -0.015625, 0.046875, -0.046875, -0.015625, 0.000000, 0.000000, 0.000000, -0.015625, -0.015625, -0.062500, 0.000000, -0.031250, 0.031250, 0.000000, -0.046875, -0.046875, -0.046875, 0.000000, 0.000000, -0.046875, 0.046875, 0.046875, -0.015625, -0.031250, -0.015625, 0.000000, -0.015625, -0.031250, -0.015625, 0.015625, -0.015625, -0.015625, -0.046875, -0.031250, -0.062500, 0.000000, 0.000000, 0.015625, -0.046875, -0.015625, -0.078125, -0.031250, 0.015625, -0.015625, 0.000000, 0.000000, -0.015625, -0.015625, 0.000000, -0.031250, 0.015625, -0.015625, 0.015625, -0.031250, 0.031250, 0.000000, -0.015625, 0.000000, -0.015625, 0.000000, -0.015625, 0.015625, -0.062500, -0.015625, 0.000000, 0.093750, 0.000000, 0.031250, 0.031250, 0.015625, 0.015625, -0.015625, 0.015625, 0.031250, 0.031250, -0.046875, 0.015625, -0.015625, 0.000000, -0.015625, 0.000000, 0.015625, -0.015625, -0.015625, 0.000000, 0.031250, 0.000000, -0.015625, -0.046875, 0.000000, 0.046875, 0.078125, 0.031250, 0.000000, 0.046875, 0.000000, -0.046875, 0.000000, 0.000000, 0.000000, 0.015625, 0.015625, 0.015625, 0.000000, -0.015625, -0.031250, 0.031250, 0.000000, -0.015625, -0.015625, -0.015625, 0.000000, 0.015625, 0.000000, 0.015625, -0.015625, 0.031250, -0.031250, 0.015625, -0.015625, -0.031250, 0.015625, -0.015625, 0.015625, 0.015625, 0.015625, -0.031250, 0.000000, 0.000000, 0.093750, 0.000000, 0.031250, 0.015625, 0.000000, 0.000000, 0.000000, 0.031250, 0.015625, 0.031250, 0.000000, 0.015625, -0.015625, 0.015625, -0.015625, 0.015625, 0.031250, 0.015625, -0.015625, 0.000000, 0.031250, 0.000000, -0.015625, -0.093750, 0.000000, 0.031250, 0.031250, 0.015625, -0.031250, 0.031250, 0.031250, -0.031250, 0.000000, 0.000000, 0.000000, 0.046875, 0.046875, 0.000000, 0.000000, 0.015625, -0.015625, 0.000000, 0.000000, 0.046875, -0.015625, -0.015625, 0.000000, 0.046875, -0.015625, 0.000000, 0.015625, 0.000000, -0.109375, -0.015625, -0.015625, -0.015625, -0.031250, -0.015625, 0.000000, 0.031250, -0.015625, -0.031250, -0.015625, -0.015625, 0.093750, -0.015625, 0.000000, 0.015625, 0.015625, -0.015625, 0.046875, -0.015625, -0.015625, 0.031250, -0.046875, 0.015625, 0.000000, -0.031250, -0.015625, -0.031250, 0.015625, 0.000000, -0.015625, 0.000000, 0.078125, 0.000000, 0.000000, -0.109375, -0.015625, 0.031250, 0.031250, 0.046875, 0.015625, 0.000000, 0.000000, -0.015625, 0.015625, -0.031250, 0.015625, 0.000000, 0.046875, -0.046875, 0.000000, -0.031250, 0.015625, 0.031250, -0.031250, -0.062500, -0.015625, 0.015625, 0.031250, 0.015625, -0.031250, -0.031250, -0.015625, -0.046875, 0.015625, 0.062500, 0.000000, -0.046875, -0.015625, 0.031250, 0.031250, 0.015625, 0.015625, 0.015625, 0.046875, -0.015625, 0.031250, -0.015625, -0.031250, -0.046875, -0.015625, -0.015625, 0.015625, 0.031250, -0.031250, 0.000000, -0.015625, 0.031250, 0.000000, 0.000000, 0.000000, -0.015625, -0.078125, 0.031250, 0.000000, 0.031250, 0.046875, 0.000000, -0.031250, 0.015625, -0.031250, 0.015625, 0.015625, -0.046875, -0.031250, 0.062500, 0.000000, 0.015625, -0.031250, 0.000000, 0.000000, 0.015625, 0.109375, 0.015625, 0.000000, -0.031250, 0.031250, 0.000000, 0.000000, 0.000000, -0.015625, -0.015625, 0.015625, -0.062500, 0.000000, -0.015625, 0.015625, -0.015625, -0.031250, 0.015625, -0.031250, 0.000000, 0.000000, 0.046875, 0.015625, -0.031250, 0.031250, 0.062500, 0.000000, -0.015625, 0.015625, -0.031250, 0.000000, -0.031250, 0.000000, -0.015625, 0.000000, -0.015625, 0.000000, 0.031250, -0.031250, -0.015625, 0.000000, -0.031250, 0.015625, -0.031250, 0.031250, 0.031250, 0.031250, 0.000000, 0.046875, 0.000000, -0.062500, -0.031250, 0.000000, -0.031250, -0.046875, -0.062500, 0.015625, 0.000000, 0.015625, 0.062500, -0.015625, 0.000000, 0.015625, 0.000000, 0.031250, 0.000000, 0.000000, -0.031250, 0.046875, 0.046875, 0.062500, 0.046875, 0.031250, -0.031250, 0.000000, 0.015625, -0.031250, -0.015625, 0.015625, -0.031250, -0.046875, 0.062500, -0.046875, 0.015625, -0.031250, 0.046875, 0.046875, -0.046875, 0.000000, 0.046875, 0.031250, 0.000000, -0.015625, -0.031250, 0.015625, -0.031250, -0.046875, -0.046875, 0.062500, 0.031250, 0.000000, 0.000000, 0.078125, -0.031250, 0.015625, 0.031250, -0.015625, -0.046875, 0.046875, 0.000000, 0.015625, 0.046875, 0.046875, -0.015625, -0.046875, -0.046875, 0.015625, -0.031250, -0.031250, 0.000000, -0.015625, 0.000000, -0.015625, 0.031250, -0.031250, -0.031250, 0.015625, -0.062500, 0.062500, 0.000000, 0.000000, -0.015625, 0.000000, 0.031250, 0.031250, 0.000000, -0.046875, -0.031250, 0.000000, 0.031250, -0.031250, 0.000000, 0.031250, -0.046875, 0.078125, 0.140625, -0.046875, -0.031250, -0.015625, 0.031250, 0.062500, 0.000000, -0.015625, 0.015625, 0.015625, 0.000000, 0.000000, -0.015625, -0.015625, -0.046875, 0.015625, 0.000000, 0.062500, 0.015625, 0.000000, 0.015625, 0.078125, 0.125000, -0.031250, 0.109375, 0.000000, -0.015625, -0.062500, 0.000000, 0.000000, 0.046875, -0.015625, 0.015625, -0.015625, 0.000000, 0.000000, 0.000000, 0.125000, 0.031250, -0.046875, 0.062500, 0.031250, 0.000000, -0.031250, -0.031250, 0.015625, 0.078125, -0.015625, 0.031250, -0.015625, -0.031250, 0.015625, 0.015625, -0.015625, -0.015625, -0.078125, 0.015625, -0.015625, -0.031250, 0.000000, 0.031250, 0.046875, 0.015625, -0.031250, 0.015625, 0.000000, -0.015625, -0.031250, 0.015625, 0.015625, -0.015625, 0.015625, 0.031250, 0.015625, -0.031250, 0.015625, 0.015625, 0.000000, 0.000000, 0.031250, 0.015625, 0.062500, -0.015625, -0.015625, 0.062500, 0.000000, 0.000000, 0.000000, -0.062500, -0.015625, -0.031250, -0.031250, 0.015625, 0.015625, 0.015625, -0.031250, 0.015625, -0.015625, 0.000000, 0.046875, -0.046875, -0.031250, 0.031250, -0.015625, -0.015625, 0.015625, 0.031250, -0.015625, -0.015625, 0.000000, 0.062500, 0.015625, 0.000000, 0.000000, 0.000000, 0.015625, 0.078125, 0.031250, 0.015625, -0.015625, -0.046875, -0.031250, -0.015625, -0.031250, -0.015625, 0.015625, -0.031250, -0.046875, 0.015625, -0.031250, 0.046875, -0.015625, 0.015625, 0.031250, 0.000000, 0.000000, 0.015625, 0.000000, 0.015625, 0.031250, -0.031250, 0.046875, 0.031250, -0.015625, -0.015625, 0.046875, 0.000000, 0.000000, 0.015625, 0.093750, 0.031250, 0.015625, -0.015625, -0.015625, -0.031250, 0.078125, 0.031250, 0.000000, 0.015625, -0.015625, 0.015625, -0.046875, -0.015625, 0.031250, 0.000000, 0.000000, -0.015625, -0.015625, -0.015625, 0.000000, 0.015625, 0.000000, -0.015625, -0.015625, 0.015625, 0.015625, -0.031250, -0.015625, -0.046875, -0.015625, 0.000000, 0.031250, 0.000000, 0.031250, -0.031250, -0.062500, 0.015625, -0.046875, -0.015625, 0.000000, 0.015625, 0.125000, 0.093750, -0.078125, 0.031250, 0.000000, 0.000000, 0.031250, 0.000000, -0.015625, 0.000000, 0.046875, 0.015625, -0.015625, -0.031250, -0.015625, 0.000000, 0.031250, -0.015625, -0.031250, 0.000000, 0.062500, -0.031250, 0.000000, 0.093750, 0.000000, 0.109375, -0.015625, -0.015625, 0.046875, 0.000000, 0.031250, 0.015625, 0.000000, -0.015625, 0.062500, 0.031250, 0.031250, -0.015625, 0.093750, 0.062500, -0.046875, 0.093750, 0.015625, 0.046875, -0.015625, -0.031250, -0.015625, 0.000000, -0.031250, -0.015625, -0.015625, -0.015625, 0.000000, 0.015625, 0.031250, 0.015625, 0.000000, -0.015625, -0.015625, 0.000000, -0.015625, -0.031250, 0.015625, 0.031250, 0.015625, 0.046875, -0.046875, -0.031250, -0.015625, 0.015625, 0.031250, 0.000000, 0.015625, 0.000000, 0.015625, -0.031250, 0.000000, -0.031250, -0.046875, -0.015625, 0.015625, 0.015625, 0.046875, -0.015625, 0.031250, 0.031250, 0.031250, 0.031250, -0.015625, -0.031250, -0.031250, -0.046875, 0.062500, 0.015625, 0.015625, 0.015625, -0.031250, 0.031250, -0.015625, 0.000000, 0.015625, 0.015625, 0.062500, -0.031250, 0.000000, 0.000000, 0.031250, 0.078125, 0.000000, -0.046875, -0.031250, 0.046875, -0.015625, 0.015625, -0.015625, -0.062500, 0.000000, 0.062500, 0.015625, 0.078125, 0.000000, -0.046875, 0.000000, -0.015625, -0.046875, -0.015625, 0.015625, 0.000000, -0.031250, 0.015625, -0.062500, 0.000000, -0.015625, -0.031250, 0.015625, 0.000000, 0.015625, -0.031250, 0.000000, -0.015625, 0.031250, -0.046875, -0.031250, 0.000000, -0.015625, -0.046875, 0.062500, -0.015625, 0.031250, 0.015625, 0.046875, 0.046875, 0.000000, -0.046875, -0.015625, -0.031250, 0.031250, 0.000000, 0.000000, 0.015625, 0.000000, 0.015625, -0.031250, 0.000000, -0.015625, 0.046875, 0.015625, -0.015625, 0.000000, -0.015625, -0.015625, 0.000000, -0.031250, -0.031250, -0.046875, 0.031250, -0.031250, -0.015625, -0.031250, -0.031250, 0.015625, 0.031250, -0.031250, 0.000000, 0.000000, 0.000000, 0.015625, 0.015625, 0.000000, -0.015625, 0.015625, 0.000000, -0.031250, -0.015625, 0.000000, -0.015625, 0.000000, 0.015625, -0.031250, 0.015625, -0.031250, 0.000000, 0.000000, 0.015625, -0.015625, -0.015625, 0.000000, -0.015625, -0.046875, -0.046875, 0.000000, -0.015625, -0.031250, 0.000000, -0.046875, -0.031250, 0.000000, 0.015625, 0.000000, -0.015625, 0.000000, 0.031250, 0.015625, 0.000000, -0.015625, 0.031250, 0.000000, 0.000000, -0.015625, -0.015625, -0.015625, -0.015625, 0.015625, 0.000000, 0.000000, 0.000000, -0.015625, -0.015625, -0.015625, 0.015625, -0.031250, 0.000000, 0.000000, -0.015625, 0.015625, -0.015625, 0.000000, 0.000000, 0.000000, -0.015625, -0.015625, -0.031250, 0.000000, -0.015625, 0.015625, -0.031250, -0.015625, -0.015625, -0.031250, 0.031250, 0.000000, -0.015625, 0.000000, 0.015625, -0.015625, -0.015625, 0.000000, -0.015625, -0.046875, -0.015625, 0.000000, -0.015625, -0.031250, -0.046875, 0.000000, -0.015625, -0.015625, 0.000000, -0.015625, -0.015625, 0.000000, -0.015625, 0.000000, -0.015625, -0.015625, 0.000000, 0.000000, 0.000000, -0.031250, 0.000000, -0.015625, 0.015625, -0.015625, -0.031250, 0.015625, -0.046875, 0.000000, 0.000000, -0.015625, 0.015625, -0.015625, 0.000000, -0.015625, 0.000000, -0.031250, -0.015625, -0.015625, -0.031250, 0.000000, 0.000000, 0.000000, 0.015625, 0.015625, 0.000000, 0.000000, 0.015625, 0.000000, -0.015625, -0.015625, -0.015625, 0.015625, 0.015625, 0.000000, 0.015625, -0.015625, -0.015625, -0.015625, 0.031250, -0.015625, 0.015625, 0.000000, 0.015625, 0.015625, 0.000000, -0.015625, -0.015625, 0.015625, -0.015625, -0.015625, 0.015625, 0.015625, 0.000000, 0.000000, 0.015625, -0.015625, 0.015625, 0.000000, -0.015625, 0.000000, 0.000000, 0.000000, 0.000000, 0.015625, 0.031250, 0.015625, 0.000000, -0.015625, -0.015625, 0.015625, -0.031250, 0.015625, 0.015625, 0.015625, 0.000000, 0.000000, -0.015625, 0.000000, 0.015625, -0.015625, 0.000000, 0.000000, -0.015625, 0.000000, 0.015625, -0.015625, -0.015625, 0.015625, 0.000000, 0.000000, -0.031250, 0.015625, 0.015625, 0.031250, 0.000000, -0.015625, 0.000000, 0.015625, 0.015625, 0.000000, 0.015625, -0.015625, 0.031250, -0.015625, 0.000000, 0.000000, 0.015625, 0.000000, 0.015625, 0.015625, -0.015625, 0.015625, 0.000000, -0.046875, 0.015625, -0.046875, 0.000000, -0.031250, -0.031250, 0.000000, -0.031250, 0.015625, 0.015625, 0.015625, 0.062500, 0.031250, 0.000000, 0.000000, 0.015625, 0.000000, 0.031250, 0.000000, 0.015625, 0.000000, 0.015625, 0.000000, 0.000000, 0.015625, 0.015625, 0.000000, 0.000000, 0.031250, 0.031250, -0.046875, 0.000000, 0.000000, 0.000000, 0.031250, -0.031250, 0.000000, -0.015625, 0.015625, 0.000000, 0.000000, -0.031250, 0.000000, 0.000000, -0.015625, -0.015625, 0.000000, -0.015625, 0.000000, 0.000000, -0.015625, -0.015625, -0.015625, 0.015625, 0.015625, -0.046875, 0.000000, 0.000000, -0.031250, 0.000000, 0.031250, 0.000000, -0.015625, -0.031250, 0.000000, 0.000000, -0.015625, 0.000000, -0.015625, -0.031250, 0.000000, -0.015625, 0.000000, 0.000000, 0.000000, 0.015625, 0.000000, -0.015625, 0.000000, 0.000000, 0.000000, 0.015625, -0.015625, -0.015625, -0.015625, 0.031250, -0.015625, 0.000000, 0.000000, 0.015625, 0.000000, 0.000000, 0.000000, 0.015625, -0.015625, -0.015625, 0.000000, 0.000000, 0.015625, 0.015625, 0.000000, -0.031250, 0.015625, 0.046875, 0.000000, -0.031250, 0.046875, 0.015625, 0.000000, -0.015625, 0.000000, 0.015625, 0.046875, 0.000000, 0.031250, -0.015625, -0.031250, 0.000000, 0.015625, -0.015625, 0.015625, 0.031250, 0.000000, 0.046875, 0.015625, 0.000000, 0.031250, 0.015625, 0.000000, 0.031250, 0.015625, 0.031250, 0.000000, 0.015625, 0.000000, 0.015625, 0.046875, 0.031250, 0.000000, 0.015625, 0.015625, 0.000000, 0.000000, 0.031250, 0.000000, 0.015625, 0.000000, 0.000000, 0.000000, 0.000000, 0.000000, 0.015625, 0.031250, 0.000000, -0.015625, 0.031250, 0.031250, 0.046875, 0.000000, -0.015625, 0.015625, 0.046875, 0.000000, 0.015625, 0.000000, -0.031250, -0.015625, 0.031250, 0.015625, 0.015625, 0.046875, 0.015625, 0.000000, 0.000000, 0.015625, 0.000000, 0.031250, -0.015625, 0.046875, -0.015625, -0.015625, 0.015625, 0.015625, -0.031250, 0.015625, 0.015625, -0.015625, 0.031250, 0.000000, 0.000000, 0.000000, -0.015625, -0.031250, 0.000000, 0.015625, 0.015625, 0.015625, 0.015625, 0.015625, 0.031250, 0.046875, 0.015625, 0.015625, 0.062500, 0.031250, 0.000000, 0.000000, 0.031250, 0.000000, 0.031250, 0.015625, 0.000000, 0.015625, -0.015625, 0.000000, 0.015625, 0.000000, -0.015625, 0.000000, 0.031250, -0.015625, 0.015625, 0.000000, 0.000000, 0.000000, 0.046875, 0.031250, -0.031250, 0.000000, 0.031250, -0.015625, 0.046875, 0.015625, 0.015625, 0.046875, 0.015625, 0.031250, -0.015625, 0.015625, 0.000000, 0.046875, 0.000000, 0.015625, 0.000000, -0.015625, 0.015625, 0.015625, -0.015625, 0.015625, 0.000000, -0.062500, 0.046875, -0.015625, 0.015625, 0.015625, -0.015625, -0.015625, -0.015625, -0.015625, -0.015625, 0.000000, 0.000000, 0.000000, 0.031250, 0.031250, 0.046875, 0.000000, 0.031250, 0.015625, -0.015625, -0.031250, 0.015625, 0.000000, 0.031250, 0.000000, 0.000000, 0.000000, 0.000000, -0.015625, -0.015625, 0.000000, 0.000000, 0.000000, 0.031250, -0.015625, 0.000000, -0.015625, -0.015625, -0.015625, 0.031250, 0.015625, 0.000000, 0.000000, -0.015625, 0.000000, 0.046875, 0.000000, 0.015625, 0.046875, 0.031250, -0.015625, -0.015625, 0.000000, 0.015625, 0.046875, 0.000000, 0.046875, 0.046875, -0.015625, 0.015625, 0.031250, 0.000000, 0.015625, 0.015625, 0.000000, 0.031250, 0.000000, 0.000000, 0.015625, 0.015625, -0.015625, 0.000000, 0.015625, 0.015625, 0.015625, 0.031250, 0.000000, 0.015625, 0.046875, 0.046875, 0.015625, 0.046875, 0.000000, 0.000000, 0.000000, 0.015625, 0.000000, 0.000000, 0.000000, 0.000000, 0.031250, 0.015625, 0.000000, -0.015625, 0.031250, 0.000000, 0.015625, 0.031250, 0.015625, 0.031250, -0.015625, 0.015625, 0.000000, 0.046875, 0.015625, 0.000000, 0.000000, -0.078125, -0.046875, 0.015625, -0.031250, -0.015625, 0.000000, -0.031250, 0.062500, -0.031250, 0.000000, -0.031250, 0.015625, 0.046875, 0.015625, 0.015625, 0.031250, 0.000000, 0.046875, 0.000000, 0.015625, -0.031250, -0.046875, 0.000000, -0.062500, -0.078125, 0.000000, 0.031250, 0.000000, -0.031250, -0.015625, -0.078125, 0.046875, 0.062500, 0.000000, 0.031250, 0.031250, 0.000000, -0.062500, 0.000000, -0.015625, 0.015625, 0.015625, -0.031250, -0.015625, -0.015625, 0.031250, -0.015625, 0.000000, 0.000000, 0.000000, 0.015625, -0.031250, 0.015625, 0.015625, -0.015625, -0.062500, 0.000000, -0.015625, -0.031250, -0.046875, -0.015625, 0.046875, 0.046875, -0.031250, -0.031250, -0.062500, 0.000000, 0.015625, 0.015625, -0.015625, -0.031250, 0.015625, -0.031250, -0.015625, 0.000000, -0.031250, 0.046875, 0.000000, -0.031250, 0.046875, -0.046875, 0.015625, -0.015625, -0.109375, -0.046875, -0.015625, 0.015625, -0.093750, -0.031250, 0.031250, 0.046875, 0.046875, -0.031250, 0.015625, -0.046875, 0.078125, -0.062500, 0.046875, 0.046875, 0.015625, -0.015625, -0.031250, -0.062500, -0.078125, 0.031250, 0.062500, -0.046875, -0.015625, -0.031250, -0.015625, 0.000000, 0.078125, 0.000000, 0.031250, -0.062500, -0.015625, 0.046875, 0.015625, 0.000000, 0.031250, -0.015625, 0.046875, 0.000000, -0.015625, -0.015625, -0.015625, 0.031250, 0.000000, 0.031250, 0.015625, 0.000000, 0.015625, -0.046875, -0.031250, -0.031250, 0.015625, 0.000000, -0.031250, 0.015625, -0.031250, 0.015625, 0.000000, -0.015625, 0.046875, -0.062500, 0.031250, 0.015625, 0.000000, 0.000000, 0.031250, -0.015625, 0.031250, -0.015625, -0.031250, 0.031250, -0.046875, 0.015625, -0.093750, -0.015625, 0.046875, 0.062500, 0.062500, 0.046875, 0.015625, 0.015625, 0.015625, -0.046875, -0.015625, 0.046875, 0.078125, -0.015625, -0.062500, -0.078125, 0.015625, -0.015625, -0.031250, 0.046875, 0.015625, -0.031250, 0.031250, 0.015625, -0.015625, -0.015625, 0.015625, -0.015625, -0.015625, 0.000000, -0.031250, -0.015625, 0.000000, -0.015625, -0.015625, -0.031250, 0.031250, 0.031250, 0.015625, -0.015625, -0.031250, -0.031250, 0.046875, -0.015625, 0.031250, -0.015625, 0.000000, -0.015625, 0.000000, -0.015625, 0.015625, 0.000000, 0.046875, -0.031250, 0.015625, 0.015625, 0.031250, -0.015625, -0.015625, -0.015625, 0.031250, 0.000000, -0.093750, 0.015625, 0.000000, -0.046875, 0.015625, -0.062500, 0.015625, -0.031250, 0.015625, 0.000000, 0.015625, -0.031250, -0.031250, 0.031250, -0.031250, -0.031250, -0.015625, 0.015625, 0.015625, -0.015625, -0.062500, -0.062500, -0.031250, 0.031250, -0.015625, -0.015625, -0.015625, 0.046875, 0.000000, -0.015625, -0.078125, 0.000000, -0.031250, 0.015625, 0.046875, 0.031250, 0.046875, 0.015625, 0.015625, 0.015625, -0.015625, -0.078125, 0.000000, -0.062500, -0.015625, -0.015625, -0.031250, -0.062500, -0.031250, 0.062500, -0.046875, -0.015625, 0.000000, -0.031250, 0.015625, 0.000000, -0.046875, 0.000000, -0.031250, -0.015625, 0.031250, -0.031250, 0.078125, -0.015625, 0.031250, -0.031250, -0.015625, -0.078125, -0.015625, -0.062500, 0.015625, 0.015625, 0.000000, -0.031250, 0.031250, -0.031250, -0.062500, 0.000000, 0.031250, -0.046875, 0.015625, 0.015625, 0.000000, 0.046875, -0.046875, -0.031250, 0.015625, -0.015625, -0.015625, -0.031250, -0.015625, -0.015625, -0.015625, 0.000000, -0.031250, -0.062500, -0.015625, -0.031250, 0.000000, 0.093750, 0.031250, 0.015625, 0.078125, 0.000000, -0.031250, -0.015625, -0.015625, 0.015625, -0.031250, -0.031250, -0.015625, -0.031250, -0.031250, 0.031250, -0.015625, -0.078125, 0.000000, -0.015625, 0.000000, -0.062500, 0.015625, 0.015625, -0.031250, 0.000000, 0.062500, 0.015625, -0.031250, 0.000000, 0.031250, 0.062500, -0.062500, -0.046875, -0.015625, -0.093750, 0.046875, -0.046875, 0.015625, -0.015625, 0.046875, 0.000000, 0.000000, 0.015625, 0.015625, 0.000000, -0.031250, -0.078125, -0.015625, 0.015625, 0.000000, -0.015625, -0.062500, -0.046875, 0.093750, -0.031250, 0.000000, -0.015625, 0.078125, 0.015625, -0.046875, -0.078125, -0.046875, -0.015625, -0.015625, -0.031250, -0.015625, -0.015625, -0.046875, 0.000000, 0.031250, -0.031250, 0.000000, 0.000000, 0.000000, -0.046875, 0.000000, -0.015625, 0.000000, -0.031250, 0.000000, -0.015625, -0.015625, -0.015625, 0.031250, 0.000000, 0.000000, -0.015625, 0.000000, -0.015625, -0.078125, 0.000000, -0.078125, 0.031250, -0.031250, 0.031250, -0.015625, -0.062500, 0.046875, 0.031250, 0.046875, 0.046875, 0.031250, 0.000000, -0.046875, -0.062500, -0.093750, -0.031250, -0.031250, -0.031250, 0.031250, -0.015625, 0.046875, 0.015625, -0.015625, 0.000000, -0.031250, 0.031250, 0.000000, -0.062500, -0.031250, 0.031250, -0.031250, 0.015625, 0.015625, 0.093750, 0.000000, 0.015625, -0.046875, 0.015625, -0.015625, 0.031250, -0.062500, 0.015625, -0.046875, -0.062500, 0.015625, 0.000000, 0.000000, -0.046875, -0.015625, -0.015625, 0.000000, -0.062500, 0.015625, -0.046875, -0.062500, -0.031250, 0.046875, -0.046875, -0.062500, -0.015625, -0.015625, 0.031250, 0.015625, -0.015625, 0.015625, 0.015625, 0.000000, -0.078125, -0.015625, -0.046875, 0.000000, 0.015625, 0.046875, 0.046875, 0.062500, 0.000000, -0.046875, -0.093750, -0.031250, -0.078125, -0.031250, -0.046875, -0.015625, 0.015625, -0.015625, 0.031250, 0.000000, 0.000000, 0.015625, -0.062500, -0.015625, -0.031250, -0.015625, 0.031250, 0.062500, -0.015625, 0.046875, 0.062500, 0.000000, 0.031250, -0.046875, 0.000000, 0.015625, 0.046875, -0.015625, 0.031250, 0.015625, -0.125000, 0.015625, -0.046875, -0.015625, -0.031250, -0.015625, 0.000000, -0.031250, -0.046875, 0.015625, -0.015625, -0.031250, -0.015625, 0.015625, -0.015625, 0.000000, 0.031250, 0.031250, -0.015625, 0.031250, 0.062500, -0.031250, 0.000000, -0.046875, -0.031250, -0.031250, -0.031250, 0.046875, 0.093750, 0.031250, 0.046875, 0.000000, -0.031250, 0.000000, -0.015625, -0.031250, -0.031250, -0.031250, 0.015625, -0.078125, -0.046875, -0.015625, -0.031250, 0.000000, -0.046875, -0.046875, -0.015625, 0.015625, -0.031250, -0.015625, 0.000000, 0.062500, -0.031250, -0.015625, -0.031250, -0.031250, -0.015625, -0.015625, -0.015625, -0.046875, 0.015625, 0.000000, 0.000000, 0.031250, 0.000000, 0.000000, 0.000000, 0.000000, 0.015625, -0.031250, 0.000000, 0.015625, 0.000000, 0.000000, 0.015625, -0.046875, 0.000000, -0.015625, -0.046875, 0.015625, 0.015625, 0.062500, 0.000000, -0.015625, 0.015625, -0.015625, 0.000000, 0.000000, 0.031250, -0.015625, -0.046875, -0.078125, -0.015625, -0.015625, -0.031250, -0.015625, 0.015625, -0.015625, -0.015625, -0.015625, -0.031250, 0.000000, 0.000000, 0.015625, 0.015625, -0.015625, 0.031250, -0.015625, -0.015625, 0.015625, 0.015625, 0.000000, -0.015625, 0.000000, 0.000000, 0.015625, 0.031250, 0.031250, 0.015625, 0.000000, 0.015625, -0.015625, -0.015625, 0.015625, 0.000000, 0.015625, 0.000000, -0.031250, -0.015625, 0.000000, 0.015625, 0.015625, 0.031250, -0.031250, 0.015625, 0.015625, -0.031250, 0.015625, 0.000000, -0.093750, -0.015625, 0.000000, -0.078125, 0.000000, -0.031250, 0.015625, 0.000000, 0.015625, 0.000000, 0.015625, 0.000000, 0.046875, 0.015625, 0.000000, -0.031250, -0.062500, -0.015625, -0.015625, -0.046875, 0.000000, 0.000000, -0.031250, 0.000000, -0.031250, 0.000000, 0.015625, 0.000000, 0.031250, -0.015625, 0.015625, 0.015625, 0.015625, -0.015625, 0.015625, 0.000000, 0.015625, -0.015625, -0.031250, 0.000000, 0.062500, 0.000000, 0.031250, 0.000000, -0.015625, 0.000000, 0.000000, -0.015625, 0.015625, -0.015625, 0.031250, -0.015625, -0.046875, -0.015625, -0.031250, 0.000000, -0.015625, 0.015625, -0.031250, 0.000000, 0.000000, 0.000000, 0.000000, 0.031250, 0.015625, -0.031250, -0.015625, -0.031250, -0.031250, -0.031250, -0.031250, 0.000000, 0.015625, -0.062500, -0.015625, 0.000000, -0.046875, -0.015625, -0.015625, -0.015625, -0.062500, -0.015625, -0.062500, -0.015625, -0.015625, 0.000000, -0.046875, -0.031250, -0.031250, -0.046875, 0.031250, -0.031250, 0.000000, -0.015625, -0.046875, 0.015625, 0.000000, -0.031250, 0.000000, 0.015625, -0.015625, 0.000000, -0.046875, 0.000000, -0.015625, -0.015625, 0.031250, -0.046875, -0.015625, -0.015625, -0.046875, -0.125000, 0.000000, -0.031250, -0.015625, -0.015625, 0.015625, -0.015625, -0.015625, 0.015625, 0.000000, 0.015625, -0.031250, -0.015625, 0.000000, 0.000000, 0.000000, 0.000000, 0.015625, 0.015625, 0.000000, -0.015625, 0.000000, -0.015625, 0.015625, 0.000000, 0.015625, 0.015625, 0.000000, -0.015625, 0.000000, 0.000000, -0.015625, -0.015625, 0.000000, -0.046875, -0.015625, -0.031250, 0.000000, 0.000000, -0.015625, 0.000000, 0.000000, -0.031250, 0.000000, 0.000000, 0.031250, 0.015625, 0.000000, 0.015625, 0.031250, -0.015625, 0.000000, 0.000000, 0.015625, 0.015625, 0.000000, 0.000000, 0.000000, 0.000000, -0.015625, 0.000000, 0.000000, -0.015625, -0.015625, 0.046875, 0.015625, -0.015625, -0.015625, 0.000000, 0.000000, 0.000000, -0.015625, 0.015625, 0.015625, 0.031250, -0.062500, 0.000000, 0.000000, 0.000000, 0.000000, -0.031250, -0.046875, 0.015625, -0.015625, -0.078125, 0.015625, 0.000000, 0.015625, 0.000000, 0.000000, 0.015625, 0.046875, -0.031250, 0.000000, 0.000000, -0.031250, 0.015625, -0.031250, 0.015625, -0.031250, -0.015625, 0.000000, 0.000000, -0.031250, 0.015625, 0.000000, 0.031250, 0.015625, 0.000000, 0.000000, -0.015625, 0.015625, 0.000000, 0.015625, -0.015625, 0.000000, -0.031250, 0.031250, -0.015625, 0.000000, 0.000000, 0.000000, 0.000000, -0.015625, -0.031250, 0.015625, 0.000000, -0.015625, 0.000000, 0.015625, -0.031250, -0.015625, -0.046875, -0.031250, -0.015625, -0.046875, -0.015625, 0.000000, 0.000000, -0.031250, 0.015625, -0.015625, -0.031250, -0.031250, 0.000000, -0.031250, -0.015625, -0.031250, -0.031250, 0.000000, -0.015625, -0.015625, -0.046875, 0.015625, -0.015625, 0.031250, 0.000000, -0.062500, 0.015625, -0.031250, 0.015625, -0.046875, 0.015625, -0.031250, -0.015625, -0.046875, -0.031250, -0.015625, 0.000000, 0.000000, -0.015625, -0.031250, -0.015625, 0.000000, -0.046875, -0.031250, 0.031250, 0.015625, 0.000000, -0.015625, 0.000000, 0.000000, -0.031250, -0.031250, -0.062500, 0.015625, -0.015625, 0.000000, -0.015625, 0.000000, -0.046875, -0.046875, -0.078125, 0.031250, 0.031250, 0.000000, 0.000000, 0.000000, 0.000000, 0.000000, 0.031250, 0.015625, 0.015625, -0.046875, 0.000000, 0.015625, -0.015625, 0.000000, -0.031250, 0.000000, 0.015625, 0.015625, -0.015625, 