//Numpy array shape [3, 3, 64, 128]
//Min -0.878952026367
//Max 0.772903442383
//Number of zeros 3

#ifndef W59_H_
#define W59_H_

#ifndef __SYNTHESIS__
weight59_t w59[73728];
#else
weight59_t w59[73728] = {0.001235961914062, 0.023361206054688, 0.031906127929688, 0.013732910156250, 0.032440185546875, 0.015899658203125, -0.002014160156250, 0.019805908203125, 0.019699096679688, 0.021621704101562, 0.012435913085938, -0.005477905273438, 0.051605224609375, -0.013504028320312, 0.015808105468750, 0.021850585937500, 0.005172729492188, -0.009963989257812, 0.055877685546875, 0.009368896484375, 0.037872314453125, 0.023193359375000, -0.028869628906250, -0.000549316406250, 0.009811401367188, 0.025909423828125, 0.001144409179688, 0.013305664062500, 0.033386230468750, 0.026672363281250, 0.001892089843750, -0.006057739257812, 0.037994384765625, -0.015289306640625, -0.001785278320312, -0.025604248046875, 0.007202148437500, 0.012786865234375, -0.001693725585938, -0.014175415039062, 0.011962890625000, 0.013626098632812, 0.016265869140625, 0.010742187500000, -0.018432617187500, 0.010360717773438, 0.008743286132812, 0.020614624023438, -0.013198852539062, -0.019805908203125, 0.011230468750000, 0.011032104492188, 0.011581420898438, 0.007553100585938, -0.013442993164062, -0.014328002929688, 0.002212524414062, -0.001800537109375, 0.001144409179688, -0.012817382812500, -0.042388916015625, 0.006362915039062, -0.020233154296875, 0.004074096679688, 0.015060424804688, 0.044097900390625, 0.020492553710938, 0.014205932617188, 0.048095703125000, 0.013214111328125, 0.000366210937500, 0.006546020507812, 0.001937866210938, 0.013977050781250, -0.006591796875000, 0.006332397460938, 0.038391113281250, 0.009124755859375, 0.022567749023438, 0.010421752929688, 0.003952026367188, 0.005218505859375, 0.047256469726562, -0.007141113281250, 0.030792236328125, 0.040206909179688, -0.017776489257812, 0.017166137695312, 0.010025024414062, 0.009658813476562, 0.017074584960938, 0.013305664062500, 0.042938232421875, 0.011825561523438, -0.017486572265625, -0.003799438476562, 0.035644531250000, 0.001724243164062, -0.004608154296875, -0.026153564453125, 0.019332885742188, 0.020080566406250, 0.002182006835938, 0.002624511718750, -0.005294799804688, 0.016418457031250, -0.004913330078125, 0.003921508789062, -0.012969970703125, 0.013046264648438, -0.004608154296875, 0.017074584960938, -0.003219604492188, -0.015792846679688, 0.010635375976562, 0.004333496093750, 0.013916015625000, 0.018310546875000, -0.006088256835938, -0.029266357421875, 0.001846313476562, 0.008941650390625, 0.007583618164062, 0.003250122070312, 0.000228881835938, 0.011215209960938, -0.003082275390625, 0.024963378906250, 0.018569946289062, 0.060913085937500, 0.040435791015625, 0.016067504882812, 0.033630371093750, -0.006881713867188, 0.004989624023438, 0.007141113281250, 0.004455566406250, 0.011062622070312, -0.015701293945312, 0.008392333984375, 0.030578613281250, 0.004074096679688, 0.004638671875000, 0.001373291015625, 0.008346557617188, -0.005722045898438, 0.037124633789062, 0.009170532226562, 0.040664672851562, 0.032180786132812, -0.001983642578125, 0.034240722656250, 0.000259399414062, 0.004348754882812, 0.008651733398438, 0.022186279296875, 0.022018432617188, -0.011016845703125, -0.006011962890625, 0.002380371093750, 0.055145263671875, 0.003036499023438, 0.000411987304688, 0.002929687500000, 0.030822753906250, -0.012084960937500, 0.009780883789062, 0.008865356445312, -0.003051757812500, 0.020568847656250, -0.014739990234375, -0.009780883789062, -0.023162841796875, -0.006423950195312, 0.013015747070312, 0.029525756835938, 0.017654418945312, 0.006469726562500, -0.010086059570312, -0.003387451171875, 0.010482788085938, 0.012786865234375, -0.008041381835938, 0.002044677734375, 0.023681640625000, 0.000091552734375, 0.022689819335938, 0.011077880859375, -0.000900268554688, 0.011245727539062, -0.008453369140625, 0.029449462890625, -0.015518188476562, 0.036346435546875, 0.028503417968750, 0.022415161132812, 0.023666381835938, 0.014480590820312, -0.004135131835938, 0.020385742187500, 0.015090942382812, 0.009918212890625, 0.010650634765625, 0.012130737304688, 0.022018432617188, 0.003021240234375, -0.001327514648438, 0.008316040039062, -0.010696411132812, -0.013198852539062, 0.034362792968750, 0.007888793945312, 0.023529052734375, -0.025054931640625, -0.016555786132812, -0.003372192382812, 0.002288818359375, 0.015426635742188, 0.007431030273438, 0.007400512695312, -0.001235961914062, -0.005828857421875, -0.015823364257812, -0.009963989257812, 0.003875732421875, -0.007507324218750, 0.004745483398438, -0.010742187500000, -0.021469116210938, 0.018035888671875, -0.009902954101562, -0.005294799804688, 0.012817382812500, 0.007156372070312, 0.021163940429688, 0.017974853515625, -0.003005981445312, 0.015640258789062, 0.001358032226562, 0.004898071289062, -0.009292602539062, -0.002441406250000, 0.009445190429688, 0.021118164062500, 0.002838134765625, 0.010910034179688, 0.002090454101562, -0.012481689453125, 0.003433227539062, -0.003753662109375, -0.022598266601562, -0.006149291992188, -0.013366699218750, 0.009353637695312, -0.014816284179688, 0.007537841796875, -0.027206420898438, 0.020584106445312, 0.020751953125000, -0.002670288085938, 0.034408569335938, 0.005722045898438, 0.006881713867188, 0.007232666015625, 0.011169433593750, 0.011398315429688, 0.024627685546875, 0.001190185546875, 0.020416259765625, 0.006561279296875, 0.010543823242188, -0.000503540039062, -0.000549316406250, -0.000427246093750, 0.036712646484375, 0.015533447265625, 0.016769409179688, -0.004791259765625, -0.002014160156250, 0.005630493164062, 0.018371582031250, 0.018890380859375, 0.009124755859375, 0.001190185546875, -0.000564575195312, 0.000762939453125, -0.012969970703125, -0.001876831054688, -0.013992309570312, 0.007339477539062, 0.010864257812500, 0.000961303710938, -0.005203247070312, -0.002655029296875, -0.012237548828125, 0.008712768554688, 0.005661010742188, 0.008514404296875, -0.009002685546875, 0.014022827148438, -0.015579223632812, 0.001220703125000, 0.009704589843750, 0.001113891601562, 0.000534057617188, 0.002975463867188, -0.006256103515625, 0.003173828125000, 0.018554687500000, 0.018493652343750, -0.009170532226562, 0.003997802734375, 0.012863159179688, 0.006195068359375, -0.005249023437500, -0.020309448242188, -0.008605957031250, 0.001098632812500, 0.003234863281250, 0.008575439453125, 0.023696899414062, 0.064361572265625, 0.026138305664062, -0.007461547851562, 0.043624877929688, 0.003845214843750, 0.005172729492188, 0.012619018554688, 0.008071899414062, 0.008926391601562, 0.000335693359375, 0.002578735351562, 0.027847290039062, 0.016616821289062, -0.008789062500000, 0.001861572265625, 0.013092041015625, -0.010482788085938, 0.053100585937500, 0.013961791992188, 0.040451049804688, 0.034240722656250, 0.010467529296875, 0.030227661132812, 0.020324707031250, 0.011810302734375, 0.014205932617188, 0.009506225585938, 0.007797241210938, 0.020843505859375, -0.002777099609375, -0.001541137695312, 0.019775390625000, 0.002548217773438, 0.001983642578125, 0.004028320312500, 0.007080078125000, 0.003768920898438, 0.006820678710938, -0.000823974609375, 0.014678955078125, 0.007064819335938, 0.015090942382812, 0.011215209960938, -0.016006469726562, 0.001953125000000, 0.015609741210938, 0.029937744140625, 0.002670288085938, 0.000473022460938, -0.005676269531250, 0.018447875976562, -0.013214111328125, 0.019454956054688, -0.014587402343750, -0.008697509765625, 0.012588500976562, -0.000015258789062, 0.014953613281250, -0.003875732421875, 0.006042480468750, 0.004989624023438, 0.001525878906250, 0.017623901367188, -0.001281738281250, 0.062973022460938, 0.011886596679688, 0.024444580078125, 0.038024902343750, 0.045166015625000, 0.015716552734375, 0.027130126953125, 0.024719238281250, 0.034027099609375, 0.039810180664062, 0.006256103515625, 0.045852661132812, -0.003509521484375, 0.024322509765625, 0.026306152343750, 0.011016845703125, -0.000579833984375, 0.057495117187500, 0.021713256835938, 0.049652099609375, -0.032196044921875, -0.019561767578125, 0.005081176757812, -0.005477905273438, 0.024536132812500, 0.006637573242188, 0.023834228515625, 0.039672851562500, -0.001098632812500, -0.004302978515625, -0.017074584960938, 0.004211425781250, -0.003204345703125, 0.013885498046875, -0.001998901367188, 0.000518798828125, 0.018005371093750, -0.002380371093750, -0.016204833984375, -0.009689331054688, 0.001235961914062, 0.016357421875000, 0.021713256835938, 0.000518798828125, 0.020065307617188, 0.017456054687500, -0.007431030273438, -0.023635864257812, 0.000869750976562, 0.027770996093750, 0.011306762695312, 0.027770996093750, 0.010437011718750, -0.011108398437500, -0.027343750000000, 0.023483276367188, 0.004760742187500, -0.006530761718750, -0.005096435546875, -0.009704589843750, 0.007003784179688, 0.003585815429688, 0.013916015625000, -0.000122070312500, 0.048431396484375, 0.018692016601562, 0.006561279296875, 0.034561157226562, 0.014404296875000, 0.009750366210938, 0.013015747070312, 0.005737304687500, -0.005645751953125, 0.003067016601562, 0.009170532226562, 0.017379760742188, 0.003707885742188, 0.012969970703125, 0.028335571289062, 0.009155273437500, -0.004455566406250, 0.054840087890625, 0.003601074218750, 0.034515380859375, -0.035873413085938, 0.009475708007812, -0.001022338867188, 0.011123657226562, 0.008941650390625, 0.008514404296875, 0.006500244140625, 0.004119873046875, 0.010330200195312, -0.012649536132812, -0.003082275390625, 0.034851074218750, -0.006088256835938, 0.030807495117188, -0.019546508789062, 0.019821166992188, 0.004684448242188, 0.009124755859375, -0.019104003906250, -0.013000488281250, 0.022842407226562, 0.020584106445312, 0.021469116210938, -0.013961791992188, 0.016357421875000, 0.009689331054688, 0.028488159179688, -0.008407592773438, 0.000228881835938, 0.019088745117188, 0.010971069335938, 0.011398315429688, 0.018661499023438, 0.010726928710938, -0.022323608398438, 0.018005371093750, 0.017044067382812, 0.007537841796875, -0.016723632812500, 0.001052856445312, 0.033508300781250, -0.001754760742188, 0.008026123046875, 0.019119262695312, 0.085708618164062, 0.014266967773438, 0.018844604492188, 0.049102783203125, 0.025207519531250, 0.014297485351562, 0.001541137695312, -0.017425537109375, 0.013458251953125, 0.026718139648438, 0.007431030273438, 0.043167114257812, -0.004943847656250, 0.006057739257812, 0.046127319335938, 0.013732910156250, 0.000640869140625, 0.080230712890625, 0.013366699218750, 0.055145263671875, -0.003845214843750, -0.000839233398438, 0.008148193359375, 0.017776489257812, 0.014984130859375, 0.013641357421875, 0.017974853515625, 0.034591674804688, 0.022109985351562, 0.007904052734375, -0.004928588867188, 0.052566528320312, 0.003555297851562, 0.021148681640625, -0.001235961914062, 0.017776489257812, -0.003982543945312, 0.008529663085938, -0.007812500000000, 0.005798339843750, 0.026123046875000, 0.011932373046875, 0.003845214843750, -0.010482788085938, 0.006378173828125, 0.013549804687500, 0.016769409179688, 0.014968872070312, -0.002960205078125, 0.009689331054688, 0.020156860351562, 0.007293701171875, 0.002655029296875, -0.008377075195312, -0.007019042968750, 0.032562255859375, -0.007461547851562, 0.012817382812500, -0.009140014648438, 0.010147094726562, 0.012283325195312, 0.005004882812500, -0.004150390625000, 0.002685546875000, 0.053527832031250, 0.007537841796875, -0.014358520507812, 0.060089111328125, -0.022338867187500, -0.003372192382812, -0.017547607421875, -0.003738403320312, -0.022125244140625, -0.001464843750000, -0.023620605468750, 0.016510009765625, 0.002532958984375, -0.029724121093750, -0.015060424804688, 0.016052246093750, 0.007751464843750, 0.024230957031250, -0.018783569335938, 0.037521362304688, 0.085372924804688, -0.011260986328125, 0.019622802734375, -0.001632690429688, -0.028808593750000, -0.011367797851562, -0.024017333984375, -0.027694702148438, 0.000717163085938, -0.014739990234375, -0.009963989257812, 0.024887084960938, 0.041427612304688, -0.005249023437500, -0.009841918945312, 0.003997802734375, -0.016510009765625, -0.004486083984375, -0.026443481445312, -0.033432006835938, 0.028900146484375, 0.000717163085938, -0.037948608398438, -0.020080566406250, -0.031219482421875, 0.001861572265625, 0.001831054687500, 0.016448974609375, -0.010406494140625, -0.007614135742188, 0.035049438476562, -0.020797729492188, 0.014984130859375, -0.023376464843750, -0.002441406250000, -0.044143676757812, -0.021133422851562, 0.011718750000000, -0.012023925781250, 0.010757446289062, -0.028472900390625, 0.005844116210938, 0.101959228515625, 0.013000488281250, 0.053192138671875, 0.024734497070312, 0.000152587890625, 0.042037963867188, 0.008758544921875, -0.031005859375000, 0.000503540039062, 0.000991821289062, -0.017547607421875, 0.015075683593750, 0.012695312500000, 0.034912109375000, 0.009109497070312, -0.035903930664062, -0.013824462890625, -0.007293701171875, -0.001602172851562, 0.009811401367188, 0.000976562500000, 0.044158935546875, 0.036331176757812, -0.010665893554688, 0.019332885742188, -0.006088256835938, -0.019805908203125, -0.011108398437500, 0.021133422851562, 0.002288818359375, -0.026245117187500, -0.072113037109375, 0.009384155273438, 0.080596923828125, 0.028045654296875, -0.033554077148438, 0.004486083984375, 0.045852661132812, -0.001083374023438, 0.006469726562500, -0.012481689453125, -0.028091430664062, 0.041442871093750, -0.014892578125000, -0.023925781250000, -0.031448364257812, -0.000381469726562, -0.026580810546875, 0.027084350585938, 0.029983520507812, -0.011550903320312, -0.009002685546875, 0.041534423828125, -0.003524780273438, 0.006774902343750, 0.025512695312500, 0.007568359375000, -0.031005859375000, -0.019607543945312, -0.020034790039062, 0.014709472656250, 0.005004882812500, -0.024353027343750, 0.000839233398438, 0.098800659179688, -0.026367187500000, 0.033813476562500, -0.018127441406250, 0.016571044921875, 0.031692504882812, -0.001129150390625, -0.053817749023438, -0.002380371093750, -0.007263183593750, 0.017578125000000, -0.016479492187500, 0.014114379882812, 0.036453247070312, 0.006011962890625, -0.004776000976562, -0.053039550781250, -0.005905151367188, 0.007125854492188, -0.021560668945312, -0.012603759765625, 0.031753540039062, 0.077804565429688, -0.018142700195312, 0.008758544921875, -0.007125854492188, -0.020462036132812, -0.003723144531250, -0.031188964843750, -0.016433715820312, -0.058227539062500, -0.023391723632812, -0.006057739257812, 0.047317504882812, 0.000213623046875, -0.045593261718750, -0.023468017578125, 0.034057617187500, -0.021224975585938, 0.005386352539062, 0.002548217773438, -0.029830932617188, -0.005554199218750, -0.031967163085938, -0.037033081054688, -0.008316040039062, 0.005172729492188, 0.015396118164062, 0.018035888671875, 0.012222290039062, 0.003433227539062, -0.016235351562500, 0.019393920898438, -0.020919799804688, -0.031616210937500, -0.028610229492188, -0.006393432617188, -0.047241210937500, -0.032241821289062, -0.017288208007812, -0.014251708984375, -0.006256103515625, -0.012374877929688, -0.001953125000000, 0.068481445312500, 0.066574096679688, 0.023315429687500, 0.047073364257812, 0.013488769531250, 0.047592163085938, 0.000183105468750, -0.016647338867188, 0.030181884765625, 0.003692626953125, 0.023422241210938, 0.004684448242188, 0.007263183593750, 0.047607421875000, 0.041091918945312, 0.032958984375000, 0.015060424804688, -0.028793334960938, 0.016708374023438, 0.048858642578125, 0.015182495117188, 0.032730102539062, -0.015533447265625, -0.021408081054688, -0.016601562500000, 0.020690917968750, -0.016128540039062, 0.041259765625000, -0.044723510742188, 0.037658691406250, 0.030792236328125, 0.010559082031250, 0.008361816406250, -0.008743286132812, 0.006195068359375, -0.011260986328125, -0.015518188476562, -0.083969116210938, 0.040466308593750, -0.033020019531250, 0.029327392578125, 0.009475708007812, -0.012344360351562, -0.000823974609375, -0.005615234375000, -0.031723022460938, -0.002456665039062, -0.010971069335938, 0.034103393554688, -0.005981445312500, -0.020568847656250, 0.052551269531250, 0.046081542968750, -0.008041381835938, 0.036651611328125, 0.002090454101562, 0.017105102539062, -0.012069702148438, -0.038894653320312, -0.007232666015625, -0.010223388671875, 0.000259399414062, 0.001693725585938, -0.031036376953125, 0.009902954101562, 0.065429687500000, 0.021179199218750, 0.085006713867188, 0.003906250000000, 0.025207519531250, 0.008117675781250, -0.038909912109375, 0.004791259765625, 0.027343750000000, 0.016769409179688, 0.015670776367188, 0.024887084960938, 0.053131103515625, 0.040420532226562, 0.037231445312500, -0.003082275390625, -0.028457641601562, 0.031738281250000, -0.012695312500000, 0.020050048828125, -0.012359619140625, 0.020385742187500, -0.011047363281250, 0.000045776367188, 0.013366699218750, -0.020233154296875, 0.044647216796875, -0.040832519531250, 0.012634277343750, -0.013687133789062, -0.007980346679688, 0.004806518554688, -0.032974243164062, 0.027862548828125, -0.043731689453125, 0.006805419921875, -0.043426513671875, 0.021850585937500, -0.004165649414062, 0.037582397460938, -0.016174316406250, -0.027603149414062, -0.006607055664062, -0.013397216796875, -0.041885375976562, -0.011550903320312, -0.025360107421875, 0.059127807617188, 0.031417846679688, -0.039657592773438, 0.029083251953125, 0.047805786132812, -0.030838012695312, 0.039596557617188, 0.024505615234375, 0.007110595703125, -0.002182006835938, -0.030593872070312, 0.019836425781250, 0.016250610351562, -0.030929565429688, 0.039581298828125, -0.024139404296875, 0.009124755859375, 0.090347290039062, 0.047058105468750, 0.100006103515625, 0.008270263671875, -0.005981445312500, -0.011306762695312, -0.023605346679688, 0.022644042968750, 0.031066894531250, -0.027175903320312, 0.020751953125000, -0.019653320312500, 0.005905151367188, 0.008392333984375, 0.032562255859375, 0.012619018554688, -0.034698486328125, -0.019317626953125, -0.018295288085938, 0.041091918945312, 0.019775390625000, 0.073837280273438, -0.055053710937500, -0.014160156250000, 0.005722045898438, -0.038314819335938, 0.034133911132812, -0.021347045898438, 0.034469604492188, 0.010528564453125, -0.046646118164062, -0.004577636718750, 0.010284423828125, -0.012786865234375, -0.019866943359375, -0.016510009765625, -0.073867797851562, 0.037033081054688, -0.044540405273438, -0.012237548828125, -0.036636352539062, -0.011581420898438, 0.020355224609375, -0.001235961914062, -0.054580688476562, 0.016464233398438, 0.006774902343750, 0.012695312500000, -0.010208129882812, -0.046920776367188, 0.023483276367188, 0.063415527343750, -0.006958007812500, 0.038070678710938, 0.010589599609375, 0.005950927734375, -0.022140502929688, -0.030822753906250, -0.025283813476562, -0.020492553710938, -0.033828735351562, -0.017013549804688, -0.035537719726562, -0.004974365234375, 0.067886352539062, 0.089584350585938, 0.037765502929688, 0.017623901367188, 0.058074951171875, 0.016876220703125, 0.001678466796875, 0.011642456054688, 0.012023925781250, 0.000854492187500, 0.060012817382812, 0.026092529296875, 0.038085937500000, 0.023681640625000, 0.022598266601562, 0.045440673828125, -0.000473022460938, 0.013641357421875, 0.071136474609375, 0.039459228515625, 0.123565673828125, -0.141723632812500, -0.012725830078125, -0.027313232421875, 0.013000488281250, -0.023315429687500, 0.038375854492188, -0.013946533203125, 0.056991577148438, 0.031814575195312, -0.012588500976562, 0.025726318359375, 0.040069580078125, 0.028259277343750, 0.013671875000000, 0.020965576171875, -0.114532470703125, 0.043823242187500, 0.011047363281250, 0.014617919921875, -0.034683227539062, -0.011901855468750, 0.029922485351562, 0.009933471679688, -0.026748657226562, 0.029602050781250, 0.001739501953125, -0.016265869140625, -0.005050659179688, -0.014846801757812, 0.008743286132812, 0.012191772460938, 0.017929077148438, 0.040969848632812, 0.042556762695312, 0.039962768554688, 0.034606933593750, -0.011795043945312, -0.053497314453125, -0.005126953125000, -0.000167846679688, 0.020050048828125, -0.014236450195312, 0.004364013671875, 0.064102172851562, 0.053924560546875, 0.052307128906250, 0.029525756835938, 0.019195556640625, 0.001480102539062, 0.000167846679688, -0.000457763671875, -0.011398315429688, 0.006378173828125, 0.047332763671875, 0.036407470703125, 0.053298950195312, 0.012039184570312, 0.038116455078125, 0.063568115234375, -0.008666992187500, 0.014434814453125, 0.061431884765625, 0.023406982421875, 0.109710693359375, -0.114837646484375, -0.019836425781250, -0.042190551757812, 0.013549804687500, -0.006072998046875, 0.041168212890625, -0.017578125000000, 0.026016235351562, 0.013183593750000, -0.016418457031250, 0.002243041992188, 0.007522583007812, 0.027725219726562, -0.003768920898438, 0.012954711914062, -0.103347778320312, 0.014007568359375, -0.025009155273438, -0.016189575195312, -0.006652832031250, -0.021224975585938, 0.072937011718750, 0.044754028320312, -0.031524658203125, 0.040481567382812, 0.009246826171875, 0.004043579101562, -0.014724731445312, -0.009170532226562, -0.026763916015625, 0.010864257812500, 0.012512207031250, 0.084640502929688, 0.000183105468750, 0.032897949218750, 0.030319213867188, -0.015731811523438, -0.070785522460938, -0.027221679687500, 0.004577636718750, 0.007934570312500, 0.011138916015625, -0.009307861328125, 0.127929687500000, 0.057266235351562, 0.060440063476562, 0.000381469726562, 0.029159545898438, 0.031158447265625, 0.027801513671875, 0.017227172851562, 0.009246826171875, -0.010604858398438, 0.078567504882812, 0.026580810546875, 0.034439086914062, 0.007583618164062, 0.055603027343750, 0.133758544921875, 0.014373779296875, 0.001770019531250, 0.082122802734375, 0.049438476562500, 0.100814819335938, -0.067062377929688, -0.028427124023438, -0.084167480468750, 0.014633178710938, -0.036773681640625, 0.022842407226562, -0.031250000000000, 0.030212402343750, 0.091293334960938, -0.047592163085938, -0.005920410156250, 0.064270019531250, -0.007461547851562, 0.000442504882812, 0.002456665039062, -0.124023437500000, 0.048934936523438, -0.050689697265625, -0.027770996093750, -0.002151489257812, -0.002441406250000, 0.054260253906250, 0.018936157226562, -0.027099609375000, 0.029479980468750, 0.010009765625000, -0.052825927734375, -0.048248291015625, -0.027923583984375, 0.008529663085938, 0.017501831054688, 0.004364013671875, 0.057159423828125, -0.011566162109375, 0.007522583007812, 0.002456665039062, -0.042282104492188, -0.072326660156250, -0.029541015625000, -0.057830810546875, -0.041275024414062, -0.024063110351562, -0.006820678710938, 0.053115844726562, -0.050369262695312, 0.058090209960938, -0.009735107421875, -0.045715332031250, -0.006378173828125, 0.044372558593750, -0.010711669921875, 0.015335083007812, -0.011947631835938, 0.010910034179688, 0.004837036132812, -0.035385131835938, -0.014511108398438, -0.001617431640625, -0.001022338867188, 0.026824951171875, -0.023284912109375, -0.021057128906250, 0.003921508789062, 0.016601562500000, -0.046585083007812, 0.017333984375000, 0.037704467773438, 0.003982543945312, -0.000900268554688, -0.001434326171875, 0.022216796875000, 0.000473022460938, 0.028808593750000, 0.010879516601562, 0.028244018554688, -0.028015136718750, 0.002670288085938, 0.056152343750000, 0.009292602539062, -0.018402099609375, 0.023254394531250, 0.017639160156250, -0.002502441406250, 0.043563842773438, 0.052093505859375, 0.000885009765625, 0.024963378906250, -0.047607421875000, 0.013900756835938, 0.040954589843750, 0.019485473632812, 0.013946533203125, -0.002212524414062, -0.024505615234375, 0.011505126953125, 0.036331176757812, 0.038360595703125, -0.036422729492188, 0.022033691406250, 0.026535034179688, 0.019165039062500, 0.036895751953125, 0.000228881835938, 0.000823974609375, -0.019302368164062, -0.023727416992188, -0.002044677734375, 0.108367919921875, -0.009963989257812, 0.111999511718750, 0.027175903320312, 0.003341674804688, 0.026702880859375, 0.083114624023438, 0.045593261718750, 0.051132202148438, 0.038787841796875, 0.074920654296875, 0.002273559570312, 0.017822265625000, -0.004440307617188, 0.047912597656250, 0.032897949218750, 0.034011840820312, -0.008529663085938, 0.011108398437500, 0.039810180664062, 0.035659790039062, 0.025329589843750, -0.016433715820312, -0.021865844726562, 0.023635864257812, 0.024108886718750, 0.041473388671875, 0.051025390625000, 0.017593383789062, 0.161682128906250, 0.059570312500000, 0.018356323242188, 0.013793945312500, 0.033020019531250, 0.047424316406250, 0.028289794921875, -0.106430053710938, 0.057128906250000, -0.026657104492188, 0.002502441406250, 0.043167114257812, 0.062850952148438, 0.063781738281250, 0.083892822265625, -0.014373779296875, 0.096588134765625, 0.038101196289062, -0.049575805664062, -0.029174804687500, 0.039077758789062, 0.045059204101562, 0.076416015625000, 0.027709960937500, 0.054290771484375, 0.014236450195312, 0.041000366210938, 0.024948120117188, 0.009155273437500, -0.042770385742188, 0.007980346679688, 0.008926391601562, -0.014053344726562, 0.010742187500000, 0.042358398437500, 0.063293457031250, -0.017562866210938, 0.072616577148438, 0.041717529296875, -0.001159667968750, -0.006088256835938, 0.033477783203125, 0.008544921875000, 0.000991821289062, -0.000137329101562, 0.008972167968750, -0.011749267578125, 0.006210327148438, -0.012741088867188, 0.003143310546875, -0.015319824218750, 0.024108886718750, 0.026443481445312, 0.007781982421875, 0.002655029296875, -0.003387451171875, 0.074539184570312, -0.007888793945312, -0.041610717773438, 0.001693725585938, -0.046340942382812, 0.057678222656250, 0.004684448242188, 0.021865844726562, 0.037475585937500, -0.019195556640625, -0.009262084960938, 0.000396728515625, 0.020187377929688, 0.031021118164062, 0.006332397460938, -0.088867187500000, 0.035003662109375, 0.007369995117188, -0.013656616210938, 0.014007568359375, 0.069915771484375, 0.054840087890625, 0.043991088867188, -0.021041870117188, 0.056701660156250, 0.046966552734375, -0.046707153320312, -0.002899169921875, 0.001220703125000, 0.038650512695312, 0.042434692382812, 0.036590576171875, 0.003356933593750, 0.037521362304688, 0.016113281250000, -0.007904052734375, -0.016967773437500, -0.062393188476562, -0.014312744140625, -0.028579711914062, -0.061401367187500, -0.008682250976562, 0.040786743164062, -0.028869628906250, -0.015151977539062, 0.024200439453125, -0.048858642578125, 0.041839599609375, -0.061065673828125, -0.012283325195312, 0.000381469726562, -0.052658081054688, -0.007171630859375, 0.004150390625000, -0.005050659179688, 0.002090454101562, 0.007492065429688, -0.022140502929688, -0.022079467773438, -0.013610839843750, -0.005798339843750, 0.006500244140625, 0.000335693359375, -0.032958984375000, 0.044677734375000, -0.000854492187500, 0.065521240234375, 0.027770996093750, -0.045516967773438, 0.019027709960938, 0.011001586914062, -0.017562866210938, 0.050811767578125, 0.017837524414062, 0.014907836914062, 0.019348144531250, 0.016967773437500, 0.043548583984375, 0.010345458984375, 0.008865356445312, -0.029312133789062, 0.000076293945312, -0.012832641601562, -0.009445190429688, 0.039688110351562, 0.013580322265625, -0.025512695312500, -0.013748168945312, -0.015914916992188, -0.006179809570312, 0.023834228515625, 0.026412963867188, 0.012817382812500, 0.022048950195312, -0.000106811523438, -0.018829345703125, 0.056121826171875, -0.001998901367188, 0.040649414062500, -0.001663208007812, 0.014862060546875, 0.028411865234375, 0.010208129882812, -0.022094726562500, 0.068908691406250, -0.005004882812500, 0.021911621093750, -0.004806518554688, -0.032104492187500, 0.028533935546875, -0.009887695312500, 0.032150268554688, -0.020401000976562, -0.009658813476562, -0.007659912109375, 0.003036499023438, -0.024230957031250, 0.045745849609375, 0.007369995117188, 0.017593383789062, 0.044891357421875, 0.006973266601562, 0.014343261718750, -0.003448486328125, 0.033935546875000, 0.037338256835938, 0.016632080078125, 0.013504028320312, -0.029037475585938, -0.020492553710938, -0.010314941406250, 0.021987915039062, -0.018859863281250, 0.064544677734375, -0.004714965820312, 0.025802612304688, 0.058288574218750, 0.035522460937500, 0.020675659179688, 0.004272460937500, 0.049819946289062, 0.014739990234375, -0.000457763671875, -0.044647216796875, -0.009902954101562, -0.012039184570312, 0.018539428710938, 0.043548583984375, 0.005050659179688, 0.041488647460938, -0.019165039062500, 0.003036499023438, -0.018432617187500, -0.044876098632812, -0.071090698242188, 0.013641357421875, 0.002868652343750, 0.028778076171875, 0.029617309570312, -0.017501831054688, 0.010604858398438, 0.000640869140625, 0.028198242187500, 0.050216674804688, 0.040161132812500, -0.077453613281250, 0.035583496093750, -0.011886596679688, 0.002212524414062, 0.003936767578125, 0.023635864257812, -0.023956298828125, -0.021560668945312, 0.023406982421875, -0.043151855468750, 0.052246093750000, -0.039916992187500, -0.014343261718750, -0.013412475585938, -0.054428100585938, -0.031951904296875, 0.007095336914062, 0.025909423828125, -0.039566040039062, -0.007171630859375, -0.028015136718750, -0.035781860351562, -0.018615722656250, 0.007537841796875, 0.025405883789062, 0.009704589843750, -0.036834716796875, -0.011428833007812, -0.017196655273438, 0.019012451171875, 0.024215698242188, -0.041122436523438, 0.038787841796875, 0.003906250000000, -0.020584106445312, 0.000457763671875, 0.026260375976562, 0.003280639648438, 0.009216308593750, 0.007064819335938, 0.011032104492188, -0.007202148437500, -0.030227661132812, -0.026412963867188, -0.003372192382812, 0.005050659179688, 0.034484863281250, 0.005401611328125, 0.030670166015625, -0.040832519531250, 0.019439697265625, -0.032363891601562, -0.014465332031250, -0.008621215820312, 0.008651733398438, -0.005340576171875, -0.054153442382812, 0.041473388671875, -0.038436889648438, 0.053100585937500, -0.018310546875000, 0.015167236328125, 0.103729248046875, 0.036865234375000, -0.029617309570312, 0.022949218750000, -0.012664794921875, 0.048797607421875, -0.016281127929688, -0.001586914062500, 0.109756469726562, -0.007324218750000, -0.067596435546875, -0.030685424804688, -0.004608154296875, -0.012191772460938, -0.004989624023438, -0.017822265625000, 0.000381469726562, 0.001678466796875, -0.111907958984375, -0.011428833007812, 0.009902954101562, -0.004669189453125, -0.018981933593750, 0.003387451171875, -0.047088623046875, -0.020675659179688, 0.002929687500000, -0.021316528320312, -0.008361816406250, -0.040344238281250, -0.003646850585938, -0.024612426757812, -0.028274536132812, -0.011840820312500, 0.006774902343750, -0.041778564453125, 0.011489868164062, 0.029449462890625, -0.017761230468750, -0.020782470703125, 0.027359008789062, 0.013168334960938, -0.011199951171875, 0.000900268554688, 0.004486083984375, -0.057464599609375, 0.020828247070312, -0.012207031250000, -0.077224731445312, 0.003341674804688, -0.040588378906250, 0.001266479492188, -0.027618408203125, -0.015197753906250, -0.033782958984375, -0.034240722656250, 0.009063720703125, -0.012847900390625, 0.055801391601562, -0.033172607421875, -0.039962768554688, -0.011123657226562, 0.003631591796875, -0.029312133789062, 0.016632080078125, -0.041931152343750, -0.019592285156250, 0.000915527343750, -0.015594482421875, -0.006805419921875, -0.013977050781250, 0.036499023437500, -0.268814086914062, 0.043258666992188, -0.049514770507812, -0.060302734375000, -0.031967163085938, -0.012176513671875, 0.020690917968750, 0.009902954101562, -0.022155761718750, 0.004714965820312, -0.139495849609375, 0.015136718750000, 0.022598266601562, 0.017211914062500, -0.029251098632812, -0.161773681640625, -0.094650268554688, -0.029388427734375, -0.113800048828125, 0.064239501953125, -0.067916870117188, -0.017410278320312, -0.014739990234375, 0.074127197265625, 0.012054443359375, -0.015945434570312, -0.001663208007812, -0.100326538085938, -0.068832397460938, -0.117828369140625, 0.030746459960938, -0.001708984375000, -0.079040527343750, 0.002685546875000, -0.081954956054688, 0.020446777343750, 0.090576171875000, -0.084106445312500, 0.011764526367188, 0.012405395507812, -0.029861450195312, -0.079589843750000, -0.034240722656250, -0.001815795898438, -0.022705078125000, -0.063156127929688, -0.051589965820312, 0.037796020507812, -0.015289306640625, -0.013549804687500, -0.020812988281250, -0.122497558593750, -0.015975952148438, -0.001541137695312, 0.017776489257812, 0.000411987304688, 0.065963745117188, 0.027343750000000, 0.033554077148438, 0.032928466796875, -0.001586914062500, 0.022491455078125, -0.015335083007812, -0.024291992187500, -0.028930664062500, -0.000289916992188, -0.057067871093750, -0.035446166992188, -0.092407226562500, -0.020416259765625, -0.011795043945312, -0.031906127929688, -0.028671264648438, -0.020065307617188, -0.048187255859375, -0.022445678710938, -0.004699707031250, -0.048583984375000, -0.008255004882812, -0.074996948242188, -0.076934814453125, -0.034042358398438, -0.128341674804688, 0.000335693359375, -0.090209960937500, 0.081924438476562, -0.020843505859375, -0.015289306640625, -0.035583496093750, 0.000930786132812, -0.028900146484375, -0.102447509765625, -0.063323974609375, -0.030868530273438, -0.021179199218750, -0.023651123046875, -0.052795410156250, -0.054931640625000, -0.070770263671875, -0.037536621093750, -0.005981445312500, -0.087646484375000, -0.022140502929688, -0.019973754882812, -0.013610839843750, -0.086608886718750, -0.028350830078125, -0.010986328125000, 0.008819580078125, -0.037582397460938, -0.066040039062500, -0.017135620117188, -0.010101318359375, -0.021545410156250, -0.040878295898438, -0.046401977539062, -0.061370849609375, -0.029846191406250, -0.021575927734375, -0.018020629882812, 0.012893676757812, -0.070678710937500, 0.006973266601562, -0.047958374023438, -0.030670166015625, -0.018005371093750, -0.043319702148438, -0.073745727539062, -0.008087158203125, 0.042343139648438, 0.025207519531250, 0.006759643554688, 0.030822753906250, 0.016052246093750, -0.001602172851562, 0.024703979492188, 0.003295898437500, 0.008880615234375, -0.003509521484375, 0.009826660156250, 0.035049438476562, 0.010742187500000, 0.017379760742188, 0.016296386718750, 0.005432128906250, 0.005142211914062, 0.031509399414062, 0.000976562500000, 0.011596679687500, 0.037033081054688, -0.003082275390625, 0.001220703125000, 0.005233764648438, -0.001205444335938, 0.010620117187500, 0.015411376953125, 0.008117675781250, 0.038497924804688, 0.008789062500000, 0.003829956054688, 0.022354125976562, -0.002990722656250, 0.010513305664062, -0.014892578125000, -0.005722045898438, 0.016967773437500, -0.011337280273438, -0.002487182617188, 0.010238647460938, -0.003585815429688, 0.003875732421875, -0.003906250000000, 0.001678466796875, 0.008987426757812, -0.011245727539062, 0.007156372070312, 0.010574340820312, 0.005661010742188, 0.009399414062500, 0.015060424804688, 0.004592895507812, 0.014938354492188, -0.009536743164062, 0.000122070312500, -0.000854492187500, -0.000106811523438, 0.011123657226562, 0.007003784179688, 0.004333496093750, 0.002136230468750, -0.001663208007812, 0.016448974609375, -0.003143310546875, 0.031982421875000, 0.030197143554688, 0.001190185546875, 0.062042236328125, -0.002487182617188, -0.009597778320312, 0.018646240234375, 0.011108398437500, 0.009246826171875, 0.002044677734375, 0.008483886718750, 0.038192749023438, 0.012619018554688, 0.005294799804688, 0.007202148437500, -0.006637573242188, 0.014709472656250, 0.040023803710938, 0.019775390625000, 0.013519287109375, 0.023422241210938, 0.009109497070312, -0.003707885742188, -0.008621215820312, -0.004379272460938, 0.017990112304688, 0.013763427734375, 0.018371582031250, 0.012252807617188, -0.000045776367188, -0.009384155273438, 0.040435791015625, -0.006729125976562, -0.007400512695312, -0.003814697265625, 0.006317138671875, 0.027862548828125, -0.007522583007812, -0.007217407226562, -0.019409179687500, 0.006774902343750, -0.003875732421875, -0.008209228515625, -0.007125854492188, -0.006790161132812, 0.002624511718750, 0.024871826171875, 0.014724731445312, -0.011154174804688, 0.016860961914062, 0.027206420898438, -0.002090454101562, 0.019241333007812, -0.006057739257812, -0.001861572265625, -0.010986328125000, 0.001449584960938, -0.014770507812500, 0.010421752929688, 0.002685546875000, 0.010757446289062, -0.001968383789062, 0.015945434570312, -0.012481689453125, 0.038253784179688, 0.020187377929688, 0.010818481445312, 0.041168212890625, -0.001129150390625, -0.018966674804688, 0.016632080078125, 0.008178710937500, 0.007766723632812, -0.011749267578125, -0.001693725585938, 0.043731689453125, -0.000778198242188, 0.010223388671875, -0.006668090820312, 0.007843017578125, -0.005462646484375, 0.031311035156250, 0.005874633789062, 0.014053344726562, 0.015151977539062, -0.004272460937500, -0.003387451171875, 0.001876831054688, 0.009704589843750, 0.001968383789062, 0.013259887695312, 0.029800415039062, 0.006561279296875, 0.000717163085938, -0.003860473632812, 0.037979125976562, -0.018997192382812, 0.013381958007812, -0.006210327148438, 0.005294799804688, 0.016448974609375, -0.003372192382812, -0.004226684570312, -0.005340576171875, 0.012847900390625, -0.011810302734375, 0.012039184570312, -0.005279541015625, -0.009689331054688, 0.020706176757812, 0.019805908203125, 0.018081665039062, -0.004562377929688, 0.003463745117188, 0.014816284179688, 0.006912231445312, 0.005310058593750, 0.008163452148438, 0.000411987304688, 0.002990722656250, 0.004394531250000, 0.004852294921875, 0.011993408203125, 0.015975952148438, 0.008605957031250, -0.008010864257812, 0.032546997070312, 0.003906250000000, 0.071517944335938, 0.017272949218750, 0.014297485351562, 0.068206787109375, 0.016815185546875, -0.007217407226562, 0.002868652343750, 0.008346557617188, 0.013046264648438, 0.014282226562500, 0.011642456054688, 0.047958374023438, 0.000091552734375, 0.028289794921875, -0.000518798828125, -0.000076293945312, -0.006286621093750, 0.064697265625000, 0.008575439453125, 0.036758422851562, -0.008026123046875, -0.015823364257812, -0.016616821289062, 0.004806518554688, -0.001281738281250, 0.023910522460938, -0.002105712890625, 0.022445678710938, 0.025009155273438, -0.004623413085938, -0.015518188476562, 0.034072875976562, 0.003799438476562, 0.006805419921875, -0.011566162109375, -0.031112670898438, 0.015670776367188, -0.020812988281250, 0.006149291992188, -0.009124755859375, 0.000991821289062, -0.002761840820312, 0.011322021484375, -0.005798339843750, 0.022628784179688, 0.008285522460938, -0.004486083984375, 0.001251220703125, -0.028366088867188, 0.012344360351562, 0.024505615234375, 0.004394531250000, 0.011688232421875, -0.004913330078125, -0.006195068359375, -0.002685546875000, -0.013885498046875, -0.024917602539062, 0.001022338867188, -0.013854980468750, -0.001144409179688, -0.007690429687500, -0.002777099609375, -0.002899169921875, 0.048004150390625, 0.008728027343750, -0.000686645507812, 0.031509399414062, 0.002334594726562, -0.002838134765625, -0.010238647460938, -0.000411987304688, -0.006439208984375, 0.013763427734375, -0.013702392578125, 0.013473510742188, -0.009353637695312, 0.020935058593750, -0.013717651367188, 0.005508422851562, 0.003555297851562, 0.032592773437500, 0.005538940429688, 0.015823364257812, 0.008895874023438, -0.003204345703125, -0.008834838867188, 0.002304077148438, -0.017776489257812, 0.014160156250000, -0.003234863281250, 0.005249023437500, 0.001281738281250, -0.013412475585938, -0.003265380859375, 0.010025024414062, -0.011779785156250, -0.006607055664062, -0.012451171875000, -0.017730712890625, -0.014343261718750, -0.015411376953125, 0.000839233398438, -0.008743286132812, -0.005493164062500, -0.005584716796875, 0.007278442382812, -0.001327514648438, -0.000488281250000, 0.002929687500000, 0.010345458984375, 0.002883911132812, -0.001327514648438, 0.010528564453125, 0.014251708984375, -0.005523681640625, 0.011810302734375, -0.009460449218750, -0.007537841796875, -0.009582519531250, -0.019042968750000, -0.017547607421875, 0.000061035156250, -0.021545410156250, -0.005752563476562, -0.002716064453125, 0.011566162109375, 0.029342651367188, 0.081359863281250, 0.038208007812500, 0.004165649414062, 0.032272338867188, 0.011993408203125, -0.002487182617188, 0.007583618164062, 0.005706787109375, 0.003189086914062, 0.001235961914062, 0.006546020507812, 0.051071166992188, -0.007537841796875, 0.017272949218750, 0.014038085937500, 0.000503540039062, -0.012191772460938, 0.072143554687500, 0.013916015625000, 0.053482055664062, 0.012603759765625, -0.011093139648438, -0.006256103515625, 0.004379272460938, 0.017974853515625, 0.012100219726562, 0.002883911132812, 0.040328979492188, 0.025878906250000, -0.002960205078125, -0.010879516601562, 0.028976440429688, -0.009063720703125, 0.006591796875000, -0.017761230468750, -0.028594970703125, 0.011550903320312, -0.035095214843750, -0.019912719726562, -0.004348754882812, 0.004943847656250, 0.000442504882812, -0.000686645507812, -0.003952026367188, 0.008636474609375, 0.011642456054688, 0.015579223632812, -0.005447387695312, -0.019317626953125, 0.005493164062500, 0.010848999023438, 0.008239746093750, 0.009307861328125, -0.021026611328125, -0.011077880859375, 0.015243530273438, -0.010498046875000, 0.004028320312500, -0.012908935546875, -0.018218994140625, -0.005569458007812, -0.016891479492188, 0.024230957031250, -0.003662109375000, 0.035781860351562, 0.019699096679688, 0.024765014648438, 0.027832031250000, 0.020843505859375, 0.004394531250000, 0.013092041015625, 0.002609252929688, 0.010696411132812, 0.026794433593750, 0.002182006835938, 0.033523559570312, 0.005477905273438, 0.015365600585938, 0.016601562500000, 0.008071899414062, 0.002761840820312, 0.050430297851562, 0.031875610351562, 0.041992187500000, -0.003555297851562, -0.006088256835938, -0.017608642578125, 0.010589599609375, 0.015762329101562, 0.011489868164062, 0.008422851562500, 0.028366088867188, -0.000274658203125, -0.018218994140625, 0.003890991210938, 0.026336669921875, -0.004791259765625, 0.015426635742188, -0.002471923828125, -0.018814086914062, 0.023025512695312, 0.009155273437500, 0.003082275390625, -0.006301879882812, 0.013702392578125, 0.022964477539062, 0.020874023437500, -0.011108398437500, 0.024002075195312, 0.010635375976562, -0.006591796875000, -0.013732910156250, -0.008697509765625, 0.019607543945312, 0.015701293945312, 0.019012451171875, 0.011215209960938, -0.009475708007812, 0.000030517578125, 0.015991210937500, -0.000473022460938, -0.013748168945312, -0.014038085937500, -0.010589599609375, 0.009048461914062, 0.000473022460938, 0.005264282226562, -0.008621215820312, 0.037185668945312, 0.009063720703125, 0.010192871093750, 0.033920288085938, 0.004028320312500, 0.000885009765625, 0.008865356445312, 0.011947631835938, 0.017471313476562, 0.010696411132812, -0.000289916992188, 0.011413574218750, 0.002914428710938, 0.015899658203125, 0.022094726562500, 0.003799438476562, 0.003189086914062, 0.047744750976562, 0.005874633789062, 0.034179687500000, -0.022949218750000, -0.009140014648438, -0.026779174804688, -0.000808715820312, -0.001571655273438, -0.000015258789062, 0.004547119140625, -0.001556396484375, 0.019088745117188, -0.012527465820312, -0.018417358398438, 0.003860473632812, -0.013290405273438, 0.019943237304688, 0.003356933593750, -0.007095336914062, -0.000717163085938, 0.009933471679688, -0.007843017578125, -0.014923095703125, 0.020004272460938, 0.009155273437500, 0.018234252929688, 0.005218505859375, 0.009140014648438, 0.019882202148438, 0.000167846679688, -0.005813598632812, 0.008377075195312, 0.001602172851562, 0.011169433593750, 0.005035400390625, 0.007705688476562, -0.010208129882812, -0.010330200195312, 0.007110595703125, -0.001617431640625, -0.004592895507812, 0.013092041015625, 0.000732421875000, 0.014190673828125, 0.010314941406250, 0.006118774414062, 0.024093627929688, 0.040267944335938, 0.009902954101562, 0.003845214843750, 0.026336669921875, 0.016754150390625, 0.005432128906250, 0.008041381835938, 0.010589599609375, 0.003952026367188, 0.018600463867188, -0.013732910156250, 0.030914306640625, 0.002532958984375, 0.026916503906250, 0.048095703125000, 0.015686035156250, -0.005523681640625, 0.079254150390625, 0.013610839843750, 0.036834716796875, 0.006103515625000, -0.012496948242188, -0.024856567382812, 0.002609252929688, 0.002914428710938, 0.005401611328125, 0.016113281250000, 0.033645629882812, 0.044982910156250, -0.010574340820312, -0.009185791015625, 0.032852172851562, -0.021286010742188, 0.031478881835938, -0.013992309570312, -0.010086059570312, 0.003341674804688, -0.004470825195312, -0.003112792968750, 0.005783081054688, 0.022903442382812, 0.008255004882812, 0.023452758789062, -0.007919311523438, 0.012695312500000, 0.010116577148438, 0.006027221679688, 0.000030517578125, -0.006607055664062, 0.003753662109375, 0.022323608398438, 0.012283325195312, -0.000595092773438, -0.011337280273438, -0.006530761718750, 0.024841308593750, 0.004486083984375, 0.002090454101562, 0.001754760742188, -0.010360717773438, 0.015029907226562, -0.013778686523438, 0.022521972656250, -0.005950927734375, 0.034912109375000, -0.005966186523438, 0.018341064453125, 0.021759033203125, 0.035064697265625, 0.011413574218750, -0.011032104492188, 0.043365478515625, 0.039138793945312, 0.024780273437500, -0.005065917968750, 0.020675659179688, -0.029556274414062, -0.002014160156250, -0.033157348632812, -0.004806518554688, -0.010726928710938, 0.000198364257812, 0.012649536132812, 0.042266845703125, 0.044647216796875, -0.007431030273438, -0.047821044921875, 0.026199340820312, 0.030654907226562, 0.013031005859375, 0.001022338867188, 0.025024414062500, 0.019424438476562, -0.007110595703125, -0.027282714843750, 0.089553833007812, 0.011413574218750, 0.012573242187500, -0.003356933593750, -0.072494506835938, 0.020751953125000, -0.042846679687500, 0.013259887695312, -0.046218872070312, 0.034942626953125, 0.092926025390625, 0.048416137695312, -0.003067016601562, 0.059417724609375, 0.009048461914062, -0.023071289062500, -0.022338867187500, -0.028625488281250, 0.015396118164062, 0.060226440429688, 0.000625610351562, -0.007080078125000, -0.033279418945312, 0.010711669921875, 0.004150390625000, -0.009597778320312, -0.047302246093750, 0.040557861328125, 0.001007080078125, 0.014556884765625, -0.009933471679688, 0.063323974609375, -0.113021850585938, -0.060821533203125, -0.021163940429688, -0.008605957031250, -0.023849487304688, -0.031951904296875, -0.005569458007812, -0.029953002929688, -0.011474609375000, 0.017639160156250, -0.034423828125000, -0.006423950195312, -0.082397460937500, 0.007568359375000, -0.020675659179688, -0.079391479492188, -0.053390502929688, -0.016250610351562, -0.040054321289062, -0.000061035156250, -0.009414672851562, -0.003814697265625, 0.023452758789062, -0.019317626953125, 0.020889282226562, 0.004821777343750, 0.000595092773438, -0.008895874023438, -0.082870483398438, -0.021286010742188, -0.010559082031250, 0.004501342773438, -0.074615478515625, 0.006301879882812, -0.027114868164062, -0.005599975585938, -0.015060424804688, -0.045150756835938, -0.027603149414062, 0.039962768554688, -0.014694213867188, -0.029251098632812, -0.016250610351562, 0.010192871093750, -0.011199951171875, -0.024307250976562, -0.035049438476562, 0.018096923828125, 0.027160644531250, -0.028976440429688, -0.005126953125000, -0.038711547851562, -0.024047851562500, -0.007095336914062, -0.022308349609375, 0.004837036132812, -0.005355834960938, 0.013610839843750, 0.012374877929688, -0.012710571289062, 0.005950927734375, 0.014343261718750, 0.016387939453125, 0.056091308593750, -0.040466308593750, -0.040954589843750, 0.009887695312500, 0.023895263671875, -0.009155273437500, -0.025604248046875, 0.040115356445312, 0.004104614257812, 0.001205444335938, 0.011779785156250, 0.015045166015625, 0.036743164062500, -0.046508789062500, -0.016311645507812, -0.001007080078125, -0.022277832031250, -0.033615112304688, 0.038940429687500, -0.024078369140625, 0.012573242187500, -0.060516357421875, 0.014724731445312, 0.040832519531250, -0.008117675781250, 0.036285400390625, 0.018615722656250, 0.036758422851562, -0.012908935546875, -0.015396118164062, 0.032699584960938, -0.015808105468750, 0.052734375000000, -0.023895263671875, 0.020797729492188, -0.018646240234375, 0.046890258789062, 0.001510620117188, -0.016876220703125, 0.013656616210938, 0.024093627929688, 0.028381347656250, 0.013549804687500, 0.028457641601562, 0.019149780273438, -0.041198730468750, -0.010848999023438, -0.019104003906250, 0.013580322265625, 0.047653198242188, 0.028320312500000, -0.004226684570312, -0.038436889648438, 0.018112182617188, 0.013092041015625, 0.029190063476562, 0.038085937500000, -0.008193969726562, 0.027191162109375, 0.039794921875000, 0.011901855468750, 0.006530761718750, 0.027465820312500, 0.034255981445312, 0.055755615234375, 0.070312500000000, -0.045181274414062, -0.032714843750000, 0.053329467773438, -0.068511962890625, 0.043426513671875, 0.039276123046875, -0.004501342773438, 0.004913330078125, 0.023010253906250, 0.012588500976562, -0.003784179687500, 0.022384643554688, -0.016448974609375, -0.006271362304688, -0.023254394531250, -0.048782348632812, -0.005081176757812, -0.050842285156250, 0.009307861328125, 0.023773193359375, -0.065872192382812, 0.002288818359375, -0.077774047851562, -0.033737182617188, 0.041961669921875, -0.006896972656250, -0.008911132812500, 0.003372192382812, 0.041824340820312, 0.019439697265625, -0.019424438476562, 0.035110473632812, -0.015335083007812, -0.063079833984375, -0.016174316406250, -0.013458251953125, 0.035873413085938, -0.042190551757812, -0.027023315429688, -0.033187866210938, -0.001266479492188, 0.035781860351562, 0.028106689453125, -0.045074462890625, 0.025344848632812, -0.021591186523438, -0.052246093750000, -0.028549194335938, -0.028350830078125, 0.044067382812500, 0.006607055664062, 0.034545898437500, -0.044998168945312, 0.003784179687500, 0.016052246093750, -0.025192260742188, -0.014068603515625, -0.039932250976562, -0.010375976562500, -0.036224365234375, -0.043975830078125, -0.021697998046875, 0.003784179687500, -0.108306884765625, -0.099960327148438, -0.048690795898438, -0.019409179687500, -0.125030517578125, -0.042633056640625, 0.036621093750000, -0.010803222656250, -0.030044555664062, 0.025009155273438, -0.109176635742188, -0.021286010742188, -0.153289794921875, -0.005172729492188, -0.010559082031250, -0.124145507812500, -0.073211669921875, 0.001708984375000, -0.136199951171875, -0.029922485351562, -0.014297485351562, 0.021835327148438, 0.015335083007812, -0.025695800781250, -0.027069091796875, -0.017410278320312, -0.038543701171875, -0.033309936523438, -0.176300048828125, -0.051086425781250, 0.017501831054688, -0.010589599609375, -0.134231567382812, -0.032226562500000, -0.053802490234375, -0.005142211914062, 0.009887695312500, -0.053833007812500, -0.005874633789062, 0.005050659179688, 0.002136230468750, -0.034011840820312, -0.042694091796875, -0.015106201171875, -0.027206420898438, -0.034332275390625, -0.051834106445312, 0.011718750000000, 0.005691528320312, -0.010589599609375, 0.018295288085938, -0.057647705078125, -0.034530639648438, -0.025848388671875, -0.026031494140625, -0.016586303710938, 0.001266479492188, 0.020034790039062, -0.017135620117188, -0.021759033203125, 0.017822265625000, 0.017288208007812, 0.008193969726562, -0.008941650390625, -0.003189086914062, -0.010894775390625, -0.064483642578125, 0.004013061523438, -0.060821533203125, -0.016586303710938, 0.015563964843750, -0.048309326171875, -0.008682250976562, 0.004150390625000, -0.040679931640625, -0.003662109375000, -0.020965576171875, -0.023193359375000, -0.004119873046875, -0.002944946289062, -0.047210693359375, -0.005538940429688, -0.048767089843750, 0.009811401367188, 0.001632690429688, -0.011825561523438, 0.018173217773438, -0.007324218750000, -0.012649536132812, 0.027618408203125, -0.052230834960938, -0.038635253906250, -0.025299072265625, -0.043411254882812, -0.036361694335938, 0.004486083984375, -0.017288208007812, -0.015197753906250, -0.054931640625000, -0.006057739257812, 0.012557983398438, -0.045806884765625, 0.039443969726562, 0.016296386718750, -0.015457153320312, -0.038482666015625, -0.037994384765625, -0.019897460937500, -0.047607421875000, -0.009033203125000, -0.043548583984375, -0.004608154296875, 0.016464233398438, -0.000396728515625, -0.011688232421875, 0.028060913085938, -0.016036987304688, -0.021423339843750, -0.008636474609375, 0.022384643554688, -0.017547607421875, -0.025436401367188, -0.049728393554688, -0.008743286132812, 0.012802124023438, -0.000732421875000, 0.021331787109375, -0.009017944335938, 0.100891113281250, 0.011459350585938, 0.068542480468750, 0.017868041992188, -0.012573242187500, 0.016265869140625, 0.029846191406250, 0.014923095703125, 0.017166137695312, 0.022628784179688, 0.057128906250000, 0.007400512695312, 0.008911132812500, 0.007537841796875, 0.009353637695312, 0.033981323242188, -0.012588500976562, 0.013214111328125, 0.031845092773438, -0.013992309570312, 0.024505615234375, 0.196197509765625, 0.008361816406250, -0.021621704101562, 0.017379760742188, 0.011001586914062, 0.039901733398438, -0.052825927734375, 0.010177612304688, 0.054595947265625, -0.001510620117188, 0.007446289062500, 0.014266967773438, -0.022216796875000, -0.034347534179688, 0.013092041015625, -0.013702392578125, 0.080551147460938, 0.009826660156250, 0.031875610351562, -0.008575439453125, -0.002578735351562, 0.017883300781250, 0.020156860351562, -0.020935058593750, 0.009963989257812, 0.020248413085938, 0.009002685546875, -0.005279541015625, -0.019226074218750, 0.020278930664062, 0.048950195312500, 0.027267456054688, -0.001449584960938, 0.004562377929688, 0.015655517578125, 0.001266479492188, 0.025802612304688, -0.060363769531250, 0.028320312500000, 0.001190185546875, -0.013793945312500, -0.007583618164062, 0.083053588867188, 0.134918212890625, -0.014755249023438, 0.021469116210938, -0.045166015625000, -0.007949829101562, -0.071044921875000, -0.022491455078125, -0.018478393554688, -0.040283203125000, -0.015304565429688, -0.092453002929688, 0.000503540039062, -0.048034667968750, -0.020309448242188, -0.047119140625000, -0.066741943359375, -0.029800415039062, -0.011932373046875, -0.049118041992188, -0.056335449218750, -0.063110351562500, 0.188812255859375, 0.013061523437500, -0.018554687500000, -0.002578735351562, -0.047241210937500, 0.019393920898438, -0.024169921875000, -0.094207763671875, 0.096206665039062, -0.006820678710938, -0.012435913085938, -0.003204345703125, -0.059356689453125, 0.003128051757812, -0.014068603515625, -0.050415039062500, -0.002746582031250, -0.015441894531250, 0.031356811523438, -0.014953613281250, 0.051422119140625, -0.001724243164062, -0.012557983398438, -0.041305541992188, -0.047531127929688, 0.024230957031250, 0.032562255859375, 0.010528564453125, -0.020233154296875, 0.021621704101562, -0.006973266601562, 0.000198364257812, -0.013229370117188, -0.019790649414062, -0.016433715820312, -0.026290893554688, -0.020065307617188, 0.001998901367188, -0.008224487304688, -0.019912719726562, 0.005401611328125, -0.032867431640625, 0.134872436523438, 0.083969116210938, 0.040557861328125, 0.005508422851562, -0.042846679687500, 0.070739746093750, -0.017410278320312, -0.013244628906250, 0.002716064453125, 0.004211425781250, -0.001770019531250, 0.013153076171875, 0.001876831054688, 0.004028320312500, -0.025924682617188, -0.040176391601562, 0.001144409179688, -0.020187377929688, 0.027099609375000, 0.037658691406250, -0.025894165039062, 0.033386230468750, 0.167190551757812, 0.013168334960938, 0.004135131835938, -0.019104003906250, -0.028671264648438, 0.027389526367188, 0.027145385742188, 0.019180297851562, 0.068328857421875, -0.019592285156250, -0.044937133789062, 0.040206909179688, -0.021209716796875, -0.020263671875000, -0.003067016601562, -0.058273315429688, 0.019165039062500, 0.000885009765625, 0.032333374023438, 0.001312255859375, 0.041473388671875, -0.018020629882812, 0.016342163085938, -0.057235717773438, 0.002319335937500, -0.040359497070312, 0.041900634765625, 0.030868530273438, -0.026306152343750, 0.048889160156250, 0.035751342773438, -0.019195556640625, -0.009460449218750, -0.047927856445312, -0.008666992187500, 0.020462036132812, 0.010437011718750, -0.081375122070312, -0.003982543945312, -0.031661987304688, 0.021301269531250, -0.040664672851562, 0.119461059570312, -0.018081665039062, -0.000152587890625, 0.009307861328125, -0.014114379882812, 0.020843505859375, -0.030075073242188, -0.020034790039062, -0.005599975585938, -0.015182495117188, -0.022659301757812, -0.023483276367188, -0.010574340820312, 0.009674072265625, 0.007598876953125, -0.021453857421875, -0.026657104492188, 0.001556396484375, -0.022552490234375, 0.024917602539062, -0.016204833984375, 0.000579833984375, 0.061706542968750, -0.004211425781250, 0.023559570312500, -0.023864746093750, -0.024047851562500, -0.000366210937500, 0.008285522460938, -0.025955200195312, 0.028549194335938, -0.011001586914062, -0.011199951171875, 0.018493652343750, -0.015335083007812, -0.009460449218750, -0.032623291015625, 0.009872436523438, 0.001983642578125, -0.015899658203125, -0.013351440429688, -0.004241943359375, -0.003890991210938, -0.015167236328125, -0.019531250000000, -0.005447387695312, -0.002624511718750, 0.014343261718750, 0.002548217773438, 0.003341674804688, -0.017791748046875, 0.001266479492188, -0.008468627929688, -0.006210327148438, -0.020736694335938, -0.027969360351562, -0.014709472656250, -0.023452758789062, -0.010070800781250, -0.007614135742188, -0.009094238281250, -0.018981933593750, -0.001800537109375, -0.020156860351562, 0.042877197265625, -0.019210815429688, 0.010375976562500, 0.014465332031250, -0.001861572265625, 0.023178100585938, -0.014083862304688, -0.008850097656250, 0.005859375000000, -0.012771606445312, -0.023406982421875, -0.023834228515625, 0.005157470703125, 0.010513305664062, 0.011093139648438, -0.016555786132812, -0.031250000000000, 0.013153076171875, -0.005310058593750, 0.010513305664062, -0.019668579101562, 0.020706176757812, 0.033187866210938, 0.003356933593750, 0.005554199218750, 0.003982543945312, -0.032241821289062, 0.005187988281250, 0.004470825195312, 0.001739501953125, 0.005447387695312, -0.009887695312500, 0.009414672851562, 0.030929565429688, -0.007263183593750, -0.005432128906250, -0.029418945312500, 0.011489868164062, 0.000778198242188, 0.005020141601562, -0.000366210937500, -0.003021240234375, 0.012710571289062, -0.013671875000000, -0.024765014648438, 0.014907836914062, -0.016067504882812, -0.007614135742188, 0.015213012695312, 0.009948730468750, 0.007354736328125, 0.014434814453125, 0.009429931640625, -0.011138916015625, 0.002395629882812, -0.001647949218750, -0.006698608398438, -0.000076293945312, 0.003143310546875, -0.001235961914062, -0.002151489257812, -0.006484985351562, 0.006164550781250, -0.013244628906250, 0.036544799804688, -0.040756225585938, 0.008255004882812, -0.015899658203125, -0.023086547851562, 0.036010742187500, -0.021179199218750, -0.009231567382812, 0.001174926757812, -0.011886596679688, 0.001693725585938, -0.042663574218750, 0.004928588867188, 0.012451171875000, 0.005950927734375, -0.018264770507812, -0.041320800781250, 0.011138916015625, -0.010971069335938, -0.012023925781250, 0.000335693359375, 0.003387451171875, 0.025131225585938, -0.003677368164062, -0.008346557617188, -0.011367797851562, -0.021972656250000, 0.004226684570312, -0.009719848632812, 0.023071289062500, -0.033599853515625, -0.008499145507812, -0.014358520507812, 0.026321411132812, -0.005828857421875, -0.005294799804688, 0.000076293945312, 0.013732910156250, -0.010833740234375, -0.008544921875000, -0.003204345703125, -0.013442993164062, -0.003341674804688, -0.025909423828125, -0.016342163085938, -0.012176513671875, -0.025482177734375, -0.000228881835938, 0.011932373046875, 0.005279541015625, -0.013442993164062, -0.012481689453125, -0.009521484375000, -0.016738891601562, 0.002120971679688, 0.000076293945312, -0.021438598632812, 0.013641357421875, 0.018341064453125, 0.009140014648438, -0.025665283203125, -0.016708374023438, 0.015548706054688, -0.024475097656250, 0.034454345703125, 0.030807495117188, 0.082183837890625, 0.006408691406250, 0.008377075195312, 0.081176757812500, -0.022369384765625, -0.013229370117188, 0.001449584960938, 0.011947631835938, 0.009872436523438, 0.006088256835938, -0.003982543945312, 0.035644531250000, -0.018814086914062, 0.018127441406250, 0.014739990234375, -0.006378173828125, -0.007278442382812, 0.083801269531250, 0.028961181640625, 0.031112670898438, 0.004592895507812, -0.027954101562500, -0.006958007812500, -0.011276245117188, -0.013336181640625, 0.003234863281250, 0.020538330078125, 0.040390014648438, 0.021881103515625, -0.011077880859375, -0.019821166992188, 0.063781738281250, -0.012542724609375, -0.004837036132812, -0.018707275390625, -0.042465209960938, 0.002731323242188, -0.045272827148438, -0.013107299804688, -0.000305175781250, 0.012298583984375, -0.015747070312500, -0.007492065429688, -0.007049560546875, -0.009170532226562, -0.001266479492188, 0.005538940429688, -0.019912719726562, -0.026107788085938, 0.009460449218750, 0.015472412109375, -0.015808105468750, 0.002761840820312, -0.015274047851562, -0.046279907226562, -0.014373779296875, -0.022476196289062, -0.010437011718750, -0.028121948242188, -0.023361206054688, -0.011291503906250, -0.034484863281250, 0.015869140625000, 0.004592895507812, 0.070419311523438, 0.025985717773438, -0.001678466796875, 0.071029663085938, -0.007690429687500, -0.019393920898438, -0.000442504882812, 0.003829956054688, -0.007095336914062, -0.007385253906250, -0.001724243164062, 0.046722412109375, 0.002090454101562, 0.009918212890625, -0.008407592773438, -0.001327514648438, -0.003631591796875, 0.034683227539062, 0.010009765625000, 0.042160034179688, 0.010467529296875, 0.000946044921875, 0.011856079101562, 0.007125854492188, -0.016723632812500, 0.011489868164062, 0.001327514648438, 0.031463623046875, -0.013839721679688, 0.001663208007812, -0.009033203125000, 0.059204101562500, -0.006729125976562, 0.017913818359375, -0.016738891601562, -0.007446289062500, 0.006759643554688, -0.013916015625000, 0.005050659179688, -0.011764526367188, 0.008132934570312, -0.014663696289062, -0.022354125976562, -0.015594482421875, -0.011962890625000, 0.011611938476562, 0.032730102539062, 0.004165649414062, -0.022308349609375, 0.004806518554688, 0.021789550781250, -0.001235961914062, 0.020004272460938, -0.008392333984375, -0.013198852539062, 0.000320434570312, -0.009613037109375, 0.008316040039062, 0.009384155273438, -0.023056030273438, 0.015319824218750, -0.015518188476562, -0.007553100585938, 0.052581787109375, 0.116317749023438, 0.026458740234375, -0.024429321289062, 0.042999267578125, -0.017578125000000, -0.032302856445312, -0.005584716796875, -0.004180908203125, -0.010284423828125, -0.005798339843750, -0.009643554687500, 0.047042846679688, -0.003814697265625, -0.000823974609375, -0.018692016601562, 0.011917114257812, -0.025268554687500, 0.048522949218750, 0.017135620117188, 0.048339843750000, 0.023406982421875, -0.021240234375000, -0.007598876953125, 0.004623413085938, -0.032424926757812, 0.001434326171875, 0.005294799804688, 0.031036376953125, 0.014862060546875, -0.010437011718750, -0.019424438476562, 0.058654785156250, -0.006011962890625, 0.001251220703125, -0.025314331054688, -0.035308837890625, -0.005111694335938, -0.028686523437500, -0.022369384765625, -0.005462646484375, 0.007461547851562, -0.012680053710938, -0.004516601562500, -0.007019042968750, -0.009750366210938, 0.013916015625000, -0.001129150390625, -0.019699096679688, -0.021347045898438, 0.001922607421875, 0.015274047851562, -0.008071899414062, 0.009109497070312, -0.018676757812500, -0.010025024414062, 0.003982543945312, -0.021621704101562, 0.005020141601562, -0.010314941406250, -0.030181884765625, -0.009017944335938, -0.023986816406250, 0.014831542968750, -0.033401489257812, 0.060516357421875, 0.007415771484375, 0.008972167968750, 0.041198730468750, -0.014266967773438, 0.001235961914062, 0.006866455078125, -0.011260986328125, -0.006866455078125, 0.005294799804688, -0.012542724609375, 0.030853271484375, -0.008453369140625, 0.004760742187500, 0.020767211914062, -0.001876831054688, -0.018081665039062, 0.057403564453125, 0.018783569335938, 0.048767089843750, -0.038482666015625, -0.033264160156250, -0.032196044921875, -0.004348754882812, -0.000534057617188, 0.001068115234375, 0.000457763671875, 0.013504028320312, 0.005630493164062, -0.024795532226562, -0.016937255859375, 0.023239135742188, -0.013076782226562, 0.002990722656250, -0.019683837890625, -0.048736572265625, 0.005569458007812, -0.017883300781250, -0.021087646484375, -0.015701293945312, 0.009185791015625, 0.013900756835938, 0.015609741210938, -0.007385253906250, -0.004913330078125, 0.010711669921875, -0.009780883789062, -0.036163330078125, -0.021636962890625, -0.006179809570312, -0.011611938476562, 0.003189086914062, 0.011734008789062, -0.013778686523438, -0.018081665039062, -0.002365112304688, -0.012527465820312, -0.043060302734375, -0.001770019531250, -0.013015747070312, -0.001129150390625, -0.021118164062500, 0.037628173828125, -0.033996582031250, 0.031417846679688, -0.002670288085938, 0.010498046875000, 0.029190063476562, 0.003723144531250, 0.005172729492188, -0.009613037109375, 0.001068115234375, -0.006362915039062, -0.003631591796875, 0.005859375000000, 0.005798339843750, 0.003601074218750, -0.007141113281250, 0.011657714843750, -0.000854492187500, -0.010559082031250, 0.056533813476562, -0.001800537109375, 0.037872314453125, -0.026748657226562, -0.025115966796875, -0.021575927734375, -0.019042968750000, 0.020492553710938, 0.014846801757812, -0.000366210937500, -0.012786865234375, 0.001144409179688, -0.017654418945312, 0.004440307617188, 0.017974853515625, -0.018035888671875, 0.025451660156250, -0.002838134765625, -0.026367187500000, 0.004806518554688, -0.026840209960938, -0.015243530273438, 0.003112792968750, 0.014770507812500, -0.003387451171875, 0.009796142578125, -0.009933471679688, 0.004821777343750, 0.010223388671875, 0.015594482421875, -0.001525878906250, -0.027877807617188, 0.000106811523438, -0.026504516601562, 0.004959106445312, 0.008956909179688, -0.003005981445312, -0.004287719726562, 0.012908935546875, 0.018035888671875, 0.000061035156250, 0.010223388671875, -0.000549316406250, -0.009262084960938, -0.012664794921875, 0.010330200195312, 0.034805297851562, 0.061126708984375, 0.000396728515625, 0.009628295898438, 0.031967163085938, -0.000411987304688, 0.008895874023438, -0.006988525390625, 0.003662109375000, -0.008041381835938, 0.020050048828125, -0.003021240234375, 0.031021118164062, -0.017074584960938, 0.003311157226562, 0.034652709960938, 0.021041870117188, -0.026748657226562, 0.073974609375000, 0.018417358398438, 0.028717041015625, -0.008438110351562, -0.033111572265625, -0.031890869140625, 0.000411987304688, -0.002014160156250, -0.007904052734375, 0.011108398437500, 0.037033081054688, 0.044845581054688, 0.001037597656250, -0.029098510742188, 0.039062500000000, -0.011749267578125, 0.012084960937500, -0.022659301757812, -0.042205810546875, -0.003906250000000, -0.042480468750000, -0.037185668945312, -0.002410888671875, 0.012191772460938, 0.021438598632812, -0.000778198242188, -0.015975952148438, -0.004135131835938, 0.018890380859375, 0.007965087890625, -0.024368286132812, -0.035995483398438, -0.005569458007812, 0.010070800781250, 0.004531860351562, 0.011245727539062, -0.025238037109375, -0.014160156250000, 0.004852294921875, -0.005599975585938, -0.033111572265625, -0.017822265625000, -0.018951416015625, -0.001312255859375, -0.011993408203125, 0.021423339843750, 0.017532348632812, -0.041488647460938, -0.004287719726562, -0.018157958984375, -0.036605834960938, -0.020202636718750, -0.027023315429688, -0.036849975585938, -0.035797119140625, -0.041229248046875, -0.031356811523438, 0.011901855468750, -0.049652099609375, 0.021408081054688, -0.036285400390625, -0.042694091796875, -0.016159057617188, 0.041305541992188, -0.041320800781250, -0.051254272460938, -0.087707519531250, 0.013473510742188, 0.027420043945312, 0.009140014648438, 0.025375366210938, -0.026672363281250, 0.011611938476562, -0.036849975585938, -0.049713134765625, 0.007308959960938, 0.015655517578125, 0.044509887695312, -0.071228027343750, 0.046981811523438, -0.011596679687500, 0.070388793945312, -0.002944946289062, -0.028381347656250, 0.012039184570312, 0.018875122070312, 0.012207031250000, -0.013046264648438, -0.017837524414062, -0.048034667968750, 0.020477294921875, -0.022583007812500, -0.007339477539062, -0.006683349609375, 0.027481079101562, 0.016448974609375, -0.024780273437500, -0.009033203125000, -0.019012451171875, 0.011672973632812, 0.051513671875000, 0.067031860351562, -0.008056640625000, -0.005310058593750, 0.014678955078125, 0.034881591796875, 0.005386352539062, -0.007400512695312, 0.019485473632812, -0.013412475585938, 0.030212402343750, -0.001632690429688, -0.004623413085938, -0.017684936523438, -0.022094726562500, -0.016921997070312, -0.053039550781250, -0.031600952148438, -0.028457641601562, -0.029541015625000, 0.013076782226562, -0.012466430664062, -0.007446289062500, 0.010330200195312, -0.007583618164062, 0.008453369140625, -0.024917602539062, 0.032501220703125, -0.012405395507812, -0.030532836914062, -0.049728393554688, 0.000488281250000, 0.001647949218750, -0.009429931640625, -0.019760131835938, -0.027526855468750, 0.005859375000000, -0.029556274414062, -0.020309448242188, 0.030715942382812, 0.025619506835938, 0.036453247070312, -0.034790039062500, 0.017974853515625, -0.034027099609375, 0.032287597656250, -0.033981323242188, 0.000228881835938, 0.012252807617188, 0.013916015625000, 0.012771606445312, -0.009445190429688, -0.013092041015625, -0.034255981445312, 0.031311035156250, -0.013549804687500, -0.010604858398438, -0.015243530273438, -0.023818969726562, 0.002639770507812, -0.016845703125000, -0.003295898437500, -0.018783569335938, -0.005569458007812, 0.035385131835938, 0.053894042968750, -0.025192260742188, 0.011734008789062, -0.014678955078125, -0.007568359375000, -0.005462646484375, -0.025390625000000, 0.016372680664062, -0.022567749023438, 0.022888183593750, 0.009078979492188, 0.007339477539062, -0.008117675781250, -0.006118774414062, 0.003662109375000, -0.016189575195312, -0.023727416992188, 0.001907348632812, -0.001327514648438, 0.024200439453125, -0.009429931640625, 0.029815673828125, -0.008148193359375, 0.018417358398438, 0.047363281250000, -0.013015747070312, 0.013687133789062, 0.008071899414062, -0.018890380859375, -0.008804321289062, -0.012496948242188, 0.009750366210938, -0.028030395507812, 0.016128540039062, -0.014556884765625, 0.007049560546875, 0.003173828125000, 0.000656127929688, 0.020782470703125, 0.029373168945312, 0.029190063476562, -0.003723144531250, 0.019531250000000, 0.019378662109375, 0.034957885742188, -0.024261474609375, 0.022781372070312, 0.008743286132812, 0.034484863281250, 0.037521362304688, 0.003128051757812, -0.021224975585938, -0.016967773437500, 0.036254882812500, -0.003677368164062, -0.007080078125000, 0.002502441406250, -0.003021240234375, -0.012619018554688, 0.004272460937500, 0.017578125000000, -0.017807006835938, 0.019485473632812, 0.037719726562500, 0.038177490234375, -0.022003173828125, 0.016220092773438, -0.001983642578125, 0.011428833007812, 0.011352539062500, -0.010192871093750, 0.030853271484375, 0.007003784179688, 0.022491455078125, -0.010391235351562, -0.013381958007812, -0.037338256835938, -0.014007568359375, -0.041580200195312, -0.034164428710938, -0.046249389648438, -0.038726806640625, -0.051971435546875, -0.035263061523438, 0.018753051757812, -0.032470703125000, 0.009567260742188, -0.052261352539062, -0.017227172851562, -0.018417358398438, 0.050354003906250, -0.018218994140625, -0.064865112304688, -0.015762329101562, -0.011688232421875, 0.016983032226562, 0.020248413085938, -0.001449584960938, -0.050369262695312, 0.015472412109375, -0.017883300781250, -0.033828735351562, -0.005386352539062, 0.019042968750000, 0.062316894531250, -0.019607543945312, 0.042907714843750, -0.017623901367188, 0.036941528320312, -0.001678466796875, -0.015869140625000, 0.009353637695312, 0.029006958007812, 0.008346557617188, -0.007186889648438, -0.001068115234375, -0.039382934570312, 0.013595581054688, -0.023010253906250, -0.009963989257812, -0.023040771484375, 0.000152587890625, 0.011352539062500, -0.040039062500000, -0.034530639648438, -0.035400390625000, 0.003982543945312, 0.057189941406250, 0.074707031250000, -0.010055541992188, -0.002838134765625, -0.007583618164062, 0.017501831054688, 0.020584106445312, -0.019927978515625, 0.013809204101562, -0.010818481445312, 0.021682739257812, 0.019546508789062, -0.028121948242188, -0.028381347656250, 0.006286621093750, -0.031555175781250, -0.049606323242188, -0.049484252929688, -0.025009155273438, -0.043594360351562, 0.000228881835938, -0.032867431640625, 0.008651733398438, -0.032760620117188, -0.020919799804688, -0.000793457031250, -0.007934570312500, 0.008712768554688, 0.008468627929688, -0.036193847656250, 0.003128051757812, -0.020889282226562, -0.055541992187500, 0.005432128906250, -0.017700195312500, -0.036682128906250, -0.005950927734375, -0.003326416015625, -0.015579223632812, 0.015930175781250, 0.034332275390625, 0.008041381835938, 0.013412475585938, 0.028457641601562, -0.016128540039062, 0.007568359375000, -0.041549682617188, -0.002822875976562, -0.048156738281250, -0.006286621093750, 0.016052246093750, 0.008438110351562, 0.006912231445312, -0.059204101562500, 0.022232055664062, -0.013931274414062, -0.005508422851562, -0.058547973632812, -0.029083251953125, -0.032852172851562, -0.035690307617188, -0.007049560546875, -0.030166625976562, -0.005157470703125, 0.011749267578125, -0.001281738281250, -0.035614013671875, -0.021514892578125, -0.023101806640625, -0.021697998046875, -0.012969970703125, -0.051513671875000, -0.007354736328125, 0.001480102539062, 0.003234863281250, 0.000610351562500, -0.026458740234375, -0.049758911132812, 0.006378173828125, -0.030380249023438, -0.031982421875000, -0.044174194335938, -0.012664794921875, -0.033950805664062, -0.016845703125000, -0.017578125000000, -0.000228881835938, -0.026809692382812, -0.020370483398438, 0.007019042968750, 0.001342773437500, 0.014053344726562, 0.004974365234375, -0.048187255859375, -0.000381469726562, -0.028305053710938, 0.001754760742188, -0.026611328125000, -0.005386352539062, -0.042953491210938, -0.019317626953125, 0.005661010742188, 0.000762939453125, 0.037094116210938, 0.027404785156250, 0.030349731445312, 0.012008666992188, 0.017318725585938, -0.001464843750000, 0.018508911132812, -0.035614013671875, -0.008636474609375, -0.021240234375000, 0.027038574218750, 0.020645141601562, 0.008148193359375, -0.033142089843750, -0.029327392578125, 0.020782470703125, -0.033309936523438, -0.031814575195312, -0.012527465820312, 0.011459350585938, -0.027755737304688, -0.035903930664062, -0.011108398437500, -0.013107299804688, 0.007797241210938, 0.026336669921875, 0.019607543945312, -0.027435302734375, 0.016174316406250, -0.029022216796875, 0.005249023437500, 0.009994506835938, -0.050933837890625, -0.009765625000000, 0.021331787109375, 0.054046630859375, 0.033798217773438, 0.020858764648438, 0.001937866210938, 0.019104003906250, -0.011718750000000, 0.000320434570312, 0.008880615234375, 0.008056640625000, -0.001266479492188, -0.002243041992188, 0.008911132812500, 0.021087646484375, 0.005737304687500, 0.013534545898438, 0.030853271484375, -0.019683837890625, 0.028335571289062, 0.029907226562500, 0.004379272460938, 0.026504516601562, -0.002639770507812, -0.000457763671875, 0.013473510742188, 0.011825561523438, 0.005416870117188, 0.037216186523438, -0.010208129882812, 0.008392333984375, 0.016998291015625, 0.016845703125000, 0.018600463867188, 0.022140502929688, 0.036849975585938, 0.000808715820312, 0.029800415039062, -0.015533447265625, 0.017547607421875, -0.003753662109375, 0.033767700195312, 0.017501831054688, -0.003265380859375, 0.009399414062500, 0.001434326171875, 0.026657104492188, 0.013336181640625, -0.015472412109375, -0.013214111328125, 0.005920410156250, 0.005249023437500, -0.000427246093750, 0.019134521484375, -0.008270263671875, 0.017471313476562, 0.023117065429688, 0.027343750000000, -0.002639770507812, 0.006500244140625, -0.001525878906250, 0.003463745117188, 0.016876220703125, -0.017654418945312, -0.005935668945312, 0.031127929687500, 0.035232543945312, 0.037582397460938, 0.012680053710938, -0.005249023437500, 0.040786743164062, -0.017730712890625, 0.001724243164062, -0.005584716796875, 0.013290405273438, 0.000885009765625, 0.033462524414062, 0.002670288085938, 0.049743652343750, -0.002990722656250, 0.028350830078125, 0.031173706054688, -0.002761840820312, 0.020538330078125, 0.028091430664062, -0.007324218750000, 0.039733886718750, 0.007171630859375, -0.023056030273438, -0.041351318359375, 0.008499145507812, -0.001800537109375, 0.021331787109375, 0.003601074218750, 0.031814575195312, 0.000457763671875, 0.044158935546875, -0.002990722656250, 0.020416259765625, 0.020690917968750, 0.002380371093750, 0.004409790039062, -0.038787841796875, 0.003097534179688, -0.021347045898438, 0.010299682617188, 0.028762817382812, -0.001388549804688, -0.009262084960938, -0.015151977539062, 0.020477294921875, 0.010803222656250, -0.016998291015625, -0.017578125000000, -0.014465332031250, -0.003097534179688, 0.006240844726562, 0.041168212890625, -0.000061035156250, 0.003585815429688, 0.026489257812500, 0.005691528320312, -0.004074096679688, 0.006362915039062, -0.047195434570312, 0.001876831054688, -0.015640258789062, -0.012115478515625, 0.001968383789062, 0.033889770507812, -0.001205444335938, 0.023162841796875, 0.027145385742188, -0.012344360351562, 0.018280029296875, -0.006347656250000, -0.013351440429688, -0.017486572265625, -0.006393432617188, 0.000854492187500, 0.003173828125000, 0.004135131835938, 0.025207519531250, 0.005874633789062, 0.001403808593750, 0.015411376953125, -0.002777099609375, 0.017745971679688, 0.014739990234375, -0.007843017578125, 0.007827758789062, -0.000274658203125, -0.013687133789062, -0.036911010742188, 0.013153076171875, -0.008560180664062, 0.014251708984375, -0.006500244140625, 0.026885986328125, 0.012084960937500, 0.027755737304688, 0.016845703125000, -0.001327514648438, 0.022308349609375, 0.004226684570312, 0.017349243164062, -0.013793945312500, -0.004684448242188, -0.005752563476562, 0.026016235351562, 0.029067993164062, 0.014877319335938, -0.020538330078125, -0.000640869140625, 0.014572143554688, -0.009399414062500, -0.016433715820312, 0.011642456054688, 0.022521972656250, -0.006347656250000, 0.016586303710938, 0.021820068359375, 0.007202148437500, 0.019088745117188, 0.005950927734375, 0.023101806640625, -0.008377075195312, 0.020736694335938, -0.010360717773438, -0.003784179687500, -0.013900756835938, -0.013626098632812, 0.000228881835938, 0.014556884765625, 0.002151489257812, -0.013778686523438, -0.013381958007812, -0.009552001953125, 0.024414062500000, -0.004913330078125, 0.006210327148438, -0.003936767578125, -0.008255004882812, 0.006469726562500, 0.006805419921875, -0.004318237304688, -0.005538940429688, -0.017578125000000, -0.025177001953125, -0.018402099609375, -0.001892089843750, 0.000793457031250, -0.016738891601562, -0.009399414062500, 0.008560180664062, 0.023223876953125, 0.001159667968750, -0.031372070312500, 0.004180908203125, -0.011047363281250, 0.008712768554688, -0.007614135742188, -0.004989624023438, 0.027389526367188, -0.020645141601562, -0.008621215820312, 0.024978637695312, -0.004745483398438, 0.008010864257812, 0.013946533203125, -0.008895874023438, 0.000732421875000, 0.003356933593750, 0.014205932617188, -0.010086059570312, 0.002487182617188, 0.010528564453125, 0.018020629882812, -0.013839721679688, -0.007339477539062, 0.013458251953125, 0.013504028320312, -0.009140014648438, -0.001022338867188, -0.033203125000000, -0.008361816406250, -0.004364013671875, -0.003295898437500, 0.002380371093750, -0.005508422851562, -0.023529052734375, 0.005081176757812, -0.017089843750000, -0.010116577148438, -0.013229370117188, 0.001632690429688, -0.004653930664062, 0.009048461914062, -0.012695312500000, -0.014648437500000, -0.019775390625000, -0.003189086914062, 0.002929687500000, -0.005920410156250, -0.022888183593750, -0.030761718750000, -0.000411987304688, -0.013732910156250, -0.006881713867188, -0.016235351562500, -0.026184082031250, -0.018157958984375, -0.012634277343750, -0.012390136718750, -0.009704589843750, -0.010375976562500, -0.003677368164062, -0.017471313476562, -0.045639038085938, -0.007843017578125, -0.012420654296875, -0.030059814453125, -0.017120361328125, -0.014083862304688, -0.012954711914062, -0.015731811523438, -0.031173706054688, 0.022857666015625, -0.027740478515625, -0.012542724609375, -0.017715454101562, -0.010757446289062, -0.007019042968750, -0.004730224609375, 0.006759643554688, -0.005325317382812, -0.012802124023438, -0.009521484375000, -0.020675659179688, -0.003112792968750, -0.001998901367188, -0.014373779296875, -0.024169921875000, -0.005966186523438, 0.016159057617188, 0.004653930664062, 0.008666992187500, -0.007537841796875, -0.020706176757812, -0.021759033203125, -0.032028198242188, -0.016967773437500, -0.004302978515625, -0.003356933593750, -0.023590087890625, -0.013519287109375, -0.010040283203125, -0.002731323242188, -0.011917114257812, 0.002426147460938, 0.001602172851562, 0.019866943359375, -0.011062622070312, -0.039962768554688, -0.016052246093750, -0.010360717773438, -0.002792358398438, 0.001174926757812, -0.021789550781250, -0.013488769531250, 0.011215209960938, -0.009384155273438, -0.000396728515625, -0.010330200195312, -0.035705566406250, -0.032714843750000, 0.010375976562500, 0.010162353515625, -0.009216308593750, 0.002365112304688, -0.020751953125000, -0.026351928710938, -0.005630493164062, -0.013580322265625, -0.010208129882812, -0.035049438476562, -0.018142700195312, -0.006835937500000, 0.006668090820312, -0.001037597656250, -0.025054931640625, 0.042785644531250, -0.013824462890625, 0.013702392578125, -0.020217895507812, 0.003829956054688, -0.001464843750000, 0.000320434570312, 0.013977050781250, 0.005264282226562, -0.012649536132812, -0.010101318359375, -0.010742187500000, 0.000076293945312, 0.004119873046875, -0.012710571289062, -0.011550903320312, 0.011734008789062, -0.006668090820312, -0.009231567382812, -0.010879516601562, 0.005615234375000, -0.019653320312500, -0.005142211914062, -0.000564575195312, 0.010894775390625, 0.008514404296875, 0.008468627929688, -0.029998779296875, -0.033798217773438, -0.018508911132812, -0.014312744140625, -0.032211303710938, -0.002975463867188, -0.018692016601562, 0.010910034179688, -0.006011962890625, -0.041961669921875, -0.030899047851562, -0.003967285156250, -0.069442749023438, -0.009429931640625, -0.009674072265625, -0.034637451171875, -0.001739501953125, -0.000259399414062, -0.030059814453125, -0.008987426757812, -0.023513793945312, -0.032318115234375, -0.013000488281250, -0.032302856445312, -0.020431518554688, -0.025955200195312, -0.061370849609375, -0.005783081054688, -0.010192871093750, -0.024185180664062, -0.009796142578125, -0.038742065429688, -0.027740478515625, -0.005599975585938, -0.017623901367188, -0.016159057617188, -0.024230957031250, 0.006332397460938, 0.002700805664062, -0.012588500976562, -0.014495849609375, -0.015075683593750, -0.032058715820312, 0.002380371093750, 0.001449584960938, -0.011352539062500, 0.003402709960938, -0.015289306640625, -0.014236450195312, -0.007690429687500, -0.027984619140625, 0.007369995117188, -0.020935058593750, -0.006210327148438, 0.002044677734375, -0.011703491210938, -0.023010253906250, -0.014648437500000, -0.002441406250000, 0.006576538085938, -0.022994995117188, -0.024002075195312, -0.008834838867188, -0.003494262695312, -0.027236938476562, -0.008789062500000, -0.016632080078125, -0.019088745117188, -0.013610839843750, -0.007186889648438, -0.010620117187500, -0.006088256835938, -0.061172485351562, -0.072418212890625, -0.044387817382812, -0.025390625000000, -0.043151855468750, -0.016433715820312, -0.042175292968750, -0.037811279296875, -0.028579711914062, -0.035934448242188, -0.054946899414062, -0.010559082031250, -0.058486938476562, -0.023849487304688, -0.032409667968750, -0.063507080078125, -0.032516479492188, -0.024261474609375, -0.086135864257812, -0.031539916992188, -0.072433471679688, 0.010650634765625, -0.005935668945312, -0.012725830078125, -0.038238525390625, -0.016555786132812, -0.025878906250000, -0.037582397460938, -0.058013916015625, 0.003601074218750, -0.021011352539062, -0.022644042968750, -0.064071655273438, -0.029708862304688, -0.043121337890625, -0.011947631835938, 0.003097534179688, -0.051879882812500, -0.024475097656250, -0.020050048828125, -0.026214599609375, -0.011779785156250, -0.058044433593750, -0.030578613281250, -0.027633666992188, -0.032821655273438, -0.024597167968750, -0.042922973632812, 0.000320434570312, -0.012664794921875, -0.044433593750000, -0.021713256835938, -0.030151367187500, -0.012054443359375, -0.011749267578125, -0.001876831054688, -0.032104492187500, -0.016891479492188, -0.019470214843750, -0.015762329101562, -0.027359008789062, -0.029586791992188, -0.017715454101562, 0.000717163085938, -0.019180297851562, -0.023132324218750, -0.051956176757812, -0.014770507812500, -0.034362792968750, -0.014724731445312, -0.037612915039062, -0.037872314453125, -0.025375366210938, -0.025939941406250, -0.023681640625000, -0.021347045898438, -0.023895263671875, -0.013107299804688, -0.009429931640625, -0.025527954101562, -0.028701782226562, -0.006912231445312, -0.033737182617188, -0.019943237304688, -0.039459228515625, 0.008239746093750, -0.012191772460938, -0.022964477539062, -0.028564453125000, -0.007781982421875, -0.024475097656250, -0.020782470703125, -0.004302978515625, 0.020935058593750, -0.011993408203125, 0.013702392578125, -0.017807006835938, -0.007843017578125, -0.036529541015625, 0.003723144531250, -0.009368896484375, -0.007049560546875, -0.017074584960938, -0.012100219726562, -0.005447387695312, -0.028488159179688, -0.030166625976562, -0.021438598632812, -0.006958007812500, 0.009140014648438, -0.039108276367188, -0.030014038085938, -0.021606445312500, -0.021423339843750, -0.011001586914062, -0.008041381835938, -0.038116455078125, -0.015457153320312, 0.003906250000000, 0.009811401367188, -0.017791748046875, -0.017822265625000, -0.017654418945312, -0.011611938476562, -0.020385742187500, -0.015106201171875, -0.010848999023438, -0.015045166015625, -0.002929687500000, 0.003570556640625, -0.010345458984375, 0.013931274414062, 0.008316040039062, -0.000854492187500, 0.009536743164062, 0.007995605468750, -0.009994506835938, -0.003494262695312, -0.000976562500000, 0.005584716796875, 0.026489257812500, -0.002777099609375, 0.011367797851562, -0.005050659179688, -0.010437011718750, 0.004470825195312, -0.023086547851562, -0.000823974609375, -0.000823974609375, 0.127182006835938, 0.004913330078125, -0.006591796875000, -0.001907348632812, -0.003250122070312, -0.002456665039062, -0.011154174804688, -0.000442504882812, 0.027267456054688, -0.032272338867188, 0.017761230468750, -0.001647949218750, -0.009017944335938, -0.013290405273438, 0.008758544921875, 0.016815185546875, -0.005325317382812, 0.019424438476562, 0.025329589843750, -0.023101806640625, 0.015853881835938, -0.013473510742188, 0.008377075195312, -0.038391113281250, -0.017440795898438, -0.011062622070312, -0.008422851562500, -0.008682250976562, -0.025451660156250, 0.009155273437500, -0.004211425781250, -0.014968872070312, -0.007186889648438, -0.017379760742188, -0.010635375976562, -0.039794921875000, -0.004089355468750, -0.010391235351562, 0.001296997070312, -0.001098632812500, -0.004135131835938, 0.001251220703125, 0.043273925781250, -0.036880493164062, -0.028884887695312, -0.017623901367188, -0.018447875976562, 0.019287109375000, -0.032180786132812, -0.024108886718750, -0.000305175781250, -0.023941040039062, -0.027450561523438, -0.031066894531250, -0.028411865234375, -0.019134521484375, -0.023910522460938, -0.020523071289062, -0.024597167968750, -0.008666992187500, -0.015274047851562, -0.035217285156250, -0.032714843750000, -0.081909179687500, 0.108261108398438, -0.021804809570312, -0.027664184570312, -0.022979736328125, -0.037384033203125, -0.029617309570312, -0.014022827148438, -0.017135620117188, 0.014312744140625, -0.036117553710938, -0.002990722656250, -0.014022827148438, -0.007965087890625, -0.020965576171875, -0.006118774414062, 0.005020141601562, -0.005264282226562, -0.017486572265625, 0.019592285156250, -0.008850097656250, 0.022979736328125, -0.029022216796875, -0.003631591796875, -0.009490966796875, -0.019241333007812, -0.003540039062500, -0.004623413085938, 0.010391235351562, -0.021087646484375, -0.011306762695312, -0.035858154296875, -0.017272949218750, -0.011016845703125, -0.012359619140625, -0.015777587890625, -0.033721923828125, -0.021804809570312, -0.004043579101562, -0.013916015625000, -0.010498046875000, 0.000762939453125, -0.000747680664062, 0.056640625000000, 0.008941650390625, -0.012512207031250, -0.027877807617188, -0.009536743164062, 0.022094726562500, -0.018096923828125, -0.018203735351562, 0.003189086914062, 0.007034301757812, -0.014999389648438, -0.012344360351562, -0.030303955078125, 0.016616821289062, -0.033782958984375, 0.004547119140625, -0.002899169921875, -0.020141601562500, -0.006149291992188, -0.045364379882812, -0.020401000976562, -0.010772705078125, 0.088973999023438, -0.023742675781250, -0.021102905273438, -0.034866333007812, -0.019454956054688, -0.023895263671875, 0.001358032226562, -0.013229370117188, 0.007736206054688, -0.011398315429688, -0.008453369140625, 0.011672973632812, -0.006088256835938, -0.014404296875000, -0.007049560546875, -0.040527343750000, 0.012847900390625, -0.010452270507812, -0.003646850585938, -0.021331787109375, 0.016662597656250, -0.022933959960938, -0.004577636718750, -0.026062011718750, 0.009277343750000, -0.027236938476562, -0.036178588867188, -0.019256591796875, -0.016891479492188, -0.013046264648438, -0.039642333984375, -0.004623413085938, -0.007583618164062, -0.020401000976562, -0.011947631835938, -0.074310302734375, -0.011672973632812, -0.043212890625000, -0.022140502929688, -0.022094726562500, -0.026687622070312, -0.033279418945312, 0.047424316406250, -0.013931274414062, 0.023117065429688, 0.005035400390625, 0.001586914062500, 0.035736083984375, -0.023422241210938, 0.008224487304688, 0.003433227539062, -0.008560180664062, -0.016479492187500, -0.012863159179688, -0.002334594726562, 0.022018432617188, -0.001449584960938, -0.021041870117188, 0.003768920898438, -0.007476806640625, -0.008468627929688, -0.004821777343750, -0.000427246093750, -0.003280639648438, 0.031890869140625, 0.003555297851562, 0.006790161132812, -0.014617919921875, -0.008193969726562, -0.004684448242188, -0.011718750000000, -0.021636962890625, -0.011413574218750, -0.011764526367188, -0.006423950195312, 0.028549194335938, 0.001815795898438, -0.040435791015625, -0.002670288085938, 0.006500244140625, -0.012634277343750, 0.012298583984375, -0.008209228515625, -0.009933471679688, -0.016693115234375, -0.019287109375000, -0.019378662109375, -0.020996093750000, -0.008712768554688, -0.007675170898438, -0.010375976562500, 0.001541137695312, -0.017868041992188, -0.003601074218750, 0.012191772460938, -0.007125854492188, 0.004165649414062, -0.001449584960938, -0.016754150390625, -0.026718139648438, -0.017257690429688, 0.005996704101562, -0.025161743164062, -0.008148193359375, 0.000549316406250, 0.000518798828125, 0.026809692382812, 0.006729125976562, 0.043319702148438, 0.009948730468750, -0.004455566406250, 0.011688232421875, 0.004516601562500, -0.013641357421875, 0.014236450195312, 0.016387939453125, 0.006149291992188, 0.009124755859375, 0.003265380859375, 0.045913696289062, 0.007385253906250, 0.007522583007812, 0.003189086914062, -0.006698608398438, 0.000244140625000, 0.022613525390625, 0.006668090820312, 0.015701293945312, 0.017303466796875, -0.002883911132812, 0.017089843750000, 0.011856079101562, 0.002639770507812, 0.012802124023438, 0.000411987304688, -0.002975463867188, -0.010589599609375, -0.026077270507812, 0.005981445312500, 0.027465820312500, -0.013198852539062, -0.020568847656250, 0.000305175781250, 0.019500732421875, 0.012863159179688, -0.003952026367188, -0.011199951171875, -0.008422851562500, -0.028808593750000, -0.001556396484375, -0.011077880859375, -0.014221191406250, 0.012344360351562, -0.009460449218750, 0.000778198242188, 0.033706665039062, 0.015228271484375, 0.001770019531250, 0.040649414062500, 0.005233764648438, 0.000457763671875, -0.023040771484375, 0.004196166992188, -0.000671386718750, -0.004180908203125, -0.017364501953125, -0.016098022460938, -0.000640869140625, -0.000640869140625, -0.000900268554688, 0.008850097656250, -0.011245727539062, 0.061904907226562, 0.012268066406250, 0.008575439453125, 0.033554077148438, -0.012145996093750, -0.024963378906250, 0.018981933593750, 0.005065917968750, -0.001922607421875, -0.006134033203125, -0.011047363281250, 0.056777954101562, -0.004699707031250, 0.006179809570312, 0.018264770507812, -0.013488769531250, -0.011611938476562, 0.012954711914062, 0.002777099609375, 0.042190551757812, 0.012176513671875, -0.026062011718750, 0.005203247070312, -0.007980346679688, -0.021286010742188, 0.003341674804688, -0.012161254882812, 0.005325317382812, -0.031936645507812, -0.040786743164062, -0.008102416992188, 0.029663085937500, -0.027832031250000, -0.034759521484375, -0.025588989257812, 0.027572631835938, -0.002059936523438, -0.008911132812500, -0.023223876953125, -0.033691406250000, -0.038513183593750, -0.016510009765625, -0.007934570312500, -0.021652221679688, -0.008605957031250, -0.002670288085938, -0.004409790039062, -0.009872436523438, -0.012145996093750, 0.016372680664062, 0.014801025390625, -0.010726928710938, 0.005401611328125, -0.016967773437500, -0.023590087890625, -0.025497436523438, -0.013549804687500, -0.003524780273438, -0.025451660156250, -0.005096435546875, 0.006439208984375, 0.001892089843750, 0.027404785156250, 0.042861938476562, 0.042083740234375, 0.031295776367188, 0.001647949218750, 0.044448852539062, 0.008438110351562, 0.003341674804688, 0.010177612304688, 0.004745483398438, 0.011322021484375, 0.011428833007812, 0.011123657226562, 0.016571044921875, 0.023040771484375, 0.030014038085938, 0.034576416015625, -0.016983032226562, 0.015243530273438, 0.034820556640625, 0.020904541015625, 0.035949707031250, -0.006301879882812, -0.003768920898438, -0.018203735351562, 0.028549194335938, -0.010696411132812, 0.027801513671875, -0.030792236328125, 0.018890380859375, -0.009063720703125, -0.022460937500000, 0.000274658203125, 0.031860351562500, 0.030242919921875, -0.008712768554688, 0.025131225585938, -0.049530029296875, 0.017684936523438, -0.001693725585938, 0.021423339843750, -0.020797729492188, -0.010070800781250, 0.008850097656250, 0.022384643554688, -0.000762939453125, 0.025817871093750, 0.008132934570312, 0.009124755859375, 0.008026123046875, -0.019775390625000, 0.023101806640625, 0.056961059570312, 0.012680053710938, 0.031524658203125, 0.007461547851562, 0.015747070312500, 0.013565063476562, -0.039993286132812, -0.011840820312500, 0.011184692382812, -0.003067016601562, -0.016357421875000, 0.008087158203125, -0.015243530273438, 0.031341552734375, 0.031585693359375, 0.060943603515625, 0.018905639648438, 0.005126953125000, 0.005859375000000, -0.031845092773438, 0.033096313476562, 0.014205932617188, 0.008865356445312, 0.028701782226562, 0.017425537109375, -0.019638061523438, 0.025497436523438, 0.028488159179688, 0.023330688476562, -0.030426025390625, 0.032516479492188, 0.010360717773438, 0.024780273437500, 0.011917114257812, -0.014526367187500, 0.005935668945312, 0.004043579101562, 0.036102294921875, -0.006652832031250, 0.035064697265625, -0.048675537109375, -0.010742187500000, -0.001052856445312, -0.044967651367188, 0.018142700195312, 0.007095336914062, 0.014358520507812, -0.027252197265625, 0.027114868164062, -0.020401000976562, 0.017257690429688, -0.019317626953125, 0.018554687500000, -0.038299560546875, -0.026947021484375, -0.004714965820312, 0.012573242187500, -0.016128540039062, -0.000457763671875, 0.000244140625000, 0.037231445312500, 0.012786865234375, -0.004104614257812, 0.036209106445312, 0.054809570312500, 0.001052856445312, 0.045394897460938, 0.008300781250000, 0.003356933593750, 0.006591796875000, -0.051040649414062, 0.013885498046875, 0.013458251953125, 0.009567260742188, 0.015930175781250, -0.001419067382812, -0.017044067382812, 0.055267333984375, 0.070968627929688, 0.053390502929688, 0.009704589843750, 0.012588500976562, 0.023300170898438, -0.007141113281250, 0.046020507812500, 0.040649414062500, 0.020797729492188, 0.044281005859375, 0.007339477539062, 0.014770507812500, 0.000167846679688, 0.044326782226562, 0.043426513671875, -0.014526367187500, 0.005630493164062, 0.035003662109375, 0.050170898437500, 0.029891967773438, 0.028442382812500, -0.036254882812500, -0.022964477539062, -0.003341674804688, 0.005828857421875, 0.028671264648438, -0.032379150390625, 0.028747558593750, 0.009124755859375, -0.039703369140625, -0.009017944335938, 0.016525268554688, -0.022552490234375, -0.020019531250000, 0.002777099609375, -0.030059814453125, 0.008285522460938, -0.029006958007812, -0.000396728515625, -0.038894653320312, -0.049804687500000, 0.013153076171875, 0.019241333007812, -0.025100708007812, 0.031204223632812, -0.003570556640625, 0.021804809570312, -0.013076782226562, -0.008224487304688, 0.013473510742188, 0.045654296875000, -0.005645751953125, 0.024475097656250, -0.002258300781250, 0.007034301757812, 0.006942749023438, -0.034942626953125, -0.000579833984375, -0.011749267578125, -0.015441894531250, -0.006347656250000, -0.006362915039062, -0.001449584960938, 0.023742675781250, 0.089675903320312, 0.018508911132812, 0.038833618164062, 0.029479980468750, 0.039840698242188, 0.011917114257812, 0.012924194335938, 0.029861450195312, 0.014434814453125, 0.046554565429688, 0.004745483398438, 0.058837890625000, 0.018508911132812, 0.032730102539062, 0.036117553710938, -0.003753662109375, 0.023376464843750, 0.067092895507812, 0.039779663085938, 0.111282348632812, -0.039886474609375, 0.006469726562500, -0.004165649414062, 0.038085937500000, 0.016632080078125, 0.031082153320312, -0.030227661132812, 0.042526245117188, -0.041519165039062, -0.043594360351562, 0.014282226562500, 0.053329467773438, 0.024291992187500, 0.005523681640625, 0.008666992187500, -0.060806274414062, 0.013977050781250, 0.002670288085938, -0.007324218750000, -0.010879516601562, -0.035552978515625, -0.011657714843750, 0.031433105468750, -0.010757446289062, 0.049911499023438, -0.001281738281250, -0.026428222656250, -0.013580322265625, 0.006591796875000, 0.013381958007812, 0.026596069335938, 0.013076782226562, 0.028793334960938, 0.004028320312500, 0.041442871093750, 0.033050537109375, -0.030059814453125, -0.009918212890625, 0.016220092773438, 0.010452270507812, 0.005828857421875, 0.002700805664062, -0.015609741210938, 0.011581420898438, 0.043502807617188, 0.046508789062500, 0.022018432617188, 0.022994995117188, 0.029037475585938, 0.020095825195312, -0.004516601562500, 0.004501342773438, 0.021163940429688, 0.027770996093750, 0.017364501953125, 0.028915405273438, 0.006683349609375, 0.037017822265625, 0.056106567382812, -0.007797241210938, 0.024185180664062, 0.049087524414062, 0.022766113281250, 0.052352905273438, -0.055740356445312, -0.011672973632812, -0.020629882812500, 0.021575927734375, 0.015625000000000, 0.025711059570312, -0.030059814453125, 0.005691528320312, -0.010177612304688, -0.035644531250000, 0.017898559570312, 0.025283813476562, 0.018249511718750, -0.009704589843750, 0.021316528320312, -0.044815063476562, 0.004608154296875, -0.003158569335938, -0.001632690429688, -0.028686523437500, -0.002426147460938, 0.034561157226562, 0.036987304687500, -0.028686523437500, 0.015472412109375, -0.002349853515625, -0.007110595703125, 0.001953125000000, 0.005126953125000, 0.009643554687500, 0.022079467773438, 0.006317138671875, 0.041503906250000, 0.014862060546875, 0.029251098632812, 0.049621582031250, -0.026199340820312, -0.002868652343750, 0.009506225585938, 0.000549316406250, -0.000030517578125, -0.002182006835938, 