//Numpy array shape [128, 128]
//Min -1.874267578125
//Max 1.705734252930
//Number of zeros 0

#ifndef W7_H_
#define W7_H_

#ifndef __SYNTHESIS__
weight7_t w7[16384];
#else
weight7_t w7[16384] = {0.010437011718750, -0.001113891601562, -0.002120971679688, 0.016189575195312, 0.008132934570312, -0.013793945312500, -0.006286621093750, 0.008087158203125, 0.020202636718750, 0.009918212890625, -0.003448486328125, -0.012893676757812, 0.002777099609375, -0.007369995117188, 0.002288818359375, -0.003204345703125, 0.001358032226562, 0.004928588867188, -0.021041870117188, -0.002212524414062, 0.004638671875000, -0.005859375000000, -0.020172119140625, -0.010208129882812, -0.007186889648438, 0.001831054687500, -0.009490966796875, -0.021987915039062, 0.000000000000000, -0.004470825195312, -0.017913818359375, -0.005035400390625, -0.002273559570312, -0.008529663085938, -0.027038574218750, 0.007980346679688, -0.013381958007812, -0.008941650390625, 0.005310058593750, -0.007110595703125, 0.001144409179688, -0.003280639648438, -0.022537231445312, -0.006088256835938, -0.010787963867188, -0.002593994140625, -0.001327514648438, 0.004821777343750, 0.001556396484375, 0.005035400390625, -0.003143310546875, -0.022811889648438, -0.003982543945312, -0.009552001953125, -0.001159667968750, -0.001434326171875, -0.017379760742188, 0.016616821289062, -0.009216308593750, -0.005630493164062, -0.012084960937500, -0.008712768554688, -0.007507324218750, -0.001068115234375, -0.002410888671875, -0.004684448242188, -0.018692016601562, -0.005447387695312, -0.003234863281250, -0.002944946289062, -0.004745483398438, -0.008712768554688, 0.004730224609375, -0.002853393554688, -0.008819580078125, 0.000152587890625, -0.013442993164062, -0.000762939453125, 0.022384643554688, -0.004028320312500, -0.005676269531250, 0.003906250000000, -0.005432128906250, 0.007186889648438, 0.013549804687500, -0.006118774414062, -0.015121459960938, -0.015411376953125, 0.004150390625000, -0.004989624023438, 0.009475708007812, 0.004852294921875, 0.000701904296875, -0.004974365234375, 0.003631591796875, -0.002548217773438, 0.009338378906250, -0.021789550781250, 0.003265380859375, -0.002853393554688, 0.006912231445312, -0.009841918945312, -0.003448486328125, -0.002258300781250, -0.012191772460938, -0.003036499023438, 0.001663208007812, 0.008178710937500, -0.014236450195312, -0.008911132812500, -0.005706787109375, 0.006088256835938, 0.001266479492188, -0.013015747070312, -0.010910034179688, -0.016128540039062, -0.019287109375000, -0.012130737304688, -0.006134033203125, -0.006973266601562, -0.014114379882812, 0.004257202148438, -0.018981933593750, -0.002014160156250, 0.001571655273438, -0.001815795898438, 0.008453369140625, -0.013412475585938, 0.046615600585938, 0.011657714843750, -0.011596679687500, -0.003097534179688, 0.034729003906250, -0.004486083984375, -0.001846313476562, 0.005142211914062, 0.076370239257812, -0.008865356445312, -0.003784179687500, -0.000488281250000, -0.010818481445312, -0.010437011718750, -0.013168334960938, 0.026885986328125, 0.003601074218750, -0.003646850585938, -0.034194946289062, -0.002243041992188, -0.004028320312500, -0.010345458984375, 0.004226684570312, 0.006103515625000, -0.008590698242188, 0.013702392578125, 0.023208618164062, -0.023971557617188, -0.008514404296875, 0.004165649414062, -0.002471923828125, -0.020462036132812, -0.022018432617188, -0.012664794921875, -0.009185791015625, -0.000274658203125, -0.001510620117188, -0.003372192382812, -0.007064819335938, 0.002883911132812, -0.001693725585938, -0.017318725585938, -0.029602050781250, -0.003158569335938, -0.007095336914062, -0.006393432617188, 0.045196533203125, -0.005554199218750, 0.003326416015625, -0.022903442382812, 0.001068115234375, -0.023925781250000, -0.006088256835938, 0.004013061523438, 0.008636474609375, -0.001266479492188, -0.010894775390625, -0.005187988281250, 0.001388549804688, 0.005065917968750, -0.004577636718750, -0.022445678710938, 0.003280639648438, -0.028533935546875, 0.001541137695312, -0.013641357421875, 0.010299682617188, -0.002243041992188, 0.059494018554688, -0.006790161132812, 0.006790161132812, -0.015716552734375, 0.013336181640625, 0.011245727539062, 0.014389038085938, -0.008575439453125, 0.002075195312500, -0.008972167968750, 0.016983032226562, -0.023788452148438, -0.016769409179688, 0.014816284179688, 0.014434814453125, -0.013076782226562, -0.013504028320312, -0.003265380859375, -0.018218994140625, 0.003662109375000, 0.016311645507812, -0.001449584960938, -0.001663208007812, -0.007278442382812, -0.009429931640625, 0.019515991210938, 0.005645751953125, 0.001770019531250, 0.001556396484375, -0.020889282226562, 0.006439208984375, -0.003067016601562, 0.003250122070312, 0.034545898437500, 0.012145996093750, -0.000991821289062, -0.002014160156250, 0.062164306640625, 0.021759033203125, -0.003967285156250, -0.004638671875000, -0.023895263671875, 0.001663208007812, -0.013031005859375, 0.004577636718750, -0.023422241210938, -0.016525268554688, -0.004043579101562, 0.002487182617188, -0.003646850585938, 0.004928588867188, 0.012298583984375, 0.000015258789062, -0.002517700195312, -0.001617431640625, 0.003677368164062, -0.001266479492188, 0.003707885742188, -0.012939453125000, -0.017654418945312, -0.092559814453125, 0.023880004882812, 0.001388549804688, -0.008575439453125, -0.035888671875000, 0.000427246093750, -0.027221679687500, -0.012756347656250, -0.161895751953125, 0.003585815429688, 0.018142700195312, 0.010452270507812, 0.002410888671875, -0.013259887695312, -0.018554687500000, -0.024673461914062, -0.007675170898438, -0.032318115234375, -0.014434814453125, 0.003616333007812, -0.003707885742188, -0.016296386718750, -0.000244140625000, -0.036621093750000, 0.002273559570312, -0.045730590820312, -0.025115966796875, -0.025207519531250, -0.010192871093750, -0.008316040039062, 0.012786865234375, 0.011947631835938, 0.019958496093750, 0.010681152343750, 0.010345458984375, 0.001754760742188, 0.006713867187500, 0.009506225585938, -0.000213623046875, -0.040405273437500, -0.000564575195312, 0.012832641601562, 0.009841918945312, 0.013702392578125, 0.037826538085938, 0.020767211914062, -0.054916381835938, -0.021240234375000, -0.010574340820312, 0.018218994140625, 0.025482177734375, 0.004211425781250, 0.006210327148438, 0.004806518554688, 0.001480102539062, -0.008300781250000, -0.016967773437500, -0.000793457031250, -0.014404296875000, 0.023452758789062, 0.015899658203125, 0.004013061523438, -0.003936767578125, 0.032226562500000, -0.008895874023438, 0.012466430664062, 0.036041259765625, 0.014907836914062, -0.063003540039062, -0.037033081054688, 0.004394531250000, 0.023086547851562, -0.001373291015625, -0.016433715820312, -0.011764526367188, -0.006469726562500, -0.016479492187500, -0.006729125976562, -0.062301635742188, 0.023788452148438, -0.011276245117188, -0.018157958984375, 0.003707885742188, 0.013793945312500, 0.006637573242188, 0.014328002929688, 0.001296997070312, 0.008193969726562, -0.057418823242188, 0.013412475585938, 0.009048461914062, -0.023559570312500, -0.006774902343750, 0.030197143554688, 0.016296386718750, -0.002166748046875, -0.003555297851562, -0.028579711914062, 0.000793457031250, 0.010208129882812, -0.005126953125000, -0.009674072265625, 0.011718750000000, 0.007812500000000, 0.009689331054688, -0.092025756835938, -0.003387451171875, 0.010086059570312, -0.009902954101562, 0.038955688476562, -0.058609008789062, -0.007492065429688, 0.000503540039062, 0.007476806640625, 0.031951904296875, 0.014953613281250, 0.012207031250000, 0.001419067382812, 0.002120971679688, -0.007736206054688, 0.028717041015625, -0.007522583007812, 0.001892089843750, -0.013595581054688, 0.001266479492188, -0.008316040039062, -0.014999389648438, -0.007781982421875, 0.009750366210938, -0.004409790039062, 0.002563476562500, -0.005157470703125, -0.023086547851562, 0.004959106445312, -0.013076782226562, -0.011337280273438, -0.011688232421875, -0.002349853515625, -0.005966186523438, 0.014770507812500, -0.007858276367188, 0.013336181640625, -0.017272949218750, 0.004531860351562, -0.009246826171875, -0.004104614257812, 0.024642944335938, 0.008911132812500, 0.000534057617188, -0.015808105468750, -0.004058837890625, 0.016723632812500, -0.005340576171875, 0.011306762695312, 0.004257202148438, 0.032012939453125, 0.003219604492188, -0.002319335937500, 0.005218505859375, 0.016006469726562, 0.027847290039062, 0.001617431640625, 0.016265869140625, -0.004196166992188, 0.015151977539062, 0.010818481445312, 0.007369995117188, 0.002014160156250, -0.005020141601562, -0.003814697265625, 0.017395019531250, 0.002395629882812, 0.024841308593750, -0.015213012695312, -0.006301879882812, -0.007049560546875, -0.015319824218750, 0.015975952148438, 0.005996704101562, 0.017105102539062, -0.008010864257812, -0.009841918945312, -0.006835937500000, -0.034530639648438, 0.014068603515625, 0.005706787109375, -0.015197753906250, 0.028060913085938, 0.000701904296875, 0.014099121093750, -0.003143310546875, 0.017486572265625, -0.016494750976562, 0.017333984375000, -0.005310058593750, -0.000534057617188, -0.010391235351562, -0.011871337890625, 0.001144409179688, 0.007110595703125, 0.006835937500000, 0.005493164062500, -0.002410888671875, 0.007690429687500, 0.011016845703125, -0.009460449218750, -0.010528564453125, 0.011871337890625, 0.005584716796875, -0.017883300781250, 0.001785278320312, 0.003433227539062, 0.007308959960938, 0.007507324218750, 0.018218994140625, -0.002792358398438, 0.008712768554688, -0.011337280273438, 0.005508422851562, 0.010833740234375, -0.006149291992188, -0.015502929687500, -0.005340576171875, 0.005020141601562, -0.015884399414062, 0.008178710937500, -0.012619018554688, 0.005325317382812, 0.000701904296875, -0.015029907226562, 0.007141113281250, 0.004196166992188, 0.013275146484375, -0.002288818359375, 0.002349853515625, -0.013626098632812, 0.001525878906250, 0.020080566406250, 0.021194458007812, -0.007186889648438, -0.003509521484375, -0.010375976562500, 0.027099609375000, -0.003982543945312, 0.024658203125000, 0.000503540039062, -0.001937866210938, -0.010696411132812, 0.010360717773438, 0.003738403320312, -0.012634277343750, 0.003829956054688, 0.007308959960938, 0.001251220703125, 0.002532958984375, 0.029235839843750, -0.051956176757812, -0.013900756835938, 0.004409790039062, 0.012695312500000, -0.021484375000000, -0.000701904296875, -0.008621215820312, -0.003738403320312, -0.073287963867188, 0.010101318359375, -0.004135131835938, 0.000900268554688, -0.005828857421875, -0.002563476562500, 0.008926391601562, -0.043060302734375, 0.007247924804688, 0.019149780273438, -0.009658813476562, -0.006652832031250, -0.007369995117188, 0.006149291992188, -0.003280639648438, -0.024093627929688, 0.010986328125000, -0.021438598632812, -0.014709472656250, -0.004913330078125, 0.005706787109375, -0.006729125976562, -0.006591796875000, -0.001083374023438, 0.007720947265625, 0.005126953125000, 0.013427734375000, 0.008361816406250, -0.020019531250000, -0.011138916015625, -0.000991821289062, -0.013305664062500, 0.004974365234375, 0.007507324218750, 0.005233764648438, -0.014328002929688, 0.002380371093750, 0.015411376953125, -0.025375366210938, 0.003784179687500, -0.012222290039062, 0.006500244140625, 0.011352539062500, 0.012161254882812, 0.000427246093750, -0.011672973632812, -0.003601074218750, -0.020370483398438, 0.008392333984375, -0.001907348632812, 0.000289916992188, -0.005996704101562, -0.010543823242188, 0.022293090820312, 0.001617431640625, 0.015914916992188, -0.002410888671875, 0.018844604492188, -0.019378662109375, 0.007659912109375, -0.041061401367188, -0.012680053710938, -0.011230468750000, -0.011978149414062, 0.010055541992188, -0.008911132812500, 0.006195068359375, 0.009948730468750, 0.012512207031250, 0.004608154296875, 0.000823974609375, 0.006607055664062, -0.018692016601562, -0.008041381835938, -0.005691528320312, -0.006301879882812, -0.006088256835938, -0.003082275390625, 0.004699707031250, 0.003067016601562, -0.046447753906250, 0.000213623046875, 0.003295898437500, 0.027664184570312, -0.002548217773438, -0.002609252929688, 0.011352539062500, -0.012435913085938, -0.006622314453125, 0.005508422851562, 0.003051757812500, 0.002059936523438, -0.001495361328125, -0.034332275390625, -0.037658691406250, -0.008529663085938, 0.010055541992188, -0.036026000976562, -0.004043579101562, -0.001571655273438, 0.004928588867188, 0.010528564453125, -0.018157958984375, 0.002258300781250, 0.006744384765625, 0.023193359375000, 0.004943847656250, 0.001403808593750, -0.009231567382812, -0.001281738281250, -0.005218505859375, 0.005371093750000, -0.000381469726562, 0.002349853515625, -0.007400512695312, 0.002090454101562, 0.010925292968750, -0.001037597656250, 0.017471313476562, 0.025070190429688, 0.058853149414062, 0.009323120117188, -0.009872436523438, -0.004653930664062, 0.056396484375000, -0.002899169921875, 0.011611938476562, -0.007324218750000, 0.151229858398438, -0.008483886718750, -0.014709472656250, -0.024337768554688, -0.016845703125000, -0.029891967773438, 0.025787353515625, 0.009445190429688, 0.016754150390625, 0.002136230468750, -0.057174682617188, 0.010437011718750, -0.005950927734375, -0.019531250000000, -0.012435913085938, 0.038864135742188, -0.020004272460938, 0.045867919921875, 0.037322998046875, -0.054336547851562, 0.000183105468750, 0.016250610351562, -0.029312133789062, -0.029037475585938, -0.113967895507812, -0.004684448242188, -0.028747558593750, -0.007812500000000, -0.008804321289062, -0.006347656250000, -0.055297851562500, 0.042663574218750, -0.030014038085938, -0.012222290039062, -0.032135009765625, -0.001312255859375, -0.046386718750000, -0.015060424804688, 0.080123901367188, -0.007644653320312, -0.002716064453125, -0.022613525390625, -0.016555786132812, -0.022979736328125, -0.000244140625000, 0.024673461914062, 0.020233154296875, 0.029205322265625, -0.046585083007812, -0.018936157226562, -0.019210815429688, -0.057266235351562, -0.022888183593750, -0.024719238281250, -0.014602661132812, -0.072509765625000, 0.004699707031250, 0.026412963867188, 0.007522583007812, 0.002929687500000, 0.063796997070312, -0.002105712890625, -0.013229370117188, -0.050903320312500, -0.008880615234375, 0.022354125976562, 0.028259277343750, -0.013320922851562, -0.024703979492188, 0.025268554687500, -0.019439697265625, -0.066116333007812, -0.029785156250000, 0.009246826171875, 0.037628173828125, 0.002334594726562, -0.016265869140625, -0.000991821289062, -0.069839477539062, 0.021286010742188, 0.050781250000000, -0.027236938476562, -0.012741088867188, 0.007003784179688, -0.007522583007812, 0.002746582031250, -0.005630493164062, -0.007003784179688, 0.022750854492188, -0.044113159179688, -0.018051147460938, -0.072814941406250, -0.004226684570312, 0.053237915039062, 0.036300659179688, 0.007629394531250, -0.033599853515625, 0.084838867187500, 0.014892578125000, 0.005859375000000, 0.004501342773438, -0.052307128906250, -0.019287109375000, 0.008285522460938, 0.000122070312500, -0.058547973632812, -0.027267456054688, 0.019454956054688, -0.035934448242188, -0.003356933593750, -0.012619018554688, 0.017456054687500, -0.027709960937500, -0.006240844726562, -0.028778076171875, 0.003311157226562, -0.010864257812500, -0.032165527343750, -0.031188964843750, -0.061431884765625, 0.023025512695312, 0.004959106445312, -0.005035400390625, -0.013427734375000, 0.020187377929688, -0.006561279296875, 0.009231567382812, 0.001144409179688, 0.048461914062500, -0.006958007812500, -0.015335083007812, -0.000778198242188, -0.004760742187500, -0.002502441406250, 0.012420654296875, 0.002563476562500, 0.007629394531250, 0.006927490234375, -0.020233154296875, -0.005920410156250, 0.010742187500000, 0.006393432617188, -0.009185791015625, -0.003997802734375, -0.006790161132812, 0.011398315429688, 0.003295898437500, -0.034286499023438, -0.011795043945312, 0.002639770507812, -0.005096435546875, 0.000030517578125, -0.005294799804688, 0.000747680664062, -0.027740478515625, 0.005203247070312, -0.011306762695312, -0.007308959960938, 0.001876831054688, 0.002716064453125, 0.005249023437500, -0.009231567382812, -0.010009765625000, -0.004699707031250, 0.003799438476562, 0.009033203125000, 0.029022216796875, 0.002212524414062, -0.000396728515625, -0.005752563476562, -0.007034301757812, -0.020095825195312, -0.000839233398438, 0.000366210937500, 0.005432128906250, 0.017639160156250, -0.010513305664062, 0.008483886718750, 0.014541625976562, -0.009689331054688, 0.008605957031250, -0.021560668945312, -0.002868652343750, -0.003540039062500, 0.009765625000000, 0.018463134765625, 0.009979248046875, 0.004592895507812, 0.028625488281250, 0.012634277343750, -0.005554199218750, -0.002670288085938, -0.021316528320312, 0.016784667968750, 0.004714965820312, -0.011047363281250, 0.002288818359375, -0.000076293945312, 0.016647338867188, -0.009063720703125, -0.005126953125000, 0.001998901367188, 0.000503540039062, 0.013748168945312, -0.000549316406250, -0.003829956054688, -0.002227783203125, -0.003540039062500, 0.021377563476562, 0.014984130859375, -0.004425048828125, -0.007141113281250, 0.001922607421875, 0.015213012695312, 0.005920410156250, 0.006896972656250, 0.014312744140625, -0.022216796875000, 0.003005981445312, -0.001022338867188, 0.007080078125000, 0.027114868164062, 0.004821777343750, -0.002593994140625, -0.004837036132812, 0.021133422851562, -0.009460449218750, -0.003112792968750, -0.010162353515625, -0.010025024414062, -0.000778198242188, -0.000747680664062, 0.001968383789062, -0.017181396484375, -0.008178710937500, -0.010040283203125, -0.003555297851562, -0.008453369140625, 0.006866455078125, 0.003372192382812, 0.011825561523438, -0.005645751953125, 0.005111694335938, 0.006256103515625, 0.005126953125000, -0.009399414062500, -0.011398315429688, -0.007446289062500, -0.021026611328125, 0.005737304687500, 0.007019042968750, -0.005737304687500, -0.010391235351562, 0.006744384765625, -0.007568359375000, -0.003189086914062, -0.032501220703125, -0.001495361328125, 0.002380371093750, 0.000915527343750, 0.002471923828125, 0.006179809570312, -0.003646850585938, -0.007202148437500, 0.004364013671875, 0.004165649414062, 0.000793457031250, 0.002731323242188, 0.003417968750000, -0.001327514648438, 0.002700805664062, -0.000808715820312, -0.004470825195312, -0.006484985351562, -0.009994506835938, 0.004226684570312, 0.001617431640625, 0.000015258789062, 0.002517700195312, 0.003311157226562, 0.006042480468750, 0.001098632812500, 0.005981445312500, -0.003402709960938, 0.002777099609375, 0.007736206054688, 0.004211425781250, -0.000534057617188, -0.002212524414062, 0.001968383789062, 0.006195068359375, 0.007843017578125, 0.003540039062500, 0.002990722656250, -0.012542724609375, 0.000289916992188, 0.006561279296875, -0.001815795898438, 0.001022338867188, 0.004684448242188, 0.000091552734375, 0.002593994140625, -0.006912231445312, -0.007034301757812, 0.010986328125000, -0.000640869140625, -0.001113891601562, 0.000122070312500, 0.010925292968750, -0.001220703125000, 0.006668090820312, 0.002731323242188, 0.001342773437500, -0.000915527343750, -0.000091552734375, 0.001434326171875, -0.017364501953125, -0.005813598632812, 0.004547119140625, -0.004272460937500, -0.001983642578125, -0.002044677734375, 0.000488281250000, 0.000122070312500, -0.000747680664062, -0.000244140625000, -0.002182006835938, -0.003067016601562, 0.003204345703125, -0.006057739257812, 0.001235961914062, 0.004013061523438, 0.009353637695312, -0.001754760742188, 0.001571655273438, 0.003479003906250, -0.004653930664062, -0.003753662109375, 0.008178710937500, -0.002258300781250, -0.000045776367188, 0.003677368164062, 0.004379272460938, 0.004425048828125, 0.000442504882812, 0.001052856445312, -0.005187988281250, 0.010986328125000, 0.004638671875000, -0.006332397460938, 0.005050659179688, -0.000152587890625, 0.009353637695312, -0.021667480468750, 0.003616333007812, 0.005844116210938, 0.003219604492188, 0.000183105468750, 0.005447387695312, 0.001434326171875, 0.002624511718750, 0.001373291015625, -0.002593994140625, -0.004470825195312, 0.004730224609375, 0.002166748046875, 0.000015258789062, 0.002899169921875, -0.003906250000000, 0.000289916992188, 0.001083374023438, 0.003677368164062, 0.001846313476562, -0.001602172851562, 0.002441406250000, 0.006484985351562, 0.000030517578125, -0.001892089843750, -0.003433227539062, -0.000762939453125, 0.001235961914062, -0.001174926757812, -0.004058837890625, -0.005416870117188, 0.001541137695312, -0.001586914062500, -0.001724243164062, -0.000671386718750, -0.002410888671875, -0.000213623046875, 0.000915527343750, 0.000198364257812, -0.005172729492188, -0.001922607421875, 0.000885009765625, -0.003540039062500, -0.003128051757812, -0.002044677734375, -0.000610351562500, 0.002243041992188, -0.000198364257812, -0.001998901367188, -0.002670288085938, 0.002914428710938, -0.000839233398438, -0.000167846679688, -0.002853393554688, -0.000396728515625, 0.001937866210938, -0.002059936523438, -0.003295898437500, -0.002792358398438, 0.001251220703125, -0.000503540039062, -0.000366210937500, -0.002380371093750, -0.004516601562500, -0.002700805664062, -0.000198364257812, -0.000946044921875, 0.002441406250000, -0.004791259765625, 0.002502441406250, -0.004928588867188, -0.003234863281250, -0.000076293945312, -0.003097534179688, -0.001495361328125, -0.000335693359375, -0.003158569335938, -0.001098632812500, -0.004989624023438, 0.001358032226562, -0.004531860351562, -0.000015258789062, -0.001235961914062, 0.001831054687500, -0.004440307617188, 0.000091552734375, -0.000274658203125, -0.005615234375000, -0.004150390625000, -0.002014160156250, 0.000717163085938, -0.001937866210938, -0.003921508789062, -0.000350952148438, -0.001541137695312, -0.001098632812500, -0.000350952148438, -0.000991821289062, -0.001892089843750, -0.006942749023438, -0.001419067382812, 0.000488281250000, 0.000564575195312, 0.003250122070312, -0.001815795898438, -0.002151489257812, -0.001815795898438, 0.002426147460938, -0.000366210937500, -0.000411987304688, -0.002044677734375, 0.000427246093750, -0.002487182617188, -0.000320434570312, -0.000961303710938, -0.000946044921875, -0.001022338867188, -0.004013061523438, 0.000656127929688, -0.004806518554688, 0.001159667968750, -0.001770019531250, 0.000823974609375, 0.001541137695312, 0.000686645507812, -0.001556396484375, -0.001007080078125, 0.000427246093750, -0.001098632812500, -0.000625610351562, -0.002593994140625, -0.001129150390625, 0.001251220703125, 0.000595092773438, -0.002395629882812, -0.006729125976562, -0.002822875976562, -0.000869750976562, -0.001556396484375, 0.001358032226562, -0.003555297851562, -0.001724243164062, 0.001449584960938, 0.000625610351562, -0.002197265625000, -0.003631591796875, -0.001617431640625, -0.001861572265625, -0.002090454101562, -0.002761840820312, -0.002059936523438, -0.009704589843750, -0.005493164062500, 0.003845214843750, -0.010101318359375, -0.006439208984375, -0.007034301757812, -0.005554199218750, 0.009933471679688, -0.015762329101562, 0.000183105468750, 0.001998901367188, 0.005599975585938, -0.004577636718750, -0.011245727539062, -0.003128051757812, -0.007385253906250, 0.007614135742188, 0.000579833984375, -0.005355834960938, -0.010757446289062, -0.004028320312500, 0.002777099609375, 0.000915527343750, 0.005538940429688, -0.012527465820312, -0.013137817382812, -0.004333496093750, 0.008117675781250, -0.008987426757812, 0.009201049804688, 0.009643554687500, -0.001403808593750, 0.008056640625000, 0.002487182617188, -0.005508422851562, -0.001007080078125, -0.000823974609375, -0.007949829101562, 0.008071899414062, -0.005676269531250, -0.001419067382812, 0.005920410156250, 0.003005981445312, -0.001892089843750, 0.005172729492188, 0.001403808593750, 0.001907348632812, -0.006134033203125, -0.000930786132812, -0.007827758789062, 0.005203247070312, 0.004302978515625, -0.000442504882812, 0.001419067382812, 0.000869750976562, -0.000732421875000, 0.007598876953125, -0.002426147460938, -0.010803222656250, 0.006744384765625, 0.006927490234375, -0.001388549804688, -0.001907348632812, -0.000091552734375, -0.005706787109375, -0.006958007812500, -0.003829956054688, 0.007659912109375, -0.008224487304688, -0.001739501953125, -0.002990722656250, -0.002746582031250, 0.004302978515625, 0.008453369140625, 0.010848999023438, -0.000793457031250, -0.006576538085938, -0.006362915039062, -0.003189086914062, -0.001342773437500, 0.002502441406250, -0.001464843750000, 0.002670288085938, 0.009078979492188, 0.013336181640625, -0.017700195312500, -0.002807617187500, -0.000396728515625, -0.000869750976562, -0.002075195312500, 0.002593994140625, -0.004257202148438, -0.005554199218750, 0.002609252929688, -0.007293701171875, 0.010116577148438, 0.005813598632812, 0.010162353515625, -0.012680053710938, 0.001892089843750, -0.005569458007812, -0.006973266601562, -0.003753662109375, -0.010147094726562, -0.000015258789062, -0.003601074218750, 0.006088256835938, 0.002990722656250, -0.002883911132812, 0.009994506835938, -0.005508422851562, -0.008392333984375, -0.005645751953125, -0.002655029296875, 0.001220703125000, -0.016769409179688, 0.006958007812500, 0.001800537109375, -0.001571655273438, 0.006622314453125, -0.001403808593750, -0.005981445312500, -0.001266479492188, 0.006072998046875, -0.001525878906250, 0.000793457031250, -0.007919311523438, -0.005691528320312, -0.009597778320312, -0.008789062500000, 0.003463745117188, 0.008193969726562, -0.004135131835938, 0.000671386718750, 0.006149291992188, 0.009689331054688, 0.012100219726562, 0.005432128906250, -0.005676269531250, -0.004470825195312, 0.007324218750000, 0.001892089843750, 0.010559082031250, -0.004287719726562, 0.001571655273438, 0.002944946289062, 0.004516601562500, 0.006454467773438, 0.003829956054688, 0.003723144531250, -0.001693725585938, -0.001647949218750, -0.005249023437500, -0.007568359375000, -0.011810302734375, 0.002639770507812, 0.016876220703125, -0.005584716796875, -0.004348754882812, -0.002487182617188, -0.006439208984375, -0.001098632812500, -0.004989624023438, -0.001510620117188, 0.015075683593750, -0.008270263671875, -0.006469726562500, -0.002395629882812, -0.000183105468750, -0.000579833984375, 0.007217407226562, 0.001739501953125, -0.005722045898438, 0.000183105468750, -0.003250122070312, 0.011596679687500, 0.001861572265625, 0.000015258789062, -0.004028320312500, 0.003128051757812, -0.001541137695312, 0.002151489257812, 0.004638671875000, -0.005462646484375, -0.001312255859375, 0.005538940429688, 0.012985229492188, -0.000396728515625, 0.000320434570312, 0.003555297851562, 0.000625610351562, -0.003936767578125, 0.003005981445312, 0.004699707031250, -0.003723144531250, -0.006790161132812, -0.002838134765625, 0.000167846679688, -0.005294799804688, -0.001525878906250, -0.000885009765625, -0.008377075195312, -0.008209228515625, -0.001327514648438, 0.003524780273438, -0.000854492187500, -0.000534057617188, -0.009994506835938, -0.004257202148438, 0.006439208984375, -0.002716064453125, 0.001846313476562, -0.000106811523438, 0.003784179687500, -0.009643554687500, 0.000152587890625, -0.013809204101562, -0.003799438476562, 0.016632080078125, 0.003265380859375, 0.006835937500000, -0.006347656250000, 0.000534057617188, -0.002273559570312, 0.007720947265625, 0.010559082031250, 0.006347656250000, -0.010192871093750, 0.002349853515625, -0.002197265625000, 0.007034301757812, 0.002777099609375, -0.005264282226562, -0.005950927734375, 0.006805419921875, -0.003997802734375, 0.007431030273438, -0.011337280273438, -0.006713867187500, 0.006225585937500, 0.003646850585938, -0.002365112304688, -0.005310058593750, 0.002944946289062, -0.006607055664062, 0.001220703125000, 0.014694213867188, -0.008010864257812, -0.000488281250000, -0.005661010742188, 0.008743286132812, 0.000915527343750, 0.009201049804688, -0.005325317382812, 0.000534057617188, 0.005691528320312, 0.001953125000000, 0.010391235351562, -0.002304077148438, -0.016983032226562, 0.011093139648438, 0.009170532226562, -0.008712768554688, -0.000411987304688, 0.023757934570312, 0.001556396484375, -0.006484985351562, -0.005035400390625, -0.001358032226562, -0.002853393554688, -0.002899169921875, 0.003280639648438, 0.000854492187500, 0.000579833984375, -0.004623413085938, -0.003860473632812, -0.004852294921875, 0.002212524414062, 0.012115478515625, -0.004867553710938, 0.003677368164062, 0.005783081054688, -0.006958007812500, -0.007461547851562, 0.000671386718750, 0.010894775390625, 0.009017944335938, 0.002761840820312, -0.027481079101562, -0.000640869140625, -0.008163452148438, -0.000808715820312, 0.007202148437500, -0.002700805664062, -0.015823364257812, 0.008941650390625, -0.003784179687500, -0.010223388671875, -0.002517700195312, 0.001892089843750, -0.015106201171875, -0.002975463867188, 0.014251708984375, -0.017486572265625, 0.006256103515625, -0.002990722656250, -0.003128051757812, -0.008483886718750, 0.000274658203125, -0.006851196289062, -0.002380371093750, 0.007659912109375, -0.000854492187500, -0.014541625976562, 0.012466430664062, -0.007324218750000, 0.005630493164062, -0.000457763671875, 0.002716064453125, -0.015090942382812, -0.002456665039062, 0.008270263671875, -0.000274658203125, 0.002914428710938, 0.008987426757812, 0.000015258789062, 0.000137329101562, -0.009017944335938, -0.015075683593750, -0.005371093750000, 0.014343261718750, 0.009826660156250, -0.000961303710938, -0.002059936523438, 0.003585815429688, -0.015075683593750, 0.008163452148438, 0.009979248046875, -0.010360717773438, 0.008026123046875, 0.009384155273438, 0.009902954101562, -0.002487182617188, 0.003326416015625, 0.011825561523438, 0.003341674804688, -0.002166748046875, -0.007186889648438, 0.008666992187500, 0.005706787109375, -0.011672973632812, -0.002731323242188, -0.006225585937500, -0.008956909179688, -0.002685546875000, -0.002609252929688, -0.000656127929688, 0.004547119140625, 0.013977050781250, -0.000930786132812, 0.006042480468750, 0.010147094726562, 0.003158569335938, 0.000976562500000, 0.006820678710938, -0.021484375000000, 0.003967285156250, -0.002746582031250, 0.002563476562500, -0.000900268554688, -0.015182495117188, 0.011581420898438, 0.000320434570312, 0.006927490234375, 0.015365600585938, 0.001327514648438, -0.012985229492188, -0.001464843750000, 0.003936767578125, 0.000427246093750, -0.008438110351562, 0.002441406250000, -0.018676757812500, -0.006713867187500, -0.004241943359375, -0.027954101562500, -0.004562377929688, 0.009048461914062, -0.014053344726562, -0.035400390625000, 0.003433227539062, 0.005645751953125, -0.042907714843750, -0.000244140625000, 0.005203247070312, 0.004074096679688, 0.002517700195312, -0.044418334960938, -0.016769409179688, -0.006820678710938, -0.000335693359375, -0.001510620117188, -0.018295288085938, 0.008499145507812, -0.016189575195312, -0.001998901367188, -0.003570556640625, -0.005371093750000, -0.012573242187500, 0.000823974609375, -0.006576538085938, -0.005142211914062, 0.001571655273438, -0.000122070312500, 0.002365112304688, 0.041687011718750, 0.089767456054688, 0.004394531250000, 0.021224975585938, 0.005599975585938, -0.000518798828125, -0.040313720703125, 0.036804199218750, -0.010101318359375, 0.015487670898438, 0.019058227539062, -0.005111694335938, 0.010284423828125, 0.046844482421875, -0.001953125000000, -0.025711059570312, 0.015518188476562, -0.014175415039062, 0.024185180664062, 0.001754760742188, 0.000350952148438, 0.007644653320312, 0.006927490234375, -0.006958007812500, -0.013458251953125, -0.058197021484375, 0.005615234375000, -0.012191772460938, 0.015289306640625, 0.003234863281250, 0.001464843750000, 0.014541625976562, 0.037048339843750, -0.006835937500000, -0.002960205078125, -0.032241821289062, 0.018234252929688, -0.018508911132812, 0.004028320312500, -0.009353637695312, 0.029739379882812, 0.018722534179688, -0.003799438476562, 0.005798339843750, 0.002868652343750, -0.014266967773438, 0.001464843750000, -0.001342773437500, 0.036209106445312, -0.001007080078125, -0.000244140625000, 0.004364013671875, -0.004653930664062, -0.009277343750000, 0.002609252929688, 0.043212890625000, -0.005462646484375, -0.019470214843750, 0.009185791015625, 0.010559082031250, 0.004028320312500, -0.013320922851562, 0.002883911132812, -0.002731323242188, -0.007507324218750, -0.003250122070312, 0.008743286132812, 0.001937866210938, 0.042526245117188, -0.005340576171875, -0.019470214843750, -0.033782958984375, -0.003128051757812, 0.007568359375000, -0.029113769531250, -0.000610351562500, -0.003417968750000, 0.007736206054688, 0.038757324218750, -0.013336181640625, -0.000961303710938, 0.010681152343750, 0.000152587890625, 0.052581787109375, -0.023574829101562, 0.022369384765625, -0.009628295898438, -0.007949829101562, 0.018402099609375, 0.010711669921875, -0.003540039062500, 0.001937866210938, 0.001190185546875, 0.008453369140625, 0.003799438476562, 0.013305664062500, 0.001937866210938, 0.028823852539062, 0.012084960937500, -0.009796142578125, -0.012634277343750, 0.007675170898438, -0.005966186523438, 0.012481689453125, 0.000762939453125, 0.070449829101562, -0.003021240234375, -0.003540039062500, -0.010696411132812, 0.005203247070312, -0.005096435546875, -0.002685546875000, 0.029037475585938, 0.000427246093750, -0.006210327148438, -0.026214599609375, 0.003387451171875, 0.005081176757812, -0.003250122070312, 0.000350952148438, 0.003112792968750, -0.009918212890625, -0.006454467773438, 0.008575439453125, -0.018966674804688, -0.007293701171875, -0.002792358398438, 0.000350952148438, -0.027359008789062, -0.026779174804688, -0.026016235351562, -0.025054931640625, -0.000335693359375, -0.008865356445312, -0.004501342773438, -0.019485473632812, 0.004928588867188, -0.011718750000000, -0.034729003906250, -0.006866455078125, 0.001937866210938, -0.032501220703125, -0.001937866210938, 0.032867431640625, -0.009613037109375, 0.001052856445312, -0.008590698242188, 0.002288818359375, -0.014465332031250, 0.007141113281250, 0.003692626953125, 0.006210327148438, -0.006210327148438, -0.000961303710938, 0.005294799804688, 0.004074096679688, -0.001464843750000, 0.012298583984375, -0.007736206054688, -0.001129150390625, -0.026565551757812, -0.007598876953125, -0.007141113281250, -0.003128051757812, 0.008377075195312, 0.018234252929688, 0.009841918945312, 0.004089355468750, -0.022109985351562, -0.013641357421875, 0.003112792968750, 0.007659912109375, -0.004302978515625, -0.005554199218750, -0.011154174804688, 0.000091552734375, -0.033248901367188, 0.000564575195312, 0.000366210937500, -0.008514404296875, 0.005569458007812, 0.011093139648438, -0.001541137695312, -0.013870239257812, -0.011337280273438, 0.002990722656250, -0.008148193359375, 0.023818969726562, -0.008544921875000, 0.002487182617188, 0.011352539062500, -0.000183105468750, 0.010131835937500, 0.007293701171875, -0.026748657226562, -0.001037597656250, -0.018844604492188, -0.004852294921875, 0.015213012695312, -0.002883911132812, -0.009506225585938, -0.018371582031250, 0.017852783203125, 0.006820678710938, 0.000030517578125, 0.002075195312500, -0.024520874023438, 0.008850097656250, 0.001327514648438, 0.002319335937500, -0.016571044921875, -0.022827148437500, -0.015060424804688, -0.015701293945312, -0.016372680664062, -0.006591796875000, -0.001937866210938, -0.018783569335938, -0.010635375976562, 0.001205444335938, -0.009811401367188, -0.013839721679688, -0.005706787109375, -0.010406494140625, -0.029510498046875, -0.032775878906250, -0.015609741210938, 0.003494262695312, -0.028732299804688, -0.016235351562500, -0.012588500976562, -0.050415039062500, -0.005661010742188, -0.070755004882812, 0.004135131835938, 0.011993408203125, 0.020523071289062, 0.004196166992188, -0.015228271484375, 0.013565063476562, -0.003585815429688, -0.015899658203125, 0.015747070312500, 0.016387939453125, -0.002395629882812, -0.013961791992188, -0.017654418945312, 0.001068115234375, -0.012969970703125, 0.003509521484375, -0.004837036132812, -0.015655517578125, 0.001007080078125, 0.010131835937500, 0.020782470703125, -0.012130737304688, 0.022094726562500, 0.012649536132812, 0.024887084960938, 0.006973266601562, -0.013427734375000, 0.003509521484375, -0.003677368164062, 0.006622314453125, -0.022811889648438, -0.003616333007812, -0.000427246093750, 0.013397216796875, 0.003814697265625, 0.030166625976562, 0.026687622070312, -0.024276733398438, -0.001586914062500, -0.006317138671875, 0.023773193359375, 0.014846801757812, 0.008850097656250, 0.021911621093750, 0.002929687500000, -0.009613037109375, 0.002746582031250, 0.001205444335938, -0.015945434570312, 0.017471313476562, -0.003082275390625, -0.004302978515625, 0.011337280273438, -0.008422851562500, 0.019256591796875, 0.001846313476562, -0.003356933593750, -0.002182006835938, 0.003616333007812, -0.022171020507812, -0.009750366210938, -0.004592895507812, 0.018630981445312, -0.009933471679688, -0.001007080078125, 0.012069702148438, -0.011489868164062, 0.012191772460938, -0.000061035156250, -0.047378540039062, 0.002532958984375, -0.004409790039062, -0.010299682617188, 0.010269165039062, -0.002471923828125, 0.012496948242188, 0.015670776367188, 0.020614624023438, 0.019256591796875, -0.012573242187500, 0.004440307617188, 0.002716064453125, -0.018005371093750, 0.018661499023438, 0.001037597656250, -0.004898071289062, -0.003585815429688, -0.018295288085938, 0.014007568359375, -0.011306762695312, 0.016494750976562, 0.004302978515625, 0.003280639648438, -0.023284912109375, -0.013107299804688, 0.018966674804688, -0.016891479492188, -0.012634277343750, -0.002044677734375, -0.011337280273438, 0.022262573242188, -0.022262573242188, -0.001876831054688, -0.004043579101562, 0.002944946289062, 0.018737792968750, 0.002548217773438, 0.011611938476562, 0.012557983398438, -0.012207031250000, -0.016555786132812, 0.023910522460938, 0.005249023437500, -0.011215209960938, -0.012023925781250, -0.004013061523438, 0.001144409179688, 0.002182006835938, 0.010406494140625, -0.029373168945312, -0.000381469726562, 0.008010864257812, 0.007476806640625, -0.002761840820312, -0.004516601562500, -0.007949829101562, 0.001602172851562, -0.043518066406250, -0.003051757812500, 0.011016845703125, -0.002212524414062, 0.011810302734375, -0.005737304687500, -0.005157470703125, -0.019180297851562, -0.002349853515625, 0.002655029296875, -0.005264282226562, 0.007293701171875, -0.001129150390625, 0.005035400390625, -0.009170532226562, -0.009033203125000, -0.002197265625000, -0.014434814453125, 0.003677368164062, 0.000762939453125, -0.004638671875000, -0.000015258789062, -0.003723144531250, 0.006866455078125, -0.002059936523438, -0.000610351562500, 0.011749267578125, 0.006378173828125, -0.003677368164062, -0.000534057617188, -0.007080078125000, -0.012664794921875, 0.006088256835938, -0.003677368164062, 0.010955810546875, -0.003158569335938, 0.006942749023438, 0.008529663085938, -0.013259887695312, 0.000976562500000, -0.000183105468750, -0.006149291992188, 0.008956909179688, 0.000350952148438, 0.007324218750000, 0.001678466796875, 0.007904052734375, -0.011734008789062, -0.009765625000000, 0.002426147460938, 0.000335693359375, -0.001052856445312, -0.000396728515625, 0.010345458984375, -0.002151489257812, -0.001831054687500, -0.006393432617188, 0.001373291015625, 0.003173828125000, 0.008483886718750, -0.020004272460938, -0.004699707031250, 0.002960205078125, 0.002700805664062, -0.006317138671875, 0.000244140625000, 0.003402709960938, 0.007034301757812, 0.000564575195312, -0.007492065429688, -0.012908935546875, 0.002243041992188, -0.003570556640625, -0.009994506835938, 0.008743286132812, -0.000732421875000, 0.014709472656250, 0.005172729492188, -0.002716064453125, -0.000610351562500, -0.016006469726562, 0.000869750976562, 0.005462646484375, 0.000381469726562, 0.005996704101562, -0.010726928710938, 0.005020141601562, 0.002532958984375, -0.001388549804688, 0.009643554687500, 0.004196166992188, -0.004104614257812, 0.007827758789062, -0.005432128906250, -0.001174926757812, -0.004684448242188, -0.005615234375000, -0.020050048828125, -0.003570556640625, 0.003921508789062, -0.005523681640625, -0.004211425781250, -0.014328002929688, 0.008605957031250, 0.001205444335938, -0.000167846679688, 0.005096435546875, -0.001754760742188, 0.002532958984375, 0.001892089843750, -0.008697509765625, 0.000427246093750, -0.006439208984375, -0.005584716796875, -0.007614135742188, 0.010360717773438, -0.003433227539062, 0.009170532226562, -0.009735107421875, 0.001846313476562, 0.007507324218750, 0.003753662109375, 0.003265380859375, 0.001525878906250, 0.011001586914062, -0.000549316406250, 0.005584716796875, -0.000366210937500, 0.007980346679688, 0.001403808593750, -0.001937866210938, 0.004745483398438, -0.001617431640625, 0.000686645507812, 0.000427246093750, 0.010070800781250, -0.000122070312500, 0.003433227539062, 0.000503540039062, 0.008590698242188, 0.002929687500000, -0.000854492187500, 0.007019042968750, 0.006317138671875, -0.006912231445312, -0.001998901367188, 0.007858276367188, -0.001312255859375, -0.004989624023438, 0.000305175781250, 0.002334594726562, -0.001464843750000, -0.001693725585938, -0.002075195312500, -0.003265380859375, 0.004348754882812, -0.000289916992188, 0.002975463867188, 0.004135131835938, 0.001739501953125, 0.009017944335938, -0.001159667968750, 0.001419067382812, -0.002059936523438, -0.002532958984375, -0.000625610351562, 0.003890991210938, -0.001647949218750, 0.000946044921875, -0.001983642578125, 0.004989624023438, 0.001541137695312, 0.000137329101562, -0.004455566406250, -0.000808715820312, -0.007324218750000, -0.000915527343750, 0.004226684570312, -0.001754760742188, 0.002395629882812, -0.003997802734375, -0.002227783203125, 0.002288818359375, -0.005691528320312, -0.000839233398438, -0.004501342773438, 0.003952026367188, -0.000061035156250, 0.009872436523438, 0.006530761718750, -0.001770019531250, 0.001388549804688, -0.004119873046875, 0.000823974609375, -0.001266479492188, 0.003326416015625, 0.002929687500000, -0.002365112304688, 0.002975463867188, -0.005828857421875, 0.003799438476562, -0.000518798828125, 0.001037597656250, 0.001327514648438, 0.001922607421875, 0.001495361328125, 0.000930786132812, -0.001113891601562, 0.003372192382812, 0.003128051757812, 0.004257202148438, 0.001022338867188, -0.003738403320312, 0.002655029296875, 0.002838134765625, -0.006637573242188, 0.006958007812500, -0.003707885742188, 0.002639770507812, 0.000488281250000, -0.000442504882812, 0.013320922851562, -0.001602172851562, -0.000808715820312, -0.000640869140625, 0.007461547851562, 0.001281738281250, 0.000167846679688, -0.000823974609375, -0.002655029296875, 0.006134033203125, 0.003936767578125, 0.003799438476562, 0.001831054687500, 0.002075195312500, -0.002853393554688, 0.003494262695312, -0.002075195312500, -0.004394531250000, -0.000503540039062, -0.002304077148438, 0.001571655273438, -0.000930786132812, 0.001129150390625, 0.005462646484375, -0.005065917968750, 0.002441406250000, 0.000640869140625, -0.003280639648438, -0.002319335937500, 0.004623413085938, -0.005523681640625, 0.005905151367188, 0.003967285156250, 0.003997802734375, -0.002807617187500, -0.011810302734375, 0.000045776367188, 0.009567260742188, -0.001861572265625, -0.002151489257812, 0.006362915039062, 0.005081176757812, -0.003738403320312, 0.002182006835938, 0.000366210937500, -0.010330200195312, 0.007461547851562, -0.002075195312500, -0.001312255859375, 0.006423950195312, 0.008193969726562, -0.002487182617188, -0.006515502929688, 0.003631591796875, 0.000946044921875, -0.000762939453125, -0.002685546875000, 0.002334594726562, -0.008316040039062, -0.004470825195312, -0.001312255859375, -0.003234863281250, 0.005050659179688, 0.006378173828125, -0.000396728515625, -0.010894775390625, -0.002243041992188, 0.002807617187500, -0.003906250000000, 0.004058837890625, 0.005096435546875, -0.002487182617188, -0.000595092773438, -0.001068115234375, -0.003204345703125, -0.000213623046875, -0.000961303710938, 0.000106811523438, -0.000061035156250, -0.002166748046875, 0.002029418945312, 0.006744384765625, 0.000549316406250, 0.006423950195312, 0.003677368164062, 0.003158569335938, 0.009780883789062, -0.000213623046875, 0.007324218750000, 0.004592895507812, -0.008941650390625, 0.005874633789062, -0.002212524414062, 0.001174926757812, -0.001327514648438, 0.001373291015625, 0.005859375000000, 0.004287719726562, -0.002426147460938, -0.006408691406250, -0.005569458007812, -0.000335693359375, 0.006546020507812, 0.002746582031250, -0.001159667968750, 0.003417968750000, -0.004974365234375, 0.010574340820312, 0.000701904296875, -0.000946044921875, 0.007827758789062, -0.002288818359375, 0.006057739257812, -0.006729125976562, -0.000427246093750, -0.002639770507812, 0.000122070312500, -0.009399414062500, -0.000869750976562, 0.003799438476562, -0.005630493164062, -0.000061035156250, 0.002822875976562, 0.006103515625000, 0.001495361328125, 0.005340576171875, -0.007049560546875, 0.001281738281250, 0.000244140625000, 0.003341674804688, 0.002273559570312, -0.001251220703125, -0.011322021484375, -0.002655029296875, 0.001296997070312, 0.001205444335938, -0.004913330078125, 0.000335693359375, -0.002471923828125, 0.002227783203125, 0.000671386718750, -0.001464843750000, 0.001342773437500, -0.004074096679688, -0.001480102539062, 0.005447387695312, -0.004684448242188, 0.001052856445312, -0.002853393554688, 0.000488281250000, -0.005935668945312, -0.003067016601562, -0.000625610351562, -0.002944946289062, 0.006790161132812, 0.035614013671875, -0.012329101562500, 0.007125854492188, 0.011398315429688, 0.003448486328125, 0.001815795898438, 0.001586914062500, 0.009246826171875, 0.047103881835938, -0.001342773437500, -0.005172729492188, -0.002944946289062, -0.000686645507812, 0.012359619140625, -0.014373779296875, 0.012771606445312, 0.004440307617188, 0.000091552734375, 0.002182006835938, 0.009094238281250, 0.002273559570312, -0.012619018554688, -0.003479003906250, 0.011581420898438, -0.013107299804688, 0.017715454101562, 0.011779785156250, 0.002151489257812, -0.005676269531250, 0.008926391601562, 0.005874633789062, -0.006210327148438, 0.010086059570312, 0.009872436523438, 0.000198364257812, -0.005645751953125, -0.015014648437500, 0.004425048828125, 0.012588500976562, -0.013031005859375, 0.012924194335938, -0.000686645507812, -0.008438110351562, -0.000030517578125, 0.004440307617188, 0.000900268554688, 0.020797729492188, 0.004776000976562, -0.000137329101562, -0.000122070312500, -0.001281738281250, -0.006408691406250, 0.002014160156250, 0.015960693359375, -0.001220703125000, -0.008438110351562, -0.006179809570312, 0.005783081054688, -0.007949829101562, -0.008483886718750, 0.002288818359375, -0.010726928710938, -0.004241943359375, 0.014816284179688, 0.003585815429688, 0.009765625000000, -0.001541137695312, 0.019714355468750, 0.022232055664062, -0.004394531250000, 0.000595092773438, 0.001296997070312, 0.003250122070312, 0.013854980468750, 0.021255493164062, -0.003295898437500, -0.013763427734375, 0.004867553710938, -0.007278442382812, 0.007278442382812, -0.006439208984375, 0.004394531250000, 0.001983642578125, 0.009185791015625, -0.010009765625000, -0.009674072265625, 0.000503540039062, -0.001678466796875, 0.022247314453125, -0.002044677734375, 0.001602172851562, 0.020248413085938, -0.019882202148438, -0.004516601562500, 0.007965087890625, 0.003845214843750, -0.000976562500000, 0.000000000000000, 0.004882812500000, 0.002319335937500, -0.001464843750000, 0.013473510742188, -0.011688232421875, -0.014022827148438, -0.019042968750000, 0.029098510742188, 0.020202636718750, 0.008911132812500, -0.015487670898438, 0.004425048828125, 0.011383056640625, 0.007888793945312, 0.002426147460938, 0.006484985351562, 0.006210327148438, -0.003112792968750, -0.003723144531250, 0.001876831054688, -0.010894775390625, 0.002700805664062, 0.001571655273438, 0.001373291015625, 0.004608154296875, 0.012237548828125, -0.002044677734375, -0.009262084960938, 0.014587402343750, 0.004699707031250, -0.005935668945312, -0.005279541015625, 0.003234863281250, 0.002471923828125, -0.002471923828125, -0.008270263671875, -0.000579833984375, -0.001785278320312, -0.009399414062500, 0.002578735351562, 0.001205444335938, -0.001937866210938, 0.002944946289062, -0.008132934570312, 0.001724243164062, -0.006439208984375, -0.000076293945312, 0.002044677734375, -0.002655029296875, -0.009017944335938, -0.000610351562500, 0.000625610351562, -0.007919311523438, -0.009933471679688, -0.004364013671875, -0.007568359375000, -0.000885009765625, -0.001892089843750, 0.005218505859375, 0.003417968750000, 0.001342773437500, 0.007354736328125, 0.005355834960938, 0.002059936523438, -0.001922607421875, -0.000350952148438, 0.002151489257812, -0.007186889648438, 0.003387451171875, -0.002304077148438, 0.014205932617188, 0.005157470703125, -0.008941650390625, 0.007415771484375, 0.006988525390625, 0.004943847656250, -0.006790161132812, 0.005920410156250, 0.001235961914062, 0.006668090820312, 0.005462646484375, 0.004928588867188, 0.008468627929688, 0.005035400390625, 0.001541137695312, 0.002960205078125, -0.007812500000000, 0.007446289062500, -0.006118774414062, 0.003723144531250, -0.005554199218750, 0.002502441406250, -0.002120971679688, 0.003707885742188, 0.001068115234375, -0.000564575195312, -0.003753662109375, 0.001037597656250, -0.007064819335938, -0.005233764648438, -0.001296997070312, 0.005004882812500, 0.001327514648438, -0.001922607421875, -0.000381469726562, 0.006973266601562, 0.003372192382812, 0.003738403320312, -0.006744384765625, 0.002532958984375, 0.000564575195312, -0.007934570312500, 0.002304077148438, 0.002395629882812, -0.008193969726562, -0.002319335937500, 0.007385253906250, 0.003921508789062, 0.000411987304688, 0.004791259765625, -0.004730224609375, 0.000122070312500, -0.005691528320312, -0.004898071289062, 0.004180908203125, -0.000137329101562, -0.002746582031250, -0.008819580078125, 0.001602172851562, 0.003372192382812, 0.006378173828125, -0.003768920898438, -0.013610839843750, 0.002792358398438, 0.000503540039062, -0.007766723632812, 0.004379272460938, 0.006103515625000, -0.003967285156250, 0.004379272460938, -0.004516601562500, 0.000778198242188, 0.003799438476562, -0.005233764648438, 0.010848999023438, -0.010635375976562, 0.005340576171875, 0.005279541015625, -0.005020141601562, 0.007751464843750, 0.001907348632812, -0.000137329101562, -0.004196166992188, 0.007705688476562, 0.012283325195312, -0.000839233398438, 0.003219604492188, -0.001678466796875, 0.036788940429688, 0.004165649414062, 0.001205444335938, -0.017242431640625, 0.017013549804688, 0.006896972656250, 0.009613037109375, 0.013824462890625, 0.073562622070312, 0.010711669921875, 0.000640869140625, -0.003585815429688, 0.012695312500000, 0.009552001953125, 0.016784667968750, 0.040878295898438, 0.012802124023438, -0.011718750000000, -0.011260986328125, -0.012603759765625, 0.004074096679688, -0.003295898437500, 0.017211914062500, 0.002883911132812, 0.000808715820312, 0.022460937500000, 0.025787353515625, -0.000244140625000, -0.002746582031250, 0.022079467773438, 0.002319335937500, -0.013229370117188, -0.011428833007812, 0.000579833984375, -0.018966674804688, 0.007797241210938, 0.002243041992188, 0.004470825195312, 0.001495361328125, 0.008239746093750, 0.006896972656250, -0.016723632812500, -0.003341674804688, 0.006774902343750, 0.000167846679688, 0.000488281250000, 0.033203125000000, -0.018463134765625, 0.006729125976562, 0.001785278320312, 0.006835937500000, 0.002334594726562, -0.003158569335938, 0.008178710937500, 0.003021240234375, 0.019958496093750, -0.006805419921875, 0.003662109375000, 0.003036499023438, -0.017303466796875, -0.000381469726562, -0.010375976562500, 0.000915527343750, 0.003723144531250, -0.007553100585938, 0.003921508789062, -0.003128051757812, 0.015808105468750, 0.034057617187500, 0.026351928710938, -0.000411987304688, 0.002120971679688, 0.003768920898438, -0.007827758789062, 0.019836425781250, 0.008453369140625, -0.021911621093750, -0.000442504882812, 0.025421142578125, -0.013122558593750, 0.014404296875000, 0.002090454101562, -0.006027221679688, 0.001907348632812, -0.008224487304688, 0.002014160156250, -0.006484985351562, 0.025314331054688, 0.044540405273438, -0.014526367187500, -0.031890869140625, -0.015045166015625, -0.006057739257812, 0.017761230468750, 0.025527954101562, 0.011001586914062, -0.002365112304688, 0.002593994140625, -0.017013549804688, -0.020828247070312, 0.004791259765625, 0.032943725585938, 0.005432128906250, -0.000213623046875, -0.001312255859375, 0.067321777343750, -0.001480102539062, -0.022338867187500, -0.000823974609375, -0.014724731445312, 0.036682128906250, -0.007827758789062, -0.003204345703125, -0.002441406250000, -0.002227783203125, 0.011795043945312, -0.005630493164062, 0.002151489257812, -0.001846313476562, -0.001708984375000, 0.000305175781250, -0.000823974609375, 0.002655029296875, 0.000137329101562, -0.010025024414062, 0.012344360351562, -0.011550903320312, 0.003112792968750, 0.030090332031250, -0.000213623046875, -0.000015258789062, -0.000701904296875, 0.014694213867188, 0.009460449218750, -0.000015258789062, 0.005950927734375, 0.053466796875000, -0.001724243164062, 0.000381469726562, -0.003265380859375, -0.005218505859375, 0.001480102539062, 0.003021240234375, 0.014724731445312, -0.008697509765625, 0.000183105468750, -0.000610351562500, -0.001632690429688, -0.001190185546875, 0.008300781250000, 0.004272460937500, 0.005935668945312, 0.003448486328125, 0.028091430664062, 0.008041381835938, 0.006469726562500, -0.000961303710938, -0.005676269531250, -0.006378173828125, -0.007659912109375, -0.024658203125000, -0.011642456054688, -0.009429931640625, 0.005310058593750, 0.006118774414062, 0.006103515625000, -0.012954711914062, 0.005020141601562, -0.004348754882812, -0.015396118164062, -0.009780883789062, -0.005981445312500, -0.019989013671875, 0.004394531250000, 0.020507812500000, -0.009552001953125, 0.000228881835938, -0.013687133789062, -0.014038085937500, -0.001098632812500, -0.003387451171875, -0.003356933593750, -0.000167846679688, -0.000625610351562, 0.007461547851562, -0.012954711914062, -0.001373291015625, -0.005645751953125, 0.010177612304688, -0.008468627929688, -0.000762939453125, -0.022949218750000, -0.004745483398438, -0.005874633789062, -0.001510620117188, -0.002502441406250, 0.033447265625000, 0.004531860351562, -0.009384155273438, -0.019378662109375, -0.004272460937500, 0.011322021484375, -0.001754760742188, -0.000411987304688, -0.009704589843750, 0.002471923828125, 0.005187988281250, -0.015029907226562, -0.003219604492188, -0.000839233398438, 0.005371093750000, -0.005645751953125, 0.013229370117188, -0.000442504882812, -0.012115478515625, -0.004776000976562, 0.033386230468750, -0.005950927734375, -0.005538940429688, -0.002120971679688, 0.004806518554688, 0.003860473632812, -0.002395629882812, 0.001525878906250, -0.001892089843750, -0.005142211914062, 0.001159667968750, -0.009063720703125, 0.005859375000000, 0.016494750976562, -0.003219604492188, 0.000473022460938, -0.015853881835938, 0.032684326171875, -0.007629394531250, -0.006164550781250, 0.002029418945312, -0.015853881835938, 0.006683349609375, -0.005142211914062, -0.001419067382812, 0.003936767578125, -0.013076782226562, -0.001358032226562, -0.011779785156250, -0.000518798828125, 0.006713867187500, -0.007553100585938, -0.010391235351562, 0.005691528320312, -0.005310058593750, -0.003936767578125, -0.008666992187500, -0.010009765625000, -0.001647949218750, 0.003082275390625, -0.013366699218750, -0.022125244140625, 0.018737792968750, 0.002838134765625, -0.014556884765625, -0.027633666992188, 0.005294799804688, -0.015625000000000, -0.066253662109375, -0.000061035156250, -0.002014160156250, 0.010009765625000, 0.007415771484375, -0.003631591796875, -0.008651733398438, -0.008880615234375, 0.004272460937500, 0.004364013671875, 0.004898071289062, 0.014923095703125, 0.000671386718750, 0.009277343750000, -0.038452148437500, 0.003997802734375, -0.003158569335938, 0.006042480468750, -0.005355834960938, 0.014907836914062, 0.011520385742188, 0.004272460937500, -0.003784179687500, 0.029769897460938, 0.065093994140625, 0.019699096679688, 0.018234252929688, -0.000976562500000, 0.012573242187500, 0.001800537109375, 0.035476684570312, -0.005371093750000, 0.002822875976562, 0.028686523437500, 0.016067504882812, -0.004287719726562, 0.023391723632812, 0.000671386718750, -0.031417846679688, -0.001510620117188, -0.013793945312500, 0.027694702148438, 0.007507324218750, -0.009475708007812, -0.004043579101562, 0.004501342773438, 0.031829833984375, -0.029739379882812, -0.016128540039062, 0.000152587890625, 0.000228881835938, 0.013854980468750, -0.003921508789062, -0.008438110351562, -0.013122558593750, 0.021621704101562, 0.006866455078125, -0.015258789062500, -0.021301269531250, 0.009750366210938, -0.029571533203125, 0.002258300781250, -0.002883911132812, 0.031646728515625, 0.012786865234375, -0.005401611328125, -0.000335693359375, 0.012054443359375, -0.014053344726562, -0.010162353515625, 0.007308959960938, 0.039886474609375, 0.005767822265625, -0.005050659179688, 0.006378173828125, -0.015487670898438, -0.016769409179688, 0.010742187500000, 0.021850585937500, -0.005218505859375, -0.017578125000000, -0.000457763671875, 0.003829956054688, -0.004898071289062, -0.022171020507812, -0.024856567382812, 0.008590698242188, 0.010314941406250, -0.000885009765625, 0.017517089843750, -0.010864257812500, 0.038543701171875, 0.008300781250000, -0.004348754882812, -0.003433227539062, -0.004898071289062, 0.005996704101562, -0.021240234375000, -0.009704589843750, -0.010009765625000, -0.000045776367188, 0.045547485351562, -0.020599365234375, 0.005050659179688, 0.011444091796875, 0.001342773437500, 0.029190063476562, 0.006835937500000, 0.025558471679688, 0.006393432617188, 0.002746582031250, -0.000183105468750, 0.017425537109375, -0.003982543945312, -0.002761840820312, 0.008483886718750, 0.007339477539062, -0.010147094726562, -0.005249023437500, 0.023239135742188, -0.032196044921875, -0.006561279296875, 0.005493164062500, -0.014266967773438, -0.012725830078125, 0.016601562500000, -0.016448974609375, 0.002944946289062, -0.079681396484375, 0.011352539062500, 0.013626098632812, 0.014083862304688, 0.001449584960938, 0.000305175781250, 0.004013061523438, -0.011627197265625, -0.000961303710938, 0.000869750976562, 0.018814086914062, 0.003402709960938, -0.002227783203125, -0.016296386718750, 0.005752563476562, 0.001815795898438, 0.001907348632812, -0.016464233398438, -0.015075683593750, 0.004272460937500, -0.005813598632812, -0.012130737304688, 0.000747680664062, 0.016983032226562, 0.014678955078125, 0.014297485351562, 0.004714965820312, 0.001724243164062, 0.013290405273438, -0.002090454101562, 0.004608154296875, 0.005126953125000, 0.011413574218750, -0.000854492187500, 0.026184082031250, 0.009689331054688, 0.002853393554688, 0.002426147460938, -0.022201538085938, 0.000671386718750, -0.009033203125000, 0.008193969726562, 0.015747070312500, 0.005950927734375, 0.011856079101562, 0.013488769531250, -0.011306762695312, -0.008621215820312, 0.002120971679688, 0.006027221679688, 0.010848999023438, 0.015945434570312, -0.001556396484375, 0.015777587890625, 0.005279541015625, 0.012252807617188, 0.002807617187500, 0.006042480468750, 0.011123657226562, -0.014251708984375, -0.032669067382812, -0.020782470703125, 0.019287109375000, 0.016464233398438, 0.005966186523438, -0.007141113281250, -0.009155273437500, -0.000503540039062, 0.005172729492188, -0.006271362304688, -0.003631591796875, 0.018341064453125, 0.004318237304688, -0.014755249023438, 0.004226684570312, -0.001693725585938, -0.002700805664062, 0.008377075195312, 0.012344360351562, 0.004989624023438, -0.031997680664062, -0.003051757812500, 0.005523681640625, -0.010086059570312, 0.007934570312500, 0.006256103515625, -0.010360717773438, -0.000396728515625, -0.005401611328125, 0.001525878906250, -0.006637573242188, 0.013092041015625, -0.002792358398438, -0.013977050781250, 0.000778198242188, 0.002151489257812, 0.027282714843750, -0.032135009765625, -0.000061035156250, 0.004104614257812, 0.012435913085938, 0.014083862304688, -0.008575439453125, 0.001953125000000, 0.002609252929688, -0.001037597656250, 0.016143798828125, 0.002853393554688, 0.011413574218750, 0.001998901367188, 0.009063720703125, -0.005310058593750, 0.005920410156250, -0.005493164062500, 0.006774902343750, -0.009689331054688, 0.000137329101562, -0.002166748046875, -0.000701904296875, 0.004501342773438, -0.002944946289062, -0.003829956054688, 0.003845214843750, -0.001312255859375, 0.000595092773438, 0.000915527343750, 0.004669189453125, 0.005218505859375, -0.016494750976562, 0.000900268554688, 0.004348754882812, 0.001739501953125, 0.003005981445312, 0.004486083984375, -0.001388549804688, 0.000564575195312, 0.004486083984375, 0.003097534179688, -0.004287719726562, 0.002548217773438, 0.003311157226562, -0.000442504882812, 0.003433227539062, 0.007568359375000, 0.000900268554688, -0.000152587890625, 0.005233764648438, -0.002685546875000, -0.001815795898438, 0.003067016601562, 0.003311157226562, 0.000122070312500, 0.004089355468750, -0.001495361328125, 0.000961303710938, 0.003005981445312, 0.001800537109375, 0.001541137695312, 0.001892089843750, -0.002334594726562, 0.004547119140625, -0.006408691406250, 0.001983642578125, 0.004013061523438, 0.000823974609375, 0.001327514648438, -0.003067016601562, 0.001251220703125, 0.004714965820312, -0.000457763671875, 0.004119873046875, 0.004364013671875, 0.001342773437500, -0.001205444335938, 0.001785278320312, 0.001617431640625, 0.005126953125000, 0.000503540039062, 0.000274658203125, 0.001007080078125, 0.003845214843750, 0.000869750976562, 0.002029418945312, -0.002365112304688, 0.002426147460938, -0.000106811523438, -0.002349853515625, 0.003387451171875, -0.003936767578125, 0.003173828125000, 0.001861572265625, -0.000595092773438, -0.000564575195312, 0.002593994140625, -0.000854492187500, 0.004714965820312, -0.002197265625000, 0.001525878906250, 0.002365112304688, 0.000640869140625, 0.003677368164062, -0.002639770507812, 0.002777099609375, 0.005081176757812, 0.003005981445312, 0.002655029296875, 0.000259399414062, -0.003158569335938, 0.000534057617188, 0.002578735351562, 0.000625610351562, 0.000442504882812, 0.001708984375000, 0.002777099609375, 0.003982543945312, 0.006546020507812, 0.003005981445312, -0.004333496093750, 0.006484985351562, -0.000396728515625, 0.006607055664062, 0.002899169921875, -0.000152587890625, 0.004287719726562, 0.000015258789062, -0.002029418945312, 0.001815795898438, 0.004653930664062, 0.003814697265625, 0.002471923828125, -0.002914428710938, 0.003189086914062, 0.003662109375000, 0.001739501953125, 0.001144409179688, -0.000625610351562, -0.000289916992188, -0.000427246093750, 0.002593994140625, -0.000274658203125, -0.001083374023438, 0.000030517578125, -0.001846313476562, 0.000213623046875, 0.004150390625000, 0.000091552734375, 0.001235961914062, -0.003631591796875, -0.039611816406250, 0.004394531250000, 0.010635375976562, 0.005737304687500, -0.006820678710938, -0.033493041992188, -0.003387451171875, 0.006774902343750, -0.047836303710938, -0.003921508789062, 0.006103515625000, -0.002365112304688, -0.003112792968750, -0.039016723632812, -0.000198364257812, -0.034667968750000, 0.013519287109375, 0.005523681640625, -0.008941650390625, -0.008255004882812, 0.005889892578125, 0.012664794921875, -0.034164428710938, -0.018188476562500, -0.011947631835938, -0.041275024414062, -0.011932373046875, -0.010986328125000, 0.007751464843750, 0.004974365234375, 0.013214111328125, -0.005203247070312, 0.011474609375000, 0.001937866210938, 0.007217407226562, 0.009246826171875, 0.000610351562500, -0.038406372070312, 0.006225585937500, -0.005752563476562, -0.006759643554688, 0.016815185546875, 0.001312255859375, -0.003890991210938, 0.007339477539062, 0.003402709960938, -0.013351440429688, 0.006027221679688, -0.003829956054688, 0.006774902343750, 0.000534057617188, 0.002105712890625, -0.006057739257812, 0.001266479492188, -0.004913330078125, 0.008300781250000, -0.011154174804688, 0.013763427734375, 0.002929687500000, -0.000442504882812, -0.003662109375000, -0.005386352539062, -0.002166748046875, 0.011383056640625, 0.004150390625000, -0.007049560546875, -0.024841308593750, -0.007354736328125, -0.026107788085938, 0.001266479492188, 0.017944335937500, -0.000244140625000, -0.002593994140625, -0.001937866210938, -0.000839233398438, 0.001678466796875, -0.002929687500000, -0.002044677734375, -0.004653930664062, 0.000534057617188, -0.013961791992188, 0.007034301757812, -0.018829345703125, 0.003952026367188, -0.011779785156250, -0.025802612304688, 0.011016845703125, 0.005065917968750, -0.040176391601562, -0.000411987304688, -0.005813598632812, 0.006256103515625, -0.013534545898438, 0.005737304687500, -0.002044677734375, -0.000625610351562, -0.014465332031250, -0.005004882812500, 0.001388549804688, 0.003906250000000, -0.004699707031250, -0.018035888671875, -0.022827148437500, 0.006240844726562, 0.001205444335938, -0.033767700195312, -0.004272460937500, 0.010543823242188, 0.004562377929688, 0.005920410156250, -0.018676757812500, 0.003692626953125, 0.009872436523438, -0.015380859375000, 0.004867553710938, -0.014068603515625, 0.010314941406250, -0.006027221679688, 0.007034301757812, -0.002883911132812, -0.009201049804688, -0.001632690429688, 0.011398315429688, -0.003341674804688, 0.013183593750000, 0.008193969726562, 0.003356933593750, -0.008224487304688, -0.037673950195312, 0.003875732421875, 0.005432128906250, -0.004287719726562, 0.006622314453125, 0.016769409179688, -0.004333496093750, 0.007781982421875, -0.079269409179688, 0.002746582031250, -0.002120971679688, 0.036911010742188, -0.017562866210938, -0.023223876953125, 0.024353027343750, 0.001739501953125, -0.003356933593750, 0.002441406250000, 0.001235961914062, 0.011672973632812, 0.003555297851562, -0.020141601562500, -0.015014648437500, -0.020446777343750, -0.027023315429688, -0.027725219726562, -0.028808593750000, 0.001052856445312, 0.001281738281250, 0.003707885742188, -0.004730224609375, 0.012344360351562, 0.020156860351562, 0.015884399414062, 0.000305175781250, 0.003890991210938, 0.032119750976562, -0.001144409179688, 0.018508911132812, 0.000732421875000, 0.000854492187500, 0.018447875976562, 0.013626098632812, 0.006072998046875, 0.008193969726562, 0.001678466796875, -0.032104492187500, 0.008911132812500, -0.004013061523438, 0.009292602539062, 0.007537841796875, -0.001602172851562, -0.007675170898438, -0.006683349609375, 0.028594970703125, -0.004486083984375, 0.005035400390625, -0.009155273437500, 0.021728515625000, 0.018661499023438, 0.011520385742188, 0.009643554687500, 0.010864257812500, 0.010498046875000, -0.011276245117188, -0.008377075195312, 0.012023925781250, 0.003906250000000, -0.027130126953125, 0.000213623046875, 0.005249023437500, 0.017868041992188, 0.003295898437500, -0.011047363281250, -0.010910034179688, 0.006423950195312, -0.005844116210938, -0.001480102539062, -0.017623901367188, 0.008117675781250, 0.018020629882812, 0.004531860351562, -0.019607543945312, -0.001266479492188, 0.005264282226562, 0.001434326171875, 0.016326904296875, 0.014129638671875, -0.012451171875000, -0.013198852539062, 0.002105712890625, 0.000259399414062, -0.009704589843750, 0.019027709960938, 0.004714965820312, -0.008773803710938, 0.007904052734375, -0.000869750976562, -0.001724243164062, 0.021224975585938, -0.002563476562500, -0.006347656250000, 0.021789550781250, -0.003158569335938, 0.035461425781250, -0.031646728515625, -0.019851684570312, -0.009475708007812, 0.011291503906250, 0.027557373046875, -0.008758544921875, -0.004898071289062, -0.004562377929688, -0.016448974609375, 0.020523071289062, -0.004547119140625, 0.036895751953125, 0.001785278320312, 0.019424438476562, 0.021255493164062, 0.033020019531250, -0.000289916992188, 0.010787963867188, -0.017227172851562, -0.007751464843750, -0.000854492187500, -0.013427734375000, -0.002456665039062, 0.095870971679688, 0.038772583007812, 0.003326416015625, -0.011169433593750, 0.080780029296875, -0.008789062500000, 0.015075683593750, -0.010910034179688, 0.193344116210938, -0.006622314453125, -0.025070190429688, -0.009140014648438, -0.002288818359375, 0.006607055664062, 0.002349853515625, 0.072372436523438, 0.002410888671875, -0.004913330078125, -0.038909912109375, 0.004776000976562, -0.009658813476562, -0.009368896484375, 0.024307250976562, 0.018753051757812, -0.001068115234375, 0.044616699218750, 0.030242919921875, -0.035217285156250, -0.001129150390625, 0.011291503906250, 0.022781372070312, 0.008529663085938, -0.074752807617188, 0.003341674804688, -0.005752563476562, 0.001556396484375, 0.001907348632812, -0.018310546875000, -0.020050048828125, 0.001937866210938, -0.017562866210938, -0.020996093750000, -0.014968872070312, 0.015060424804688, -0.030776977539062, -0.007858276367188, 0.086303710937500, -0.001617431640625, 0.001449584960938, 0.000671386718750, 0.003784179687500, -0.012634277343750, 0.001785278320312, -0.006652832031250, 0.016265869140625, 0.035034179687500, -0.020858764648438, -0.006561279296875, 0.010620117187500, -0.050033569335938, -0.007553100585938, -0.014526367187500, 0.014282226562500, -0.026184082031250, -0.006439208984375, 0.004882812500000, 0.003173828125000, -0.004257202148438, 0.126525878906250, 0.014389038085938, 0.004333496093750, -0.026687622070312, 0.001617431640625, 0.013122558593750, 0.018203735351562, -0.005920410156250, -0.019729614257812, 0.004302978515625, 0.035995483398438, -0.032943725585938, -0.016754150390625, 0.037216186523438, 0.007171630859375, -0.005615234375000, -0.015640258789062, 0.018127441406250, -0.030670166015625, -0.000900268554688, 0.064086914062500, -0.004119873046875, -0.008209228515625, 0.026565551757812, -0.003707885742188, 0.045928955078125, -0.014205932617188, 0.002502441406250, 0.005950927734375, -0.031234741210938, 0.001922607421875, -0.045486450195312, 0.000747680664062, 0.051116943359375, 0.015716552734375, -0.008499145507812, -0.027252197265625, 0.103210449218750, 0.000625610351562, 0.017623901367188, -0.003738403320312, -0.052047729492188, 0.003479003906250, 0.008010864257812, -0.005325317382812, -0.027420043945312, -0.037582397460938, 0.009078979492188, -0.040359497070312, 0.016479492187500, -0.009780883789062, 0.016418457031250, -0.028350830078125, -0.011703491210938, 0.005264282226562, 0.021102905273438, -0.012298583984375, -0.013381958007812, -0.015350341796875, -0.019454956054688, -0.024963378906250, -0.021881103515625, 0.002532958984375, 0.001922607421875, 0.001785278320312, -0.025558471679688, -0.007415771484375, -0.003158569335938, -0.043640136718750, 0.009185791015625, 0.007812500000000, 0.004135131835938, 0.005844116210938, -0.023712158203125, 0.002746582031250, -0.033142089843750, 0.001220703125000, 0.004714965820312, 0.000869750976562, 0.004119873046875, 0.007720947265625, 0.007156372070312, -0.017501831054688, -0.009918212890625, -0.002655029296875, -0.029571533203125, 0.002273559570312, -0.003585815429688, -0.001159667968750, -0.002075195312500, 0.001892089843750, 0.012481689453125, 0.012969970703125, 0.011047363281250, -0.006118774414062, 0.006668090820312, 0.005676269531250, -0.018615722656250, 0.010971069335938, -0.004791259765625, 0.014572143554688, 0.006591796875000, 0.013046264648438, 0.005661010742188, 0.009368896484375, 0.009750366210938, -0.007476806640625, 0.007720947265625, 0.001205444335938, 0.022979736328125, 0.003005981445312, 0.010314941406250, 0.012817382812500, 0.003662109375000, 0.001358032226562, 0.004577636718750, -0.016937255859375, 0.007492065429688, 0.008331298828125, 0.018127441406250, -0.003662109375000, 0.008605957031250, -0.004653930664062, 0.006469726562500, 0.000717163085938, -0.000335693359375, -0.011291503906250, 0.003768920898438, -0.018554687500000, 0.013000488281250, 0.006805419921875, 0.009765625000000, -0.012893676757812, -0.001525878906250, -0.003784179687500, 0.007980346679688, 0.002609252929688, 0.002029418945312, -0.015838623046875, 0.013015747070312, -0.012435913085938, 0.004928588867188, -0.000076293945312, 0.002792358398438, 0.003372192382812, 0.001800537109375, 0.003768920898438, 0.001464843750000, -0.018508911132812, 0.013916015625000, 0.009338378906250, -0.010574340820312, -0.006744384765625, -0.004196166992188, -0.002456665039062, 0.000534057617188, 0.002975463867188, 0.000442504882812, 0.003799438476562, 0.016937255859375, 0.000610351562500, -0.010131835937500, -0.016754150390625, 0.007949829101562, 0.013946533203125, -0.017654418945312, -0.010055541992188, -0.001342773437500, -0.010330200195312, 0.010742187500000, -0.010711669921875, 0.004470825195312, 0.011825561523438, -0.011322021484375, 0.014633178710938, -0.012863159179688, 0.009429931640625, -0.001342773437500, 0.005645751953125, -0.000656127929688, 0.010299682617188, 0.002639770507812, -0.007049560546875, 0.001007080078125, 0.011718750000000, 0.005264282226562, -0.003982543945312, -0.002471923828125, 0.009994506835938, -0.001800537109375, -0.000564575195312, -0.001235961914062, -0.000564575195312, -0.004852294921875, 0.002609252929688, 0.003845214843750, 0.023422241210938, 0.002532958984375, 0.003890991210938, -0.005477905273438, -0.001510620117188, 0.001144409179688, -0.001403808593750, 0.009170532226562, 0.001342773437500, -0.001770019531250, -0.007385253906250, -0.000778198242188, 0.000595092773438, 0.000457763671875, -0.000198364257812, 0.000900268554688, -0.000076293945312, 0.011154174804688, 0.009979248046875, -0.001708984375000, -0.001678466796875, 0.005905151367188, 0.008438110351562, 0.000213623046875, -0.013168334960938, -0.006057739257812, -0.004501342773438, 0.005477905273438, 0.006103515625000, -0.003280639648438, -0.006774902343750, -0.001495361328125, 0.000198364257812, -0.006637573242188, -0.003448486328125, 0.000122070312500, -0.003982543945312, -0.007217407226562, 0.009353637695312, 0.004989624023438, 0.006866455078125, -0.008483886718750, -0.002593994140625, -0.004165649414062, 0.003158569335938, 0.000503540039062, -0.002639770507812, -0.003814697265625, 0.005615234375000, 0.000625610351562, 0.007049560546875, 0.000122070312500, 0.003402709960938, -0.000762939453125, 0.003005981445312, -0.006210327148438, 0.003326416015625, -0.005859375000000, -0.002334594726562, 0.003845214843750, 0.007583618164062, -0.001907348632812, 0.006088256835938, -0.006591796875000, -0.001007080078125, 0.000091552734375, -0.001235961914062, 0.004867553710938, -0.002456665039062, -0.001098632812500, 0.004440307617188, -0.007736206054688, 0.006744384765625, 0.000228881835938, 0.002304077148438, 0.003631591796875, 0.003952026367188, 0.006881713867188, -0.007293701171875, 0.000289916992188, 0.011489868164062, -0.003952026367188, 0.006042480468750, -0.000717163085938, 0.002410888671875, -0.001159667968750, 0.005920410156250, -0.000686645507812, 0.000976562500000, 0.000885009765625, 0.001098632812500, -0.006912231445312, 0.000259399414062, 0.006774902343750, 0.006500244140625, -0.004394531250000, -0.005569458007812, 0.013504028320312, 0.008331298828125, 0.003051757812500, -0.003021240234375, -0.009124755859375, 0.002380371093750, 0.003082275390625, -0.001037597656250, -0.003143310546875, 0.000854492187500, -0.006011962890625, -0.004043579101562, -0.008880615234375, 0.001174926757812, -0.005889892578125, -0.003128051757812, 0.005416870117188, 0.001449584960938, -0.000823974609375, 0.005355834960938, -0.000640869140625, -0.002365112304688, -0.000503540039062, 0.058639526367188, -0.000701904296875, 0.004898071289062, 0.003814697265625, 0.051788330078125, -0.017333984375000, 0.009414672851562, -0.010375976562500, 0.090667724609375, 0.016708374023438, -0.015808105468750, -0.000396728515625, -0.006744384765625, 0.002899169921875, -0.000808715820312, 0.025756835937500, -0.002273559570312, 0.014343261718750, -0.012863159179688, 0.007568359375000, 0.006973266601562, 0.005615234375000, -0.002090454101562, 0.006530761718750, -0.002349853515625, 0.018600463867188, 0.028106689453125, -0.024490356445312, 0.011230468750000, -0.008621215820312, -0.015914916992188, 0.002243041992188, -0.034103393554688, 0.000808715820312, 0.002471923828125, 0.009384155273438, -0.002639770507812, -0.011718750000000, -0.009017944335938, 0.009735107421875, 0.000961303710938, -0.032318115234375, -0.013275146484375, -0.006195068359375, -0.019622802734375, -0.004196166992188, 0.042694091796875, -0.019119262695312, -0.001434326171875, 0.001510620117188, 0.001510620117188, -0.003707885742188, -0.004776000976562, 0.001098632812500, 0.016708374023438, 0.012771606445312, -0.011123657226562, -0.005569458007812, -0.004104614257812, -0.024597167968750, -0.006774902343750, 0.000457763671875, 0.009841918945312, -0.013427734375000, -0.000228881835938, -0.001312255859375, -0.000473022460938, -0.001220703125000, 0.068206787109375, 0.013809204101562, -0.012924194335938, -0.027603149414062, -0.007781982421875, 0.017776489257812, -0.000213623046875, 0.003021240234375, -0.008377075195312, -0.002578735351562, 0.009735107421875, -0.034713745117188, 0.004745483398438, 0.006637573242188, 0.007019042968750, -0.003494262695312, -0.004959106445312, -0.006607055664062, -0.008193969726562, 0.004425048828125, 0.047012329101562, 0.020278930664062, -0.003097534179688, -0.010192871093750, 0.000808715820312, 0.004074096679688, 0.005355834960938, 0.003021240234375, 0.012924194335938, -0.012420654296875, -0.000198364257812, -0.012786865234375, 0.003433227539062, 0.047500610351562, 0.006668090820312, 0.000732421875000, 0.001129150390625, 0.065490722656250, -0.002578735351562, -0.009475708007812, -0.003082275390625, -0.020294189453125, 0.011077880859375, 0.003189086914062, -0.003463745117188, -0.025024414062500, -0.005996704101562, 0.001983642578125, -0.012084960937500, 0.001358032226562, -0.006958007812500, -0.004028320312500, -0.013320922851562, -0.003875732421875, -0.001266479492188, 0.002304077148438, -0.023162841796875, -0.010574340820312, 0.000488281250000, -0.009613037109375, 0.004226684570312, 0.023254394531250, 0.000793457031250, -0.007995605468750, 0.009521484375000, -0.001892089843750, 0.005035400390625, 0.005874633789062, 0.022171020507812, -0.006225585937500, 0.004455566406250, -0.015304565429688, 0.009704589843750, 0.004867553710938, -0.010284423828125, 0.019699096679688, 0.008605957031250, -0.008590698242188, -0.002777099609375, 0.000122070312500, 0.004043579101562, -0.008895874023438, -0.003616333007812, 0.002716064453125, -0.007980346679688, -0.013427734375000, -0.006225585937500, 0.001953125000000, 0.003417968750000, 0.007461547851562, 0.009567260742188, 0.004577636718750, -0.001052856445312, -0.007034301757812, -0.001113891601562, -0.008361816406250, -0.013748168945312, 0.006362915039062, -0.005813598632812, -0.000579833984375, -0.001998901367188, 0.002273559570312, -0.009658813476562, -0.006210327148438, -0.007461547851562, 0.000366210937500, -0.005630493164062, 0.005813598632812, 0.010238647460938, -0.008041381835938, -0.003738403320312, -0.008056640625000, -0.013565063476562, 0.001586914062500, -0.006011962890625, 0.000183105468750, 0.019760131835938, -0.002777099609375, 0.004196166992188, 0.005249023437500, 0.002014160156250, -0.015319824218750, -0.004623413085938, 0.002502441406250, -0.001983642578125, -0.010925292968750, 0.007461547851562, 0.009933471679688, -0.004089355468750, -0.013046264648438, 0.009216308593750, -0.001800537109375, 0.008697509765625, -0.004135131835938, 0.007629394531250, -0.004058837890625, -0.008834838867188, -0.004119873046875, 0.024063110351562, -0.002914428710938, -0.010986328125000, 0.006027221679688, -0.004425048828125, 0.004837036132812, -0.002471923828125, -0.007202148437500, -0.010818481445312, -0.014739990234375, -0.000457763671875, 0.000671386718750, 0.003311157226562, 0.016174316406250, 0.001525878906250, -0.015289306640625, 0.007995605468750, 0.010864257812500, 0.006317138671875, -0.001708984375000, 0.000061035156250, 0.004135131835938, -0.001495361328125, -0.011062622070312, 0.007141113281250, -0.002822875976562, -0.012100219726562, -0.006164550781250, 0.028320312500000, -0.003112792968750, 0.011657714843750, -0.006118774414062, 0.001663208007812, -0.000686645507812, 0.003372192382812, 0.016204833984375, -0.007858276367188, -0.011383056640625, -0.009140014648438, -0.005615234375000, 0.008834838867188, 0.004226684570312, -0.012191772460938, -0.010177612304688, 0.023391723632812, 0.002944946289062, -0.011215209960938, 0.010696411132812, 0.002731323242188, 0.000549316406250, 0.000671386718750, 0.001708984375000, 0.003479003906250, -0.003601074218750, 0.003601074218750, 0.004882812500000, -0.002273559570312, 0.003875732421875, 0.000732421875000, 0.000640869140625, 0.003494262695312, 0.002777099609375, 0.004150390625000, 0.002105712890625, -0.001754760742188, 0.000152587890625, 0.004257202148438, -0.002624511718750, -0.003509521484375, 0.002822875976562, 0.000793457031250, -0.003372192382812, -0.001449584960938, 0.002471923828125, -0.001831054687500, -0.005645751953125, 0.001876831054688, -0.002151489257812, 0.003021240234375, 0.005081176757812, 0.001663208007812, -0.000061035156250, -0.001922607421875, -0.002593994140625, 0.000167846679688, 0.002151489257812, 0.002075195312500, -0.000808715820312, -0.005661010742188, -0.001510620117188, -0.003646850585938, -0.003250122070312, 0.001708984375000, 0.000640869140625, -0.005508422851562, -0.000640869140625, -0.000503540039062, -0.000289916992188, 0.001632690429688, 0.000701904296875, 0.003112792968750, -0.000778198242188, 0.000869750976562, 0.000549316406250, 0.002288818359375, -0.000946044921875, 0.001815795898438, -0.000701904296875, 0.000534057617188, 0.000732421875000, -0.002136230468750, -0.001876831054688, 0.004592895507812, -0.003890991210938, 0.002899169921875, -0.000930786132812, -0.000839233398438, 0.002883911132812, 0.001220703125000, 0.000274658203125, 0.007400512695312, -0.002761840820312, -0.003692626953125, -0.000045776367188, 0.005218505859375, -0.001602172851562, -0.003570556640625, 0.003265380859375, 0.001663208007812, -0.009140014648438, 0.005706787109375, 0.001403808593750, -0.000274658203125, 0.005203247070312, -0.001861572265625, 0.003417968750000, -0.001937866210938, -0.003265380859375, -0.002151489257812, -0.002792358398438, -0.000335693359375, -0.001235961914062, -0.001739501953125, 0.000854492187500, 0.003829956054688, 0.004898071289062, 0.007293701171875, 0.000000000000000, 0.006408691406250, 0.000549316406250, 0.006576538085938, 0.000518798828125, -0.000991821289062, 0.004531860351562, -0.003082275390625, -0.000320434570312, 0.001190185546875, 0.002700805664062, 0.000106811523438, -0.002120971679688, -0.005371093750000, -0.001663208007812, 0.004257202148438, -0.003768920898438, -0.000610351562500, -0.001098632812500, -0.003189086914062, -0.002456665039062, 0.004699707031250, 0.001739501953125, -0.002014160156250, 0.002792358398438, 0.002548217773438, 0.001571655273438, 0.000289916992188, -0.001419067382812, -0.003326416015625, 0.000015258789062, 0.026885986328125, -0.002410888671875, -0.002777099609375, -0.003219604492188, 0.007217407226562, -0.002166748046875, -0.002105712890625, -0.003860473632812, 0.048614501953125, -0.006683349609375, -0.012786865234375, -0.010192871093750, -0.003662109375000, -0.002197265625000, 0.011199951171875, 0.018768310546875, -0.012222290039062, -0.004470825195312, -0.002105712890625, -0.003936767578125, -0.004211425781250, -0.001144409179688, -0.005554199218750, 0.013305664062500, -0.016357421875000, 0.006744384765625, 0.006332397460938, 0.019653320312500, -0.001586914062500, -0.000976562500000, -0.004806518554688, 0.008102416992188, 0.003265380859375, -0.011535644531250, -0.008575439453125, 0.000534057617188, 0.000732421875000, 0.003601074218750, -0.010360717773438, -0.012008666992188, -0.000137329101562, -0.005508422851562, -0.009948730468750, 0.003295898437500, -0.002883911132812, 0.000869750976562, 0.020935058593750, -0.005844116210938, 0.014480590820312, 0.005249023437500, 0.010726928710938, -0.004318237304688, -0.002716064453125, 0.010116577148438, 0.003234863281250, -0.010116577148438, -0.004028320312500, -0.008422851562500, 0.008178710937500, 0.000167846679688, 0.008377075195312, -0.003814697265625, -0.005538940429688, -0.005325317382812, -0.004028320312500, 0.001586914062500, -0.007812500000000, 0.002868652343750, 0.028396606445312, -0.002243041992188, -0.008132934570312, 0.001922607421875, 0.008209228515625, -0.008529663085938, 0.006317138671875, -0.027420043945312, -0.008911132812500, -0.002471923828125, 0.007553100585938, -0.010238647460938, -0.004074096679688, -0.010772705078125, -0.003677368164062, 0.002441406250000, 0.032073974609375, -0.010040283203125, -0.005798339843750, 0.005081176757812, 0.013626098632812, -0.006332397460938, 0.012145996093750, 0.001663208007812, -0.008239746093750, 0.003143310546875, -0.003784179687500, 0.005783081054688, -0.012985229492188, -0.008972167968750, -0.013229370117188, -0.007873535156250, -0.004104614257812, 0.011825561523438, 0.007812500000000, -0.004318237304688, -0.003707885742188, 0.022735595703125, 0.003479003906250, -0.001129150390625, -0.008453369140625, -0.008392333984375, 0.001358032226562, 0.005615234375000, -0.000839233398438, 0.006668090820312, 0.001464843750000, -0.010818481445312, -0.008651733398438, -0.009811401367188, -0.002166748046875, -0.004028320312500, 0.003814697265625, -0.004730224609375, -0.006790161132812, 0.002029418945312, -0.001907348632812, 0.003875732421875, -0.011642456054688, -0.019821166992188, -0.006179809570312, 0.002441406250000, 0.003616333007812, -0.008987426757812, -0.006256103515625, 0.008377075195312, 0.002410888671875, 0.000717163085938, -0.023025512695312, -0.005340576171875, 0.002471923828125, -0.000167846679688, -0.001419067382812, 0.004440307617188, 0.000732421875000, -0.000274658203125, -0.002624511718750, -0.002105712890625, -0.002288818359375, 0.005371093750000, 0.003341674804688, 0.006561279296875, 0.007324218750000, 0.007675170898438, -0.003021240234375, -0.005142211914062, 0.004058837890625, 0.015625000000000, -0.005630493164062, -0.002853393554688, 0.002655029296875, -0.006713867187500, -0.002975463867188, -0.007797241210938, 0.007934570312500, -0.003875732421875, 0.001296997070312, 0.005584716796875, 0.000015258789062, -0.008193969726562, -0.000534057617188, -0.006942749023438, 0.000366210937500, 0.007629394531250, -0.001754760742188, -0.002761840820312, -0.002471923828125, -0.004486083984375, 0.001327514648438, -0.001708984375000, -0.001785278320312, 0.006408691406250, 0.000259399414062, -0.009719848632812, -0.005737304687500, -0.012496948242188, 0.005874633789062, -0.000198364257812, 0.003692626953125, 0.000289916992188, 0.005279541015625, 0.002471923828125, 0.005172729492188, -0.000946044921875, 0.004592895507812, -0.001098632812500, -0.000595092773438, -0.003112792968750, -0.010253906250000, -0.003372192382812, 0.005859375000000, -0.003067016601562, -0.000518798828125, -0.007019042968750, -0.003112792968750, -0.000640869140625, -0.002822875976562, -0.002471923828125, 0.003509521484375, -0.001510620117188, 0.007324218750000, -0.005523681640625, -0.009826660156250, 0.002517700195312, 0.003479003906250, 0.008728027343750, 0.004074096679688, -0.012145996093750, -0.004318237304688, -0.002075195312500, 0.001541137695312, -0.001266479492188, -0.002120971679688, -0.010757446289062, 0.002395629882812, -0.003799438476562, 0.008560180664062, 0.004547119140625, 0.001602172851562, 0.001602172851562, 0.002914428710938, -0.002563476562500, 0.005584716796875, 0.003021240234375, 0.000503540039062, -0.005737304687500, 0.004882812500000, -0.002395629882812, 0.005218505859375, 0.002975463867188, 0.005691528320312, -0.003280639648438, -0.002700805664062, 0.005966186523438, -0.002166748046875, -0.005630493164062, -0.001434326171875, -0.002700805664062, 0.003997802734375, -0.012023925781250, -0.003952026367188, -0.006469726562500, 0.000076293945312, -0.003616333007812, 0.001617431640625, -0.000442504882812, -0.006515502929688, 0.005386352539062, -0.028350830078125, -0.000473022460938, 0.004714965820312, 0.019531250000000, -0.012084960937500, -0.012405395507812, -0.018463134765625, -0.005752563476562, -0.064025878906250, -0.002380371093750, 0.002319335937500, 0.013702392578125, 0.002136230468750, -0.014495849609375, 0.002670288085938, -0.003021240234375, 0.003631591796875, -0.011337280273438, -0.001510620117188, 0.015884399414062, -0.003356933593750, -0.011917114257812, -0.017883300781250, -0.012359619140625, -0.010375976562500, -0.039215087890625, -0.023361206054688, -0.002609252929688, -0.005935668945312, -0.003540039062500, -0.020538330078125, 0.022094726562500, 0.024002075195312, 0.011825561523438, -0.017883300781250, 0.004043579101562, -0.002090454101562, -0.008758544921875, 0.014724731445312, -0.026519775390625, 0.002609252929688, 0.011871337890625, -0.001144409179688, 0.000259399414062, 0.017517089843750, 0.002044677734375, -0.028656005859375, 0.013854980468750, -0.015747070312500, 0.020309448242188, 0.012390136718750, -0.009521484375000, -0.000839233398438, 0.000289916992188, -0.011474609375000, 0.000320434570312, -0.011886596679688, 0.004577636718750, 0.000259399414062, 0.011383056640625, 0.023849487304688, 0.006134033203125, 0.017242431640625, 0.001647949218750, -0.006286621093750, -0.003341674804688, 0.005142211914062, -0.012145996093750, -0.032714843750000, -0.007644653320312, 0.002105712890625, 0.022415161132812, -0.005996704101562, -0.015274047851562, -0.008529663085938, -0.004623413085938, -0.004287719726562, 0.000305175781250, -0.012435913085938, 0.027648925781250, -0.014694213867188, -0.004272460937500, -0.020355224609375, -0.014526367187500, -0.008361816406250, 0.002990722656250, 0.006408691406250, -0.005798339843750, -0.041580200195312, 0.001205444335938, 0.000518798828125, 0.007980346679688, -0.015075683593750, 0.008804321289062, 0.010192871093750, -0.010803222656250, 0.011581420898438, -0.017211914062500, 0.006881713867188, 0.012481689453125, -0.003448486328125, -0.024002075195312, 0.009460449218750, 0.001266479492188, 0.006408691406250, -0.039810180664062, 0.013046264648438, -0.002029418945312, 0.010513305664062, 0.016586303710938, -0.025161743164062, 0.003631591796875, 0.015945434570312, -0.006866455078125, 0.022323608398438, -0.003463745117188, 0.016494750976562, -0.022048950195312, 0.006088256835938, 0.000640869140625, 0.018905639648438, -0.016067504882812, 0.002746582031250, -0.005172729492188, 0.012603759765625, -0.003112792968750, 0.001022338867188, -0.015335083007812, 0.002517700195312, -0.001449584960938, -0.002883911132812, -0.003082275390625, -0.000244140625000, -0.002792358398438, -0.002410888671875, -0.002059936523438, 0.003051757812500, -0.005172729492188, -0.002365112304688, -0.000747680664062, -0.003890991210938, 0.000610351562500, -0.002243041992188, -0.000320434570312, -0.002700805664062, -0.004730224609375, 0.002304077148438, -0.003753662109375, -0.003494262695312, -0.002685546875000, 0.001525878906250, 0.000274658203125, -0.001983642578125, 0.000900268554688, -0.001098632812500, 0.001663208007812, -0.004104614257812, -0.002304077148438, -0.002975463867188, -0.000228881835938, 0.004318237304688, -0.003112792968750, 0.000473022460938, -0.004257202148438, 0.000259399414062, -0.000656127929688, -0.001815795898438, -0.002716064453125, -0.002014160156250, -0.000946044921875, 0.001205444335938, -0.003097534179688, 0.000564575195312, -0.003067016601562, 0.000823974609375, -0.003204345703125, -0.000381469726562, 0.000091552734375, -0.003494262695312, -0.001663208007812, -0.003890991210938, -0.006408691406250, 0.001068115234375, -0.005111694335938, -0.000335693359375, -0.000350952148438, -0.001586914062500, 0.001205444335938, -0.002716064453125, 0.000183105468750, -0.000823974609375, -0.000030517578125, -0.002899169921875, -0.004562377929688, -0.002639770507812, -0.002670288085938, 0.000076293945312, -0.000015258789062, -0.001617431640625, 0.000625610351562, -0.003082275390625, -0.000198364257812, -0.002838134765625, -0.001876831054688, -0.005783081054688, -0.004119873046875, -0.000122070312500, 0.000061035156250, -0.000289916992188, -0.001190185546875, -0.000091552734375, -0.004058837890625, -0.001922607421875, -0.000991821289062, 0.000640869140625, 0.000900268554688, 0.002685546875000, -0.001693725585938, -0.000183105468750, -0.002700805664062, 0.000946044921875, 0.001617431640625, -0.001327514648438, -0.000305175781250, -0.002426147460938, -0.001358032226562, -0.000518798828125, 0.002731323242188, -0.000396728515625, 0.000991821289062, 0.000793457031250, -0.000991821289062, -0.000350952148438, -0.000656127929688, 0.001541137695312, -0.003356933593750, -0.000823974609375, 0.000640869140625, -0.000686645507812, -0.005172729492188, -0.004241943359375, -0.001708984375000, 0.001480102539062, -0.000671386718750, 0.003845214843750, -0.001495361328125, 0.002990722656250, -0.000640869140625, -0.000061035156250, -0.002349853515625, -0.001037597656250, -0.001770019531250, -0.002639770507812, -0.001312255859375, -0.003417968750000, 0.000015258789062, 0.017761230468750, -0.002105712890625, -0.005432128906250, -0.011306762695312, 0.000991821289062, 0.002532958984375, -0.007919311523438, 0.002197265625000, -0.005538940429688, -0.005844116210938, -0.004547119140625, 0.015762329101562, -0.001327514648438, 0.006439208984375, 0.005142211914062, 0.004104614257812, -0.005004882812500, -0.006851196289062, 0.006683349609375, -0.001937866210938, 0.001983642578125, -0.010513305664062, -0.003280639648438, -0.001892089843750, -0.011245727539062, 0.005355834960938, -0.011123657226562, 0.009948730468750, 0.002243041992188, -0.000228881835938, 0.015304565429688, 0.014739990234375, 0.009048461914062, 0.010391235351562, -0.000244140625000, -0.007019042968750, 0.008575439453125, -0.008682250976562, -0.000946044921875, -0.000915527343750, -0.001281738281250, 0.008911132812500, -0.000045776367188, 0.000747680664062, 0.014266967773438, -0.003845214843750, -0.003265380859375, 0.004013061523438, -0.004943847656250, 0.005920410156250, 0.002502441406250, 0.005157470703125, -0.003845214843750, 0.002014160156250, -0.003768920898438, 0.000228881835938, -0.002563476562500, 0.011413574218750, 0.009490966796875, 0.012664794921875, -0.002014160156250, -0.007797241210938, 0.007110595703125, 0.007186889648438, -0.008117675781250, -0.001174926757812, 0.005142211914062, 0.009460449218750, 0.007141113281250, 0.005035400390625, 0.003677368164062, 0.007705688476562, -0.005111694335938, 0.004119873046875, -0.005325317382812, 0.005859375000000, -0.000259399414062, -0.003295898437500, -0.007415771484375, 0.010086059570312, 0.005950927734375, -0.000244140625000, -0.004577636718750, -0.001495361328125, 0.007797241210938, -0.008773803710938, 0.006622314453125, 0.022903442382812, -0.007171630859375, 0.014709472656250, -0.000976562500000, 0.002822875976562, -0.015258789062500, 0.000366210937500, -0.001617431640625, 0.009384155273438, 0.003997802734375, -0.001907348632812, -0.006423950195312, 0.008758544921875, -0.001358032226562, -0.001541137695312, 0.000030517578125, 0.003570556640625, 0.015075683593750, 0.004928588867188, 0.004959106445312, -0.001953125000000, -0.004379272460938, 0.011322021484375, 0.009918212890625, -0.003250122070312, -0.000564575195312, -0.011398315429688, 0.013092041015625, 0.003524780273438, 0.013381958007812, -0.002731323242188, 0.007644653320312, 0.004470825195312, 0.010009765625000, -0.000610351562500, 0.005416870117188, -0.006454467773438, 0.007751464843750, 0.010955810546875, -0.013473510742188, -0.003601074218750, -0.002853393554688, -0.004623413085938, 0.002395629882812, 0.007446289062500, -0.006423950195312, -0.004776000976562, -0.002609252929688, -0.007461547851562, -0.002182006835938, 0.007888793945312, 0.008255004882812, 0.003082275390625, 0.003890991210938, -0.007675170898438, -0.005828857421875, -0.004776000976562, -0.000595092773438, -0.000473022460938, 0.003768920898438, 0.002944946289062, 0.003662109375000, -0.000228881835938, -0.002670288085938, -0.007690429687500, 0.001571655273438, -0.006729125976562, 0.001998901367188, -0.000869750976562, 0.006576538085938, -0.002258300781250, -0.000946044921875, 0.007263183593750, 0.005416870117188, 0.002838134765625, 0.007324218750000, 0.005874633789062, -0.000442504882812, -0.005340576171875, 0.004989624023438, 0.000854492187500, 0.009521484375000, -0.002990722656250, -0.001846313476562, 0.000823974609375, 0.000274658203125, 0.010284423828125, -0.000305175781250, 0.004333496093750, -0.004547119140625, 0.006896972656250, 0.006408691406250, 0.007553100585938, 0.002716064453125, 0.003097534179688, 0.001342773437500, 0.005767822265625, -0.001922607421875, 0.002044677734375, 0.006958007812500, -0.003799438476562, -0.003326416015625, 0.003082275390625, -0.002197265625000, 0.002014160156250, 0.000503540039062, 0.005157470703125, 0.001693725585938, 0.004470825195312, -0.004638671875000, 0.002517700195312, 0.000564575195312, 0.007843017578125, 0.001815795898438, 0.002960205078125, 0.004714965820312, 0.000442504882812, 0.004165649414062, 0.008346557617188, -0.008895874023438, 0.008590698242188, -0.001205444335938, -0.003448486328125, 0.004623413085938, 0.006256103515625, 0.003158569335938, 0.004608154296875, 0.003128051757812, 0.006378173828125, 0.001037597656250, 0.001907348632812, -0.002380371093750, 0.001815795898438, -0.001022338867188, -0.012298583984375, -0.000320434570312, 0.000183105468750, 0.003143310546875, 0.002090454101562, 0.002243041992188, 0.004104614257812, 0.001541137695312, -0.001510620117188, -0.007446289062500, -0.001342773437500, -0.000518798828125, -0.001052856445312, -0.003616333007812, 0.006240844726562, 0.000106811523438, 0.007705688476562, 0.004089355468750, 0.008499145507812, 0.002288818359375, -0.005722045898438, 0.008346557617188, 0.002105712890625, 0.011032104492188, 0.008911132812500, -0.000045776367188, -0.006332397460938, 0.006210327148438, 0.000778198242188, -0.005615234375000, 0.007629394531250, 0.011840820312500, 0.002807617187500, 0.008926391601562, 0.006851196289062, 0.003128051757812, -0.010681152343750, -0.000564575195312, 0.006927490234375, -0.004302978515625, -0.001022338867188, -0.003128051757812, -0.007690429687500, -0.001251220703125, 0.002746582031250, -0.008453369140625, -0.006729125976562, 0.000625610351562, 0.007888793945312, -0.015045166015625, 0.000289916992188, -0.008163452148438, -0.011459350585938, 0.004150390625000, -0.008590698242188, 0.001342773437500, 0.003494262695312, -0.000244140625000, 0.015930175781250, -0.007125854492188, -0.001449584960938, 0.005126953125000, 0.022323608398438, -0.018035888671875, -0.009262084960938, -0.012878417968750, 0.004913330078125, 0.044326782226562, -0.000717163085938, -0.012069702148438, -0.002166748046875, -0.004806518554688, 0.014678955078125, 0.009902954101562, -0.008453369140625, 0.008682250976562, 0.018539428710938, 0.009613037109375, 0.002105712890625, 0.021194458007812, -0.011795043945312, -0.000411987304688, 0.004592895507812, 0.002105712890625, 0.008972167968750, -0.007736206054688, -0.005584716796875, -0.004928588867188, -0.015670776367188, -0.004913330078125, -0.012100219726562, 0.008956909179688, 0.017929077148438, -0.007461547851562, 0.029861450195312, 0.009536743164062, -0.011550903320312, 0.008071899414062, 0.006881713867188, -0.014251708984375, -0.020416259765625, -0.016189575195312, -0.010208129882812, -0.006393432617188, 0.002914428710938, -0.006423950195312, 0.012832641601562, -0.000411987304688, 0.003051757812500, -0.009796142578125, -0.009109497070312, -0.014312744140625, 0.005722045898438, 0.005340576171875, 0.013107299804688, 0.005706787109375, -0.016036987304688, -0.003067016601562, -0.019699096679688, 0.021667480468750, 0.006301879882812, 0.016250610351562, -0.009841918945312, -0.013778686523438, 0.012634277343750, 0.011215209960938, -0.008132934570312, 0.012725830078125, -0.008270263671875, -0.000411987304688, -0.014892578125000, 0.003631591796875, 0.009796142578125, 0.000869750976562, 0.011917114257812, -0.003448486328125, -0.006271362304688, -0.003448486328125, 0.005722045898438, -0.004989624023438, -0.011154174804688, -0.002304077148438, -0.010864257812500, -0.011489868164062, 0.010482788085938, 0.004592895507812, -0.012039184570312, -0.011734008789062, 0.002365112304688, 0.016555786132812, -0.010925292968750, 0.009948730468750, -0.006378173828125, -0.010467529296875, -0.019210815429688, -0.004882812500000, -0.018814086914062, -0.013900756835938, 